digraph Tree {
node [shape=box] ;
0 [label="X[11] <= 0.5\nentropy = 3.17\nsamples = 890\nvalue = [100, 100, 100, 100, 100, 100, 96, 99, 95]"] ;
1 [label="X[5] <= 0.5\nentropy = 2.554\nsamples = 493\nvalue = [0, 78, 64, 0, 0, 100, 58, 98, 95]"] ;
0 -> 1 [labeldistance=2.5, labelangle=45, headlabel="True"] ;
2 [label="X[8] <= 0.5\nentropy = 2.245\nsamples = 311\nvalue = [0, 0, 45, 0, 0, 50, 43, 78, 95]"] ;
1 -> 2 ;
3 [label="X[20] <= 0.5\nentropy = 1.908\nsamples = 238\nvalue = [0, 0, 0, 0, 0, 50, 36, 57, 95]"] ;
2 -> 3 ;
4 [label="X[23] <= 0.5\nentropy = 1.508\nsamples = 194\nvalue = [0, 0, 0, 0, 0, 46, 0, 53, 95]"] ;
3 -> 4 ;
5 [label="X[17] <= 0.5\nentropy = 0.729\nsamples = 108\nvalue = [0, 0, 0, 0, 0, 22, 0, 0, 86]"] ;
4 -> 5 ;
6 [label="entropy = 0.0\nsamples = 77\nvalue = [0, 0, 0, 0, 0, 0, 0, 0, 77]"] ;
5 -> 6 ;
7 [label="X[21] <= 0.5\nentropy = 0.869\nsamples = 31\nvalue = [0, 0, 0, 0, 0, 22, 0, 0, 9]"] ;
5 -> 7 ;
8 [label="entropy = 0.985\nsamples = 21\nvalue = [0, 0, 0, 0, 0, 12, 0, 0, 9]"] ;
7 -> 8 ;
9 [label="entropy = 0.0\nsamples = 10\nvalue = [0, 0, 0, 0, 0, 10, 0, 0, 0]"] ;
7 -> 9 ;
10 [label="X[3] <= 0.5\nentropy = 1.285\nsamples = 86\nvalue = [0, 0, 0, 0, 0, 24, 0, 53, 9]"] ;
4 -> 10 ;
11 [label="X[13] <= 0.5\nentropy = 0.778\nsamples = 54\nvalue = [0, 0, 0, 0, 0, 1, 0, 44, 9]"] ;
10 -> 11 ;
12 [label="X[16] <= 0.5\nentropy = 1.175\nsamples = 24\nvalue = [0, 0, 0, 0, 0, 1, 0, 14, 9]"] ;
11 -> 12 ;
13 [label="entropy = 0.0\nsamples = 1\nvalue = [0, 0, 0, 0, 0, 1, 0, 0, 0]"] ;
12 -> 13 ;
14 [label="entropy = 0.966\nsamples = 23\nvalue = [0, 0, 0, 0, 0, 0, 0, 14, 9]"] ;
12 -> 14 ;
15 [label="entropy = 0.0\nsamples = 30\nvalue = [0, 0, 0, 0, 0, 0, 0, 30, 0]"] ;
11 -> 15 ;
16 [label="X[17] <= 0.5\nentropy = 0.857\nsamples = 32\nvalue = [0, 0, 0, 0, 0, 23, 0, 9, 0]"] ;
10 -> 16 ;
17 [label="entropy = 0.0\nsamples = 9\nvalue = [0, 0, 0, 0, 0, 0, 0, 9, 0]"] ;
16 -> 17 ;
18 [label="entropy = 0.0\nsamples = 23\nvalue = [0, 0, 0, 0, 0, 23, 0, 0, 0]"] ;
16 -> 18 ;
19 [label="X[10] <= 0.5\nentropy = 0.866\nsamples = 44\nvalue = [0, 0, 0, 0, 0, 4, 36, 4, 0]"] ;
3 -> 19 ;
20 [label="X[23] <= 0.5\nentropy = 0.811\nsamples = 4\nvalue = [0, 0, 0, 0, 0, 3, 0, 1, 0]"] ;
19 -> 20 ;
21 [label="entropy = 0.0\nsamples = 3\nvalue = [0, 0, 0, 0, 0, 3, 0, 0, 0]"] ;
20 -> 21 ;
22 [label="entropy = 0.0\nsamples = 1\nvalue = [0, 0, 0, 0, 0, 0, 0, 1, 0]"] ;
20 -> 22 ;
23 [label="X[6] <= 0.5\nentropy = 0.55\nsamples = 40\nvalue = [0, 0, 0, 0, 0, 1, 36, 3, 0]"] ;
19 -> 23 ;
24 [label="entropy = 0.0\nsamples = 36\nvalue = [0, 0, 0, 0, 0, 0, 36, 0, 0]"] ;
23 -> 24 ;
25 [label="entropy = 0.811\nsamples = 4\nvalue = [0, 0, 0, 0, 0, 1, 0, 3, 0]"] ;
23 -> 25 ;
26 [label="X[0] <= 0.5\nentropy = 1.272\nsamples = 73\nvalue = [0, 0, 45, 0, 0, 0, 7, 21, 0]"] ;
2 -> 26 ;
27 [label="X[23] <= 0.5\nentropy = 0.624\nsamples = 45\nvalue = [0, 0, 38, 0, 0, 0, 7, 0, 0]"] ;
26 -> 27 ;
28 [label="entropy = 0.918\nsamples = 21\nvalue = [0, 0, 14, 0, 0, 0, 7, 0, 0]"] ;
27 -> 28 ;
29 [label="entropy = 0.0\nsamples = 24\nvalue = [0, 0, 24, 0, 0, 0, 0, 0, 0]"] ;
27 -> 29 ;
30 [label="X[19] <= 0.5\nentropy = 0.811\nsamples = 28\nvalue = [0, 0, 7, 0, 0, 0, 0, 21, 0]"] ;
26 -> 30 ;
31 [label="entropy = 0.0\nsamples = 21\nvalue = [0, 0, 0, 0, 0, 0, 0, 21, 0]"] ;
30 -> 31 ;
32 [label="entropy = 0.0\nsamples = 7\nvalue = [0, 0, 7, 0, 0, 0, 0, 0, 0]"] ;
30 -> 32 ;
33 [label="X[17] <= 0.5\nentropy = 2.023\nsamples = 182\nvalue = [0, 78, 19, 0, 0, 50, 15, 20, 0]"] ;
1 -> 33 ;
34 [label="X[6] <= 0.5\nentropy = 1.785\nsamples = 100\nvalue = [0, 50, 15, 0, 0, 0, 15, 20, 0]"] ;
33 -> 34 ;
35 [label="X[9] <= 0.5\nentropy = 1.405\nsamples = 71\nvalue = [0, 41, 15, 0, 0, 0, 15, 0, 0]"] ;
34 -> 35 ;
36 [label="X[23] <= 0.5\nentropy = 0.985\nsamples = 35\nvalue = [0, 20, 0, 0, 0, 0, 15, 0, 0]"] ;
35 -> 36 ;
37 [label="entropy = 0.0\nsamples = 20\nvalue = [0, 20, 0, 0, 0, 0, 0, 0, 0]"] ;
36 -> 37 ;
38 [label="entropy = 0.0\nsamples = 15\nvalue = [0, 0, 0, 0, 0, 0, 15, 0, 0]"] ;
36 -> 38 ;
39 [label="entropy = 0.98\nsamples = 36\nvalue = [0, 21, 15, 0, 0, 0, 0, 0, 0]"] ;
35 -> 39 ;
40 [label="entropy = 0.894\nsamples = 29\nvalue = [0, 9, 0, 0, 0, 0, 0, 20, 0]"] ;
34 -> 40 ;
41 [label="X[20] <= 0.5\nentropy = 1.177\nsamples = 82\nvalue = [0, 28, 4, 0, 0, 50, 0, 0, 0]"] ;
33 -> 41 ;
42 [label="X[8] <= 0.5\nentropy = 0.957\nsamples = 37\nvalue = [0, 23, 0, 0, 0, 14, 0, 0, 0]"] ;
41 -> 42 ;
43 [label="entropy = 0.0\nsamples = 14\nvalue = [0, 0, 0, 0, 0, 14, 0, 0, 0]"] ;
42 -> 43 ;
44 [label="entropy = 0.0\nsamples = 23\nvalue = [0, 23, 0, 0, 0, 0, 0, 0, 0]"] ;
42 -> 44 ;
45 [label="X[9] <= 0.5\nentropy = 0.92\nsamples = 45\nvalue = [0, 5, 4, 0, 0, 36, 0, 0, 0]"] ;
41 -> 45 ;
46 [label="entropy = 0.623\nsamples = 41\nvalue = [0, 1, 4, 0, 0, 36, 0, 0, 0]"] ;
45 -> 46 ;
47 [label="entropy = 0.0\nsamples = 4\nvalue = [0, 4, 0, 0, 0, 0, 0, 0, 0]"] ;
45 -> 47 ;
48 [label="X[2] <= 0.5\nentropy = 2.394\nsamples = 397\nvalue = [100, 22, 36, 100, 100, 0, 38, 1, 0]"] ;
0 -> 48 [labeldistance=2.5, labelangle=-45, headlabel="False"] ;
49 [label="X[14] <= 0.5\nentropy = 2.153\nsamples = 241\nvalue = [0, 22, 36, 100, 44, 0, 38, 1, 0]"] ;
48 -> 49 ;
50 [label="X[7] <= 0.5\nentropy = 1.794\nsamples = 197\nvalue = [0, 22, 36, 100, 0, 0, 38, 1, 0]"] ;
49 -> 50 ;
51 [label="X[13] <= 0.5\nentropy = 1.369\nsamples = 160\nvalue = [0, 0, 36, 99, 0, 0, 24, 1, 0]"] ;
50 -> 51 ;
52 [label="X[20] <= 0.5\nentropy = 0.694\nsamples = 93\nvalue = [0, 0, 14, 78, 0, 0, 1, 0, 0]"] ;
51 -> 52 ;
53 [label="entropy = 0.0\nsamples = 37\nvalue = [0, 0, 0, 37, 0, 0, 0, 0, 0]"] ;
52 -> 53 ;
54 [label="entropy = 0.933\nsamples = 56\nvalue = [0, 0, 14, 41, 0, 0, 1, 0, 0]"] ;
52 -> 54 ;
55 [label="X[8] <= 0.5\nentropy = 1.672\nsamples = 67\nvalue = [0, 0, 22, 21, 0, 0, 23, 1, 0]"] ;
51 -> 55 ;
56 [label="X[19] <= 0.5\nentropy = 0.267\nsamples = 22\nvalue = [0, 0, 0, 21, 0, 0, 0, 1, 0]"] ;
55 -> 56 ;
57 [label="entropy = 0.0\nsamples = 21\nvalue = [0, 0, 0, 21, 0, 0, 0, 0, 0]"] ;
56 -> 57 ;
58 [label="entropy = 0.0\nsamples = 1\nvalue = [0, 0, 0, 0, 0, 0, 0, 1, 0]"] ;
56 -> 58 ;
59 [label="X[20] <= 0.5\nentropy = 1.0\nsamples = 45\nvalue = [0, 0, 22, 0, 0, 0, 23, 0, 0]"] ;
55 -> 59 ;
60 [label="entropy = 0.0\nsamples = 1\nvalue = [0, 0, 1, 0, 0, 0, 0, 0, 0]"] ;
59 -> 60 ;
61 [label="entropy = 0.999\nsamples = 44\nvalue = [0, 0, 21, 0, 0, 0, 23, 0, 0]"] ;
59 -> 61 ;
62 [label="X[1] <= 0.5\nentropy = 1.117\nsamples = 37\nvalue = [0, 22, 0, 1, 0, 0, 14, 0, 0]"] ;
50 -> 62 ;
63 [label="entropy = 0.0\nsamples = 14\nvalue = [0, 0, 0, 0, 0, 0, 14, 0, 0]"] ;
62 -> 63 ;
64 [label="X[3] <= 0.5\nentropy = 0.258\nsamples = 23\nvalue = [0, 22, 0, 1, 0, 0, 0, 0, 0]"] ;
62 -> 64 ;
65 [label="entropy = 0.0\nsamples = 22\nvalue = [0, 22, 0, 0, 0, 0, 0, 0, 0]"] ;
64 -> 65 ;
66 [label="entropy = 0.0\nsamples = 1\nvalue = [0, 0, 0, 1, 0, 0, 0, 0, 0]"] ;
64 -> 66 ;
67 [label="entropy = 0.0\nsamples = 44\nvalue = [0, 0, 0, 0, 44, 0, 0, 0, 0]"] ;
49 -> 67 ;
68 [label="X[13] <= 0.5\nentropy = 0.942\nsamples = 156\nvalue = [100, 0, 0, 0, 56, 0, 0, 0, 0]"] ;
48 -> 68 ;
69 [label="entropy = 0.99\nsamples = 100\nvalue = [44, 0, 0, 0, 56, 0, 0, 0, 0]"] ;
68 -> 69 ;
70 [label="entropy = 0.0\nsamples = 56\nvalue = [56, 0, 0, 0, 0, 0, 0, 0, 0]"] ;
68 -> 70 ;
}