digraph Tree {
node [shape=box] ;
0 [label="X[2] <= 0.5\nentropy = 3.169\nsamples = 8665\nvalue = [994, 946, 954, 986, 1000, 982, 952, 955, 896]"] ;
1 [label="X[11] <= 0.5\nentropy = 2.929\nsamples = 6596\nvalue = [0, 884, 889, 950, 237, 962, 904, 924, 846]"] ;
0 -> 1 [labeldistance=2.5, labelangle=45, headlabel="True"] ;
2 [label="X[17] <= 0.5\nentropy = 2.593\nsamples = 3813\nvalue = [0, 545, 479, 0, 27, 820, 486, 656, 800]"] ;
1 -> 2 ;
3 [label="X[23] <= 0.5\nentropy = 2.296\nsamples = 2430\nvalue = [0, 445, 361, 0, 12, 0, 357, 504, 751]"] ;
2 -> 3 ;
4 [label="X[8] <= 0.5\nentropy = 1.698\nsamples = 1297\nvalue = [0, 140, 215, 0, 8, 0, 197, 0, 737]"] ;
3 -> 4 ;
5 [label="X[5] <= 0.5\nentropy = 1.064\nsamples = 953\nvalue = [0, 120, 0, 0, 8, 0, 96, 0, 729]"] ;
4 -> 5 ;
6 [label="X[20] <= 0.5\nentropy = 0.561\nsamples = 828\nvalue = [0, 0, 0, 0, 4, 0, 96, 0, 728]"] ;
5 -> 6 ;
7 [label="X[24] <= 0.5\nentropy = 0.049\nsamples = 729\nvalue = [0, 0, 0, 0, 4, 0, 0, 0, 725]"] ;
6 -> 7 ;
8 [label="entropy = 0.0\nsamples = 725\nvalue = [0, 0, 0, 0, 0, 0, 0, 0, 725]"] ;
7 -> 8 ;
9 [label="entropy = 0.0\nsamples = 4\nvalue = [0, 0, 0, 0, 4, 0, 0, 0, 0]"] ;
7 -> 9 ;
10 [label="X[10] <= 0.5\nentropy = 0.196\nsamples = 99\nvalue = [0, 0, 0, 0, 0, 0, 96, 0, 3]"] ;
6 -> 10 ;
11 [label="X[6] <= 0.5\nentropy = 0.811\nsamples = 4\nvalue = [0, 0, 0, 0, 0, 0, 1, 0, 3]"] ;
10 -> 11 ;
12 [label="entropy = 0.0\nsamples = 3\nvalue = [0, 0, 0, 0, 0, 0, 0, 0, 3]"] ;
11 -> 12 ;
13 [label="entropy = 0.0\nsamples = 1\nvalue = [0, 0, 0, 0, 0, 0, 1, 0, 0]"] ;
11 -> 13 ;
14 [label="entropy = 0.0\nsamples = 95\nvalue = [0, 0, 0, 0, 0, 0, 95, 0, 0]"] ;
10 -> 14 ;
15 [label="X[13] <= 0.5\nentropy = 0.271\nsamples = 125\nvalue = [0, 120, 0, 0, 4, 0, 0, 0, 1]"] ;
5 -> 15 ;
16 [label="X[26] <= 0.5\nentropy = 1.392\nsamples = 9\nvalue = [0, 4, 0, 0, 4, 0, 0, 0, 1]"] ;
15 -> 16 ;
17 [label="X[18] <= 0.5\nentropy = 1.0\nsamples = 8\nvalue = [0, 4, 0, 0, 4, 0, 0, 0, 0]"] ;
16 -> 17 ;
18 [label="entropy = 0.0\nsamples = 2\nvalue = [0, 2, 0, 0, 0, 0, 0, 0, 0]"] ;
17 -> 18 ;
19 [label="entropy = 0.918\nsamples = 6\nvalue = [0, 2, 0, 0, 4, 0, 0, 0, 0]"] ;
17 -> 19 ;
20 [label="entropy = 0.0\nsamples = 1\nvalue = [0, 0, 0, 0, 0, 0, 0, 0, 1]"] ;
16 -> 20 ;
21 [label="entropy = 0.0\nsamples = 116\nvalue = [0, 116, 0, 0, 0, 0, 0, 0, 0]"] ;
15 -> 21 ;
22 [label="X[3] <= 0.5\nentropy = 1.308\nsamples = 344\nvalue = [0, 20, 215, 0, 0, 0, 101, 0, 8]"] ;
4 -> 22 ;
23 [label="X[22] <= 0.5\nentropy = 0.562\nsamples = 152\nvalue = [0, 20, 132, 0, 0, 0, 0, 0, 0]"] ;
22 -> 23 ;
24 [label="entropy = 0.0\nsamples = 129\nvalue = [0, 0, 129, 0, 0, 0, 0, 0, 0]"] ;
23 -> 24 ;
25 [label="X[16] <= 0.5\nentropy = 0.559\nsamples = 23\nvalue = [0, 20, 3, 0, 0, 0, 0, 0, 0]"] ;
23 -> 25 ;
26 [label="entropy = 0.0\nsamples = 18\nvalue = [0, 18, 0, 0, 0, 0, 0, 0, 0]"] ;
25 -> 26 ;
27 [label="X[25] <= 0.5\nentropy = 0.971\nsamples = 5\nvalue = [0, 2, 3, 0, 0, 0, 0, 0, 0]"] ;
25 -> 27 ;
28 [label="entropy = 1.0\nsamples = 4\nvalue = [0, 2, 2, 0, 0, 0, 0, 0, 0]"] ;
27 -> 28 ;
29 [label="entropy = 0.0\nsamples = 1\nvalue = [0, 0, 1, 0, 0, 0, 0, 0, 0]"] ;
27 -> 29 ;
30 [label="X[19] <= 0.5\nentropy = 1.202\nsamples = 192\nvalue = [0, 0, 83, 0, 0, 0, 101, 0, 8]"] ;
22 -> 30 ;
31 [label="X[12] <= 0.5\nentropy = 0.993\nsamples = 184\nvalue = [0, 0, 83, 0, 0, 0, 101, 0, 0]"] ;
30 -> 31 ;
32 [label="entropy = 0.0\nsamples = 2\nvalue = [0, 0, 2, 0, 0, 0, 0, 0, 0]"] ;
31 -> 32 ;
33 [label="entropy = 0.991\nsamples = 182\nvalue = [0, 0, 81, 0, 0, 0, 101, 0, 0]"] ;
31 -> 33 ;
34 [label="entropy = 0.0\nsamples = 8\nvalue = [0, 0, 0, 0, 0, 0, 0, 0, 8]"] ;
30 -> 34 ;
35 [label="X[5] <= 0.5\nentropy = 1.916\nsamples = 1133\nvalue = [0, 305, 146, 0, 4, 0, 160, 504, 14]"] ;
3 -> 35 ;
36 [label="X[13] <= 0.5\nentropy = 0.517\nsamples = 400\nvalue = [0, 0, 2, 0, 1, 0, 16, 368, 13]"] ;
35 -> 36 ;
37 [label="X[19] <= 0.5\nentropy = 1.666\nsamples = 67\nvalue = [0, 0, 2, 0, 1, 0, 15, 36, 13]"] ;
36 -> 37 ;
38 [label="X[26] <= 0.5\nentropy = 1.457\nsamples = 28\nvalue = [0, 0, 2, 0, 1, 0, 15, 10, 0]"] ;
37 -> 38 ;
39 [label="X[1] <= 0.5\nentropy = 1.5\nsamples = 4\nvalue = [0, 0, 2, 0, 1, 0, 0, 1, 0]"] ;
38 -> 39 ;
40 [label="entropy = 1.0\nsamples = 2\nvalue = [0, 0, 0, 0, 1, 0, 0, 1, 0]"] ;
39 -> 40 ;
41 [label="entropy = 0.0\nsamples = 2\nvalue = [0, 0, 2, 0, 0, 0, 0, 0, 0]"] ;
39 -> 41 ;
42 [label="X[4] <= 0.5\nentropy = 0.954\nsamples = 24\nvalue = [0, 0, 0, 0, 0, 0, 15, 9, 0]"] ;
38 -> 42 ;
43 [label="X[9] <= 0.5\nentropy = 0.989\nsamples = 16\nvalue = [0, 0, 0, 0, 0, 0, 7, 9, 0]"] ;
42 -> 43 ;
44 [label="entropy = 0.0\nsamples = 7\nvalue = [0, 0, 0, 0, 0, 0, 7, 0, 0]"] ;
43 -> 44 ;
45 [label="entropy = 0.0\nsamples = 9\nvalue = [0, 0, 0, 0, 0, 0, 0, 9, 0]"] ;
43 -> 45 ;
46 [label="entropy = 0.0\nsamples = 8\nvalue = [0, 0, 0, 0, 0, 0, 8, 0, 0]"] ;
42 -> 46 ;
47 [label="X[6] <= 0.5\nentropy = 0.918\nsamples = 39\nvalue = [0, 0, 0, 0, 0, 0, 0, 26, 13]"] ;
37 -> 47 ;
48 [label="entropy = 0.0\nsamples = 7\nvalue = [0, 0, 0, 0, 0, 0, 0, 7, 0]"] ;
47 -> 48 ;
49 [label="X[26] <= 0.5\nentropy = 0.974\nsamples = 32\nvalue = [0, 0, 0, 0, 0, 0, 0, 19, 13]"] ;
47 -> 49 ;
50 [label="entropy = 0.0\nsamples = 4\nvalue = [0, 0, 0, 0, 0, 0, 0, 4, 0]"] ;
49 -> 50 ;
51 [label="entropy = 0.996\nsamples = 28\nvalue = [0, 0, 0, 0, 0, 0, 0, 15, 13]"] ;
49 -> 51 ;
52 [label="X[25] <= 0.5\nentropy = 0.029\nsamples = 333\nvalue = [0, 0, 0, 0, 0, 0, 1, 332, 0]"] ;
36 -> 52 ;
53 [label="entropy = 0.0\nsamples = 319\nvalue = [0, 0, 0, 0, 0, 0, 0, 319, 0]"] ;
52 -> 53 ;
54 [label="X[20] <= 0.5\nentropy = 0.371\nsamples = 14\nvalue = [0, 0, 0, 0, 0, 0, 1, 13, 0]"] ;
52 -> 54 ;
55 [label="entropy = 0.0\nsamples = 13\nvalue = [0, 0, 0, 0, 0, 0, 0, 13, 0]"] ;
54 -> 55 ;
56 [label="entropy = 0.0\nsamples = 1\nvalue = [0, 0, 0, 0, 0, 0, 1, 0, 0]"] ;
54 -> 56 ;
57 [label="X[13] <= 0.5\nentropy = 1.945\nsamples = 733\nvalue = [0, 305, 144, 0, 3, 0, 144, 136, 1]"] ;
35 -> 57 ;
58 [label="X[19] <= 0.5\nentropy = 1.691\nsamples = 585\nvalue = [0, 303, 120, 0, 3, 0, 24, 134, 1]"] ;
57 -> 58 ;
59 [label="X[8] <= 0.5\nentropy = 1.436\nsamples = 342\nvalue = [0, 188, 120, 0, 0, 0, 24, 9, 1]"] ;
58 -> 59 ;
60 [label="entropy = 0.0\nsamples = 24\nvalue = [0, 24, 0, 0, 0, 0, 0, 0, 0]"] ;
59 -> 60 ;
61 [label="X[15] <= 0.5\nentropy = 1.476\nsamples = 318\nvalue = [0, 164, 120, 0, 0, 0, 24, 9, 1]"] ;
59 -> 61 ;
62 [label="entropy = 1.438\nsamples = 313\nvalue = [0, 164, 120, 0, 0, 0, 19, 9, 1]"] ;
61 -> 62 ;
63 [label="entropy = 0.0\nsamples = 5\nvalue = [0, 0, 0, 0, 0, 0, 5, 0, 0]"] ;
61 -> 63 ;
64 [label="X[26] <= 0.5\nentropy = 1.082\nsamples = 243\nvalue = [0, 115, 0, 0, 3, 0, 0, 125, 0]"] ;
58 -> 64 ;
65 [label="X[0] <= 0.5\nentropy = 1.199\nsamples = 16\nvalue = [0, 2, 0, 0, 3, 0, 0, 11, 0]"] ;
64 -> 65 ;
66 [label="entropy = 1.435\nsamples = 11\nvalue = [0, 2, 0, 0, 3, 0, 0, 6, 0]"] ;
65 -> 66 ;
67 [label="entropy = 0.0\nsamples = 5\nvalue = [0, 0, 0, 0, 0, 0, 0, 5, 0]"] ;
65 -> 67 ;
68 [label="X[8] <= 0.5\nentropy = 1.0\nsamples = 227\nvalue = [0, 113, 0, 0, 0, 0, 0, 114, 0]"] ;
64 -> 68 ;
69 [label="entropy = 1.0\nsamples = 210\nvalue = [0, 105, 0, 0, 0, 0, 0, 105, 0]"] ;
68 -> 69 ;
70 [label="entropy = 0.998\nsamples = 17\nvalue = [0, 8, 0, 0, 0, 0, 0, 9, 0]"] ;
68 -> 70 ;
71 [label="X[20] <= 0.5\nentropy = 0.839\nsamples = 148\nvalue = [0, 2, 24, 0, 0, 0, 120, 2, 0]"] ;
57 -> 71 ;
72 [label="X[25] <= 0.5\nentropy = 0.605\nsamples = 27\nvalue = [0, 1, 24, 0, 0, 0, 0, 2, 0]"] ;
71 -> 72 ;
73 [label="entropy = 0.0\nsamples = 24\nvalue = [0, 0, 24, 0, 0, 0, 0, 0, 0]"] ;
72 -> 73 ;
74 [label="entropy = 0.918\nsamples = 3\nvalue = [0, 1, 0, 0, 0, 0, 0, 2, 0]"] ;
72 -> 74 ;
75 [label="X[8] <= 0.5\nentropy = 0.069\nsamples = 121\nvalue = [0, 1, 0, 0, 0, 0, 120, 0, 0]"] ;
71 -> 75 ;
76 [label="entropy = 0.0\nsamples = 120\nvalue = [0, 0, 0, 0, 0, 0, 120, 0, 0]"] ;
75 -> 76 ;
77 [label="entropy = 0.0\nsamples = 1\nvalue = [0, 1, 0, 0, 0, 0, 0, 0, 0]"] ;
75 -> 77 ;
78 [label="X[1] <= 0.5\nentropy = 1.935\nsamples = 1383\nvalue = [0, 100, 118, 0, 15, 820, 129, 152, 49]"] ;
2 -> 78 ;
79 [label="X[10] <= 0.5\nentropy = 1.399\nsamples = 967\nvalue = [0, 43, 60, 0, 14, 686, 13, 150, 1]"] ;
78 -> 79 ;
80 [label="X[25] <= 0.5\nentropy = 1.524\nsamples = 178\nvalue = [0, 0, 32, 0, 2, 51, 0, 93, 0]"] ;
79 -> 80 ;
81 [label="X[4] <= 0.5\nentropy = 0.932\nsamples = 125\nvalue = [0, 0, 32, 0, 2, 0, 0, 91, 0]"] ;
80 -> 81 ;
82 [label="X[22] <= 0.5\nentropy = 0.337\nsamples = 32\nvalue = [0, 0, 30, 0, 2, 0, 0, 0, 0]"] ;
81 -> 82 ;
83 [label="entropy = 0.0\nsamples = 30\nvalue = [0, 0, 30, 0, 0, 0, 0, 0, 0]"] ;
82 -> 83 ;
84 [label="entropy = 0.0\nsamples = 2\nvalue = [0, 0, 0, 0, 2, 0, 0, 0, 0]"] ;
82 -> 84 ;
85 [label="X[6] <= 0.5\nentropy = 0.15\nsamples = 93\nvalue = [0, 0, 2, 0, 0, 0, 0, 91, 0]"] ;
81 -> 85 ;
86 [label="entropy = 0.811\nsamples = 8\nvalue = [0, 0, 2, 0, 0, 0, 0, 6, 0]"] ;
85 -> 86 ;
87 [label="entropy = 0.0\nsamples = 85\nvalue = [0, 0, 0, 0, 0, 0, 0, 85, 0]"] ;
85 -> 87 ;
88 [label="X[23] <= 0.5\nentropy = 0.232\nsamples = 53\nvalue = [0, 0, 0, 0, 0, 51, 0, 2, 0]"] ;
80 -> 88 ;
89 [label="entropy = 0.0\nsamples = 42\nvalue = [0, 0, 0, 0, 0, 42, 0, 0, 0]"] ;
88 -> 89 ;
90 [label="X[13] <= 0.5\nentropy = 0.684\nsamples = 11\nvalue = [0, 0, 0, 0, 0, 9, 0, 2, 0]"] ;
88 -> 90 ;
91 [label="entropy = 0.0\nsamples = 9\nvalue = [0, 0, 0, 0, 0, 9, 0, 0, 0]"] ;
90 -> 91 ;
92 [label="entropy = 0.0\nsamples = 2\nvalue = [0, 0, 0, 0, 0, 0, 0, 2, 0]"] ;
90 -> 92 ;
93 [label="X[14] <= 0.5\nentropy = 1.127\nsamples = 789\nvalue = [0, 43, 28, 0, 12, 635, 13, 57, 1]"] ;
79 -> 93 ;
94 [label="X[18] <= 0.5\nentropy = 1.009\nsamples = 760\nvalue = [0, 43, 22, 0, 0, 624, 13, 57, 1]"] ;
93 -> 94 ;
95 [label="X[5] <= 0.5\nentropy = 0.816\nsamples = 531\nvalue = [0, 18, 20, 0, 0, 463, 13, 16, 1]"] ;
94 -> 95 ;
96 [label="X[21] <= 0.5\nentropy = 0.875\nsamples = 180\nvalue = [0, 0, 1, 0, 0, 150, 13, 15, 1]"] ;
95 -> 96 ;
97 [label="X[6] <= 0.5\nentropy = 1.806\nsamples = 47\nvalue = [0, 0, 1, 0, 0, 17, 13, 15, 1]"] ;
96 -> 97 ;
98 [label="X[12] <= 0.5\nentropy = 1.389\nsamples = 23\nvalue = [0, 0, 1, 0, 0, 8, 13, 0, 1]"] ;
97 -> 98 ;
99 [label="entropy = 0.991\nsamples = 18\nvalue = [0, 0, 0, 0, 0, 8, 10, 0, 0]"] ;
98 -> 99 ;
100 [label="X[26] <= 0.5\nentropy = 1.371\nsamples = 5\nvalue = [0, 0, 1, 0, 0, 0, 3, 0, 1]"] ;
98 -> 100 ;
101 [label="entropy = 0.811\nsamples = 4\nvalue = [0, 0, 1, 0, 0, 0, 3, 0, 0]"] ;
100 -> 101 ;
102 [label="entropy = 0.0\nsamples = 1\nvalue = [0, 0, 0, 0, 0, 0, 0, 0, 1]"] ;
100 -> 102 ;
103 [label="X[13] <= 0.5\nentropy = 0.954\nsamples = 24\nvalue = [0, 0, 0, 0, 0, 9, 0, 15, 0]"] ;
97 -> 103 ;
104 [label="entropy = 0.0\nsamples = 5\nvalue = [0, 0, 0, 0, 0, 0, 0, 5, 0]"] ;
103 -> 104 ;
105 [label="entropy = 0.998\nsamples = 19\nvalue = [0, 0, 0, 0, 0, 9, 0, 10, 0]"] ;
103 -> 105 ;
106 [label="entropy = 0.0\nsamples = 133\nvalue = [0, 0, 0, 0, 0, 133, 0, 0, 0]"] ;
96 -> 106 ;
107 [label="X[7] <= 0.5\nentropy = 0.619\nsamples = 351\nvalue = [0, 18, 19, 0, 0, 313, 0, 1, 0]"] ;
95 -> 107 ;
108 [label="entropy = 0.593\nsamples = 350\nvalue = [0, 18, 19, 0, 0, 313, 0, 0, 0]"] ;
107 -> 108 ;
109 [label="entropy = 0.0\nsamples = 1\nvalue = [0, 0, 0, 0, 0, 0, 0, 1, 0]"] ;
107 -> 109 ;
110 [label="X[7] <= 0.5\nentropy = 1.21\nsamples = 229\nvalue = [0, 25, 2, 0, 0, 161, 0, 41, 0]"] ;
94 -> 110 ;
111 [label="X[23] <= 0.5\nentropy = 1.649\nsamples = 90\nvalue = [0, 25, 2, 0, 0, 22, 0, 41, 0]"] ;
110 -> 111 ;
112 [label="entropy = 0.0\nsamples = 6\nvalue = [0, 6, 0, 0, 0, 0, 0, 0, 0]"] ;
111 -> 112 ;
113 [label="X[5] <= 0.5\nentropy = 1.625\nsamples = 84\nvalue = [0, 19, 2, 0, 0, 22, 0, 41, 0]"] ;
111 -> 113 ;
114 [label="X[8] <= 0.5\nentropy = 0.991\nsamples = 9\nvalue = [0, 0, 0, 0, 0, 5, 0, 4, 0]"] ;
113 -> 114 ;
115 [label="entropy = 0.918\nsamples = 6\nvalue = [0, 0, 0, 0, 0, 4, 0, 2, 0]"] ;
114 -> 115 ;
116 [label="entropy = 0.918\nsamples = 3\nvalue = [0, 0, 0, 0, 0, 1, 0, 2, 0]"] ;
114 -> 116 ;
117 [label="X[25] <= 0.5\nentropy = 1.63\nsamples = 75\nvalue = [0, 19, 2, 0, 0, 17, 0, 37, 0]"] ;
113 -> 117 ;
118 [label="entropy = 1.618\nsamples = 73\nvalue = [0, 17, 2, 0, 0, 17, 0, 37, 0]"] ;
117 -> 118 ;
119 [label="entropy = 0.0\nsamples = 2\nvalue = [0, 2, 0, 0, 0, 0, 0, 0, 0]"] ;
117 -> 119 ;
120 [label="entropy = 0.0\nsamples = 139\nvalue = [0, 0, 0, 0, 0, 139, 0, 0, 0]"] ;
110 -> 120 ;
121 [label="X[4] <= 0.5\nentropy = 1.528\nsamples = 29\nvalue = [0, 0, 6, 0, 12, 11, 0, 0, 0]"] ;
93 -> 121 ;
122 [label="X[7] <= 0.5\nentropy = 0.937\nsamples = 17\nvalue = [0, 0, 6, 0, 0, 11, 0, 0, 0]"] ;
121 -> 122 ;
123 [label="entropy = 0.0\nsamples = 6\nvalue = [0, 0, 6, 0, 0, 0, 0, 0, 0]"] ;
122 -> 123 ;
124 [label="entropy = 0.0\nsamples = 11\nvalue = [0, 0, 0, 0, 0, 11, 0, 0, 0]"] ;
122 -> 124 ;
125 [label="entropy = 0.0\nsamples = 12\nvalue = [0, 0, 0, 0, 12, 0, 0, 0, 0]"] ;
121 -> 125 ;
126 [label="X[22] <= 0.5\nentropy = 2.247\nsamples = 416\nvalue = [0, 57, 58, 0, 1, 134, 116, 2, 48]"] ;
78 -> 126 ;
127 [label="X[7] <= 0.5\nentropy = 2.015\nsamples = 261\nvalue = [0, 56, 52, 0, 1, 28, 116, 2, 6]"] ;
126 -> 127 ;
128 [label="X[10] <= 0.5\nentropy = 1.72\nsamples = 140\nvalue = [0, 0, 52, 0, 0, 28, 54, 0, 6]"] ;
127 -> 128 ;
129 [label="X[6] <= 0.5\nentropy = 0.973\nsamples = 67\nvalue = [0, 0, 52, 0, 0, 10, 0, 0, 5]"] ;
128 -> 129 ;
130 [label="X[3] <= 0.5\nentropy = 0.371\nsamples = 56\nvalue = [0, 0, 52, 0, 0, 0, 0, 0, 4]"] ;
129 -> 130 ;
131 [label="entropy = 0.0\nsamples = 42\nvalue = [0, 0, 42, 0, 0, 0, 0, 0, 0]"] ;
130 -> 131 ;
132 [label="X[24] <= 0.5\nentropy = 0.863\nsamples = 14\nvalue = [0, 0, 10, 0, 0, 0, 0, 0, 4]"] ;
130 -> 132 ;
133 [label="entropy = 0.0\nsamples = 4\nvalue = [0, 0, 0, 0, 0, 0, 0, 0, 4]"] ;
132 -> 133 ;
134 [label="entropy = 0.0\nsamples = 10\nvalue = [0, 0, 10, 0, 0, 0, 0, 0, 0]"] ;
132 -> 134 ;
135 [label="X[20] <= 0.5\nentropy = 0.439\nsamples = 11\nvalue = [0, 0, 0, 0, 0, 10, 0, 0, 1]"] ;
129 -> 135 ;
136 [label="entropy = 0.0\nsamples = 10\nvalue = [0, 0, 0, 0, 0, 10, 0, 0, 0]"] ;
135 -> 136 ;
137 [label="entropy = 0.0\nsamples = 1\nvalue = [0, 0, 0, 0, 0, 0, 0, 0, 1]"] ;
135 -> 137 ;
138 [label="X[6] <= 0.5\nentropy = 0.905\nsamples = 73\nvalue = [0, 0, 0, 0, 0, 18, 54, 0, 1]"] ;
128 -> 138 ;
139 [label="entropy = 0.0\nsamples = 40\nvalue = [0, 0, 0, 0, 0, 0, 40, 0, 0]"] ;
138 -> 139 ;
140 [label="X[20] <= 0.5\nentropy = 1.155\nsamples = 33\nvalue = [0, 0, 0, 0, 0, 18, 14, 0, 1]"] ;
138 -> 140 ;
141 [label="entropy = 1.0\nsamples = 2\nvalue = [0, 0, 0, 0, 0, 1, 0, 0, 1]"] ;
140 -> 141 ;
142 [label="X[24] <= 0.5\nentropy = 0.993\nsamples = 31\nvalue = [0, 0, 0, 0, 0, 17, 14, 0, 0]"] ;
140 -> 142 ;
143 [label="entropy = 0.0\nsamples = 2\nvalue = [0, 0, 0, 0, 0, 0, 2, 0, 0]"] ;
142 -> 143 ;
144 [label="X[23] <= 0.5\nentropy = 0.978\nsamples = 29\nvalue = [0, 0, 0, 0, 0, 17, 12, 0, 0]"] ;
142 -> 144 ;
145 [label="entropy = 0.985\nsamples = 7\nvalue = [0, 0, 0, 0, 0, 4, 3, 0, 0]"] ;
144 -> 145 ;
146 [label="entropy = 0.976\nsamples = 22\nvalue = [0, 0, 0, 0, 0, 13, 9, 0, 0]"] ;
144 -> 146 ;
147 [label="X[3] <= 0.5\nentropy = 1.164\nsamples = 121\nvalue = [0, 56, 0, 0, 1, 0, 62, 2, 0]"] ;
127 -> 147 ;
148 [label="X[21] <= 0.5\nentropy = 0.127\nsamples = 57\nvalue = [0, 56, 0, 0, 1, 0, 0, 0, 0]"] ;
147 -> 148 ;
149 [label="entropy = 0.0\nsamples = 55\nvalue = [0, 55, 0, 0, 0, 0, 0, 0, 0]"] ;
148 -> 149 ;
150 [label="entropy = 1.0\nsamples = 2\nvalue = [0, 1, 0, 0, 1, 0, 0, 0, 0]"] ;
148 -> 150 ;
151 [label="X[18] <= 0.5\nentropy = 0.201\nsamples = 64\nvalue = [0, 0, 0, 0, 0, 0, 62, 2, 0]"] ;
147 -> 151 ;
152 [label="entropy = 0.0\nsamples = 62\nvalue = [0, 0, 0, 0, 0, 0, 62, 0, 0]"] ;
151 -> 152 ;
153 [label="entropy = 0.0\nsamples = 2\nvalue = [0, 0, 0, 0, 0, 0, 0, 2, 0]"] ;
151 -> 153 ;
154 [label="X[9] <= 0.5\nentropy = 1.114\nsamples = 155\nvalue = [0, 1, 6, 0, 0, 106, 0, 0, 42]"] ;
126 -> 154 ;
155 [label="X[7] <= 0.5\nentropy = 1.272\nsamples = 96\nvalue = [0, 0, 6, 0, 0, 48, 0, 0, 42]"] ;
154 -> 155 ;
156 [label="entropy = 0.0\nsamples = 6\nvalue = [0, 0, 6, 0, 0, 0, 0, 0, 0]"] ;
155 -> 156 ;
157 [label="X[24] <= 0.5\nentropy = 0.997\nsamples = 90\nvalue = [0, 0, 0, 0, 0, 48, 0, 0, 42]"] ;
155 -> 157 ;
158 [label="entropy = 1.0\nsamples = 85\nvalue = [0, 0, 0, 0, 0, 43, 0, 0, 42]"] ;
157 -> 158 ;
159 [label="entropy = 0.0\nsamples = 5\nvalue = [0, 0, 0, 0, 0, 5, 0, 0, 0]"] ;
157 -> 159 ;
160 [label="X[6] <= 0.5\nentropy = 0.124\nsamples = 59\nvalue = [0, 1, 0, 0, 0, 58, 0, 0, 0]"] ;
154 -> 160 ;
161 [label="entropy = 0.0\nsamples = 58\nvalue = [0, 0, 0, 0, 0, 58, 0, 0, 0]"] ;
160 -> 161 ;
162 [label="entropy = 0.0\nsamples = 1\nvalue = [0, 1, 0, 0, 0, 0, 0, 0, 0]"] ;
160 -> 162 ;
163 [label="X[12] <= 0.5\nentropy = 2.64\nsamples = 2783\nvalue = [0, 339, 410, 950, 210, 142, 418, 268, 46]"] ;
1 -> 163 ;
164 [label="X[4] <= 0.5\nentropy = 2.574\nsamples = 1311\nvalue = [0, 18, 313, 253, 210, 14, 211, 247, 45]"] ;
163 -> 164 ;
165 [label="X[0] <= 0.5\nentropy = 2.231\nsamples = 809\nvalue = [0, 18, 266, 70, 209, 2, 197, 2, 45]"] ;
164 -> 165 ;
166 [label="X[24] <= 0.5\nentropy = 1.767\nsamples = 316\nvalue = [0, 11, 14, 35, 199, 2, 8, 2, 45]"] ;
165 -> 166 ;
167 [label="X[13] <= 0.5\nentropy = 1.038\nsamples = 252\nvalue = [0, 0, 6, 1, 194, 0, 5, 1, 45]"] ;
166 -> 167 ;
168 [label="X[8] <= 0.5\nentropy = 0.683\nsamples = 218\nvalue = [0, 0, 6, 0, 194, 0, 5, 1, 12]"] ;
167 -> 168 ;
169 [label="entropy = 1.735\nsamples = 17\nvalue = [0, 0, 0, 0, 8, 0, 4, 1, 4]"] ;
168 -> 169 ;
170 [label="X[23] <= 0.5\nentropy = 0.478\nsamples = 201\nvalue = [0, 0, 6, 0, 186, 0, 1, 0, 8]"] ;
168 -> 170 ;
171 [label="entropy = 1.664\nsamples = 7\nvalue = [0, 0, 4, 0, 1, 0, 1, 0, 1]"] ;
170 -> 171 ;
172 [label="X[20] <= 0.5\nentropy = 0.306\nsamples = 194\nvalue = [0, 0, 2, 0, 185, 0, 0, 0, 7]"] ;
170 -> 172 ;
173 [label="X[26] <= 0.5\nentropy = 1.16\nsamples = 17\nvalue = [0, 0, 2, 0, 12, 0, 0, 0, 3]"] ;
172 -> 173 ;
174 [label="entropy = 0.0\nsamples = 1\nvalue = [0, 0, 0, 0, 1, 0, 0, 0, 0]"] ;
173 -> 174 ;
175 [label="entropy = 1.199\nsamples = 16\nvalue = [0, 0, 2, 0, 11, 0, 0, 0, 3]"] ;
173 -> 175 ;
176 [label="X[5] <= 0.5\nentropy = 0.156\nsamples = 177\nvalue = [0, 0, 0, 0, 173, 0, 0, 0, 4]"] ;
172 -> 176 ;
177 [label="entropy = 0.918\nsamples = 12\nvalue = [0, 0, 0, 0, 8, 0, 0, 0, 4]"] ;
176 -> 177 ;
178 [label="entropy = 0.0\nsamples = 165\nvalue = [0, 0, 0, 0, 165, 0, 0, 0, 0]"] ;
176 -> 178 ;
179 [label="X[8] <= 0.5\nentropy = 0.191\nsamples = 34\nvalue = [0, 0, 0, 1, 0, 0, 0, 0, 33]"] ;
167 -> 179 ;
180 [label="entropy = 0.0\nsamples = 26\nvalue = [0, 0, 0, 0, 0, 0, 0, 0, 26]"] ;
179 -> 180 ;
181 [label="X[23] <= 0.5\nentropy = 0.544\nsamples = 8\nvalue = [0, 0, 0, 1, 0, 0, 0, 0, 7]"] ;
179 -> 181 ;
182 [label="X[20] <= 0.5\nentropy = 0.811\nsamples = 4\nvalue = [0, 0, 0, 1, 0, 0, 0, 0, 3]"] ;
181 -> 182 ;
183 [label="entropy = 0.0\nsamples = 1\nvalue = [0, 0, 0, 0, 0, 0, 0, 0, 1]"] ;
182 -> 183 ;
184 [label="entropy = 0.918\nsamples = 3\nvalue = [0, 0, 0, 1, 0, 0, 0, 0, 2]"] ;
182 -> 184 ;
185 [label="entropy = 0.0\nsamples = 4\nvalue = [0, 0, 0, 0, 0, 0, 0, 0, 4]"] ;
181 -> 185 ;
186 [label="X[7] <= 0.5\nentropy = 2.041\nsamples = 64\nvalue = [0, 11, 8, 34, 5, 2, 3, 1, 0]"] ;
166 -> 186 ;
187 [label="X[20] <= 0.5\nentropy = 1.617\nsamples = 51\nvalue = [0, 5, 8, 33, 1, 0, 3, 1, 0]"] ;
186 -> 187 ;
188 [label="X[15] <= 0.5\nentropy = 0.654\nsamples = 33\nvalue = [0, 2, 2, 29, 0, 0, 0, 0, 0]"] ;
187 -> 188 ;
189 [label="X[22] <= 0.5\nentropy = 0.345\nsamples = 31\nvalue = [0, 2, 0, 29, 0, 0, 0, 0, 0]"] ;
188 -> 189 ;
190 [label="entropy = 0.0\nsamples = 27\nvalue = [0, 0, 0, 27, 0, 0, 0, 0, 0]"] ;
189 -> 190 ;
191 [label="X[5] <= 0.5\nentropy = 1.0\nsamples = 4\nvalue = [0, 2, 0, 2, 0, 0, 0, 0, 0]"] ;
189 -> 191 ;
192 [label="entropy = 0.0\nsamples = 2\nvalue = [0, 0, 0, 2, 0, 0, 0, 0, 0]"] ;
191 -> 192 ;
193 [label="entropy = 0.0\nsamples = 2\nvalue = [0, 2, 0, 0, 0, 0, 0, 0, 0]"] ;
191 -> 193 ;
194 [label="entropy = 0.0\nsamples = 2\nvalue = [0, 0, 2, 0, 0, 0, 0, 0, 0]"] ;
188 -> 194 ;
195 [label="entropy = 2.336\nsamples = 18\nvalue = [0, 3, 6, 4, 1, 0, 3, 1, 0]"] ;
187 -> 195 ;
196 [label="X[23] <= 0.5\nentropy = 1.738\nsamples = 13\nvalue = [0, 6, 0, 1, 4, 2, 0, 0, 0]"] ;
186 -> 196 ;
197 [label="X[14] <= 0.5\nentropy = 1.379\nsamples = 7\nvalue = [0, 0, 0, 1, 4, 2, 0, 0, 0]"] ;
196 -> 197 ;
198 [label="entropy = 0.0\nsamples = 1\nvalue = [0, 0, 0, 1, 0, 0, 0, 0, 0]"] ;
197 -> 198 ;
199 [label="entropy = 0.918\nsamples = 6\nvalue = [0, 0, 0, 0, 4, 2, 0, 0, 0]"] ;
197 -> 199 ;
200 [label="entropy = 0.0\nsamples = 6\nvalue = [0, 6, 0, 0, 0, 0, 0, 0, 0]"] ;
196 -> 200 ;
201 [label="X[20] <= 0.5\nentropy = 1.497\nsamples = 493\nvalue = [0, 7, 252, 35, 10, 0, 189, 0, 0]"] ;
165 -> 201 ;
202 [label="X[7] <= 0.5\nentropy = 0.234\nsamples = 183\nvalue = [0, 0, 176, 0, 7, 0, 0, 0, 0]"] ;
201 -> 202 ;
203 [label="X[22] <= 0.5\nentropy = 0.05\nsamples = 177\nvalue = [0, 0, 176, 0, 1, 0, 0, 0, 0]"] ;
202 -> 203 ;
204 [label="entropy = 0.0\nsamples = 176\nvalue = [0, 0, 176, 0, 0, 0, 0, 0, 0]"] ;
203 -> 204 ;
205 [label="entropy = 0.0\nsamples = 1\nvalue = [0, 0, 0, 0, 1, 0, 0, 0, 0]"] ;
203 -> 205 ;
206 [label="entropy = 0.0\nsamples = 6\nvalue = [0, 0, 0, 0, 6, 0, 0, 0, 0]"] ;
202 -> 206 ;
207 [label="X[7] <= 0.5\nentropy = 1.476\nsamples = 310\nvalue = [0, 7, 76, 35, 3, 0, 189, 0, 0]"] ;
201 -> 207 ;
208 [label="X[23] <= 0.5\nentropy = 1.673\nsamples = 190\nvalue = [0, 7, 76, 33, 0, 0, 74, 0, 0]"] ;
207 -> 208 ;
209 [label="X[13] <= 0.5\nentropy = 0.946\nsamples = 11\nvalue = [0, 4, 0, 0, 0, 0, 7, 0, 0]"] ;
208 -> 209 ;
210 [label="entropy = 0.0\nsamples = 2\nvalue = [0, 0, 0, 0, 0, 0, 2, 0, 0]"] ;
209 -> 210 ;
211 [label="entropy = 0.991\nsamples = 9\nvalue = [0, 4, 0, 0, 0, 0, 5, 0, 0]"] ;
209 -> 211 ;
212 [label="X[17] <= 0.5\nentropy = 1.604\nsamples = 179\nvalue = [0, 3, 76, 33, 0, 0, 67, 0, 0]"] ;
208 -> 212 ;
213 [label="entropy = 0.98\nsamples = 12\nvalue = [0, 0, 7, 5, 0, 0, 0, 0, 0]"] ;
212 -> 213 ;
214 [label="X[25] <= 0.5\nentropy = 1.592\nsamples = 167\nvalue = [0, 3, 69, 28, 0, 0, 67, 0, 0]"] ;
212 -> 214 ;
215 [label="entropy = 1.595\nsamples = 165\nvalue = [0, 3, 68, 28, 0, 0, 66, 0, 0]"] ;
214 -> 215 ;
216 [label="entropy = 1.0\nsamples = 2\nvalue = [0, 0, 1, 0, 0, 0, 1, 0, 0]"] ;
214 -> 216 ;
217 [label="X[22] <= 0.5\nentropy = 0.29\nsamples = 120\nvalue = [0, 0, 0, 2, 3, 0, 115, 0, 0]"] ;
207 -> 217 ;
218 [label="entropy = 0.0\nsamples = 111\nvalue = [0, 0, 0, 0, 0, 0, 111, 0, 0]"] ;
217 -> 218 ;
219 [label="X[3] <= 0.5\nentropy = 1.53\nsamples = 9\nvalue = [0, 0, 0, 2, 3, 0, 4, 0, 0]"] ;
217 -> 219 ;
220 [label="entropy = 0.971\nsamples = 5\nvalue = [0, 0, 0, 2, 3, 0, 0, 0, 0]"] ;
219 -> 220 ;
221 [label="entropy = 0.0\nsamples = 4\nvalue = [0, 0, 0, 0, 0, 0, 4, 0, 0]"] ;
219 -> 221 ;
222 [label="X[23] <= 0.5\nentropy = 1.646\nsamples = 502\nvalue = [0, 0, 47, 183, 1, 12, 14, 245, 0]"] ;
164 -> 222 ;
223 [label="X[8] <= 0.5\nentropy = 0.977\nsamples = 160\nvalue = [0, 0, 47, 111, 1, 1, 0, 0, 0]"] ;
222 -> 223 ;
224 [label="X[25] <= 0.5\nentropy = 0.146\nsamples = 113\nvalue = [0, 0, 0, 111, 1, 1, 0, 0, 0]"] ;
223 -> 224 ;
225 [label="entropy = 0.0\nsamples = 107\nvalue = [0, 0, 0, 107, 0, 0, 0, 0, 0]"] ;
224 -> 225 ;
226 [label="X[17] <= 0.5\nentropy = 1.252\nsamples = 6\nvalue = [0, 0, 0, 4, 1, 1, 0, 0, 0]"] ;
224 -> 226 ;
227 [label="entropy = 1.0\nsamples = 2\nvalue = [0, 0, 0, 1, 1, 0, 0, 0, 0]"] ;
226 -> 227 ;
228 [label="entropy = 0.811\nsamples = 4\nvalue = [0, 0, 0, 3, 0, 1, 0, 0, 0]"] ;
226 -> 228 ;
229 [label="entropy = 0.0\nsamples = 47\nvalue = [0, 0, 47, 0, 0, 0, 0, 0, 0]"] ;
223 -> 229 ;
230 [label="X[19] <= 0.5\nentropy = 1.166\nsamples = 342\nvalue = [0, 0, 0, 72, 0, 11, 14, 245, 0]"] ;
222 -> 230 ;
231 [label="X[8] <= 0.5\nentropy = 1.61\nsamples = 166\nvalue = [0, 0, 0, 72, 0, 11, 14, 69, 0]"] ;
230 -> 231 ;
232 [label="X[17] <= 0.5\nentropy = 1.097\nsamples = 83\nvalue = [0, 0, 0, 64, 0, 11, 4, 4, 0]"] ;
231 -> 232 ;
233 [label="entropy = 0.0\nsamples = 7\nvalue = [0, 0, 0, 7, 0, 0, 0, 0, 0]"] ;
232 -> 233 ;
234 [label="X[25] <= 0.5\nentropy = 1.162\nsamples = 76\nvalue = [0, 0, 0, 57, 0, 11, 4, 4, 0]"] ;
232 -> 234 ;
235 [label="entropy = 1.182\nsamples = 74\nvalue = [0, 0, 0, 55, 0, 11, 4, 4, 0]"] ;
234 -> 235 ;
236 [label="entropy = 0.0\nsamples = 2\nvalue = [0, 0, 0, 2, 0, 0, 0, 0, 0]"] ;
234 -> 236 ;
237 [label="X[14] <= 0.5\nentropy = 0.969\nsamples = 83\nvalue = [0, 0, 0, 8, 0, 0, 10, 65, 0]"] ;
231 -> 237 ;
238 [label="entropy = 0.719\nsamples = 76\nvalue = [0, 0, 0, 8, 0, 0, 3, 65, 0]"] ;
237 -> 238 ;
239 [label="entropy = 0.0\nsamples = 7\nvalue = [0, 0, 0, 0, 0, 0, 7, 0, 0]"] ;
237 -> 239 ;
240 [label="entropy = 0.0\nsamples = 176\nvalue = [0, 0, 0, 0, 0, 0, 0, 176, 0]"] ;
230 -> 240 ;
241 [label="X[7] <= 0.5\nentropy = 2.047\nsamples = 1472\nvalue = [0, 321, 97, 697, 0, 128, 207, 21, 1]"] ;
163 -> 241 ;
242 [label="X[19] <= 0.5\nentropy = 1.696\nsamples = 953\nvalue = [0, 68, 97, 558, 0, 14, 207, 8, 1]"] ;
241 -> 242 ;
243 [label="X[3] <= 0.5\nentropy = 1.882\nsamples = 763\nvalue = [0, 68, 97, 370, 0, 12, 207, 8, 1]"] ;
242 -> 243 ;
244 [label="X[5] <= 0.5\nentropy = 1.896\nsamples = 698\nvalue = [0, 68, 97, 352, 0, 12, 160, 8, 1]"] ;
243 -> 244 ;
245 [label="X[0] <= 0.5\nentropy = 0.953\nsamples = 19\nvalue = [0, 0, 15, 2, 0, 0, 2, 0, 0]"] ;
244 -> 245 ;
246 [label="entropy = 0.0\nsamples = 15\nvalue = [0, 0, 15, 0, 0, 0, 0, 0, 0]"] ;
245 -> 246 ;
247 [label="X[16] <= 0.5\nentropy = 1.0\nsamples = 4\nvalue = [0, 0, 0, 2, 0, 0, 2, 0, 0]"] ;
245 -> 247 ;
248 [label="entropy = 0.0\nsamples = 2\nvalue = [0, 0, 0, 2, 0, 0, 0, 0, 0]"] ;
247 -> 248 ;
249 [label="entropy = 0.0\nsamples = 2\nvalue = [0, 0, 0, 0, 0, 0, 2, 0, 0]"] ;
247 -> 249 ;
250 [label="entropy = 1.875\nsamples = 679\nvalue = [0, 68, 82, 350, 0, 12, 158, 8, 1]"] ;
244 -> 250 ;
251 [label="entropy = 0.851\nsamples = 65\nvalue = [0, 0, 0, 18, 0, 0, 47, 0, 0]"] ;
243 -> 251 ;
252 [label="X[1] <= 0.5\nentropy = 0.084\nsamples = 190\nvalue = [0, 0, 0, 188, 0, 2, 0, 0, 0]"] ;
242 -> 252 ;
253 [label="entropy = 0.0\nsamples = 2\nvalue = [0, 0, 0, 0, 0, 2, 0, 0, 0]"] ;
252 -> 253 ;
254 [label="entropy = 0.0\nsamples = 188\nvalue = [0, 0, 0, 188, 0, 0, 0, 0, 0]"] ;
252 -> 254 ;
255 [label="X[5] <= 0.5\nentropy = 1.628\nsamples = 519\nvalue = [0, 253, 0, 139, 0, 114, 0, 13, 0]"] ;
241 -> 255 ;
256 [label="X[17] <= 0.5\nentropy = 1.208\nsamples = 253\nvalue = [0, 0, 0, 133, 0, 109, 0, 11, 0]"] ;
255 -> 256 ;
257 [label="X[24] <= 0.5\nentropy = 0.619\nsamples = 13\nvalue = [0, 0, 0, 2, 0, 0, 0, 11, 0]"] ;
256 -> 257 ;
258 [label="entropy = 0.0\nsamples = 11\nvalue = [0, 0, 0, 0, 0, 0, 0, 11, 0]"] ;
257 -> 258 ;
259 [label="entropy = 0.0\nsamples = 2\nvalue = [0, 0, 0, 2, 0, 0, 0, 0, 0]"] ;
257 -> 259 ;
260 [label="X[23] <= 0.5\nentropy = 0.994\nsamples = 240\nvalue = [0, 0, 0, 131, 0, 109, 0, 0, 0]"] ;
256 -> 260 ;
261 [label="X[25] <= 0.5\nentropy = 1.0\nsamples = 223\nvalue = [0, 0, 0, 114, 0, 109, 0, 0, 0]"] ;
260 -> 261 ;
262 [label="X[20] <= 0.5\nentropy = 0.999\nsamples = 220\nvalue = [0, 0, 0, 114, 0, 106, 0, 0, 0]"] ;
261 -> 262 ;
263 [label="entropy = 0.999\nsamples = 216\nvalue = [0, 0, 0, 111, 0, 105, 0, 0, 0]"] ;
262 -> 263 ;
264 [label="entropy = 0.811\nsamples = 4\nvalue = [0, 0, 0, 3, 0, 1, 0, 0, 0]"] ;
262 -> 264 ;
265 [label="entropy = 0.0\nsamples = 3\nvalue = [0, 0, 0, 0, 0, 3, 0, 0, 0]"] ;
261 -> 265 ;
266 [label="entropy = 0.0\nsamples = 17\nvalue = [0, 0, 0, 17, 0, 0, 0, 0, 0]"] ;
260 -> 266 ;
267 [label="X[1] <= 0.5\nentropy = 0.353\nsamples = 266\nvalue = [0, 253, 0, 6, 0, 5, 0, 2, 0]"] ;
255 -> 267 ;
268 [label="X[19] <= 0.5\nentropy = 1.46\nsamples = 13\nvalue = [0, 0, 0, 6, 0, 5, 0, 2, 0]"] ;
267 -> 268 ;
269 [label="entropy = 0.0\nsamples = 6\nvalue = [0, 0, 0, 6, 0, 0, 0, 0, 0]"] ;
268 -> 269 ;
270 [label="entropy = 0.863\nsamples = 7\nvalue = [0, 0, 0, 0, 0, 5, 0, 2, 0]"] ;
268 -> 270 ;
271 [label="entropy = 0.0\nsamples = 253\nvalue = [0, 253, 0, 0, 0, 0, 0, 0, 0]"] ;
267 -> 271 ;
272 [label="X[14] <= 0.5\nentropy = 1.86\nsamples = 2069\nvalue = [994, 62, 65, 36, 763, 20, 48, 31, 50]"] ;
0 -> 272 [labeldistance=2.5, labelangle=-45, headlabel="False"] ;
273 [label="X[26] <= 0.5\nentropy = 1.095\nsamples = 908\nvalue = [757, 9, 35, 34, 0, 20, 21, 14, 18]"] ;
272 -> 273 ;
274 [label="X[11] <= 0.5\nentropy = 2.671\nsamples = 109\nvalue = [24, 6, 21, 23, 0, 13, 13, 9, 0]"] ;
273 -> 274 ;
275 [label="X[24] <= 0.5\nentropy = 2.164\nsamples = 62\nvalue = [21, 1, 17, 0, 0, 10, 11, 2, 0]"] ;
274 -> 275 ;
276 [label="X[16] <= 0.5\nentropy = 1.473\nsamples = 28\nvalue = [14, 0, 1, 0, 0, 0, 11, 2, 0]"] ;
275 -> 276 ;
277 [label="X[3] <= 0.5\nentropy = 0.672\nsamples = 17\nvalue = [14, 0, 0, 0, 0, 0, 3, 0, 0]"] ;
276 -> 277 ;
278 [label="entropy = 0.0\nsamples = 14\nvalue = [14, 0, 0, 0, 0, 0, 0, 0, 0]"] ;
277 -> 278 ;
279 [label="entropy = 0.0\nsamples = 3\nvalue = [0, 0, 0, 0, 0, 0, 3, 0, 0]"] ;
277 -> 279 ;
280 [label="X[19] <= 0.5\nentropy = 1.096\nsamples = 11\nvalue = [0, 0, 1, 0, 0, 0, 8, 2, 0]"] ;
276 -> 280 ;
281 [label="entropy = 0.0\nsamples = 8\nvalue = [0, 0, 0, 0, 0, 0, 8, 0, 0]"] ;
280 -> 281 ;
282 [label="X[23] <= 0.5\nentropy = 0.918\nsamples = 3\nvalue = [0, 0, 1, 0, 0, 0, 0, 2, 0]"] ;
280 -> 282 ;
283 [label="entropy = 0.0\nsamples = 1\nvalue = [0, 0, 1, 0, 0, 0, 0, 0, 0]"] ;
282 -> 283 ;
284 [label="entropy = 0.0\nsamples = 2\nvalue = [0, 0, 0, 0, 0, 0, 0, 2, 0]"] ;
282 -> 284 ;
285 [label="X[17] <= 0.5\nentropy = 1.65\nsamples = 34\nvalue = [7, 1, 16, 0, 0, 10, 0, 0, 0]"] ;
275 -> 285 ;
286 [label="X[8] <= 0.5\nentropy = 1.296\nsamples = 14\nvalue = [7, 1, 6, 0, 0, 0, 0, 0, 0]"] ;
285 -> 286 ;
287 [label="entropy = 0.0\nsamples = 5\nvalue = [5, 0, 0, 0, 0, 0, 0, 0, 0]"] ;
286 -> 287 ;
288 [label="X[22] <= 0.5\nentropy = 1.224\nsamples = 9\nvalue = [2, 1, 6, 0, 0, 0, 0, 0, 0]"] ;
286 -> 288 ;
289 [label="X[5] <= 0.5\nentropy = 0.811\nsamples = 8\nvalue = [2, 0, 6, 0, 0, 0, 0, 0, 0]"] ;
288 -> 289 ;
290 [label="entropy = 0.918\nsamples = 3\nvalue = [1, 0, 2, 0, 0, 0, 0, 0, 0]"] ;
289 -> 290 ;
291 [label="entropy = 0.722\nsamples = 5\nvalue = [1, 0, 4, 0, 0, 0, 0, 0, 0]"] ;
289 -> 291 ;
292 [label="entropy = 0.0\nsamples = 1\nvalue = [0, 1, 0, 0, 0, 0, 0, 0, 0]"] ;
288 -> 292 ;
293 [label="X[3] <= 0.5\nentropy = 1.0\nsamples = 20\nvalue = [0, 0, 10, 0, 0, 10, 0, 0, 0]"] ;
285 -> 293 ;
294 [label="X[21] <= 0.5\nentropy = 0.592\nsamples = 7\nvalue = [0, 0, 1, 0, 0, 6, 0, 0, 0]"] ;
293 -> 294 ;
295 [label="entropy = 0.0\nsamples = 1\nvalue = [0, 0, 0, 0, 0, 1, 0, 0, 0]"] ;
294 -> 295 ;
296 [label="entropy = 0.65\nsamples = 6\nvalue = [0, 0, 1, 0, 0, 5, 0, 0, 0]"] ;
294 -> 296 ;
297 [label="X[18] <= 0.5\nentropy = 0.89\nsamples = 13\nvalue = [0, 0, 9, 0, 0, 4, 0, 0, 0]"] ;
293 -> 297 ;
298 [label="entropy = 0.811\nsamples = 12\nvalue = [0, 0, 9, 0, 0, 3, 0, 0, 0]"] ;
297 -> 298 ;
299 [label="entropy = 0.0\nsamples = 1\nvalue = [0, 0, 0, 0, 0, 1, 0, 0, 0]"] ;
297 -> 299 ;
300 [label="X[12] <= 0.5\nentropy = 2.261\nsamples = 47\nvalue = [3, 5, 4, 23, 0, 3, 2, 7, 0]"] ;
274 -> 300 ;
301 [label="X[24] <= 0.5\nentropy = 2.426\nsamples = 20\nvalue = [3, 2, 3, 3, 0, 0, 2, 7, 0]"] ;
300 -> 301 ;
302 [label="entropy = 0.0\nsamples = 3\nvalue = [3, 0, 0, 0, 0, 0, 0, 0, 0]"] ;
301 -> 302 ;
303 [label="X[23] <= 0.5\nentropy = 2.137\nsamples = 17\nvalue = [0, 2, 3, 3, 0, 0, 2, 7, 0]"] ;
301 -> 303 ;
304 [label="entropy = 0.0\nsamples = 3\nvalue = [0, 0, 0, 3, 0, 0, 0, 0, 0]"] ;
303 -> 304 ;
305 [label="X[4] <= 0.5\nentropy = 1.778\nsamples = 14\nvalue = [0, 2, 3, 0, 0, 0, 2, 7, 0]"] ;
303 -> 305 ;
306 [label="X[3] <= 0.5\nentropy = 1.936\nsamples = 11\nvalue = [0, 2, 3, 0, 0, 0, 2, 4, 0]"] ;
305 -> 306 ;
307 [label="entropy = 1.846\nsamples = 10\nvalue = [0, 2, 3, 0, 0, 0, 1, 4, 0]"] ;
306 -> 307 ;
308 [label="entropy = 0.0\nsamples = 1\nvalue = [0, 0, 0, 0, 0, 0, 1, 0, 0]"] ;
306 -> 308 ;
309 [label="entropy = 0.0\nsamples = 3\nvalue = [0, 0, 0, 0, 0, 0, 0, 3, 0]"] ;
305 -> 309 ;
310 [label="X[7] <= 0.5\nentropy = 1.201\nsamples = 27\nvalue = [0, 3, 1, 20, 0, 3, 0, 0, 0]"] ;
300 -> 310 ;
311 [label="X[4] <= 0.5\nentropy = 0.276\nsamples = 21\nvalue = [0, 0, 1, 20, 0, 0, 0, 0, 0]"] ;
310 -> 311 ;
312 [label="entropy = 0.0\nsamples = 7\nvalue = [0, 0, 0, 7, 0, 0, 0, 0, 0]"] ;
311 -> 312 ;
313 [label="X[19] <= 0.5\nentropy = 0.371\nsamples = 14\nvalue = [0, 0, 1, 13, 0, 0, 0, 0, 0]"] ;
311 -> 313 ;
314 [label="entropy = 0.391\nsamples = 13\nvalue = [0, 0, 1, 12, 0, 0, 0, 0, 0]"] ;
313 -> 314 ;
315 [label="entropy = 0.0\nsamples = 1\nvalue = [0, 0, 0, 1, 0, 0, 0, 0, 0]"] ;
313 -> 315 ;
316 [label="X[5] <= 0.5\nentropy = 1.0\nsamples = 6\nvalue = [0, 3, 0, 0, 0, 3, 0, 0, 0]"] ;
310 -> 316 ;
317 [label="entropy = 0.0\nsamples = 3\nvalue = [0, 0, 0, 0, 0, 3, 0, 0, 0]"] ;
316 -> 317 ;
318 [label="entropy = 0.0\nsamples = 3\nvalue = [0, 3, 0, 0, 0, 0, 0, 0, 0]"] ;
316 -> 318 ;
319 [label="X[3] <= 0.5\nentropy = 0.627\nsamples = 799\nvalue = [733, 3, 14, 11, 0, 7, 8, 5, 18]"] ;
273 -> 319 ;
320 [label="X[23] <= 0.5\nentropy = 0.366\nsamples = 757\nvalue = [725, 3, 2, 7, 0, 5, 6, 3, 6]"] ;
319 -> 320 ;
321 [label="X[19] <= 0.5\nentropy = 2.605\nsamples = 32\nvalue = [8, 1, 2, 6, 0, 4, 5, 0, 6]"] ;
320 -> 321 ;
322 [label="X[13] <= 0.5\nentropy = 2.295\nsamples = 22\nvalue = [8, 1, 2, 0, 0, 4, 5, 0, 2]"] ;
321 -> 322 ;
323 [label="entropy = 0.0\nsamples = 6\nvalue = [6, 0, 0, 0, 0, 0, 0, 0, 0]"] ;
322 -> 323 ;
324 [label="X[18] <= 0.5\nentropy = 2.399\nsamples = 16\nvalue = [2, 1, 2, 0, 0, 4, 5, 0, 2]"] ;
322 -> 324 ;
325 [label="entropy = 1.761\nsamples = 10\nvalue = [0, 1, 2, 0, 0, 0, 5, 0, 2]"] ;
324 -> 325 ;
326 [label="entropy = 0.918\nsamples = 6\nvalue = [2, 0, 0, 0, 0, 4, 0, 0, 0]"] ;
324 -> 326 ;
327 [label="X[9] <= 0.5\nentropy = 0.971\nsamples = 10\nvalue = [0, 0, 0, 6, 0, 0, 0, 0, 4]"] ;
321 -> 327 ;
328 [label="entropy = 0.0\nsamples = 6\nvalue = [0, 0, 0, 6, 0, 0, 0, 0, 0]"] ;
327 -> 328 ;
329 [label="entropy = 0.0\nsamples = 4\nvalue = [0, 0, 0, 0, 0, 0, 0, 0, 4]"] ;
327 -> 329 ;
330 [label="X[6] <= 0.5\nentropy = 0.111\nsamples = 725\nvalue = [717, 2, 0, 1, 0, 1, 1, 3, 0]"] ;
320 -> 330 ;
331 [label="X[17] <= 0.5\nentropy = 0.031\nsamples = 713\nvalue = [711, 1, 0, 0, 0, 0, 0, 1, 0]"] ;
330 -> 331 ;
332 [label="X[8] <= 0.5\nentropy = 0.918\nsamples = 3\nvalue = [2, 1, 0, 0, 0, 0, 0, 0, 0]"] ;
331 -> 332 ;
333 [label="entropy = 0.0\nsamples = 1\nvalue = [0, 1, 0, 0, 0, 0, 0, 0, 0]"] ;
332 -> 333 ;
334 [label="entropy = 0.0\nsamples = 2\nvalue = [2, 0, 0, 0, 0, 0, 0, 0, 0]"] ;
332 -> 334 ;
335 [label="X[18] <= 0.5\nentropy = 0.015\nsamples = 710\nvalue = [709, 0, 0, 0, 0, 0, 0, 1, 0]"] ;
331 -> 335 ;
336 [label="entropy = 0.0\nsamples = 702\nvalue = [702, 0, 0, 0, 0, 0, 0, 0, 0]"] ;
335 -> 336 ;
337 [label="entropy = 0.544\nsamples = 8\nvalue = [7, 0, 0, 0, 0, 0, 0, 1, 0]"] ;
335 -> 337 ;
338 [label="X[5] <= 0.5\nentropy = 2.126\nsamples = 12\nvalue = [6, 1, 0, 1, 0, 1, 1, 2, 0]"] ;
330 -> 338 ;
339 [label="entropy = 0.0\nsamples = 1\nvalue = [0, 0, 0, 0, 0, 0, 0, 1, 0]"] ;
338 -> 339 ;
340 [label="entropy = 2.049\nsamples = 11\nvalue = [6, 1, 0, 1, 0, 1, 1, 1, 0]"] ;
338 -> 340 ;
341 [label="X[13] <= 0.5\nentropy = 2.439\nsamples = 42\nvalue = [8, 0, 12, 4, 0, 2, 2, 2, 12]"] ;
319 -> 341 ;
342 [label="entropy = 0.0\nsamples = 1\nvalue = [0, 0, 0, 0, 0, 0, 0, 0, 1]"] ;
341 -> 342 ;
343 [label="entropy = 2.453\nsamples = 41\nvalue = [8, 0, 12, 4, 0, 2, 2, 2, 11]"] ;
341 -> 343 ;
344 [label="X[26] <= 0.5\nentropy = 1.58\nsamples = 1161\nvalue = [237, 53, 30, 2, 763, 0, 27, 17, 32]"] ;
272 -> 344 ;
345 [label="X[24] <= 0.5\nentropy = 1.528\nsamples = 37\nvalue = [20, 0, 2, 0, 12, 0, 3, 0, 0]"] ;
344 -> 345 ;
346 [label="X[8] <= 0.5\nentropy = 1.448\nsamples = 33\nvalue = [19, 0, 1, 0, 10, 0, 3, 0, 0]"] ;
345 -> 346 ;
347 [label="entropy = 0.0\nsamples = 1\nvalue = [1, 0, 0, 0, 0, 0, 0, 0, 0]"] ;
346 -> 347 ;
348 [label="entropy = 1.468\nsamples = 32\nvalue = [18, 0, 1, 0, 10, 0, 3, 0, 0]"] ;
346 -> 348 ;
349 [label="X[7] <= 0.5\nentropy = 1.5\nsamples = 4\nvalue = [1, 0, 1, 0, 2, 0, 0, 0, 0]"] ;
345 -> 349 ;
350 [label="entropy = 1.585\nsamples = 3\nvalue = [1, 0, 1, 0, 1, 0, 0, 0, 0]"] ;
349 -> 350 ;
351 [label="entropy = 0.0\nsamples = 1\nvalue = [0, 0, 0, 0, 1, 0, 0, 0, 0]"] ;
349 -> 351 ;
352 [label="X[19] <= 0.5\nentropy = 1.56\nsamples = 1124\nvalue = [217, 53, 28, 2, 751, 0, 24, 17, 32]"] ;
344 -> 352 ;
353 [label="X[8] <= 0.5\nentropy = 1.554\nsamples = 1100\nvalue = [201, 53, 28, 2, 743, 0, 24, 17, 32]"] ;
352 -> 353 ;
354 [label="entropy = 0.967\nsamples = 28\nvalue = [17, 0, 0, 0, 11, 0, 0, 0, 0]"] ;
353 -> 354 ;
355 [label="X[4] <= 0.5\nentropy = 1.55\nsamples = 1072\nvalue = [184, 53, 28, 2, 732, 0, 24, 17, 32]"] ;
353 -> 355 ;
356 [label="X[22] <= 0.5\nentropy = 1.578\nsamples = 1019\nvalue = [172, 53, 28, 2, 691, 0, 24, 17, 32]"] ;
355 -> 356 ;
357 [label="X[11] <= 0.5\nentropy = 1.581\nsamples = 1002\nvalue = [165, 53, 28, 2, 681, 0, 24, 17, 32]"] ;
356 -> 357 ;
358 [label="entropy = 0.0\nsamples = 2\nvalue = [0, 0, 0, 0, 2, 0, 0, 0, 0]"] ;
357 -> 358 ;
359 [label="entropy = 1.583\nsamples = 1000\nvalue = [165, 53, 28, 2, 679, 0, 24, 17, 32]"] ;
357 -> 359 ;
360 [label="entropy = 0.977\nsamples = 17\nvalue = [7, 0, 0, 0, 10, 0, 0, 0, 0]"] ;
356 -> 360 ;
361 [label="entropy = 0.772\nsamples = 53\nvalue = [12, 0, 0, 0, 41, 0, 0, 0, 0]"] ;
355 -> 361 ;
362 [label="entropy = 0.918\nsamples = 24\nvalue = [16, 0, 0, 0, 8, 0, 0, 0, 0]"] ;
352 -> 362 ;
}