digraph Tree {
node [shape=box] ;
0 [label="X[14] <= 0.5\nentropy = 3.17\nsamples = 8832\nvalue = [999, 970, 974, 970, 1000, 958, 991, 981, 989]"] ;
1 [label="X[20] <= 0.5\nentropy = 2.951\nsamples = 6730\nvalue = [342, 955, 890, 930, 0, 935, 761, 941, 976]"] ;
0 -> 1 [labeldistance=2.5, labelangle=45, headlabel="True"] ;
2 [label="X[11] <= 0.5\nentropy = 2.642\nsamples = 4212\nvalue = [102, 564, 435, 573, 0, 819, 0, 812, 907]"] ;
1 -> 2 ;
3 [label="X[23] <= 0.5\nentropy = 2.296\nsamples = 2785\nvalue = [47, 383, 237, 0, 0, 690, 0, 627, 801]"] ;
2 -> 3 ;
4 [label="X[17] <= 0.5\nentropy = 1.799\nsamples = 1447\nvalue = [40, 176, 111, 0, 0, 381, 0, 0, 739]"] ;
3 -> 4 ;
5 [label="X[5] <= 0.5\nentropy = 1.399\nsamples = 923\nvalue = [38, 170, 108, 0, 0, 0, 0, 0, 607]"] ;
4 -> 5 ;
6 [label="X[8] <= 0.5\nentropy = 0.776\nsamples = 699\nvalue = [22, 0, 97, 0, 0, 0, 0, 0, 580]"] ;
5 -> 6 ;
7 [label="X[2] <= 0.5\nentropy = 0.233\nsamples = 579\nvalue = [22, 0, 0, 0, 0, 0, 0, 0, 557]"] ;
6 -> 7 ;
8 [label="entropy = 0.0\nsamples = 557\nvalue = [0, 0, 0, 0, 0, 0, 0, 0, 557]"] ;
7 -> 8 ;
9 [label="entropy = 0.0\nsamples = 22\nvalue = [22, 0, 0, 0, 0, 0, 0, 0, 0]"] ;
7 -> 9 ;
10 [label="X[3] <= 0.5\nentropy = 0.705\nsamples = 120\nvalue = [0, 0, 97, 0, 0, 0, 0, 0, 23]"] ;
6 -> 10 ;
11 [label="entropy = 0.0\nsamples = 92\nvalue = [0, 0, 92, 0, 0, 0, 0, 0, 0]"] ;
10 -> 11 ;
12 [label="X[26] <= 0.5\nentropy = 0.677\nsamples = 28\nvalue = [0, 0, 5, 0, 0, 0, 0, 0, 23]"] ;
10 -> 12 ;
13 [label="entropy = 0.0\nsamples = 5\nvalue = [0, 0, 5, 0, 0, 0, 0, 0, 0]"] ;
12 -> 13 ;
14 [label="entropy = 0.0\nsamples = 23\nvalue = [0, 0, 0, 0, 0, 0, 0, 0, 23]"] ;
12 -> 14 ;
15 [label="X[19] <= 0.5\nentropy = 1.155\nsamples = 224\nvalue = [16, 170, 11, 0, 0, 0, 0, 0, 27]"] ;
5 -> 15 ;
16 [label="X[25] <= 0.5\nentropy = 0.434\nsamples = 179\nvalue = [16, 163, 0, 0, 0, 0, 0, 0, 0]"] ;
15 -> 16 ;
17 [label="entropy = 0.0\nsamples = 141\nvalue = [0, 141, 0, 0, 0, 0, 0, 0, 0]"] ;
16 -> 17 ;
18 [label="X[0] <= 0.5\nentropy = 0.982\nsamples = 38\nvalue = [16, 22, 0, 0, 0, 0, 0, 0, 0]"] ;
16 -> 18 ;
19 [label="entropy = 0.0\nsamples = 16\nvalue = [16, 0, 0, 0, 0, 0, 0, 0, 0]"] ;
18 -> 19 ;
20 [label="entropy = 0.0\nsamples = 22\nvalue = [0, 22, 0, 0, 0, 0, 0, 0, 0]"] ;
18 -> 20 ;
21 [label="X[26] <= 0.5\nentropy = 1.357\nsamples = 45\nvalue = [0, 7, 11, 0, 0, 0, 0, 0, 27]"] ;
15 -> 21 ;
22 [label="X[6] <= 0.5\nentropy = 0.964\nsamples = 18\nvalue = [0, 7, 11, 0, 0, 0, 0, 0, 0]"] ;
21 -> 22 ;
23 [label="entropy = 0.896\nsamples = 16\nvalue = [0, 5, 11, 0, 0, 0, 0, 0, 0]"] ;
22 -> 23 ;
24 [label="entropy = 0.0\nsamples = 2\nvalue = [0, 2, 0, 0, 0, 0, 0, 0, 0]"] ;
22 -> 24 ;
25 [label="entropy = 0.0\nsamples = 27\nvalue = [0, 0, 0, 0, 0, 0, 0, 0, 27]"] ;
21 -> 25 ;
26 [label="X[1] <= 0.5\nentropy = 0.982\nsamples = 524\nvalue = [2, 6, 3, 0, 0, 381, 0, 0, 132]"] ;
4 -> 26 ;
27 [label="X[21] <= 0.5\nentropy = 0.22\nsamples = 254\nvalue = [2, 4, 0, 0, 0, 247, 0, 0, 1]"] ;
26 -> 27 ;
28 [label="X[5] <= 0.5\nentropy = 1.79\nsamples = 11\nvalue = [2, 3, 0, 0, 0, 5, 0, 0, 1]"] ;
27 -> 28 ;
29 [label="X[6] <= 0.5\nentropy = 0.65\nsamples = 6\nvalue = [0, 0, 0, 0, 0, 5, 0, 0, 1]"] ;
28 -> 29 ;
30 [label="entropy = 0.0\nsamples = 5\nvalue = [0, 0, 0, 0, 0, 5, 0, 0, 0]"] ;
29 -> 30 ;
31 [label="entropy = 0.0\nsamples = 1\nvalue = [0, 0, 0, 0, 0, 0, 0, 0, 1]"] ;
29 -> 31 ;
32 [label="X[2] <= 0.5\nentropy = 0.971\nsamples = 5\nvalue = [2, 3, 0, 0, 0, 0, 0, 0, 0]"] ;
28 -> 32 ;
33 [label="entropy = 0.0\nsamples = 3\nvalue = [0, 3, 0, 0, 0, 0, 0, 0, 0]"] ;
32 -> 33 ;
34 [label="entropy = 0.0\nsamples = 2\nvalue = [2, 0, 0, 0, 0, 0, 0, 0, 0]"] ;
32 -> 34 ;
35 [label="X[8] <= 0.5\nentropy = 0.039\nsamples = 243\nvalue = [0, 1, 0, 0, 0, 242, 0, 0, 0]"] ;
27 -> 35 ;
36 [label="entropy = 0.0\nsamples = 226\nvalue = [0, 0, 0, 0, 0, 226, 0, 0, 0]"] ;
35 -> 36 ;
37 [label="entropy = 0.323\nsamples = 17\nvalue = [0, 1, 0, 0, 0, 16, 0, 0, 0]"] ;
35 -> 37 ;
38 [label="X[3] <= 0.5\nentropy = 1.132\nsamples = 270\nvalue = [0, 2, 3, 0, 0, 134, 0, 0, 131]"] ;
26 -> 38 ;
39 [label="X[8] <= 0.5\nentropy = 1.585\nsamples = 6\nvalue = [0, 2, 2, 0, 0, 0, 0, 0, 2]"] ;
38 -> 39 ;
40 [label="X[24] <= 0.5\nentropy = 1.0\nsamples = 4\nvalue = [0, 2, 0, 0, 0, 0, 0, 0, 2]"] ;
39 -> 40 ;
41 [label="X[10] <= 0.5\nentropy = 0.918\nsamples = 3\nvalue = [0, 1, 0, 0, 0, 0, 0, 0, 2]"] ;
40 -> 41 ;
42 [label="entropy = 1.0\nsamples = 2\nvalue = [0, 1, 0, 0, 0, 0, 0, 0, 1]"] ;
41 -> 42 ;
43 [label="entropy = 0.0\nsamples = 1\nvalue = [0, 0, 0, 0, 0, 0, 0, 0, 1]"] ;
41 -> 43 ;
44 [label="entropy = 0.0\nsamples = 1\nvalue = [0, 1, 0, 0, 0, 0, 0, 0, 0]"] ;
40 -> 44 ;
45 [label="entropy = 0.0\nsamples = 2\nvalue = [0, 0, 2, 0, 0, 0, 0, 0, 0]"] ;
39 -> 45 ;
46 [label="X[8] <= 0.5\nentropy = 1.032\nsamples = 264\nvalue = [0, 0, 1, 0, 0, 134, 0, 0, 129]"] ;
38 -> 46 ;
47 [label="X[24] <= 0.5\nentropy = 1.0\nsamples = 261\nvalue = [0, 0, 0, 0, 0, 132, 0, 0, 129]"] ;
46 -> 47 ;
48 [label="entropy = 1.0\nsamples = 258\nvalue = [0, 0, 0, 0, 0, 129, 0, 0, 129]"] ;
47 -> 48 ;
49 [label="entropy = 0.0\nsamples = 3\nvalue = [0, 0, 0, 0, 0, 3, 0, 0, 0]"] ;
47 -> 49 ;
50 [label="X[9] <= 0.5\nentropy = 0.918\nsamples = 3\nvalue = [0, 0, 1, 0, 0, 2, 0, 0, 0]"] ;
46 -> 50 ;
51 [label="entropy = 0.0\nsamples = 1\nvalue = [0, 0, 1, 0, 0, 0, 0, 0, 0]"] ;
50 -> 51 ;
52 [label="entropy = 0.0\nsamples = 2\nvalue = [0, 0, 0, 0, 0, 2, 0, 0, 0]"] ;
50 -> 52 ;
53 [label="X[10] <= 0.5\nentropy = 1.983\nsamples = 1338\nvalue = [7, 207, 126, 0, 0, 309, 0, 627, 62]"] ;
3 -> 53 ;
54 [label="X[8] <= 0.5\nentropy = 1.523\nsamples = 721\nvalue = [0, 84, 123, 0, 0, 0, 0, 452, 62]"] ;
53 -> 54 ;
55 [label="X[0] <= 0.5\nentropy = 0.996\nsamples = 514\nvalue = [0, 61, 0, 0, 0, 0, 0, 398, 55]"] ;
54 -> 55 ;
56 [label="X[4] <= 0.5\nentropy = 1.464\nsamples = 248\nvalue = [0, 61, 0, 0, 0, 0, 0, 132, 55]"] ;
55 -> 56 ;
57 [label="X[17] <= 0.5\nentropy = 1.047\nsamples = 137\nvalue = [0, 61, 0, 0, 0, 0, 0, 75, 1]"] ;
56 -> 57 ;
58 [label="X[26] <= 0.5\nentropy = 0.992\nsamples = 136\nvalue = [0, 61, 0, 0, 0, 0, 0, 75, 0]"] ;
57 -> 58 ;
59 [label="entropy = 0.0\nsamples = 5\nvalue = [0, 0, 0, 0, 0, 0, 0, 5, 0]"] ;
58 -> 59 ;
60 [label="X[6] <= 0.5\nentropy = 0.997\nsamples = 131\nvalue = [0, 61, 0, 0, 0, 0, 0, 70, 0]"] ;
58 -> 60 ;
61 [label="entropy = 0.0\nsamples = 2\nvalue = [0, 2, 0, 0, 0, 0, 0, 0, 0]"] ;
60 -> 61 ;
62 [label="entropy = 0.995\nsamples = 129\nvalue = [0, 59, 0, 0, 0, 0, 0, 70, 0]"] ;
60 -> 62 ;
63 [label="entropy = 0.0\nsamples = 1\nvalue = [0, 0, 0, 0, 0, 0, 0, 0, 1]"] ;
57 -> 63 ;
64 [label="X[24] <= 0.5\nentropy = 0.999\nsamples = 111\nvalue = [0, 0, 0, 0, 0, 0, 0, 57, 54]"] ;
56 -> 64 ;
65 [label="entropy = 1.0\nsamples = 110\nvalue = [0, 0, 0, 0, 0, 0, 0, 56, 54]"] ;
64 -> 65 ;
66 [label="entropy = 0.0\nsamples = 1\nvalue = [0, 0, 0, 0, 0, 0, 0, 1, 0]"] ;
64 -> 66 ;
67 [label="entropy = 0.0\nsamples = 266\nvalue = [0, 0, 0, 0, 0, 0, 0, 266, 0]"] ;
55 -> 67 ;
68 [label="X[17] <= 0.5\nentropy = 1.469\nsamples = 207\nvalue = [0, 23, 123, 0, 0, 0, 0, 54, 7]"] ;
54 -> 68 ;
69 [label="X[12] <= 0.5\nentropy = 1.133\nsamples = 79\nvalue = [0, 23, 4, 0, 0, 0, 0, 52, 0]"] ;
68 -> 69 ;
70 [label="entropy = 0.0\nsamples = 4\nvalue = [0, 0, 4, 0, 0, 0, 0, 0, 0]"] ;
69 -> 70 ;
71 [label="X[26] <= 0.5\nentropy = 0.889\nsamples = 75\nvalue = [0, 23, 0, 0, 0, 0, 0, 52, 0]"] ;
69 -> 71 ;
72 [label="entropy = 0.0\nsamples = 22\nvalue = [0, 0, 0, 0, 0, 0, 0, 22, 0]"] ;
71 -> 72 ;
73 [label="X[3] <= 0.5\nentropy = 0.987\nsamples = 53\nvalue = [0, 23, 0, 0, 0, 0, 0, 30, 0]"] ;
71 -> 73 ;
74 [label="entropy = 0.999\nsamples = 48\nvalue = [0, 23, 0, 0, 0, 0, 0, 25, 0]"] ;
73 -> 74 ;
75 [label="entropy = 0.0\nsamples = 5\nvalue = [0, 0, 0, 0, 0, 0, 0, 5, 0]"] ;
73 -> 75 ;
76 [label="X[19] <= 0.5\nentropy = 0.421\nsamples = 128\nvalue = [0, 0, 119, 0, 0, 0, 0, 2, 7]"] ;
68 -> 76 ;
77 [label="X[26] <= 0.5\nentropy = 1.296\nsamples = 14\nvalue = [0, 0, 6, 0, 0, 0, 0, 1, 7]"] ;
76 -> 77 ;
78 [label="entropy = 0.592\nsamples = 7\nvalue = [0, 0, 6, 0, 0, 0, 0, 1, 0]"] ;
77 -> 78 ;
79 [label="entropy = 0.0\nsamples = 7\nvalue = [0, 0, 0, 0, 0, 0, 0, 0, 7]"] ;
77 -> 79 ;
80 [label="X[0] <= 0.5\nentropy = 0.073\nsamples = 114\nvalue = [0, 0, 113, 0, 0, 0, 0, 1, 0]"] ;
76 -> 80 ;
81 [label="entropy = 0.0\nsamples = 71\nvalue = [0, 0, 71, 0, 0, 0, 0, 0, 0]"] ;
80 -> 81 ;
82 [label="X[5] <= 0.5\nentropy = 0.159\nsamples = 43\nvalue = [0, 0, 42, 0, 0, 0, 0, 1, 0]"] ;
80 -> 82 ;
83 [label="entropy = 1.0\nsamples = 2\nvalue = [0, 0, 1, 0, 0, 0, 0, 1, 0]"] ;
82 -> 83 ;
84 [label="entropy = 0.0\nsamples = 41\nvalue = [0, 0, 41, 0, 0, 0, 0, 0, 0]"] ;
82 -> 84 ;
85 [label="X[17] <= 0.5\nentropy = 1.59\nsamples = 617\nvalue = [7, 123, 3, 0, 0, 309, 0, 175, 0]"] ;
53 -> 85 ;
86 [label="X[1] <= 0.5\nentropy = 0.314\nsamples = 173\nvalue = [0, 5, 3, 0, 0, 0, 0, 165, 0]"] ;
85 -> 86 ;
87 [label="X[8] <= 0.5\nentropy = 0.181\nsamples = 169\nvalue = [0, 1, 3, 0, 0, 0, 0, 165, 0]"] ;
86 -> 87 ;
88 [label="X[5] <= 0.5\nentropy = 0.062\nsamples = 138\nvalue = [0, 1, 0, 0, 0, 0, 0, 137, 0]"] ;
87 -> 88 ;
89 [label="entropy = 0.0\nsamples = 115\nvalue = [0, 0, 0, 0, 0, 0, 0, 115, 0]"] ;
88 -> 89 ;
90 [label="X[19] <= 0.5\nentropy = 0.258\nsamples = 23\nvalue = [0, 1, 0, 0, 0, 0, 0, 22, 0]"] ;
88 -> 90 ;
91 [label="entropy = 0.918\nsamples = 3\nvalue = [0, 1, 0, 0, 0, 0, 0, 2, 0]"] ;
90 -> 91 ;
92 [label="entropy = 0.0\nsamples = 20\nvalue = [0, 0, 0, 0, 0, 0, 0, 20, 0]"] ;
90 -> 92 ;
93 [label="X[4] <= 0.5\nentropy = 0.459\nsamples = 31\nvalue = [0, 0, 3, 0, 0, 0, 0, 28, 0]"] ;
87 -> 93 ;
94 [label="entropy = 0.0\nsamples = 2\nvalue = [0, 0, 2, 0, 0, 0, 0, 0, 0]"] ;
93 -> 94 ;
95 [label="X[15] <= 0.5\nentropy = 0.216\nsamples = 29\nvalue = [0, 0, 1, 0, 0, 0, 0, 28, 0]"] ;
93 -> 95 ;
96 [label="entropy = 0.0\nsamples = 1\nvalue = [0, 0, 1, 0, 0, 0, 0, 0, 0]"] ;
95 -> 96 ;
97 [label="entropy = 0.0\nsamples = 28\nvalue = [0, 0, 0, 0, 0, 0, 0, 28, 0]"] ;
95 -> 97 ;
98 [label="entropy = 0.0\nsamples = 4\nvalue = [0, 4, 0, 0, 0, 0, 0, 0, 0]"] ;
86 -> 98 ;
99 [label="X[12] <= 0.5\nentropy = 1.09\nsamples = 444\nvalue = [7, 118, 0, 0, 0, 309, 0, 10, 0]"] ;
85 -> 99 ;
100 [label="X[7] <= 0.5\nentropy = 0.735\nsamples = 380\nvalue = [0, 70, 0, 0, 0, 308, 0, 2, 0]"] ;
99 -> 100 ;
101 [label="X[2] <= 0.5\nentropy = 1.089\nsamples = 147\nvalue = [0, 70, 0, 0, 0, 75, 0, 2, 0]"] ;
100 -> 101 ;
102 [label="X[4] <= 0.5\nentropy = 1.089\nsamples = 125\nvalue = [0, 70, 0, 0, 0, 53, 0, 2, 0]"] ;
101 -> 102 ;
103 [label="entropy = 0.975\nsamples = 118\nvalue = [0, 70, 0, 0, 0, 48, 0, 0, 0]"] ;
102 -> 103 ;
104 [label="entropy = 0.863\nsamples = 7\nvalue = [0, 0, 0, 0, 0, 5, 0, 2, 0]"] ;
102 -> 104 ;
105 [label="entropy = 0.0\nsamples = 22\nvalue = [0, 0, 0, 0, 0, 22, 0, 0, 0]"] ;
101 -> 105 ;
106 [label="entropy = 0.0\nsamples = 233\nvalue = [0, 0, 0, 0, 0, 233, 0, 0, 0]"] ;
100 -> 106 ;
107 [label="X[2] <= 0.5\nentropy = 1.129\nsamples = 64\nvalue = [7, 48, 0, 0, 0, 1, 0, 8, 0]"] ;
99 -> 107 ;
108 [label="X[5] <= 0.5\nentropy = 0.709\nsamples = 57\nvalue = [0, 48, 0, 0, 0, 1, 0, 8, 0]"] ;
107 -> 108 ;
109 [label="X[4] <= 0.5\nentropy = 0.544\nsamples = 8\nvalue = [0, 0, 0, 0, 0, 1, 0, 7, 0]"] ;
108 -> 109 ;
110 [label="entropy = 0.0\nsamples = 7\nvalue = [0, 0, 0, 0, 0, 0, 0, 7, 0]"] ;
109 -> 110 ;
111 [label="entropy = 0.0\nsamples = 1\nvalue = [0, 0, 0, 0, 0, 1, 0, 0, 0]"] ;
109 -> 111 ;
112 [label="X[25] <= 0.5\nentropy = 0.144\nsamples = 49\nvalue = [0, 48, 0, 0, 0, 0, 0, 1, 0]"] ;
108 -> 112 ;
113 [label="entropy = 0.0\nsamples = 41\nvalue = [0, 41, 0, 0, 0, 0, 0, 0, 0]"] ;
112 -> 113 ;
114 [label="X[7] <= 0.5\nentropy = 0.544\nsamples = 8\nvalue = [0, 7, 0, 0, 0, 0, 0, 1, 0]"] ;
112 -> 114 ;
115 [label="entropy = 0.0\nsamples = 7\nvalue = [0, 7, 0, 0, 0, 0, 0, 0, 0]"] ;
114 -> 115 ;
116 [label="entropy = 0.0\nsamples = 1\nvalue = [0, 0, 0, 0, 0, 0, 0, 1, 0]"] ;
114 -> 116 ;
117 [label="entropy = 0.0\nsamples = 7\nvalue = [7, 0, 0, 0, 0, 0, 0, 0, 0]"] ;
107 -> 117 ;
118 [label="X[1] <= 0.5\nentropy = 2.457\nsamples = 1427\nvalue = [55, 181, 198, 573, 0, 129, 0, 185, 106]"] ;
2 -> 118 ;
119 [label="X[6] <= 0.5\nentropy = 2.392\nsamples = 654\nvalue = [55, 16, 188, 138, 0, 56, 0, 181, 20]"] ;
118 -> 119 ;
120 [label="X[13] <= 0.5\nentropy = 2.328\nsamples = 412\nvalue = [55, 16, 188, 44, 0, 55, 0, 34, 20]"] ;
119 -> 120 ;
121 [label="X[2] <= 0.5\nentropy = 2.203\nsamples = 154\nvalue = [38, 14, 0, 39, 0, 44, 0, 19, 0]"] ;
120 -> 121 ;
122 [label="X[16] <= 0.5\nentropy = 1.407\nsamples = 77\nvalue = [0, 14, 0, 0, 0, 44, 0, 19, 0]"] ;
121 -> 122 ;
123 [label="X[4] <= 0.5\nentropy = 0.883\nsamples = 63\nvalue = [0, 0, 0, 0, 0, 44, 0, 19, 0]"] ;
122 -> 123 ;
124 [label="entropy = 1.0\nsamples = 39\nvalue = [0, 0, 0, 0, 0, 20, 0, 19, 0]"] ;
123 -> 124 ;
125 [label="entropy = 0.0\nsamples = 24\nvalue = [0, 0, 0, 0, 0, 24, 0, 0, 0]"] ;
123 -> 125 ;
126 [label="entropy = 0.0\nsamples = 14\nvalue = [0, 14, 0, 0, 0, 0, 0, 0, 0]"] ;
122 -> 126 ;
127 [label="X[8] <= 0.5\nentropy = 1.0\nsamples = 77\nvalue = [38, 0, 0, 39, 0, 0, 0, 0, 0]"] ;
121 -> 127 ;
128 [label="entropy = 0.0\nsamples = 22\nvalue = [22, 0, 0, 0, 0, 0, 0, 0, 0]"] ;
127 -> 128 ;
129 [label="X[16] <= 0.5\nentropy = 0.87\nsamples = 55\nvalue = [16, 0, 0, 39, 0, 0, 0, 0, 0]"] ;
127 -> 129 ;
130 [label="X[4] <= 0.5\nentropy = 0.371\nsamples = 42\nvalue = [3, 0, 0, 39, 0, 0, 0, 0, 0]"] ;
129 -> 130 ;
131 [label="entropy = 0.0\nsamples = 39\nvalue = [0, 0, 0, 39, 0, 0, 0, 0, 0]"] ;
130 -> 131 ;
132 [label="entropy = 0.0\nsamples = 3\nvalue = [3, 0, 0, 0, 0, 0, 0, 0, 0]"] ;
130 -> 132 ;
133 [label="entropy = 0.0\nsamples = 13\nvalue = [13, 0, 0, 0, 0, 0, 0, 0, 0]"] ;
129 -> 133 ;
134 [label="X[18] <= 0.5\nentropy = 1.475\nsamples = 258\nvalue = [17, 2, 188, 5, 0, 11, 0, 15, 20]"] ;
120 -> 134 ;
135 [label="entropy = 0.0\nsamples = 172\nvalue = [0, 0, 172, 0, 0, 0, 0, 0, 0]"] ;
134 -> 135 ;
136 [label="X[23] <= 0.5\nentropy = 2.587\nsamples = 86\nvalue = [17, 2, 16, 5, 0, 11, 0, 15, 20]"] ;
134 -> 136 ;
137 [label="entropy = 0.0\nsamples = 1\nvalue = [1, 0, 0, 0, 0, 0, 0, 0, 0]"] ;
136 -> 137 ;
138 [label="entropy = 2.589\nsamples = 85\nvalue = [16, 2, 16, 5, 0, 11, 0, 15, 20]"] ;
136 -> 138 ;
139 [label="X[23] <= 0.5\nentropy = 1.0\nsamples = 242\nvalue = [0, 0, 0, 94, 0, 1, 0, 147, 0]"] ;
119 -> 139 ;
140 [label="X[17] <= 0.5\nentropy = 0.084\nsamples = 95\nvalue = [0, 0, 0, 94, 0, 1, 0, 0, 0]"] ;
139 -> 140 ;
141 [label="entropy = 0.0\nsamples = 92\nvalue = [0, 0, 0, 92, 0, 0, 0, 0, 0]"] ;
140 -> 141 ;
142 [label="entropy = 0.918\nsamples = 3\nvalue = [0, 0, 0, 2, 0, 1, 0, 0, 0]"] ;
140 -> 142 ;
143 [label="entropy = 0.0\nsamples = 147\nvalue = [0, 0, 0, 0, 0, 0, 0, 147, 0]"] ;
139 -> 143 ;
144 [label="X[18] <= 0.5\nentropy = 1.737\nsamples = 773\nvalue = [0, 165, 10, 435, 0, 73, 0, 4, 86]"] ;
118 -> 144 ;
145 [label="entropy = 0.0\nsamples = 306\nvalue = [0, 0, 0, 306, 0, 0, 0, 0, 0]"] ;
144 -> 145 ;
146 [label="X[5] <= 0.5\nentropy = 2.089\nsamples = 467\nvalue = [0, 165, 10, 129, 0, 73, 0, 4, 86]"] ;
144 -> 146 ;
147 [label="X[17] <= 0.5\nentropy = 1.665\nsamples = 217\nvalue = [0, 0, 10, 109, 0, 73, 0, 4, 21]"] ;
146 -> 147 ;
148 [label="X[26] <= 0.5\nentropy = 1.746\nsamples = 56\nvalue = [0, 0, 10, 26, 0, 0, 0, 4, 16]"] ;
147 -> 148 ;
149 [label="X[3] <= 0.5\nentropy = 1.236\nsamples = 40\nvalue = [0, 0, 10, 26, 0, 0, 0, 4, 0]"] ;
148 -> 149 ;
150 [label="entropy = 0.863\nsamples = 14\nvalue = [0, 0, 10, 0, 0, 0, 0, 4, 0]"] ;
149 -> 150 ;
151 [label="entropy = 0.0\nsamples = 26\nvalue = [0, 0, 0, 26, 0, 0, 0, 0, 0]"] ;
149 -> 151 ;
152 [label="entropy = 0.0\nsamples = 16\nvalue = [0, 0, 0, 0, 0, 0, 0, 0, 16]"] ;
148 -> 152 ;
153 [label="X[7] <= 0.5\nentropy = 1.166\nsamples = 161\nvalue = [0, 0, 0, 83, 0, 73, 0, 0, 5]"] ;
147 -> 153 ;
154 [label="entropy = 0.0\nsamples = 5\nvalue = [0, 0, 0, 0, 0, 0, 0, 0, 5]"] ;
153 -> 154 ;
155 [label="X[25] <= 0.5\nentropy = 0.997\nsamples = 156\nvalue = [0, 0, 0, 83, 0, 73, 0, 0, 0]"] ;
153 -> 155 ;
156 [label="entropy = 0.995\nsamples = 153\nvalue = [0, 0, 0, 83, 0, 70, 0, 0, 0]"] ;
155 -> 156 ;
157 [label="entropy = 0.0\nsamples = 3\nvalue = [0, 0, 0, 0, 0, 3, 0, 0, 0]"] ;
155 -> 157 ;
158 [label="X[7] <= 0.5\nentropy = 1.192\nsamples = 250\nvalue = [0, 165, 0, 20, 0, 0, 0, 0, 65]"] ;
146 -> 158 ;
159 [label="X[24] <= 0.5\nentropy = 1.329\nsamples = 104\nvalue = [0, 19, 0, 20, 0, 0, 0, 0, 65]"] ;
158 -> 159 ;
160 [label="entropy = 0.0\nsamples = 65\nvalue = [0, 0, 0, 0, 0, 0, 0, 0, 65]"] ;
159 -> 160 ;
161 [label="X[23] <= 0.5\nentropy = 1.0\nsamples = 39\nvalue = [0, 19, 0, 20, 0, 0, 0, 0, 0]"] ;
159 -> 161 ;
162 [label="entropy = 0.0\nsamples = 19\nvalue = [0, 19, 0, 0, 0, 0, 0, 0, 0]"] ;
161 -> 162 ;
163 [label="entropy = 0.0\nsamples = 20\nvalue = [0, 0, 0, 20, 0, 0, 0, 0, 0]"] ;
161 -> 163 ;
164 [label="entropy = 0.0\nsamples = 146\nvalue = [0, 146, 0, 0, 0, 0, 0, 0, 0]"] ;
158 -> 164 ;
165 [label="X[2] <= 0.5\nentropy = 2.674\nsamples = 2518\nvalue = [240, 391, 455, 357, 0, 116, 761, 129, 69]"] ;
1 -> 165 ;
166 [label="X[4] <= 0.5\nentropy = 2.444\nsamples = 2224\nvalue = [0, 386, 446, 353, 0, 113, 744, 117, 65]"] ;
165 -> 166 ;
167 [label="X[8] <= 0.5\nentropy = 2.165\nsamples = 1731\nvalue = [0, 386, 399, 107, 0, 57, 696, 21, 65]"] ;
166 -> 167 ;
168 [label="X[3] <= 0.5\nentropy = 1.556\nsamples = 820\nvalue = [0, 276, 0, 23, 0, 23, 454, 9, 35]"] ;
167 -> 168 ;
169 [label="X[0] <= 0.5\nentropy = 1.337\nsamples = 462\nvalue = [0, 276, 0, 4, 0, 1, 155, 9, 17]"] ;
168 -> 169 ;
170 [label="X[13] <= 0.5\nentropy = 0.551\nsamples = 304\nvalue = [0, 276, 0, 0, 0, 1, 11, 0, 16]"] ;
169 -> 170 ;
171 [label="entropy = 0.0\nsamples = 262\nvalue = [0, 262, 0, 0, 0, 0, 0, 0, 0]"] ;
170 -> 171 ;
172 [label="X[24] <= 0.5\nentropy = 1.693\nsamples = 42\nvalue = [0, 14, 0, 0, 0, 1, 11, 0, 16]"] ;
170 -> 172 ;
173 [label="entropy = 0.0\nsamples = 16\nvalue = [0, 0, 0, 0, 0, 0, 0, 0, 16]"] ;
172 -> 173 ;
174 [label="X[21] <= 0.5\nentropy = 1.187\nsamples = 26\nvalue = [0, 14, 0, 0, 0, 1, 11, 0, 0]"] ;
172 -> 174 ;
175 [label="entropy = 0.0\nsamples = 9\nvalue = [0, 9, 0, 0, 0, 0, 0, 0, 0]"] ;
174 -> 175 ;
176 [label="X[6] <= 0.5\nentropy = 1.166\nsamples = 17\nvalue = [0, 5, 0, 0, 0, 1, 11, 0, 0]"] ;
174 -> 176 ;
177 [label="entropy = 0.961\nsamples = 13\nvalue = [0, 5, 0, 0, 0, 0, 8, 0, 0]"] ;
176 -> 177 ;
178 [label="entropy = 0.811\nsamples = 4\nvalue = [0, 0, 0, 0, 0, 1, 3, 0, 0]"] ;
176 -> 178 ;
179 [label="X[12] <= 0.5\nentropy = 0.538\nsamples = 158\nvalue = [0, 0, 0, 4, 0, 0, 144, 9, 1]"] ;
169 -> 179 ;
180 [label="entropy = 0.0\nsamples = 144\nvalue = [0, 0, 0, 0, 0, 0, 144, 0, 0]"] ;
179 -> 180 ;
181 [label="X[11] <= 0.5\nentropy = 1.198\nsamples = 14\nvalue = [0, 0, 0, 4, 0, 0, 0, 9, 1]"] ;
179 -> 181 ;
182 [label="X[16] <= 0.5\nentropy = 0.469\nsamples = 10\nvalue = [0, 0, 0, 0, 0, 0, 0, 9, 1]"] ;
181 -> 182 ;
183 [label="entropy = 0.0\nsamples = 9\nvalue = [0, 0, 0, 0, 0, 0, 0, 9, 0]"] ;
182 -> 183 ;
184 [label="entropy = 0.0\nsamples = 1\nvalue = [0, 0, 0, 0, 0, 0, 0, 0, 1]"] ;
182 -> 184 ;
185 [label="entropy = 0.0\nsamples = 4\nvalue = [0, 0, 0, 4, 0, 0, 0, 0, 0]"] ;
181 -> 185 ;
186 [label="X[23] <= 0.5\nentropy = 0.906\nsamples = 358\nvalue = [0, 0, 0, 19, 0, 22, 299, 0, 18]"] ;
168 -> 186 ;
187 [label="X[17] <= 0.5\nentropy = 1.927\nsamples = 97\nvalue = [0, 0, 0, 19, 0, 22, 38, 0, 18]"] ;
186 -> 187 ;
188 [label="X[9] <= 0.5\nentropy = 1.033\nsamples = 55\nvalue = [0, 0, 0, 1, 0, 0, 36, 0, 18]"] ;
187 -> 188 ;
189 [label="X[15] <= 0.5\nentropy = 0.222\nsamples = 28\nvalue = [0, 0, 0, 1, 0, 0, 27, 0, 0]"] ;
188 -> 189 ;
190 [label="entropy = 0.811\nsamples = 4\nvalue = [0, 0, 0, 1, 0, 0, 3, 0, 0]"] ;
189 -> 190 ;
191 [label="entropy = 0.0\nsamples = 24\nvalue = [0, 0, 0, 0, 0, 0, 24, 0, 0]"] ;
189 -> 191 ;
192 [label="X[7] <= 0.5\nentropy = 0.918\nsamples = 27\nvalue = [0, 0, 0, 0, 0, 0, 9, 0, 18]"] ;
188 -> 192 ;
193 [label="entropy = 0.0\nsamples = 9\nvalue = [0, 0, 0, 0, 0, 0, 9, 0, 0]"] ;
192 -> 193 ;
194 [label="entropy = 0.0\nsamples = 18\nvalue = [0, 0, 0, 0, 0, 0, 0, 0, 18]"] ;
192 -> 194 ;
195 [label="X[12] <= 0.5\nentropy = 1.222\nsamples = 42\nvalue = [0, 0, 0, 18, 0, 22, 2, 0, 0]"] ;
187 -> 195 ;
196 [label="entropy = 0.0\nsamples = 2\nvalue = [0, 0, 0, 0, 0, 0, 2, 0, 0]"] ;
195 -> 196 ;
197 [label="X[9] <= 0.5\nentropy = 0.993\nsamples = 40\nvalue = [0, 0, 0, 18, 0, 22, 0, 0, 0]"] ;
195 -> 197 ;
198 [label="entropy = 0.996\nsamples = 39\nvalue = [0, 0, 0, 18, 0, 21, 0, 0, 0]"] ;
197 -> 198 ;
199 [label="entropy = 0.0\nsamples = 1\nvalue = [0, 0, 0, 0, 0, 1, 0, 0, 0]"] ;
197 -> 199 ;
200 [label="entropy = 0.0\nsamples = 261\nvalue = [0, 0, 0, 0, 0, 0, 261, 0, 0]"] ;
186 -> 200 ;
201 [label="X[11] <= 0.5\nentropy = 2.137\nsamples = 911\nvalue = [0, 110, 399, 84, 0, 34, 242, 12, 30]"] ;
167 -> 201 ;
202 [label="X[13] <= 0.5\nentropy = 2.038\nsamples = 146\nvalue = [0, 6, 38, 0, 0, 17, 66, 3, 16]"] ;
201 -> 202 ;
203 [label="X[26] <= 0.5\nentropy = 1.246\nsamples = 107\nvalue = [0, 3, 35, 0, 0, 0, 66, 3, 0]"] ;
202 -> 203 ;
204 [label="X[17] <= 0.5\nentropy = 1.28\nsamples = 21\nvalue = [0, 2, 15, 0, 0, 0, 1, 3, 0]"] ;
203 -> 204 ;
205 [label="X[9] <= 0.5\nentropy = 1.906\nsamples = 8\nvalue = [0, 2, 2, 0, 0, 0, 1, 3, 0]"] ;
204 -> 205 ;
206 [label="X[23] <= 0.5\nentropy = 0.918\nsamples = 3\nvalue = [0, 2, 0, 0, 0, 0, 1, 0, 0]"] ;
205 -> 206 ;
207 [label="entropy = 0.0\nsamples = 1\nvalue = [0, 0, 0, 0, 0, 0, 1, 0, 0]"] ;
206 -> 207 ;
208 [label="entropy = 0.0\nsamples = 2\nvalue = [0, 2, 0, 0, 0, 0, 0, 0, 0]"] ;
206 -> 208 ;
209 [label="entropy = 0.971\nsamples = 5\nvalue = [0, 0, 2, 0, 0, 0, 0, 3, 0]"] ;
205 -> 209 ;
210 [label="entropy = 0.0\nsamples = 13\nvalue = [0, 0, 13, 0, 0, 0, 0, 0, 0]"] ;
204 -> 210 ;
211 [label="X[9] <= 0.5\nentropy = 0.869\nsamples = 86\nvalue = [0, 1, 20, 0, 0, 0, 65, 0, 0]"] ;
203 -> 211 ;
212 [label="entropy = 0.0\nsamples = 47\nvalue = [0, 0, 0, 0, 0, 0, 47, 0, 0]"] ;
211 -> 212 ;
213 [label="X[22] <= 0.5\nentropy = 1.144\nsamples = 39\nvalue = [0, 1, 20, 0, 0, 0, 18, 0, 0]"] ;
211 -> 213 ;
214 [label="entropy = 1.096\nsamples = 11\nvalue = [0, 1, 8, 0, 0, 0, 2, 0, 0]"] ;
213 -> 214 ;
215 [label="entropy = 0.985\nsamples = 28\nvalue = [0, 0, 12, 0, 0, 0, 16, 0, 0]"] ;
213 -> 215 ;
216 [label="X[10] <= 0.5\nentropy = 1.619\nsamples = 39\nvalue = [0, 3, 3, 0, 0, 17, 0, 0, 16]"] ;
202 -> 216 ;
217 [label="X[17] <= 0.5\nentropy = 0.323\nsamples = 17\nvalue = [0, 0, 1, 0, 0, 0, 0, 0, 16]"] ;
216 -> 217 ;
218 [label="entropy = 0.918\nsamples = 3\nvalue = [0, 0, 1, 0, 0, 0, 0, 0, 2]"] ;
217 -> 218 ;
219 [label="entropy = 0.0\nsamples = 14\nvalue = [0, 0, 0, 0, 0, 0, 0, 0, 14]"] ;
217 -> 219 ;
220 [label="X[15] <= 0.5\nentropy = 0.994\nsamples = 22\nvalue = [0, 3, 2, 0, 0, 17, 0, 0, 0]"] ;
216 -> 220 ;
221 [label="X[1] <= 0.5\nentropy = 0.485\nsamples = 19\nvalue = [0, 0, 2, 0, 0, 17, 0, 0, 0]"] ;
220 -> 221 ;
222 [label="X[26] <= 0.5\nentropy = 0.503\nsamples = 18\nvalue = [0, 0, 2, 0, 0, 16, 0, 0, 0]"] ;
221 -> 222 ;
223 [label="entropy = 0.65\nsamples = 6\nvalue = [0, 0, 1, 0, 0, 5, 0, 0, 0]"] ;
222 -> 223 ;
224 [label="entropy = 0.414\nsamples = 12\nvalue = [0, 0, 1, 0, 0, 11, 0, 0, 0]"] ;
222 -> 224 ;
225 [label="entropy = 0.0\nsamples = 1\nvalue = [0, 0, 0, 0, 0, 1, 0, 0, 0]"] ;
221 -> 225 ;
226 [label="entropy = 0.0\nsamples = 3\nvalue = [0, 3, 0, 0, 0, 0, 0, 0, 0]"] ;
220 -> 226 ;
227 [label="X[3] <= 0.5\nentropy = 2.043\nsamples = 765\nvalue = [0, 104, 361, 84, 0, 17, 176, 9, 14]"] ;
201 -> 227 ;
228 [label="X[12] <= 0.5\nentropy = 1.974\nsamples = 707\nvalue = [0, 104, 359, 57, 0, 16, 150, 9, 12]"] ;
227 -> 228 ;
229 [label="X[16] <= 0.5\nentropy = 1.988\nsamples = 469\nvalue = [0, 40, 248, 41, 0, 16, 103, 9, 12]"] ;
228 -> 229 ;
230 [label="X[22] <= 0.5\nentropy = 1.983\nsamples = 461\nvalue = [0, 40, 244, 37, 0, 16, 103, 9, 12]"] ;
229 -> 230 ;
231 [label="entropy = 1.976\nsamples = 458\nvalue = [0, 38, 244, 37, 0, 16, 102, 9, 12]"] ;
230 -> 231 ;
232 [label="entropy = 0.918\nsamples = 3\nvalue = [0, 2, 0, 0, 0, 0, 1, 0, 0]"] ;
230 -> 232 ;
233 [label="entropy = 1.0\nsamples = 8\nvalue = [0, 0, 4, 4, 0, 0, 0, 0, 0]"] ;
229 -> 233 ;
234 [label="X[17] <= 0.5\nentropy = 1.747\nsamples = 238\nvalue = [0, 64, 111, 16, 0, 0, 47, 0, 0]"] ;
228 -> 234 ;
235 [label="entropy = 0.0\nsamples = 16\nvalue = [0, 0, 0, 0, 0, 0, 16, 0, 0]"] ;
234 -> 235 ;
236 [label="X[25] <= 0.5\nentropy = 1.687\nsamples = 222\nvalue = [0, 64, 111, 16, 0, 0, 31, 0, 0]"] ;
234 -> 236 ;
237 [label="X[22] <= 0.5\nentropy = 1.624\nsamples = 210\nvalue = [0, 60, 109, 10, 0, 0, 31, 0, 0]"] ;
236 -> 237 ;
238 [label="entropy = 1.656\nsamples = 200\nvalue = [0, 60, 99, 10, 0, 0, 31, 0, 0]"] ;
237 -> 238 ;
239 [label="entropy = 0.0\nsamples = 10\nvalue = [0, 0, 10, 0, 0, 0, 0, 0, 0]"] ;
237 -> 239 ;
240 [label="entropy = 1.459\nsamples = 12\nvalue = [0, 4, 2, 6, 0, 0, 0, 0, 0]"] ;
236 -> 240 ;
241 [label="X[12] <= 0.5\nentropy = 1.468\nsamples = 58\nvalue = [0, 0, 2, 27, 0, 1, 26, 0, 2]"] ;
227 -> 241 ;
242 [label="entropy = 0.0\nsamples = 2\nvalue = [0, 0, 0, 0, 0, 0, 0, 0, 2]"] ;
241 -> 242 ;
243 [label="X[26] <= 0.5\nentropy = 1.297\nsamples = 56\nvalue = [0, 0, 2, 27, 0, 1, 26, 0, 0]"] ;
241 -> 243 ;
244 [label="X[22] <= 0.5\nentropy = 0.811\nsamples = 4\nvalue = [0, 0, 0, 0, 0, 1, 3, 0, 0]"] ;
243 -> 244 ;
245 [label="entropy = 0.0\nsamples = 1\nvalue = [0, 0, 0, 0, 0, 0, 1, 0, 0]"] ;
244 -> 245 ;
246 [label="entropy = 0.918\nsamples = 3\nvalue = [0, 0, 0, 0, 0, 1, 2, 0, 0]"] ;
244 -> 246 ;
247 [label="entropy = 1.192\nsamples = 52\nvalue = [0, 0, 2, 27, 0, 0, 23, 0, 0]"] ;
243 -> 247 ;
248 [label="X[10] <= 0.5\nentropy = 1.967\nsamples = 493\nvalue = [0, 0, 47, 246, 0, 56, 48, 96, 0]"] ;
166 -> 248 ;
249 [label="X[6] <= 0.5\nentropy = 1.449\nsamples = 399\nvalue = [0, 0, 47, 246, 0, 1, 11, 94, 0]"] ;
248 -> 249 ;
250 [label="X[0] <= 0.5\nentropy = 1.585\nsamples = 118\nvalue = [0, 0, 47, 4, 0, 1, 11, 55, 0]"] ;
249 -> 250 ;
251 [label="entropy = 0.0\nsamples = 47\nvalue = [0, 0, 47, 0, 0, 0, 0, 0, 0]"] ;
250 -> 251 ;
252 [label="X[23] <= 0.5\nentropy = 1.023\nsamples = 71\nvalue = [0, 0, 0, 4, 0, 1, 11, 55, 0]"] ;
250 -> 252 ;
253 [label="X[8] <= 0.5\nentropy = 0.971\nsamples = 5\nvalue = [0, 0, 0, 2, 0, 0, 3, 0, 0]"] ;
252 -> 253 ;
254 [label="entropy = 0.0\nsamples = 2\nvalue = [0, 0, 0, 0, 0, 0, 2, 0, 0]"] ;
253 -> 254 ;
255 [label="X[9] <= 0.5\nentropy = 0.918\nsamples = 3\nvalue = [0, 0, 0, 2, 0, 0, 1, 0, 0]"] ;
253 -> 255 ;
256 [label="entropy = 0.0\nsamples = 2\nvalue = [0, 0, 0, 2, 0, 0, 0, 0, 0]"] ;
255 -> 256 ;
257 [label="entropy = 0.0\nsamples = 1\nvalue = [0, 0, 0, 0, 0, 0, 1, 0, 0]"] ;
255 -> 257 ;
258 [label="X[24] <= 0.5\nentropy = 0.833\nsamples = 66\nvalue = [0, 0, 0, 2, 0, 1, 8, 55, 0]"] ;
252 -> 258 ;
259 [label="X[13] <= 0.5\nentropy = 0.754\nsamples = 62\nvalue = [0, 0, 0, 2, 0, 0, 8, 52, 0]"] ;
258 -> 259 ;
260 [label="entropy = 0.0\nsamples = 1\nvalue = [0, 0, 0, 0, 0, 0, 1, 0, 0]"] ;
259 -> 260 ;
261 [label="entropy = 0.716\nsamples = 61\nvalue = [0, 0, 0, 2, 0, 0, 7, 52, 0]"] ;
259 -> 261 ;
262 [label="entropy = 0.811\nsamples = 4\nvalue = [0, 0, 0, 0, 0, 1, 0, 3, 0]"] ;
258 -> 262 ;
263 [label="X[17] <= 0.5\nentropy = 0.581\nsamples = 281\nvalue = [0, 0, 0, 242, 0, 0, 0, 39, 0]"] ;
249 -> 263 ;
264 [label="entropy = 0.0\nsamples = 25\nvalue = [0, 0, 0, 25, 0, 0, 0, 0, 0]"] ;
263 -> 264 ;
265 [label="entropy = 0.616\nsamples = 256\nvalue = [0, 0, 0, 217, 0, 0, 0, 39, 0]"] ;
263 -> 265 ;
266 [label="X[15] <= 0.5\nentropy = 1.1\nsamples = 94\nvalue = [0, 0, 0, 0, 0, 55, 37, 2, 0]"] ;
248 -> 266 ;
267 [label="X[21] <= 0.5\nentropy = 0.575\nsamples = 62\nvalue = [0, 0, 0, 0, 0, 55, 6, 1, 0]"] ;
266 -> 267 ;
268 [label="X[13] <= 0.5\nentropy = 1.061\nsamples = 8\nvalue = [0, 0, 0, 0, 0, 1, 6, 1, 0]"] ;
267 -> 268 ;
269 [label="entropy = 0.0\nsamples = 6\nvalue = [0, 0, 0, 0, 0, 0, 6, 0, 0]"] ;
268 -> 269 ;
270 [label="X[24] <= 0.5\nentropy = 1.0\nsamples = 2\nvalue = [0, 0, 0, 0, 0, 1, 0, 1, 0]"] ;
268 -> 270 ;
271 [label="entropy = 0.0\nsamples = 1\nvalue = [0, 0, 0, 0, 0, 0, 0, 1, 0]"] ;
270 -> 271 ;
272 [label="entropy = 0.0\nsamples = 1\nvalue = [0, 0, 0, 0, 0, 1, 0, 0, 0]"] ;
270 -> 272 ;
273 [label="entropy = 0.0\nsamples = 54\nvalue = [0, 0, 0, 0, 0, 54, 0, 0, 0]"] ;
267 -> 273 ;
274 [label="X[21] <= 0.5\nentropy = 0.201\nsamples = 32\nvalue = [0, 0, 0, 0, 0, 0, 31, 1, 0]"] ;
266 -> 274 ;
275 [label="entropy = 0.0\nsamples = 1\nvalue = [0, 0, 0, 0, 0, 0, 0, 1, 0]"] ;
274 -> 275 ;
276 [label="entropy = 0.0\nsamples = 31\nvalue = [0, 0, 0, 0, 0, 0, 31, 0, 0]"] ;
274 -> 276 ;
277 [label="X[17] <= 0.5\nentropy = 1.155\nsamples = 294\nvalue = [240, 5, 9, 4, 0, 3, 17, 12, 4]"] ;
165 -> 277 ;
278 [label="X[7] <= 0.5\nentropy = 2.512\nsamples = 23\nvalue = [6, 4, 3, 0, 0, 0, 2, 4, 4]"] ;
277 -> 278 ;
279 [label="X[5] <= 0.5\nentropy = 1.889\nsamples = 15\nvalue = [6, 0, 3, 0, 0, 0, 2, 4, 0]"] ;
278 -> 279 ;
280 [label="X[25] <= 0.5\nentropy = 1.0\nsamples = 8\nvalue = [4, 0, 0, 0, 0, 0, 0, 4, 0]"] ;
279 -> 280 ;
281 [label="entropy = 0.0\nsamples = 4\nvalue = [0, 0, 0, 0, 0, 0, 0, 4, 0]"] ;
280 -> 281 ;
282 [label="entropy = 0.0\nsamples = 4\nvalue = [4, 0, 0, 0, 0, 0, 0, 0, 0]"] ;
280 -> 282 ;
283 [label="X[12] <= 0.5\nentropy = 1.557\nsamples = 7\nvalue = [2, 0, 3, 0, 0, 0, 2, 0, 0]"] ;
279 -> 283 ;
284 [label="entropy = 0.971\nsamples = 5\nvalue = [0, 0, 3, 0, 0, 0, 2, 0, 0]"] ;
283 -> 284 ;
285 [label="entropy = 0.0\nsamples = 2\nvalue = [2, 0, 0, 0, 0, 0, 0, 0, 0]"] ;
283 -> 285 ;
286 [label="X[22] <= 0.5\nentropy = 1.0\nsamples = 8\nvalue = [0, 4, 0, 0, 0, 0, 0, 0, 4]"] ;
278 -> 286 ;
287 [label="entropy = 0.0\nsamples = 4\nvalue = [0, 4, 0, 0, 0, 0, 0, 0, 0]"] ;
286 -> 287 ;
288 [label="entropy = 0.0\nsamples = 4\nvalue = [0, 0, 0, 0, 0, 0, 0, 0, 4]"] ;
286 -> 288 ;
289 [label="X[9] <= 0.5\nentropy = 0.877\nsamples = 271\nvalue = [234, 1, 6, 4, 0, 3, 15, 8, 0]"] ;
277 -> 289 ;
290 [label="X[21] <= 0.5\nentropy = 0.607\nsamples = 252\nvalue = [230, 1, 3, 4, 0, 1, 11, 2, 0]"] ;
289 -> 290 ;
291 [label="X[6] <= 0.5\nentropy = 0.44\nsamples = 244\nvalue = [229, 0, 2, 1, 0, 1, 9, 2, 0]"] ;
290 -> 291 ;
292 [label="X[24] <= 0.5\nentropy = 0.177\nsamples = 222\nvalue = [217, 0, 2, 0, 0, 0, 3, 0, 0]"] ;
291 -> 292 ;
293 [label="X[23] <= 0.5\nentropy = 0.117\nsamples = 220\nvalue = [217, 0, 2, 0, 0, 0, 1, 0, 0]"] ;
292 -> 293 ;
294 [label="X[11] <= 0.5\nentropy = 0.619\nsamples = 13\nvalue = [11, 0, 2, 0, 0, 0, 0, 0, 0]"] ;
293 -> 294 ;
295 [label="entropy = 0.764\nsamples = 9\nvalue = [7, 0, 2, 0, 0, 0, 0, 0, 0]"] ;
294 -> 295 ;
296 [label="entropy = 0.0\nsamples = 4\nvalue = [4, 0, 0, 0, 0, 0, 0, 0, 0]"] ;
294 -> 296 ;
297 [label="X[3] <= 0.5\nentropy = 0.044\nsamples = 207\nvalue = [206, 0, 0, 0, 0, 0, 1, 0, 0]"] ;
293 -> 297 ;
298 [label="entropy = 0.0\nsamples = 204\nvalue = [204, 0, 0, 0, 0, 0, 0, 0, 0]"] ;
297 -> 298 ;
299 [label="entropy = 0.918\nsamples = 3\nvalue = [2, 0, 0, 0, 0, 0, 1, 0, 0]"] ;
297 -> 299 ;
300 [label="entropy = 0.0\nsamples = 2\nvalue = [0, 0, 0, 0, 0, 0, 2, 0, 0]"] ;
292 -> 300 ;
301 [label="entropy = 1.708\nsamples = 22\nvalue = [12, 0, 0, 1, 0, 1, 6, 2, 0]"] ;
291 -> 301 ;
302 [label="entropy = 2.156\nsamples = 8\nvalue = [1, 1, 1, 3, 0, 0, 2, 0, 0]"] ;
290 -> 302 ;
303 [label="X[7] <= 0.5\nentropy = 2.234\nsamples = 19\nvalue = [4, 0, 3, 0, 0, 2, 4, 6, 0]"] ;
289 -> 303 ;
304 [label="entropy = 2.19\nsamples = 17\nvalue = [4, 0, 3, 0, 0, 2, 2, 6, 0]"] ;
303 -> 304 ;
305 [label="entropy = 0.0\nsamples = 2\nvalue = [0, 0, 0, 0, 0, 0, 2, 0, 0]"] ;
303 -> 305 ;
306 [label="X[2] <= 0.5\nentropy = 1.954\nsamples = 2102\nvalue = [657, 15, 84, 40, 1000, 23, 230, 40, 13]"] ;
0 -> 306 [labeldistance=2.5, labelangle=-45, headlabel="False"] ;
307 [label="X[26] <= 0.5\nentropy = 0.906\nsamples = 758\nvalue = [0, 11, 31, 17, 657, 4, 21, 11, 6]"] ;
306 -> 307 ;
308 [label="X[8] <= 0.5\nentropy = 2.731\nsamples = 49\nvalue = [0, 6, 10, 6, 11, 4, 6, 6, 0]"] ;
307 -> 308 ;
309 [label="X[0] <= 0.5\nentropy = 2.441\nsamples = 33\nvalue = [0, 6, 0, 4, 11, 4, 3, 5, 0]"] ;
308 -> 309 ;
310 [label="X[6] <= 0.5\nentropy = 1.747\nsamples = 19\nvalue = [0, 6, 0, 4, 8, 1, 0, 0, 0]"] ;
309 -> 310 ;
311 [label="X[3] <= 0.5\nentropy = 1.614\nsamples = 13\nvalue = [0, 6, 0, 1, 5, 1, 0, 0, 0]"] ;
310 -> 311 ;
312 [label="X[11] <= 0.5\nentropy = 0.592\nsamples = 7\nvalue = [0, 6, 0, 0, 1, 0, 0, 0, 0]"] ;
311 -> 312 ;
313 [label="entropy = 1.0\nsamples = 2\nvalue = [0, 1, 0, 0, 1, 0, 0, 0, 0]"] ;
312 -> 313 ;
314 [label="entropy = 0.0\nsamples = 5\nvalue = [0, 5, 0, 0, 0, 0, 0, 0, 0]"] ;
312 -> 314 ;
315 [label="X[23] <= 0.5\nentropy = 1.252\nsamples = 6\nvalue = [0, 0, 0, 1, 4, 1, 0, 0, 0]"] ;
311 -> 315 ;
316 [label="entropy = 1.371\nsamples = 5\nvalue = [0, 0, 0, 1, 3, 1, 0, 0, 0]"] ;
315 -> 316 ;
317 [label="entropy = 0.0\nsamples = 1\nvalue = [0, 0, 0, 0, 1, 0, 0, 0, 0]"] ;
315 -> 317 ;
318 [label="X[17] <= 0.5\nentropy = 1.0\nsamples = 6\nvalue = [0, 0, 0, 3, 3, 0, 0, 0, 0]"] ;
310 -> 318 ;
319 [label="entropy = 0.0\nsamples = 3\nvalue = [0, 0, 0, 0, 3, 0, 0, 0, 0]"] ;
318 -> 319 ;
320 [label="entropy = 0.0\nsamples = 3\nvalue = [0, 0, 0, 3, 0, 0, 0, 0, 0]"] ;
318 -> 320 ;
321 [label="X[6] <= 0.5\nentropy = 1.959\nsamples = 14\nvalue = [0, 0, 0, 0, 3, 3, 3, 5, 0]"] ;
309 -> 321 ;
322 [label="X[20] <= 0.5\nentropy = 1.0\nsamples = 6\nvalue = [0, 0, 0, 0, 0, 3, 3, 0, 0]"] ;
321 -> 322 ;
323 [label="entropy = 0.0\nsamples = 3\nvalue = [0, 0, 0, 0, 0, 3, 0, 0, 0]"] ;
322 -> 323 ;
324 [label="entropy = 0.0\nsamples = 3\nvalue = [0, 0, 0, 0, 0, 0, 3, 0, 0]"] ;
322 -> 324 ;
325 [label="X[23] <= 0.5\nentropy = 0.954\nsamples = 8\nvalue = [0, 0, 0, 0, 3, 0, 0, 5, 0]"] ;
321 -> 325 ;
326 [label="entropy = 0.0\nsamples = 3\nvalue = [0, 0, 0, 0, 3, 0, 0, 0, 0]"] ;
325 -> 326 ;
327 [label="entropy = 0.0\nsamples = 5\nvalue = [0, 0, 0, 0, 0, 0, 0, 5, 0]"] ;
325 -> 327 ;
328 [label="X[21] <= 0.5\nentropy = 1.502\nsamples = 16\nvalue = [0, 0, 10, 2, 0, 0, 3, 1, 0]"] ;
308 -> 328 ;
329 [label="X[20] <= 0.5\nentropy = 1.095\nsamples = 14\nvalue = [0, 0, 10, 0, 0, 0, 3, 1, 0]"] ;
328 -> 329 ;
330 [label="entropy = 0.0\nsamples = 7\nvalue = [0, 0, 7, 0, 0, 0, 0, 0, 0]"] ;
329 -> 330 ;
331 [label="X[1] <= 0.5\nentropy = 1.449\nsamples = 7\nvalue = [0, 0, 3, 0, 0, 0, 3, 1, 0]"] ;
329 -> 331 ;
332 [label="entropy = 0.0\nsamples = 2\nvalue = [0, 0, 0, 0, 0, 0, 2, 0, 0]"] ;
331 -> 332 ;
333 [label="entropy = 1.371\nsamples = 5\nvalue = [0, 0, 3, 0, 0, 0, 1, 1, 0]"] ;
331 -> 333 ;
334 [label="entropy = 0.0\nsamples = 2\nvalue = [0, 0, 0, 2, 0, 0, 0, 0, 0]"] ;
328 -> 334 ;
335 [label="X[21] <= 0.5\nentropy = 0.643\nsamples = 709\nvalue = [0, 5, 21, 11, 646, 0, 15, 5, 6]"] ;
307 -> 335 ;
336 [label="X[18] <= 0.5\nentropy = 0.509\nsamples = 689\nvalue = [0, 5, 19, 5, 643, 0, 7, 5, 5]"] ;
335 -> 336 ;
337 [label="X[6] <= 0.5\nentropy = 0.317\nsamples = 565\nvalue = [0, 2, 7, 5, 543, 0, 7, 0, 1]"] ;
336 -> 337 ;
338 [label="X[15] <= 0.5\nentropy = 0.208\nsamples = 533\nvalue = [0, 2, 7, 2, 520, 0, 2, 0, 0]"] ;
337 -> 338 ;
339 [label="X[9] <= 0.5\nentropy = 0.126\nsamples = 519\nvalue = [0, 1, 4, 1, 512, 0, 1, 0, 0]"] ;
338 -> 339 ;
340 [label="X[0] <= 0.5\nentropy = 0.061\nsamples = 512\nvalue = [0, 0, 1, 1, 509, 0, 1, 0, 0]"] ;
339 -> 340 ;
341 [label="X[3] <= 0.5\nentropy = 0.022\nsamples = 460\nvalue = [0, 0, 0, 0, 459, 0, 1, 0, 0]"] ;
340 -> 341 ;
342 [label="entropy = 0.022\nsamples = 459\nvalue = [0, 0, 0, 0, 458, 0, 1, 0, 0]"] ;
341 -> 342 ;
343 [label="entropy = 0.0\nsamples = 1\nvalue = [0, 0, 0, 0, 1, 0, 0, 0, 0]"] ;
341 -> 343 ;
344 [label="X[20] <= 0.5\nentropy = 0.274\nsamples = 52\nvalue = [0, 0, 1, 1, 50, 0, 0, 0, 0]"] ;
340 -> 344 ;
345 [label="X[7] <= 0.5\nentropy = 0.196\nsamples = 33\nvalue = [0, 0, 1, 0, 32, 0, 0, 0, 0]"] ;
344 -> 345 ;
346 [label="X[23] <= 0.5\nentropy = 0.337\nsamples = 16\nvalue = [0, 0, 1, 0, 15, 0, 0, 0, 0]"] ;
345 -> 346 ;
347 [label="entropy = 0.0\nsamples = 12\nvalue = [0, 0, 0, 0, 12, 0, 0, 0, 0]"] ;
346 -> 347 ;
348 [label="X[4] <= 0.5\nentropy = 0.811\nsamples = 4\nvalue = [0, 0, 1, 0, 3, 0, 0, 0, 0]"] ;
346 -> 348 ;
349 [label="X[17] <= 0.5\nentropy = 1.0\nsamples = 2\nvalue = [0, 0, 1, 0, 1, 0, 0, 0, 0]"] ;
348 -> 349 ;
350 [label="entropy = 0.0\nsamples = 1\nvalue = [0, 0, 0, 0, 1, 0, 0, 0, 0]"] ;
349 -> 350 ;
351 [label="entropy = 0.0\nsamples = 1\nvalue = [0, 0, 1, 0, 0, 0, 0, 0, 0]"] ;
349 -> 351 ;
352 [label="entropy = 0.0\nsamples = 2\nvalue = [0, 0, 0, 0, 2, 0, 0, 0, 0]"] ;
348 -> 352 ;
353 [label="entropy = 0.0\nsamples = 17\nvalue = [0, 0, 0, 0, 17, 0, 0, 0, 0]"] ;
345 -> 353 ;
354 [label="X[10] <= 0.5\nentropy = 0.297\nsamples = 19\nvalue = [0, 0, 0, 1, 18, 0, 0, 0, 0]"] ;
344 -> 354 ;
355 [label="X[16] <= 0.5\nentropy = 0.65\nsamples = 6\nvalue = [0, 0, 0, 1, 5, 0, 0, 0, 0]"] ;
354 -> 355 ;
356 [label="entropy = 1.0\nsamples = 2\nvalue = [0, 0, 0, 1, 1, 0, 0, 0, 0]"] ;
355 -> 356 ;
357 [label="entropy = 0.0\nsamples = 4\nvalue = [0, 0, 0, 0, 4, 0, 0, 0, 0]"] ;
355 -> 357 ;
358 [label="entropy = 0.0\nsamples = 13\nvalue = [0, 0, 0, 0, 13, 0, 0, 0, 0]"] ;
354 -> 358 ;
359 [label="X[19] <= 0.5\nentropy = 1.449\nsamples = 7\nvalue = [0, 1, 3, 0, 3, 0, 0, 0, 0]"] ;
339 -> 359 ;
360 [label="entropy = 1.459\nsamples = 6\nvalue = [0, 1, 3, 0, 2, 0, 0, 0, 0]"] ;
359 -> 360 ;
361 [label="entropy = 0.0\nsamples = 1\nvalue = [0, 0, 0, 0, 1, 0, 0, 0, 0]"] ;
359 -> 361 ;
362 [label="entropy = 1.753\nsamples = 14\nvalue = [0, 1, 3, 1, 8, 0, 1, 0, 0]"] ;
338 -> 362 ;
363 [label="X[20] <= 0.5\nentropy = 1.237\nsamples = 32\nvalue = [0, 0, 0, 3, 23, 0, 5, 0, 1]"] ;
337 -> 363 ;
364 [label="X[1] <= 0.5\nentropy = 1.0\nsamples = 2\nvalue = [0, 0, 0, 1, 0, 0, 0, 0, 1]"] ;
363 -> 364 ;
365 [label="entropy = 0.0\nsamples = 1\nvalue = [0, 0, 0, 0, 0, 0, 0, 0, 1]"] ;
364 -> 365 ;
366 [label="entropy = 0.0\nsamples = 1\nvalue = [0, 0, 0, 1, 0, 0, 0, 0, 0]"] ;
364 -> 366 ;
367 [label="X[23] <= 0.5\nentropy = 0.985\nsamples = 30\nvalue = [0, 0, 0, 2, 23, 0, 5, 0, 0]"] ;
363 -> 367 ;
368 [label="entropy = 0.0\nsamples = 1\nvalue = [0, 0, 0, 0, 1, 0, 0, 0, 0]"] ;
367 -> 368 ;
369 [label="entropy = 1.006\nsamples = 29\nvalue = [0, 0, 0, 2, 22, 0, 5, 0, 0]"] ;
367 -> 369 ;
370 [label="X[8] <= 0.5\nentropy = 1.053\nsamples = 124\nvalue = [0, 3, 12, 0, 100, 0, 0, 5, 4]"] ;
336 -> 370 ;
371 [label="X[1] <= 0.5\nentropy = 1.0\nsamples = 2\nvalue = [0, 1, 0, 0, 1, 0, 0, 0, 0]"] ;
370 -> 371 ;
372 [label="entropy = 0.0\nsamples = 1\nvalue = [0, 0, 0, 0, 1, 0, 0, 0, 0]"] ;
371 -> 372 ;
373 [label="entropy = 0.0\nsamples = 1\nvalue = [0, 1, 0, 0, 0, 0, 0, 0, 0]"] ;
371 -> 373 ;
374 [label="entropy = 1.021\nsamples = 122\nvalue = [0, 2, 12, 0, 99, 0, 0, 5, 4]"] ;
370 -> 374 ;
375 [label="X[11] <= 0.5\nentropy = 2.009\nsamples = 20\nvalue = [0, 0, 2, 6, 3, 0, 8, 0, 1]"] ;
335 -> 375 ;
376 [label="entropy = 0.0\nsamples = 1\nvalue = [0, 0, 0, 0, 0, 0, 1, 0, 0]"] ;
375 -> 376 ;
377 [label="entropy = 2.042\nsamples = 19\nvalue = [0, 0, 2, 6, 3, 0, 7, 0, 1]"] ;
375 -> 377 ;
378 [label="X[20] <= 0.5\nentropy = 1.98\nsamples = 1344\nvalue = [657, 4, 53, 23, 343, 19, 209, 29, 7]"] ;
306 -> 378 ;
379 [label="X[23] <= 0.5\nentropy = 1.016\nsamples = 210\nvalue = [123, 0, 1, 0, 86, 0, 0, 0, 0]"] ;
378 -> 379 ;
380 [label="entropy = 0.0\nsamples = 1\nvalue = [0, 0, 0, 0, 1, 0, 0, 0, 0]"] ;
379 -> 380 ;
381 [label="X[18] <= 0.5\nentropy = 1.015\nsamples = 209\nvalue = [123, 0, 1, 0, 85, 0, 0, 0, 0]"] ;
379 -> 381 ;
382 [label="entropy = 1.016\nsamples = 208\nvalue = [122, 0, 1, 0, 85, 0, 0, 0, 0]"] ;
381 -> 382 ;
383 [label="entropy = 0.0\nsamples = 1\nvalue = [1, 0, 0, 0, 0, 0, 0, 0, 0]"] ;
381 -> 383 ;
384 [label="X[7] <= 0.5\nentropy = 2.073\nsamples = 1134\nvalue = [534, 4, 52, 23, 257, 19, 209, 29, 7]"] ;
378 -> 384 ;
385 [label="X[11] <= 0.5\nentropy = 2.098\nsamples = 1082\nvalue = [504, 4, 52, 23, 235, 19, 209, 29, 7]"] ;
384 -> 385 ;
386 [label="entropy = 0.828\nsamples = 23\nvalue = [6, 0, 0, 0, 17, 0, 0, 0, 0]"] ;
385 -> 386 ;
387 [label="X[16] <= 0.5\nentropy = 2.101\nsamples = 1059\nvalue = [498, 4, 52, 23, 218, 19, 209, 29, 7]"] ;
385 -> 387 ;
388 [label="X[22] <= 0.5\nentropy = 2.114\nsamples = 1040\nvalue = [484, 4, 52, 23, 213, 19, 209, 29, 7]"] ;
387 -> 388 ;
389 [label="X[5] <= 0.5\nentropy = 2.129\nsamples = 1011\nvalue = [465, 4, 51, 23, 205, 19, 208, 29, 7]"] ;
388 -> 389 ;
390 [label="entropy = 0.811\nsamples = 4\nvalue = [1, 0, 0, 0, 3, 0, 0, 0, 0]"] ;
389 -> 390 ;
391 [label="X[26] <= 0.5\nentropy = 2.129\nsamples = 1007\nvalue = [464, 4, 51, 23, 202, 19, 208, 29, 7]"] ;
389 -> 391 ;
392 [label="entropy = 0.863\nsamples = 7\nvalue = [5, 0, 0, 0, 2, 0, 0, 0, 0]"] ;
391 -> 392 ;
393 [label="entropy = 2.134\nsamples = 1000\nvalue = [459, 4, 51, 23, 200, 19, 208, 29, 7]"] ;
391 -> 393 ;
394 [label="entropy = 1.247\nsamples = 29\nvalue = [19, 0, 1, 0, 8, 0, 1, 0, 0]"] ;
388 -> 394 ;
395 [label="entropy = 0.831\nsamples = 19\nvalue = [14, 0, 0, 0, 5, 0, 0, 0, 0]"] ;
387 -> 395 ;
396 [label="X[23] <= 0.5\nentropy = 0.983\nsamples = 52\nvalue = [30, 0, 0, 0, 22, 0, 0, 0, 0]"] ;
384 -> 396 ;
397 [label="entropy = 0.0\nsamples = 1\nvalue = [1, 0, 0, 0, 0, 0, 0, 0, 0]"] ;
396 -> 397 ;
398 [label="entropy = 0.986\nsamples = 51\nvalue = [29, 0, 0, 0, 22, 0, 0, 0, 0]"] ;
396 -> 398 ;
}