digraph Tree {
node [shape=box] ;
0 [label="X[2] <= 0.5\nentropy = 3.169\nsamples = 8568\nvalue = [996, 951, 973, 959, 1000, 970, 882, 879, 958]"] ;
1 [label="X[11] <= 0.5\nentropy = 2.944\nsamples = 6406\nvalue = [0, 813, 868, 940, 286, 894, 859, 841, 905]"] ;
0 -> 1 [labeldistance=2.5, labelangle=45, headlabel="True"] ;
2 [label="X[17] <= 0.5\nentropy = 2.587\nsamples = 3362\nvalue = [0, 391, 403, 0, 35, 761, 447, 576, 749]"] ;
1 -> 2 ;
3 [label="X[23] <= 0.5\nentropy = 2.295\nsamples = 2280\nvalue = [0, 339, 335, 0, 15, 0, 376, 494, 721]"] ;
2 -> 3 ;
4 [label="X[8] <= 0.5\nentropy = 1.76\nsamples = 1287\nvalue = [0, 111, 250, 0, 8, 0, 250, 0, 668]"] ;
3 -> 4 ;
5 [label="X[20] <= 0.5\nentropy = 1.147\nsamples = 909\nvalue = [0, 98, 0, 0, 8, 0, 137, 0, 666]"] ;
4 -> 5 ;
6 [label="X[5] <= 0.5\nentropy = 0.634\nsamples = 765\nvalue = [0, 98, 0, 0, 8, 0, 0, 0, 659]"] ;
5 -> 6 ;
7 [label="X[14] <= 0.5\nentropy = 0.075\nsamples = 658\nvalue = [0, 0, 0, 0, 6, 0, 0, 0, 652]"] ;
6 -> 7 ;
8 [label="entropy = 0.0\nsamples = 652\nvalue = [0, 0, 0, 0, 0, 0, 0, 0, 652]"] ;
7 -> 8 ;
9 [label="entropy = 0.0\nsamples = 6\nvalue = [0, 0, 0, 0, 6, 0, 0, 0, 0]"] ;
7 -> 9 ;
10 [label="X[12] <= 0.5\nentropy = 0.481\nsamples = 107\nvalue = [0, 98, 0, 0, 2, 0, 0, 0, 7]"] ;
6 -> 10 ;
11 [label="X[13] <= 0.5\nentropy = 0.144\nsamples = 98\nvalue = [0, 96, 0, 0, 2, 0, 0, 0, 0]"] ;
10 -> 11 ;
12 [label="entropy = 0.918\nsamples = 6\nvalue = [0, 4, 0, 0, 2, 0, 0, 0, 0]"] ;
11 -> 12 ;
13 [label="entropy = 0.0\nsamples = 92\nvalue = [0, 92, 0, 0, 0, 0, 0, 0, 0]"] ;
11 -> 13 ;
14 [label="X[26] <= 0.5\nentropy = 0.764\nsamples = 9\nvalue = [0, 2, 0, 0, 0, 0, 0, 0, 7]"] ;
10 -> 14 ;
15 [label="entropy = 0.0\nsamples = 2\nvalue = [0, 2, 0, 0, 0, 0, 0, 0, 0]"] ;
14 -> 15 ;
16 [label="entropy = 0.0\nsamples = 7\nvalue = [0, 0, 0, 0, 0, 0, 0, 0, 7]"] ;
14 -> 16 ;
17 [label="X[16] <= 0.5\nentropy = 0.28\nsamples = 144\nvalue = [0, 0, 0, 0, 0, 0, 137, 0, 7]"] ;
5 -> 17 ;
18 [label="entropy = 0.0\nsamples = 137\nvalue = [0, 0, 0, 0, 0, 0, 137, 0, 0]"] ;
17 -> 18 ;
19 [label="entropy = 0.0\nsamples = 7\nvalue = [0, 0, 0, 0, 0, 0, 0, 0, 7]"] ;
17 -> 19 ;
20 [label="X[3] <= 0.5\nentropy = 1.122\nsamples = 378\nvalue = [0, 13, 250, 0, 0, 0, 113, 0, 2]"] ;
4 -> 20 ;
21 [label="X[22] <= 0.5\nentropy = 0.435\nsamples = 145\nvalue = [0, 13, 132, 0, 0, 0, 0, 0, 0]"] ;
20 -> 21 ;
22 [label="entropy = 0.0\nsamples = 128\nvalue = [0, 0, 128, 0, 0, 0, 0, 0, 0]"] ;
21 -> 22 ;
23 [label="X[15] <= 0.5\nentropy = 0.787\nsamples = 17\nvalue = [0, 13, 4, 0, 0, 0, 0, 0, 0]"] ;
21 -> 23 ;
24 [label="entropy = 0.0\nsamples = 4\nvalue = [0, 0, 4, 0, 0, 0, 0, 0, 0]"] ;
23 -> 24 ;
25 [label="entropy = 0.0\nsamples = 13\nvalue = [0, 13, 0, 0, 0, 0, 0, 0, 0]"] ;
23 -> 25 ;
26 [label="X[20] <= 0.5\nentropy = 1.062\nsamples = 233\nvalue = [0, 0, 118, 0, 0, 0, 113, 0, 2]"] ;
20 -> 26 ;
27 [label="X[26] <= 0.5\nentropy = 0.722\nsamples = 10\nvalue = [0, 0, 8, 0, 0, 0, 0, 0, 2]"] ;
26 -> 27 ;
28 [label="entropy = 0.0\nsamples = 8\nvalue = [0, 0, 8, 0, 0, 0, 0, 0, 0]"] ;
27 -> 28 ;
29 [label="entropy = 0.0\nsamples = 2\nvalue = [0, 0, 0, 0, 0, 0, 0, 0, 2]"] ;
27 -> 29 ;
30 [label="X[16] <= 0.5\nentropy = 1.0\nsamples = 223\nvalue = [0, 0, 110, 0, 0, 0, 113, 0, 0]"] ;
26 -> 30 ;
31 [label="entropy = 0.0\nsamples = 8\nvalue = [0, 0, 0, 0, 0, 0, 8, 0, 0]"] ;
30 -> 31 ;
32 [label="entropy = 1.0\nsamples = 215\nvalue = [0, 0, 110, 0, 0, 0, 105, 0, 0]"] ;
30 -> 32 ;
33 [label="X[5] <= 0.5\nentropy = 1.946\nsamples = 993\nvalue = [0, 228, 85, 0, 7, 0, 126, 494, 53]"] ;
3 -> 33 ;
34 [label="X[0] <= 0.5\nentropy = 0.968\nsamples = 487\nvalue = [0, 0, 2, 0, 2, 0, 43, 390, 50]"] ;
33 -> 34 ;
35 [label="X[20] <= 0.5\nentropy = 1.629\nsamples = 164\nvalue = [0, 0, 2, 0, 0, 0, 43, 70, 49]"] ;
34 -> 35 ;
36 [label="X[24] <= 0.5\nentropy = 0.983\nsamples = 116\nvalue = [0, 0, 0, 0, 0, 0, 0, 67, 49]"] ;
35 -> 36 ;
37 [label="X[8] <= 0.5\nentropy = 0.998\nsamples = 103\nvalue = [0, 0, 0, 0, 0, 0, 0, 54, 49]"] ;
36 -> 37 ;
38 [label="X[13] <= 0.5\nentropy = 1.0\nsamples = 96\nvalue = [0, 0, 0, 0, 0, 0, 0, 47, 49]"] ;
37 -> 38 ;
39 [label="entropy = 1.0\nsamples = 95\nvalue = [0, 0, 0, 0, 0, 0, 0, 47, 48]"] ;
38 -> 39 ;
40 [label="entropy = 0.0\nsamples = 1\nvalue = [0, 0, 0, 0, 0, 0, 0, 0, 1]"] ;
38 -> 40 ;
41 [label="entropy = 0.0\nsamples = 7\nvalue = [0, 0, 0, 0, 0, 0, 0, 7, 0]"] ;
37 -> 41 ;
42 [label="entropy = 0.0\nsamples = 13\nvalue = [0, 0, 0, 0, 0, 0, 0, 13, 0]"] ;
36 -> 42 ;
43 [label="X[9] <= 0.5\nentropy = 0.583\nsamples = 48\nvalue = [0, 0, 2, 0, 0, 0, 43, 3, 0]"] ;
35 -> 43 ;
44 [label="entropy = 0.0\nsamples = 40\nvalue = [0, 0, 0, 0, 0, 0, 40, 0, 0]"] ;
43 -> 44 ;
45 [label="X[4] <= 0.5\nentropy = 1.561\nsamples = 8\nvalue = [0, 0, 2, 0, 0, 0, 3, 3, 0]"] ;
43 -> 45 ;
46 [label="entropy = 0.0\nsamples = 3\nvalue = [0, 0, 0, 0, 0, 0, 0, 3, 0]"] ;
45 -> 46 ;
47 [label="X[6] <= 0.5\nentropy = 0.971\nsamples = 5\nvalue = [0, 0, 2, 0, 0, 0, 3, 0, 0]"] ;
45 -> 47 ;
48 [label="entropy = 0.0\nsamples = 2\nvalue = [0, 0, 2, 0, 0, 0, 0, 0, 0]"] ;
47 -> 48 ;
49 [label="entropy = 0.0\nsamples = 3\nvalue = [0, 0, 0, 0, 0, 0, 3, 0, 0]"] ;
47 -> 49 ;
50 [label="X[14] <= 0.5\nentropy = 0.085\nsamples = 323\nvalue = [0, 0, 0, 0, 2, 0, 0, 320, 1]"] ;
34 -> 50 ;
51 [label="X[12] <= 0.5\nentropy = 0.03\nsamples = 321\nvalue = [0, 0, 0, 0, 0, 0, 0, 320, 1]"] ;
50 -> 51 ;
52 [label="entropy = 0.0\nsamples = 311\nvalue = [0, 0, 0, 0, 0, 0, 0, 311, 0]"] ;
51 -> 52 ;
53 [label="X[18] <= 0.5\nentropy = 0.469\nsamples = 10\nvalue = [0, 0, 0, 0, 0, 0, 0, 9, 1]"] ;
51 -> 53 ;
54 [label="entropy = 0.0\nsamples = 9\nvalue = [0, 0, 0, 0, 0, 0, 0, 9, 0]"] ;
53 -> 54 ;
55 [label="entropy = 0.0\nsamples = 1\nvalue = [0, 0, 0, 0, 0, 0, 0, 0, 1]"] ;
53 -> 55 ;
56 [label="entropy = 0.0\nsamples = 2\nvalue = [0, 0, 0, 0, 2, 0, 0, 0, 0]"] ;
50 -> 56 ;
57 [label="X[6] <= 0.5\nentropy = 1.953\nsamples = 506\nvalue = [0, 228, 83, 0, 5, 0, 83, 104, 3]"] ;
33 -> 57 ;
58 [label="X[19] <= 0.5\nentropy = 1.869\nsamples = 326\nvalue = [0, 137, 83, 0, 2, 0, 83, 18, 3]"] ;
57 -> 58 ;
59 [label="X[15] <= 0.5\nentropy = 1.697\nsamples = 269\nvalue = [0, 135, 38, 0, 2, 0, 83, 8, 3]"] ;
58 -> 59 ;
60 [label="X[12] <= 0.5\nentropy = 1.428\nsamples = 155\nvalue = [0, 99, 38, 0, 2, 0, 10, 6, 0]"] ;
59 -> 60 ;
61 [label="entropy = 0.0\nsamples = 2\nvalue = [0, 0, 0, 0, 2, 0, 0, 0, 0]"] ;
60 -> 61 ;
62 [label="X[8] <= 0.5\nentropy = 1.346\nsamples = 153\nvalue = [0, 99, 38, 0, 0, 0, 10, 6, 0]"] ;
60 -> 62 ;
63 [label="entropy = 0.0\nsamples = 10\nvalue = [0, 10, 0, 0, 0, 0, 0, 0, 0]"] ;
62 -> 63 ;
64 [label="X[25] <= 0.5\nentropy = 1.394\nsamples = 143\nvalue = [0, 89, 38, 0, 0, 0, 10, 6, 0]"] ;
62 -> 64 ;
65 [label="entropy = 1.404\nsamples = 141\nvalue = [0, 87, 38, 0, 0, 0, 10, 6, 0]"] ;
64 -> 65 ;
66 [label="entropy = 0.0\nsamples = 2\nvalue = [0, 2, 0, 0, 0, 0, 0, 0, 0]"] ;
64 -> 66 ;
67 [label="X[18] <= 0.5\nentropy = 1.177\nsamples = 114\nvalue = [0, 36, 0, 0, 0, 0, 73, 2, 3]"] ;
59 -> 67 ;
68 [label="X[10] <= 0.5\nentropy = 0.177\nsamples = 75\nvalue = [0, 0, 0, 0, 0, 0, 73, 0, 2]"] ;
67 -> 68 ;
69 [label="entropy = 0.0\nsamples = 2\nvalue = [0, 0, 0, 0, 0, 0, 0, 0, 2]"] ;
68 -> 69 ;
70 [label="entropy = 0.0\nsamples = 73\nvalue = [0, 0, 0, 0, 0, 0, 73, 0, 0]"] ;
68 -> 70 ;
71 [label="X[0] <= 0.5\nentropy = 0.462\nsamples = 39\nvalue = [0, 36, 0, 0, 0, 0, 0, 2, 1]"] ;
67 -> 71 ;
72 [label="entropy = 0.0\nsamples = 35\nvalue = [0, 35, 0, 0, 0, 0, 0, 0, 0]"] ;
71 -> 72 ;
73 [label="X[25] <= 0.5\nentropy = 1.5\nsamples = 4\nvalue = [0, 1, 0, 0, 0, 0, 0, 2, 1]"] ;
71 -> 73 ;
74 [label="entropy = 0.0\nsamples = 1\nvalue = [0, 0, 0, 0, 0, 0, 0, 0, 1]"] ;
73 -> 74 ;
75 [label="entropy = 0.918\nsamples = 3\nvalue = [0, 1, 0, 0, 0, 0, 0, 2, 0]"] ;
73 -> 75 ;
76 [label="X[13] <= 0.5\nentropy = 0.879\nsamples = 57\nvalue = [0, 2, 45, 0, 0, 0, 0, 10, 0]"] ;
58 -> 76 ;
77 [label="X[8] <= 0.5\nentropy = 0.65\nsamples = 12\nvalue = [0, 2, 0, 0, 0, 0, 0, 10, 0]"] ;
76 -> 77 ;
78 [label="entropy = 0.0\nsamples = 3\nvalue = [0, 0, 0, 0, 0, 0, 0, 3, 0]"] ;
77 -> 78 ;
79 [label="entropy = 0.764\nsamples = 9\nvalue = [0, 2, 0, 0, 0, 0, 0, 7, 0]"] ;
77 -> 79 ;
80 [label="entropy = 0.0\nsamples = 45\nvalue = [0, 0, 45, 0, 0, 0, 0, 0, 0]"] ;
76 -> 80 ;
81 [label="X[26] <= 0.5\nentropy = 1.105\nsamples = 180\nvalue = [0, 91, 0, 0, 3, 0, 0, 86, 0]"] ;
57 -> 81 ;
82 [label="X[24] <= 0.5\nentropy = 1.384\nsamples = 12\nvalue = [0, 2, 0, 0, 3, 0, 0, 7, 0]"] ;
81 -> 82 ;
83 [label="entropy = 0.0\nsamples = 1\nvalue = [0, 0, 0, 0, 0, 0, 0, 1, 0]"] ;
82 -> 83 ;
84 [label="entropy = 1.435\nsamples = 11\nvalue = [0, 2, 0, 0, 3, 0, 0, 6, 0]"] ;
82 -> 84 ;
85 [label="entropy = 0.997\nsamples = 168\nvalue = [0, 89, 0, 0, 0, 0, 0, 79, 0]"] ;
81 -> 85 ;
86 [label="X[13] <= 0.5\nentropy = 1.601\nsamples = 1082\nvalue = [0, 52, 68, 0, 20, 761, 71, 82, 28]"] ;
2 -> 86 ;
87 [label="X[20] <= 0.5\nentropy = 2.6\nsamples = 245\nvalue = [0, 27, 43, 0, 20, 61, 60, 10, 24]"] ;
86 -> 87 ;
88 [label="X[8] <= 0.5\nentropy = 2.34\nsamples = 147\nvalue = [0, 15, 31, 0, 13, 54, 0, 10, 24]"] ;
87 -> 88 ;
89 [label="X[22] <= 0.5\nentropy = 2.043\nsamples = 100\nvalue = [0, 13, 0, 0, 9, 44, 0, 10, 24]"] ;
88 -> 89 ;
90 [label="X[0] <= 0.5\nentropy = 1.848\nsamples = 48\nvalue = [0, 13, 0, 0, 5, 20, 0, 10, 0]"] ;
89 -> 90 ;
91 [label="X[5] <= 0.5\nentropy = 1.701\nsamples = 24\nvalue = [0, 13, 0, 0, 5, 3, 0, 3, 0]"] ;
90 -> 91 ;
92 [label="X[10] <= 0.5\nentropy = 1.0\nsamples = 6\nvalue = [0, 0, 0, 0, 0, 3, 0, 3, 0]"] ;
91 -> 92 ;
93 [label="entropy = 0.0\nsamples = 3\nvalue = [0, 0, 0, 0, 0, 3, 0, 0, 0]"] ;
92 -> 93 ;
94 [label="entropy = 0.0\nsamples = 3\nvalue = [0, 0, 0, 0, 0, 0, 0, 3, 0]"] ;
92 -> 94 ;
95 [label="X[26] <= 0.5\nentropy = 0.852\nsamples = 18\nvalue = [0, 13, 0, 0, 5, 0, 0, 0, 0]"] ;
91 -> 95 ;
96 [label="entropy = 0.991\nsamples = 9\nvalue = [0, 4, 0, 0, 5, 0, 0, 0, 0]"] ;
95 -> 96 ;
97 [label="entropy = 0.0\nsamples = 9\nvalue = [0, 9, 0, 0, 0, 0, 0, 0, 0]"] ;
95 -> 97 ;
98 [label="X[19] <= 0.5\nentropy = 0.871\nsamples = 24\nvalue = [0, 0, 0, 0, 0, 17, 0, 7, 0]"] ;
90 -> 98 ;
99 [label="entropy = 0.0\nsamples = 16\nvalue = [0, 0, 0, 0, 0, 16, 0, 0, 0]"] ;
98 -> 99 ;
100 [label="X[10] <= 0.5\nentropy = 0.544\nsamples = 8\nvalue = [0, 0, 0, 0, 0, 1, 0, 7, 0]"] ;
98 -> 100 ;
101 [label="entropy = 0.0\nsamples = 1\nvalue = [0, 0, 0, 0, 0, 1, 0, 0, 0]"] ;
100 -> 101 ;
102 [label="entropy = 0.0\nsamples = 7\nvalue = [0, 0, 0, 0, 0, 0, 0, 7, 0]"] ;
100 -> 102 ;
103 [label="X[1] <= 0.5\nentropy = 1.314\nsamples = 52\nvalue = [0, 0, 0, 0, 4, 24, 0, 0, 24]"] ;
89 -> 103 ;
104 [label="entropy = 0.0\nsamples = 4\nvalue = [0, 0, 0, 0, 4, 0, 0, 0, 0]"] ;
103 -> 104 ;
105 [label="X[24] <= 0.5\nentropy = 1.0\nsamples = 48\nvalue = [0, 0, 0, 0, 0, 24, 0, 0, 24]"] ;
103 -> 105 ;
106 [label="entropy = 0.999\nsamples = 46\nvalue = [0, 0, 0, 0, 0, 22, 0, 0, 24]"] ;
105 -> 106 ;
107 [label="entropy = 0.0\nsamples = 2\nvalue = [0, 0, 0, 0, 0, 2, 0, 0, 0]"] ;
105 -> 107 ;
108 [label="X[3] <= 0.5\nentropy = 1.367\nsamples = 47\nvalue = [0, 2, 31, 0, 4, 10, 0, 0, 0]"] ;
88 -> 108 ;
109 [label="X[1] <= 0.5\nentropy = 0.926\nsamples = 29\nvalue = [0, 2, 23, 0, 4, 0, 0, 0, 0]"] ;
108 -> 109 ;
110 [label="X[23] <= 0.5\nentropy = 1.338\nsamples = 15\nvalue = [0, 2, 9, 0, 4, 0, 0, 0, 0]"] ;
109 -> 110 ;
111 [label="entropy = 0.0\nsamples = 9\nvalue = [0, 0, 9, 0, 0, 0, 0, 0, 0]"] ;
110 -> 111 ;
112 [label="X[5] <= 0.5\nentropy = 0.918\nsamples = 6\nvalue = [0, 2, 0, 0, 4, 0, 0, 0, 0]"] ;
110 -> 112 ;
113 [label="entropy = 0.0\nsamples = 4\nvalue = [0, 0, 0, 0, 4, 0, 0, 0, 0]"] ;
112 -> 113 ;
114 [label="entropy = 0.0\nsamples = 2\nvalue = [0, 2, 0, 0, 0, 0, 0, 0, 0]"] ;
112 -> 114 ;
115 [label="entropy = 0.0\nsamples = 14\nvalue = [0, 0, 14, 0, 0, 0, 0, 0, 0]"] ;
109 -> 115 ;
116 [label="X[18] <= 0.5\nentropy = 0.991\nsamples = 18\nvalue = [0, 0, 8, 0, 0, 10, 0, 0, 0]"] ;
108 -> 116 ;
117 [label="entropy = 0.0\nsamples = 10\nvalue = [0, 0, 0, 0, 0, 10, 0, 0, 0]"] ;
116 -> 117 ;
118 [label="entropy = 0.0\nsamples = 8\nvalue = [0, 0, 8, 0, 0, 0, 0, 0, 0]"] ;
116 -> 118 ;
119 [label="X[10] <= 0.5\nentropy = 1.719\nsamples = 98\nvalue = [0, 12, 12, 0, 7, 7, 60, 0, 0]"] ;
87 -> 119 ;
120 [label="X[23] <= 0.5\nentropy = 1.517\nsamples = 25\nvalue = [0, 12, 6, 0, 0, 7, 0, 0, 0]"] ;
119 -> 120 ;
121 [label="entropy = 0.0\nsamples = 7\nvalue = [0, 0, 0, 0, 0, 7, 0, 0, 0]"] ;
120 -> 121 ;
122 [label="X[5] <= 0.5\nentropy = 0.918\nsamples = 18\nvalue = [0, 12, 6, 0, 0, 0, 0, 0, 0]"] ;
120 -> 122 ;
123 [label="entropy = 0.0\nsamples = 6\nvalue = [0, 0, 6, 0, 0, 0, 0, 0, 0]"] ;
122 -> 123 ;
124 [label="entropy = 0.0\nsamples = 12\nvalue = [0, 12, 0, 0, 0, 0, 0, 0, 0]"] ;
122 -> 124 ;
125 [label="X[0] <= 0.5\nentropy = 0.853\nsamples = 73\nvalue = [0, 0, 6, 0, 7, 0, 60, 0, 0]"] ;
119 -> 125 ;
126 [label="entropy = 0.0\nsamples = 59\nvalue = [0, 0, 0, 0, 0, 0, 59, 0, 0]"] ;
125 -> 126 ;
127 [label="X[5] <= 0.5\nentropy = 1.296\nsamples = 14\nvalue = [0, 0, 6, 0, 7, 0, 1, 0, 0]"] ;
125 -> 127 ;
128 [label="X[12] <= 0.5\nentropy = 0.986\nsamples = 9\nvalue = [0, 0, 1, 0, 7, 0, 1, 0, 0]"] ;
127 -> 128 ;
129 [label="entropy = 0.0\nsamples = 7\nvalue = [0, 0, 0, 0, 7, 0, 0, 0, 0]"] ;
128 -> 129 ;
130 [label="entropy = 1.0\nsamples = 2\nvalue = [0, 0, 1, 0, 0, 0, 1, 0, 0]"] ;
128 -> 130 ;
131 [label="entropy = 0.0\nsamples = 5\nvalue = [0, 0, 5, 0, 0, 0, 0, 0, 0]"] ;
127 -> 131 ;
132 [label="X[9] <= 0.5\nentropy = 0.942\nsamples = 837\nvalue = [0, 25, 25, 0, 0, 700, 11, 72, 4]"] ;
86 -> 132 ;
133 [label="X[5] <= 0.5\nentropy = 0.499\nsamples = 722\nvalue = [0, 25, 7, 0, 0, 670, 5, 15, 0]"] ;
132 -> 133 ;
134 [label="X[4] <= 0.5\nentropy = 0.312\nsamples = 399\nvalue = [0, 0, 0, 0, 0, 380, 4, 15, 0]"] ;
133 -> 134 ;
135 [label="X[20] <= 0.5\nentropy = 0.144\nsamples = 195\nvalue = [0, 0, 0, 0, 0, 191, 4, 0, 0]"] ;
134 -> 135 ;
136 [label="entropy = 0.0\nsamples = 110\nvalue = [0, 0, 0, 0, 0, 110, 0, 0, 0]"] ;
135 -> 136 ;
137 [label="X[1] <= 0.5\nentropy = 0.274\nsamples = 85\nvalue = [0, 0, 0, 0, 0, 81, 4, 0, 0]"] ;
135 -> 137 ;
138 [label="entropy = 1.0\nsamples = 6\nvalue = [0, 0, 0, 0, 0, 3, 3, 0, 0]"] ;
137 -> 138 ;
139 [label="entropy = 0.098\nsamples = 79\nvalue = [0, 0, 0, 0, 0, 78, 1, 0, 0]"] ;
137 -> 139 ;
140 [label="X[21] <= 0.5\nentropy = 0.379\nsamples = 204\nvalue = [0, 0, 0, 0, 0, 189, 0, 15, 0]"] ;
134 -> 140 ;
141 [label="X[26] <= 0.5\nentropy = 0.971\nsamples = 25\nvalue = [0, 0, 0, 0, 0, 10, 0, 15, 0]"] ;
140 -> 141 ;
142 [label="entropy = 0.0\nsamples = 1\nvalue = [0, 0, 0, 0, 0, 0, 0, 1, 0]"] ;
141 -> 142 ;
143 [label="X[6] <= 0.5\nentropy = 0.98\nsamples = 24\nvalue = [0, 0, 0, 0, 0, 10, 0, 14, 0]"] ;
141 -> 143 ;
144 [label="entropy = 0.977\nsamples = 17\nvalue = [0, 0, 0, 0, 0, 7, 0, 10, 0]"] ;
143 -> 144 ;
145 [label="entropy = 0.985\nsamples = 7\nvalue = [0, 0, 0, 0, 0, 3, 0, 4, 0]"] ;
143 -> 145 ;
146 [label="entropy = 0.0\nsamples = 179\nvalue = [0, 0, 0, 0, 0, 179, 0, 0, 0]"] ;
140 -> 146 ;
147 [label="X[25] <= 0.5\nentropy = 0.571\nsamples = 323\nvalue = [0, 25, 7, 0, 0, 290, 1, 0, 0]"] ;
133 -> 147 ;
148 [label="X[22] <= 0.5\nentropy = 0.461\nsamples = 313\nvalue = [0, 15, 7, 0, 0, 290, 1, 0, 0]"] ;
147 -> 148 ;
149 [label="X[8] <= 0.5\nentropy = 0.393\nsamples = 308\nvalue = [0, 10, 7, 0, 0, 290, 1, 0, 0]"] ;
148 -> 149 ;
150 [label="X[18] <= 0.5\nentropy = 0.061\nsamples = 141\nvalue = [0, 0, 0, 0, 0, 140, 1, 0, 0]"] ;
149 -> 150 ;
151 [label="entropy = 0.811\nsamples = 4\nvalue = [0, 0, 0, 0, 0, 3, 1, 0, 0]"] ;
150 -> 151 ;
152 [label="entropy = 0.0\nsamples = 137\nvalue = [0, 0, 0, 0, 0, 137, 0, 0, 0]"] ;
150 -> 152 ;
153 [label="X[20] <= 0.5\nentropy = 0.574\nsamples = 167\nvalue = [0, 10, 7, 0, 0, 150, 0, 0, 0]"] ;
149 -> 153 ;
154 [label="entropy = 0.89\nsamples = 13\nvalue = [0, 4, 0, 0, 0, 9, 0, 0, 0]"] ;
153 -> 154 ;
155 [label="entropy = 0.502\nsamples = 154\nvalue = [0, 6, 7, 0, 0, 141, 0, 0, 0]"] ;
153 -> 155 ;
156 [label="entropy = 0.0\nsamples = 5\nvalue = [0, 5, 0, 0, 0, 0, 0, 0, 0]"] ;
148 -> 156 ;
157 [label="entropy = 0.0\nsamples = 10\nvalue = [0, 10, 0, 0, 0, 0, 0, 0, 0]"] ;
147 -> 157 ;
158 [label="X[23] <= 0.5\nentropy = 1.817\nsamples = 115\nvalue = [0, 0, 18, 0, 0, 30, 6, 57, 4]"] ;
132 -> 158 ;
159 [label="entropy = 0.0\nsamples = 30\nvalue = [0, 0, 0, 0, 0, 30, 0, 0, 0]"] ;
158 -> 159 ;
160 [label="X[4] <= 0.5\nentropy = 1.338\nsamples = 85\nvalue = [0, 0, 18, 0, 0, 0, 6, 57, 4]"] ;
158 -> 160 ;
161 [label="X[19] <= 0.5\nentropy = 1.384\nsamples = 24\nvalue = [0, 0, 14, 0, 0, 0, 6, 0, 4]"] ;
160 -> 161 ;
162 [label="X[8] <= 0.5\nentropy = 0.971\nsamples = 10\nvalue = [0, 0, 0, 0, 0, 0, 6, 0, 4]"] ;
161 -> 162 ;
163 [label="entropy = 0.0\nsamples = 6\nvalue = [0, 0, 0, 0, 0, 0, 6, 0, 0]"] ;
162 -> 163 ;
164 [label="entropy = 0.0\nsamples = 4\nvalue = [0, 0, 0, 0, 0, 0, 0, 0, 4]"] ;
162 -> 164 ;
165 [label="entropy = 0.0\nsamples = 14\nvalue = [0, 0, 14, 0, 0, 0, 0, 0, 0]"] ;
161 -> 165 ;
166 [label="X[8] <= 0.5\nentropy = 0.349\nsamples = 61\nvalue = [0, 0, 4, 0, 0, 0, 0, 57, 0]"] ;
160 -> 166 ;
167 [label="entropy = 0.0\nsamples = 48\nvalue = [0, 0, 0, 0, 0, 0, 0, 48, 0]"] ;
166 -> 167 ;
168 [label="X[18] <= 0.5\nentropy = 0.89\nsamples = 13\nvalue = [0, 0, 4, 0, 0, 0, 0, 9, 0]"] ;
166 -> 168 ;
169 [label="entropy = 0.845\nsamples = 11\nvalue = [0, 0, 3, 0, 0, 0, 0, 8, 0]"] ;
168 -> 169 ;
170 [label="entropy = 1.0\nsamples = 2\nvalue = [0, 0, 1, 0, 0, 0, 0, 1, 0]"] ;
168 -> 170 ;
171 [label="X[12] <= 0.5\nentropy = 2.744\nsamples = 3044\nvalue = [0, 422, 465, 940, 251, 133, 412, 265, 156]"] ;
1 -> 171 ;
172 [label="X[7] <= 0.5\nentropy = 2.775\nsamples = 1553\nvalue = [0, 94, 214, 246, 251, 16, 334, 254, 144]"] ;
171 -> 172 ;
173 [label="X[0] <= 0.5\nentropy = 2.741\nsamples = 1237\nvalue = [0, 84, 214, 245, 210, 14, 72, 254, 144]"] ;
172 -> 173 ;
174 [label="X[14] <= 0.5\nentropy = 2.178\nsamples = 470\nvalue = [0, 9, 43, 50, 194, 7, 14, 10, 143]"] ;
173 -> 174 ;
175 [label="X[24] <= 0.5\nentropy = 0.71\nsamples = 159\nvalue = [0, 1, 4, 17, 0, 0, 0, 0, 137]"] ;
174 -> 175 ;
176 [label="X[19] <= 0.5\nentropy = 0.062\nsamples = 138\nvalue = [0, 0, 0, 1, 0, 0, 0, 0, 137]"] ;
175 -> 176 ;
177 [label="entropy = 0.0\nsamples = 137\nvalue = [0, 0, 0, 0, 0, 0, 0, 0, 137]"] ;
176 -> 177 ;
178 [label="entropy = 0.0\nsamples = 1\nvalue = [0, 0, 0, 1, 0, 0, 0, 0, 0]"] ;
176 -> 178 ;
179 [label="X[16] <= 0.5\nentropy = 0.964\nsamples = 21\nvalue = [0, 1, 4, 16, 0, 0, 0, 0, 0]"] ;
175 -> 179 ;
180 [label="X[5] <= 0.5\nentropy = 1.392\nsamples = 9\nvalue = [0, 1, 4, 4, 0, 0, 0, 0, 0]"] ;
179 -> 180 ;
181 [label="entropy = 0.0\nsamples = 4\nvalue = [0, 0, 4, 0, 0, 0, 0, 0, 0]"] ;
180 -> 181 ;
182 [label="X[8] <= 0.5\nentropy = 0.722\nsamples = 5\nvalue = [0, 1, 0, 4, 0, 0, 0, 0, 0]"] ;
180 -> 182 ;
183 [label="entropy = 0.0\nsamples = 1\nvalue = [0, 1, 0, 0, 0, 0, 0, 0, 0]"] ;
182 -> 183 ;
184 [label="entropy = 0.0\nsamples = 4\nvalue = [0, 0, 0, 4, 0, 0, 0, 0, 0]"] ;
182 -> 184 ;
185 [label="entropy = 0.0\nsamples = 12\nvalue = [0, 0, 0, 12, 0, 0, 0, 0, 0]"] ;
179 -> 185 ;
186 [label="X[24] <= 0.5\nentropy = 1.873\nsamples = 311\nvalue = [0, 8, 39, 33, 194, 7, 14, 10, 6]"] ;
174 -> 186 ;
187 [label="X[15] <= 0.5\nentropy = 1.377\nsamples = 256\nvalue = [0, 5, 29, 4, 193, 4, 11, 4, 6]"] ;
186 -> 187 ;
188 [label="X[20] <= 0.5\nentropy = 1.105\nsamples = 211\nvalue = [0, 4, 7, 2, 175, 4, 11, 3, 5]"] ;
187 -> 188 ;
189 [label="entropy = 0.985\nsamples = 7\nvalue = [0, 4, 0, 0, 0, 0, 0, 3, 0]"] ;
188 -> 189 ;
190 [label="X[21] <= 0.5\nentropy = 0.892\nsamples = 204\nvalue = [0, 0, 7, 2, 175, 4, 11, 0, 5]"] ;
188 -> 190 ;
191 [label="X[6] <= 0.5\nentropy = 0.698\nsamples = 195\nvalue = [0, 0, 5, 2, 175, 4, 7, 0, 2]"] ;
190 -> 191 ;
192 [label="X[5] <= 0.5\nentropy = 0.48\nsamples = 185\nvalue = [0, 0, 5, 2, 173, 1, 3, 0, 1]"] ;
191 -> 192 ;
193 [label="entropy = 1.922\nsamples = 25\nvalue = [0, 0, 4, 2, 14, 1, 3, 0, 1]"] ;
192 -> 193 ;
194 [label="entropy = 0.055\nsamples = 160\nvalue = [0, 0, 1, 0, 159, 0, 0, 0, 0]"] ;
192 -> 194 ;
195 [label="X[16] <= 0.5\nentropy = 1.846\nsamples = 10\nvalue = [0, 0, 0, 0, 2, 3, 4, 0, 1]"] ;
191 -> 195 ;
196 [label="entropy = 1.753\nsamples = 9\nvalue = [0, 0, 0, 0, 1, 3, 4, 0, 1]"] ;
195 -> 196 ;
197 [label="entropy = 0.0\nsamples = 1\nvalue = [0, 0, 0, 0, 1, 0, 0, 0, 0]"] ;
195 -> 197 ;
198 [label="entropy = 1.53\nsamples = 9\nvalue = [0, 0, 2, 0, 0, 0, 4, 0, 3]"] ;
190 -> 198 ;
199 [label="entropy = 1.599\nsamples = 45\nvalue = [0, 1, 22, 2, 18, 0, 0, 1, 1]"] ;
187 -> 199 ;
200 [label="X[20] <= 0.5\nentropy = 2.075\nsamples = 55\nvalue = [0, 3, 10, 29, 1, 3, 3, 6, 0]"] ;
186 -> 200 ;
201 [label="entropy = 0.0\nsamples = 24\nvalue = [0, 0, 0, 24, 0, 0, 0, 0, 0]"] ;
200 -> 201 ;
202 [label="entropy = 2.548\nsamples = 31\nvalue = [0, 3, 10, 5, 1, 3, 3, 6, 0]"] ;
200 -> 202 ;
203 [label="X[5] <= 0.5\nentropy = 2.311\nsamples = 767\nvalue = [0, 75, 171, 195, 16, 7, 58, 244, 1]"] ;
173 -> 203 ;
204 [label="X[21] <= 0.5\nentropy = 1.718\nsamples = 465\nvalue = [0, 0, 39, 151, 9, 2, 26, 237, 1]"] ;
203 -> 204 ;
205 [label="X[8] <= 0.5\nentropy = 1.336\nsamples = 367\nvalue = [0, 0, 0, 94, 9, 0, 26, 237, 1]"] ;
204 -> 205 ;
206 [label="X[19] <= 0.5\nentropy = 1.194\nsamples = 137\nvalue = [0, 0, 0, 83, 0, 0, 5, 48, 1]"] ;
205 -> 206 ;
207 [label="X[14] <= 0.5\nentropy = 0.971\nsamples = 106\nvalue = [0, 0, 0, 83, 0, 0, 5, 17, 1]"] ;
206 -> 207 ;
208 [label="X[17] <= 0.5\nentropy = 0.731\nsamples = 101\nvalue = [0, 0, 0, 83, 0, 0, 0, 17, 1]"] ;
207 -> 208 ;
209 [label="entropy = 0.0\nsamples = 44\nvalue = [0, 0, 0, 44, 0, 0, 0, 0, 0]"] ;
208 -> 209 ;
210 [label="X[25] <= 0.5\nentropy = 0.997\nsamples = 57\nvalue = [0, 0, 0, 39, 0, 0, 0, 17, 1]"] ;
208 -> 210 ;
211 [label="entropy = 1.013\nsamples = 55\nvalue = [0, 0, 0, 37, 0, 0, 0, 17, 1]"] ;
210 -> 211 ;
212 [label="entropy = 0.0\nsamples = 2\nvalue = [0, 0, 0, 2, 0, 0, 0, 0, 0]"] ;
210 -> 212 ;
213 [label="entropy = 0.0\nsamples = 5\nvalue = [0, 0, 0, 0, 0, 0, 5, 0, 0]"] ;
207 -> 213 ;
214 [label="entropy = 0.0\nsamples = 31\nvalue = [0, 0, 0, 0, 0, 0, 0, 31, 0]"] ;
206 -> 214 ;
215 [label="X[13] <= 0.5\nentropy = 0.941\nsamples = 230\nvalue = [0, 0, 0, 11, 9, 0, 21, 189, 0]"] ;
205 -> 215 ;
216 [label="X[25] <= 0.5\nentropy = 0.89\nsamples = 13\nvalue = [0, 0, 0, 0, 9, 0, 4, 0, 0]"] ;
215 -> 216 ;
217 [label="entropy = 0.0\nsamples = 9\nvalue = [0, 0, 0, 0, 9, 0, 0, 0, 0]"] ;
216 -> 217 ;
218 [label="entropy = 0.0\nsamples = 4\nvalue = [0, 0, 0, 0, 0, 0, 4, 0, 0]"] ;
216 -> 218 ;
219 [label="entropy = 0.68\nsamples = 217\nvalue = [0, 0, 0, 11, 0, 0, 17, 189, 0]"] ;
215 -> 219 ;
220 [label="X[17] <= 0.5\nentropy = 1.098\nsamples = 98\nvalue = [0, 0, 39, 57, 0, 2, 0, 0, 0]"] ;
204 -> 220 ;
221 [label="entropy = 0.0\nsamples = 57\nvalue = [0, 0, 0, 57, 0, 0, 0, 0, 0]"] ;
220 -> 221 ;
222 [label="X[6] <= 0.5\nentropy = 0.281\nsamples = 41\nvalue = [0, 0, 39, 0, 0, 2, 0, 0, 0]"] ;
220 -> 222 ;
223 [label="entropy = 0.0\nsamples = 39\nvalue = [0, 0, 39, 0, 0, 0, 0, 0, 0]"] ;
222 -> 223 ;
224 [label="entropy = 0.0\nsamples = 2\nvalue = [0, 0, 0, 0, 0, 2, 0, 0, 0]"] ;
222 -> 224 ;
225 [label="X[17] <= 0.5\nentropy = 2.119\nsamples = 302\nvalue = [0, 75, 132, 44, 7, 5, 32, 7, 0]"] ;
203 -> 225 ;
226 [label="X[16] <= 0.5\nentropy = 0.972\nsamples = 87\nvalue = [0, 0, 52, 35, 0, 0, 0, 0, 0]"] ;
225 -> 226 ;
227 [label="entropy = 0.0\nsamples = 7\nvalue = [0, 0, 7, 0, 0, 0, 0, 0, 0]"] ;
226 -> 227 ;
228 [label="X[14] <= 0.5\nentropy = 0.989\nsamples = 80\nvalue = [0, 0, 45, 35, 0, 0, 0, 0, 0]"] ;
226 -> 228 ;
229 [label="entropy = 0.997\nsamples = 75\nvalue = [0, 0, 40, 35, 0, 0, 0, 0, 0]"] ;
228 -> 229 ;
230 [label="entropy = 0.0\nsamples = 5\nvalue = [0, 0, 5, 0, 0, 0, 0, 0, 0]"] ;
228 -> 230 ;
231 [label="X[20] <= 0.5\nentropy = 2.109\nsamples = 215\nvalue = [0, 75, 80, 9, 7, 5, 32, 7, 0]"] ;
225 -> 231 ;
232 [label="X[22] <= 0.5\nentropy = 0.771\nsamples = 31\nvalue = [0, 0, 24, 0, 7, 0, 0, 0, 0]"] ;
231 -> 232 ;
233 [label="entropy = 0.0\nsamples = 24\nvalue = [0, 0, 24, 0, 0, 0, 0, 0, 0]"] ;
232 -> 233 ;
234 [label="entropy = 0.0\nsamples = 7\nvalue = [0, 0, 0, 0, 7, 0, 0, 0, 0]"] ;
232 -> 234 ;
235 [label="X[26] <= 0.5\nentropy = 2.023\nsamples = 184\nvalue = [0, 75, 56, 9, 0, 5, 32, 7, 0]"] ;
231 -> 235 ;
236 [label="X[14] <= 0.5\nentropy = 0.353\nsamples = 15\nvalue = [0, 0, 1, 0, 0, 0, 14, 0, 0]"] ;
235 -> 236 ;
237 [label="entropy = 0.65\nsamples = 6\nvalue = [0, 0, 1, 0, 0, 0, 5, 0, 0]"] ;
236 -> 237 ;
238 [label="entropy = 0.0\nsamples = 9\nvalue = [0, 0, 0, 0, 0, 0, 9, 0, 0]"] ;
236 -> 238 ;
239 [label="X[23] <= 0.5\nentropy = 1.957\nsamples = 169\nvalue = [0, 75, 55, 9, 0, 5, 18, 7, 0]"] ;
235 -> 239 ;
240 [label="entropy = 1.0\nsamples = 10\nvalue = [0, 5, 0, 0, 0, 0, 5, 0, 0]"] ;
239 -> 240 ;
241 [label="entropy = 1.936\nsamples = 159\nvalue = [0, 70, 55, 9, 0, 5, 13, 7, 0]"] ;
239 -> 241 ;
242 [label="X[14] <= 0.5\nentropy = 0.837\nsamples = 316\nvalue = [0, 10, 0, 1, 41, 2, 262, 0, 0]"] ;
172 -> 242 ;
243 [label="X[24] <= 0.5\nentropy = 0.067\nsamples = 253\nvalue = [0, 2, 0, 0, 0, 0, 251, 0, 0]"] ;
242 -> 243 ;
244 [label="entropy = 0.0\nsamples = 248\nvalue = [0, 0, 0, 0, 0, 0, 248, 0, 0]"] ;
243 -> 244 ;
245 [label="entropy = 0.971\nsamples = 5\nvalue = [0, 2, 0, 0, 0, 0, 3, 0, 0]"] ;
243 -> 245 ;
246 [label="X[25] <= 0.5\nentropy = 1.474\nsamples = 63\nvalue = [0, 8, 0, 1, 41, 2, 11, 0, 0]"] ;
242 -> 246 ;
247 [label="X[0] <= 0.5\nentropy = 0.976\nsamples = 52\nvalue = [0, 8, 0, 1, 41, 2, 0, 0, 0]"] ;
246 -> 247 ;
248 [label="X[5] <= 0.5\nentropy = 1.531\nsamples = 16\nvalue = [0, 8, 0, 1, 6, 1, 0, 0, 0]"] ;
247 -> 248 ;
249 [label="X[24] <= 0.5\nentropy = 1.061\nsamples = 8\nvalue = [0, 0, 0, 1, 6, 1, 0, 0, 0]"] ;
248 -> 249 ;
250 [label="entropy = 0.0\nsamples = 1\nvalue = [0, 0, 0, 1, 0, 0, 0, 0, 0]"] ;
249 -> 250 ;
251 [label="X[15] <= 0.5\nentropy = 0.592\nsamples = 7\nvalue = [0, 0, 0, 0, 6, 1, 0, 0, 0]"] ;
249 -> 251 ;
252 [label="entropy = 0.918\nsamples = 3\nvalue = [0, 0, 0, 0, 2, 1, 0, 0, 0]"] ;
251 -> 252 ;
253 [label="entropy = 0.0\nsamples = 4\nvalue = [0, 0, 0, 0, 4, 0, 0, 0, 0]"] ;
251 -> 253 ;
254 [label="entropy = 0.0\nsamples = 8\nvalue = [0, 8, 0, 0, 0, 0, 0, 0, 0]"] ;
248 -> 254 ;
255 [label="X[16] <= 0.5\nentropy = 0.183\nsamples = 36\nvalue = [0, 0, 0, 0, 35, 1, 0, 0, 0]"] ;
247 -> 255 ;
256 [label="X[20] <= 0.5\nentropy = 0.439\nsamples = 11\nvalue = [0, 0, 0, 0, 10, 1, 0, 0, 0]"] ;
255 -> 256 ;
257 [label="entropy = 0.0\nsamples = 4\nvalue = [0, 0, 0, 0, 4, 0, 0, 0, 0]"] ;
256 -> 257 ;
258 [label="X[5] <= 0.5\nentropy = 0.592\nsamples = 7\nvalue = [0, 0, 0, 0, 6, 1, 0, 0, 0]"] ;
256 -> 258 ;
259 [label="entropy = 0.0\nsamples = 4\nvalue = [0, 0, 0, 0, 4, 0, 0, 0, 0]"] ;
258 -> 259 ;
260 [label="X[23] <= 0.5\nentropy = 0.918\nsamples = 3\nvalue = [0, 0, 0, 0, 2, 1, 0, 0, 0]"] ;
258 -> 260 ;
261 [label="entropy = 0.0\nsamples = 2\nvalue = [0, 0, 0, 0, 2, 0, 0, 0, 0]"] ;
260 -> 261 ;
262 [label="entropy = 0.0\nsamples = 1\nvalue = [0, 0, 0, 0, 0, 1, 0, 0, 0]"] ;
260 -> 262 ;
263 [label="entropy = 0.0\nsamples = 25\nvalue = [0, 0, 0, 0, 25, 0, 0, 0, 0]"] ;
255 -> 263 ;
264 [label="entropy = 0.0\nsamples = 11\nvalue = [0, 0, 0, 0, 0, 0, 11, 0, 0]"] ;
246 -> 264 ;
265 [label="X[19] <= 0.5\nentropy = 2.046\nsamples = 1491\nvalue = [0, 328, 251, 694, 0, 117, 78, 11, 12]"] ;
171 -> 265 ;
266 [label="X[5] <= 0.5\nentropy = 2.207\nsamples = 1190\nvalue = [0, 328, 251, 406, 0, 105, 78, 10, 12]"] ;
265 -> 266 ;
267 [label="X[7] <= 0.5\nentropy = 1.739\nsamples = 459\nvalue = [0, 0, 110, 248, 0, 48, 46, 0, 7]"] ;
266 -> 267 ;
268 [label="X[22] <= 0.5\nentropy = 1.611\nsamples = 291\nvalue = [0, 0, 110, 128, 0, 8, 45, 0, 0]"] ;
267 -> 268 ;
269 [label="X[25] <= 0.5\nentropy = 0.242\nsamples = 100\nvalue = [0, 0, 96, 0, 0, 0, 4, 0, 0]"] ;
268 -> 269 ;
270 [label="entropy = 0.0\nsamples = 96\nvalue = [0, 0, 96, 0, 0, 0, 0, 0, 0]"] ;
269 -> 270 ;
271 [label="entropy = 0.0\nsamples = 4\nvalue = [0, 0, 0, 0, 0, 0, 4, 0, 0]"] ;
269 -> 271 ;
272 [label="X[17] <= 0.5\nentropy = 1.332\nsamples = 191\nvalue = [0, 0, 14, 128, 0, 8, 41, 0, 0]"] ;
268 -> 272 ;
273 [label="entropy = 0.0\nsamples = 2\nvalue = [0, 0, 0, 0, 0, 0, 2, 0, 0]"] ;
272 -> 273 ;
274 [label="entropy = 1.322\nsamples = 189\nvalue = [0, 0, 14, 128, 0, 8, 39, 0, 0]"] ;
272 -> 274 ;
275 [label="X[26] <= 0.5\nentropy = 1.075\nsamples = 168\nvalue = [0, 0, 0, 120, 0, 40, 1, 0, 7]"] ;
267 -> 275 ;
276 [label="X[25] <= 0.5\nentropy = 0.093\nsamples = 84\nvalue = [0, 0, 0, 83, 0, 0, 1, 0, 0]"] ;
275 -> 276 ;
277 [label="X[20] <= 0.5\nentropy = 0.592\nsamples = 7\nvalue = [0, 0, 0, 6, 0, 0, 1, 0, 0]"] ;
276 -> 277 ;
278 [label="entropy = 0.0\nsamples = 2\nvalue = [0, 0, 0, 2, 0, 0, 0, 0, 0]"] ;
277 -> 278 ;
279 [label="entropy = 0.722\nsamples = 5\nvalue = [0, 0, 0, 4, 0, 0, 1, 0, 0]"] ;
277 -> 279 ;
280 [label="entropy = 0.0\nsamples = 77\nvalue = [0, 0, 0, 77, 0, 0, 0, 0, 0]"] ;
276 -> 280 ;
281 [label="X[17] <= 0.5\nentropy = 1.329\nsamples = 84\nvalue = [0, 0, 0, 37, 0, 40, 0, 0, 7]"] ;
275 -> 281 ;
282 [label="entropy = 0.0\nsamples = 7\nvalue = [0, 0, 0, 0, 0, 0, 0, 0, 7]"] ;
281 -> 282 ;
283 [label="X[20] <= 0.5\nentropy = 0.999\nsamples = 77\nvalue = [0, 0, 0, 37, 0, 40, 0, 0, 0]"] ;
281 -> 283 ;
284 [label="entropy = 1.0\nsamples = 60\nvalue = [0, 0, 0, 30, 0, 30, 0, 0, 0]"] ;
283 -> 284 ;
285 [label="entropy = 0.977\nsamples = 17\nvalue = [0, 0, 0, 7, 0, 10, 0, 0, 0]"] ;
283 -> 285 ;
286 [label="X[7] <= 0.5\nentropy = 2.073\nsamples = 731\nvalue = [0, 328, 141, 158, 0, 57, 32, 10, 5]"] ;
266 -> 286 ;
287 [label="X[16] <= 0.5\nentropy = 2.225\nsamples = 602\nvalue = [0, 203, 141, 154, 0, 57, 32, 10, 5]"] ;
286 -> 287 ;
288 [label="X[23] <= 0.5\nentropy = 2.184\nsamples = 586\nvalue = [0, 203, 136, 154, 0, 57, 21, 10, 5]"] ;
287 -> 288 ;
289 [label="entropy = 0.0\nsamples = 7\nvalue = [0, 0, 7, 0, 0, 0, 0, 0, 0]"] ;
288 -> 289 ;
290 [label="entropy = 2.184\nsamples = 579\nvalue = [0, 203, 129, 154, 0, 57, 21, 10, 5]"] ;
288 -> 290 ;
291 [label="X[25] <= 0.5\nentropy = 0.896\nsamples = 16\nvalue = [0, 0, 5, 0, 0, 0, 11, 0, 0]"] ;
287 -> 291 ;
292 [label="entropy = 0.0\nsamples = 7\nvalue = [0, 0, 0, 0, 0, 0, 7, 0, 0]"] ;
291 -> 292 ;
293 [label="entropy = 0.991\nsamples = 9\nvalue = [0, 0, 5, 0, 0, 0, 4, 0, 0]"] ;
291 -> 293 ;
294 [label="X[0] <= 0.5\nentropy = 0.199\nsamples = 129\nvalue = [0, 125, 0, 4, 0, 0, 0, 0, 0]"] ;
286 -> 294 ;
295 [label="entropy = 0.0\nsamples = 125\nvalue = [0, 125, 0, 0, 0, 0, 0, 0, 0]"] ;
294 -> 295 ;
296 [label="entropy = 0.0\nsamples = 4\nvalue = [0, 0, 0, 4, 0, 0, 0, 0, 0]"] ;
294 -> 296 ;
297 [label="X[0] <= 0.5\nentropy = 0.274\nsamples = 301\nvalue = [0, 0, 0, 288, 0, 12, 0, 1, 0]"] ;
265 -> 297 ;
298 [label="entropy = 0.0\nsamples = 288\nvalue = [0, 0, 0, 288, 0, 0, 0, 0, 0]"] ;
297 -> 298 ;
299 [label="X[5] <= 0.5\nentropy = 0.391\nsamples = 13\nvalue = [0, 0, 0, 0, 0, 12, 0, 1, 0]"] ;
297 -> 299 ;
300 [label="entropy = 0.0\nsamples = 9\nvalue = [0, 0, 0, 0, 0, 9, 0, 0, 0]"] ;
299 -> 300 ;
301 [label="entropy = 0.811\nsamples = 4\nvalue = [0, 0, 0, 0, 0, 3, 0, 1, 0]"] ;
299 -> 301 ;
302 [label="X[14] <= 0.5\nentropy = 2.041\nsamples = 2162\nvalue = [996, 138, 105, 19, 714, 76, 23, 38, 53]"] ;
0 -> 302 [labeldistance=2.5, labelangle=-45, headlabel="False"] ;
303 [label="X[3] <= 0.5\nentropy = 1.241\nsamples = 901\nvalue = [710, 22, 89, 18, 0, 14, 14, 25, 9]"] ;
302 -> 303 ;
304 [label="X[26] <= 0.5\nentropy = 0.857\nsamples = 786\nvalue = [688, 22, 19, 17, 0, 7, 6, 25, 2]"] ;
303 -> 304 ;
305 [label="X[11] <= 0.5\nentropy = 2.653\nsamples = 73\nvalue = [17, 8, 11, 16, 0, 5, 4, 12, 0]"] ;
304 -> 305 ;
306 [label="X[22] <= 0.5\nentropy = 2.189\nsamples = 27\nvalue = [11, 1, 5, 0, 0, 5, 4, 1, 0]"] ;
305 -> 306 ;
307 [label="X[8] <= 0.5\nentropy = 1.674\nsamples = 22\nvalue = [11, 0, 5, 0, 0, 5, 0, 1, 0]"] ;
306 -> 307 ;
308 [label="entropy = 0.0\nsamples = 9\nvalue = [9, 0, 0, 0, 0, 0, 0, 0, 0]"] ;
307 -> 308 ;
309 [label="X[19] <= 0.5\nentropy = 1.76\nsamples = 13\nvalue = [2, 0, 5, 0, 0, 5, 0, 1, 0]"] ;
307 -> 309 ;
310 [label="X[21] <= 0.5\nentropy = 0.863\nsamples = 7\nvalue = [2, 0, 0, 0, 0, 5, 0, 0, 0]"] ;
309 -> 310 ;
311 [label="entropy = 0.0\nsamples = 1\nvalue = [0, 0, 0, 0, 0, 1, 0, 0, 0]"] ;
310 -> 311 ;
312 [label="entropy = 0.918\nsamples = 6\nvalue = [2, 0, 0, 0, 0, 4, 0, 0, 0]"] ;
310 -> 312 ;
313 [label="X[21] <= 0.5\nentropy = 0.65\nsamples = 6\nvalue = [0, 0, 5, 0, 0, 0, 0, 1, 0]"] ;
309 -> 313 ;
314 [label="entropy = 0.0\nsamples = 1\nvalue = [0, 0, 0, 0, 0, 0, 0, 1, 0]"] ;
313 -> 314 ;
315 [label="entropy = 0.0\nsamples = 5\nvalue = [0, 0, 5, 0, 0, 0, 0, 0, 0]"] ;
313 -> 315 ;
316 [label="X[12] <= 0.5\nentropy = 0.722\nsamples = 5\nvalue = [0, 1, 0, 0, 0, 0, 4, 0, 0]"] ;
306 -> 316 ;
317 [label="entropy = 0.0\nsamples = 1\nvalue = [0, 1, 0, 0, 0, 0, 0, 0, 0]"] ;
316 -> 317 ;
318 [label="entropy = 0.0\nsamples = 4\nvalue = [0, 0, 0, 0, 0, 0, 4, 0, 0]"] ;
316 -> 318 ;
319 [label="X[23] <= 0.5\nentropy = 2.203\nsamples = 46\nvalue = [6, 7, 6, 16, 0, 0, 0, 11, 0]"] ;
305 -> 319 ;
320 [label="X[15] <= 0.5\nentropy = 0.874\nsamples = 17\nvalue = [5, 0, 0, 12, 0, 0, 0, 0, 0]"] ;
319 -> 320 ;
321 [label="entropy = 0.0\nsamples = 12\nvalue = [0, 0, 0, 12, 0, 0, 0, 0, 0]"] ;
320 -> 321 ;
322 [label="entropy = 0.0\nsamples = 5\nvalue = [5, 0, 0, 0, 0, 0, 0, 0, 0]"] ;
320 -> 322 ;
323 [label="X[25] <= 0.5\nentropy = 2.057\nsamples = 29\nvalue = [1, 7, 6, 4, 0, 0, 0, 11, 0]"] ;
319 -> 323 ;
324 [label="X[6] <= 0.5\nentropy = 1.194\nsamples = 18\nvalue = [0, 1, 6, 0, 0, 0, 0, 11, 0]"] ;
323 -> 324 ;
325 [label="entropy = 1.325\nsamples = 12\nvalue = [0, 1, 6, 0, 0, 0, 0, 5, 0]"] ;
324 -> 325 ;
326 [label="entropy = 0.0\nsamples = 6\nvalue = [0, 0, 0, 0, 0, 0, 0, 6, 0]"] ;
324 -> 326 ;
327 [label="X[7] <= 0.5\nentropy = 1.322\nsamples = 11\nvalue = [1, 6, 0, 4, 0, 0, 0, 0, 0]"] ;
323 -> 327 ;
328 [label="X[13] <= 0.5\nentropy = 0.722\nsamples = 5\nvalue = [1, 0, 0, 4, 0, 0, 0, 0, 0]"] ;
327 -> 328 ;
329 [label="entropy = 0.0\nsamples = 4\nvalue = [0, 0, 0, 4, 0, 0, 0, 0, 0]"] ;
328 -> 329 ;
330 [label="entropy = 0.0\nsamples = 1\nvalue = [1, 0, 0, 0, 0, 0, 0, 0, 0]"] ;
328 -> 330 ;
331 [label="entropy = 0.0\nsamples = 6\nvalue = [0, 6, 0, 0, 0, 0, 0, 0, 0]"] ;
327 -> 331 ;
332 [label="X[15] <= 0.5\nentropy = 0.456\nsamples = 713\nvalue = [671, 14, 8, 1, 0, 2, 2, 13, 2]"] ;
304 -> 332 ;
333 [label="X[6] <= 0.5\nentropy = 0.268\nsamples = 690\nvalue = [668, 12, 3, 1, 0, 2, 2, 0, 2]"] ;
332 -> 333 ;
334 [label="X[21] <= 0.5\nentropy = 0.203\nsamples = 683\nvalue = [668, 6, 3, 1, 0, 1, 2, 0, 2]"] ;
333 -> 334 ;
335 [label="X[17] <= 0.5\nentropy = 0.15\nsamples = 679\nvalue = [668, 6, 1, 1, 0, 0, 2, 0, 1]"] ;
334 -> 335 ;
336 [label="X[7] <= 0.5\nentropy = 1.135\nsamples = 18\nvalue = [12, 5, 0, 0, 0, 0, 1, 0, 0]"] ;
335 -> 336 ;
337 [label="X[22] <= 0.5\nentropy = 0.414\nsamples = 12\nvalue = [11, 0, 0, 0, 0, 0, 1, 0, 0]"] ;
336 -> 337 ;
338 [label="entropy = 0.918\nsamples = 3\nvalue = [2, 0, 0, 0, 0, 0, 1, 0, 0]"] ;
337 -> 338 ;
339 [label="entropy = 0.0\nsamples = 9\nvalue = [9, 0, 0, 0, 0, 0, 0, 0, 0]"] ;
337 -> 339 ;
340 [label="X[5] <= 0.5\nentropy = 0.65\nsamples = 6\nvalue = [1, 5, 0, 0, 0, 0, 0, 0, 0]"] ;
336 -> 340 ;
341 [label="entropy = 0.0\nsamples = 1\nvalue = [1, 0, 0, 0, 0, 0, 0, 0, 0]"] ;
340 -> 341 ;
342 [label="entropy = 0.0\nsamples = 5\nvalue = [0, 5, 0, 0, 0, 0, 0, 0, 0]"] ;
340 -> 342 ;
343 [label="X[18] <= 0.5\nentropy = 0.082\nsamples = 661\nvalue = [656, 1, 1, 1, 0, 0, 1, 0, 1]"] ;
335 -> 343 ;
344 [label="X[9] <= 0.5\nentropy = 0.049\nsamples = 659\nvalue = [656, 1, 1, 0, 0, 0, 1, 0, 0]"] ;
343 -> 344 ;
345 [label="X[5] <= 0.5\nentropy = 0.033\nsamples = 658\nvalue = [656, 1, 1, 0, 0, 0, 0, 0, 0]"] ;
344 -> 345 ;
346 [label="X[8] <= 0.5\nentropy = 0.103\nsamples = 74\nvalue = [73, 0, 1, 0, 0, 0, 0, 0, 0]"] ;
345 -> 346 ;
347 [label="entropy = 0.0\nsamples = 72\nvalue = [72, 0, 0, 0, 0, 0, 0, 0, 0]"] ;
346 -> 347 ;
348 [label="X[20] <= 0.5\nentropy = 1.0\nsamples = 2\nvalue = [1, 0, 1, 0, 0, 0, 0, 0, 0]"] ;
346 -> 348 ;
349 [label="entropy = 0.0\nsamples = 1\nvalue = [1, 0, 0, 0, 0, 0, 0, 0, 0]"] ;
348 -> 349 ;
350 [label="entropy = 0.0\nsamples = 1\nvalue = [0, 0, 1, 0, 0, 0, 0, 0, 0]"] ;
348 -> 350 ;
351 [label="X[13] <= 0.5\nentropy = 0.018\nsamples = 584\nvalue = [583, 1, 0, 0, 0, 0, 0, 0, 0]"] ;
345 -> 351 ;
352 [label="entropy = 0.0\nsamples = 4\nvalue = [4, 0, 0, 0, 0, 0, 0, 0, 0]"] ;
351 -> 352 ;
353 [label="entropy = 0.018\nsamples = 580\nvalue = [579, 1, 0, 0, 0, 0, 0, 0, 0]"] ;
351 -> 353 ;
354 [label="entropy = 0.0\nsamples = 1\nvalue = [0, 0, 0, 0, 0, 0, 1, 0, 0]"] ;
344 -> 354 ;
355 [label="entropy = 1.0\nsamples = 2\nvalue = [0, 0, 0, 1, 0, 0, 0, 0, 1]"] ;
343 -> 355 ;
356 [label="entropy = 1.5\nsamples = 4\nvalue = [0, 0, 2, 0, 0, 1, 0, 0, 1]"] ;
334 -> 356 ;
357 [label="X[20] <= 0.5\nentropy = 0.592\nsamples = 7\nvalue = [0, 6, 0, 0, 0, 1, 0, 0, 0]"] ;
333 -> 357 ;
358 [label="entropy = 0.0\nsamples = 1\nvalue = [0, 0, 0, 0, 0, 1, 0, 0, 0]"] ;
357 -> 358 ;
359 [label="entropy = 0.0\nsamples = 6\nvalue = [0, 6, 0, 0, 0, 0, 0, 0, 0]"] ;
357 -> 359 ;
360 [label="X[6] <= 0.5\nentropy = 1.634\nsamples = 23\nvalue = [3, 2, 5, 0, 0, 0, 0, 13, 0]"] ;
332 -> 360 ;
361 [label="entropy = 1.757\nsamples = 17\nvalue = [2, 2, 5, 0, 0, 0, 0, 8, 0]"] ;
360 -> 361 ;
362 [label="X[13] <= 0.5\nentropy = 0.65\nsamples = 6\nvalue = [1, 0, 0, 0, 0, 0, 0, 5, 0]"] ;
360 -> 362 ;
363 [label="entropy = 0.0\nsamples = 1\nvalue = [1, 0, 0, 0, 0, 0, 0, 0, 0]"] ;
362 -> 363 ;
364 [label="entropy = 0.0\nsamples = 5\nvalue = [0, 0, 0, 0, 0, 0, 0, 5, 0]"] ;
362 -> 364 ;
365 [label="X[8] <= 0.5\nentropy = 1.711\nsamples = 115\nvalue = [22, 0, 70, 1, 0, 7, 8, 0, 7]"] ;
303 -> 365 ;
366 [label="X[16] <= 0.5\nentropy = 1.983\nsamples = 20\nvalue = [1, 0, 0, 1, 0, 6, 7, 0, 5]"] ;
365 -> 366 ;
367 [label="X[11] <= 0.5\nentropy = 1.296\nsamples = 14\nvalue = [1, 0, 0, 0, 0, 6, 7, 0, 0]"] ;
366 -> 367 ;
368 [label="X[25] <= 0.5\nentropy = 0.592\nsamples = 7\nvalue = [1, 0, 0, 0, 0, 0, 6, 0, 0]"] ;
367 -> 368 ;
369 [label="entropy = 0.0\nsamples = 1\nvalue = [1, 0, 0, 0, 0, 0, 0, 0, 0]"] ;
368 -> 369 ;
370 [label="entropy = 0.0\nsamples = 6\nvalue = [0, 0, 0, 0, 0, 0, 6, 0, 0]"] ;
368 -> 370 ;
371 [label="X[23] <= 0.5\nentropy = 0.592\nsamples = 7\nvalue = [0, 0, 0, 0, 0, 6, 1, 0, 0]"] ;
367 -> 371 ;
372 [label="entropy = 0.0\nsamples = 6\nvalue = [0, 0, 0, 0, 0, 6, 0, 0, 0]"] ;
371 -> 372 ;
373 [label="entropy = 0.0\nsamples = 1\nvalue = [0, 0, 0, 0, 0, 0, 1, 0, 0]"] ;
371 -> 373 ;
374 [label="X[20] <= 0.5\nentropy = 0.65\nsamples = 6\nvalue = [0, 0, 0, 1, 0, 0, 0, 0, 5]"] ;
366 -> 374 ;
375 [label="entropy = 0.0\nsamples = 1\nvalue = [0, 0, 0, 1, 0, 0, 0, 0, 0]"] ;
374 -> 375 ;
376 [label="entropy = 0.0\nsamples = 5\nvalue = [0, 0, 0, 0, 0, 0, 0, 0, 5]"] ;
374 -> 376 ;
377 [label="X[11] <= 0.5\nentropy = 1.062\nsamples = 95\nvalue = [21, 0, 70, 0, 0, 1, 1, 0, 2]"] ;
365 -> 377 ;
378 [label="entropy = 0.0\nsamples = 3\nvalue = [0, 0, 3, 0, 0, 0, 0, 0, 0]"] ;
377 -> 378 ;
379 [label="X[17] <= 0.5\nentropy = 1.082\nsamples = 92\nvalue = [21, 0, 67, 0, 0, 1, 1, 0, 2]"] ;
377 -> 379 ;
380 [label="entropy = 0.0\nsamples = 1\nvalue = [0, 0, 1, 0, 0, 0, 0, 0, 0]"] ;
379 -> 380 ;
381 [label="entropy = 1.088\nsamples = 91\nvalue = [21, 0, 66, 0, 0, 1, 1, 0, 2]"] ;
379 -> 381 ;
382 [label="X[16] <= 0.5\nentropy = 1.856\nsamples = 1261\nvalue = [286, 116, 16, 1, 714, 62, 9, 13, 44]"] ;
302 -> 382 ;
383 [label="X[25] <= 0.5\nentropy = 1.858\nsamples = 1199\nvalue = [241, 116, 16, 1, 697, 62, 9, 13, 44]"] ;
382 -> 383 ;
384 [label="X[4] <= 0.5\nentropy = 1.851\nsamples = 1155\nvalue = [210, 116, 15, 1, 685, 62, 9, 13, 44]"] ;
383 -> 384 ;
385 [label="X[23] <= 0.5\nentropy = 1.93\nsamples = 1039\nvalue = [185, 116, 15, 1, 594, 62, 9, 13, 44]"] ;
384 -> 385 ;
386 [label="entropy = 0.89\nsamples = 13\nvalue = [9, 0, 0, 0, 4, 0, 0, 0, 0]"] ;
385 -> 386 ;
387 [label="X[8] <= 0.5\nentropy = 1.929\nsamples = 1026\nvalue = [176, 116, 15, 1, 590, 62, 9, 13, 44]"] ;
385 -> 387 ;
388 [label="X[24] <= 0.5\nentropy = 0.989\nsamples = 16\nvalue = [9, 0, 0, 0, 7, 0, 0, 0, 0]"] ;
387 -> 388 ;
389 [label="entropy = 0.971\nsamples = 15\nvalue = [9, 0, 0, 0, 6, 0, 0, 0, 0]"] ;
388 -> 389 ;
390 [label="entropy = 0.0\nsamples = 1\nvalue = [0, 0, 0, 0, 1, 0, 0, 0, 0]"] ;
388 -> 390 ;
391 [label="X[19] <= 0.5\nentropy = 1.931\nsamples = 1010\nvalue = [167, 116, 15, 1, 583, 62, 9, 13, 44]"] ;
387 -> 391 ;
392 [label="X[10] <= 0.5\nentropy = 1.929\nsamples = 1001\nvalue = [160, 116, 15, 1, 581, 62, 9, 13, 44]"] ;
391 -> 392 ;
393 [label="entropy = 1.93\nsamples = 1000\nvalue = [160, 116, 15, 1, 580, 62, 9, 13, 44]"] ;
392 -> 393 ;
394 [label="entropy = 0.0\nsamples = 1\nvalue = [0, 0, 0, 0, 1, 0, 0, 0, 0]"] ;
392 -> 394 ;
395 [label="entropy = 0.764\nsamples = 9\nvalue = [7, 0, 0, 0, 2, 0, 0, 0, 0]"] ;
391 -> 395 ;
396 [label="entropy = 0.752\nsamples = 116\nvalue = [25, 0, 0, 0, 91, 0, 0, 0, 0]"] ;
384 -> 396 ;
397 [label="entropy = 0.991\nsamples = 44\nvalue = [31, 0, 1, 0, 12, 0, 0, 0, 0]"] ;
383 -> 397 ;
398 [label="entropy = 0.847\nsamples = 62\nvalue = [45, 0, 0, 0, 17, 0, 0, 0, 0]"] ;
382 -> 398 ;
}