digraph Tree {
node [shape=box] ;
0 [label="X[14] <= 0.5\nentropy = 3.169\nsamples = 8576\nvalue = [1000, 926, 953, 927, 1000, 956, 932, 934, 948]"] ;
1 [label="X[8] <= 0.5\nentropy = 2.971\nsamples = 6598\nvalue = [427, 901, 842, 881, 0, 888, 839, 889, 931]"] ;
0 -> 1 [labeldistance=2.5, labelangle=45, headlabel="True"] ;
2 [label="X[5] <= 0.5\nentropy = 2.645\nsamples = 4242\nvalue = [66, 648, 0, 663, 0, 755, 535, 700, 875]"] ;
1 -> 2 ;
3 [label="X[11] <= 0.5\nentropy = 2.343\nsamples = 2906\nvalue = [30, 0, 0, 512, 0, 615, 373, 605, 771]"] ;
2 -> 3 ;
4 [label="X[17] <= 0.5\nentropy = 1.9\nsamples = 1733\nvalue = [4, 0, 0, 0, 0, 411, 332, 253, 733]"] ;
3 -> 4 ;
5 [label="X[20] <= 0.5\nentropy = 1.367\nsamples = 1128\nvalue = [4, 0, 0, 0, 0, 0, 266, 170, 688]"] ;
4 -> 5 ;
6 [label="X[23] <= 0.5\nentropy = 0.804\nsamples = 771\nvalue = [4, 0, 0, 0, 0, 0, 0, 169, 598]"] ;
5 -> 6 ;
7 [label="X[2] <= 0.5\nentropy = 0.061\nsamples = 557\nvalue = [4, 0, 0, 0, 0, 0, 0, 0, 553]"] ;
6 -> 7 ;
8 [label="entropy = 0.0\nsamples = 553\nvalue = [0, 0, 0, 0, 0, 0, 0, 0, 553]"] ;
7 -> 8 ;
9 [label="entropy = 0.0\nsamples = 4\nvalue = [4, 0, 0, 0, 0, 0, 0, 0, 0]"] ;
7 -> 9 ;
10 [label="X[12] <= 0.5\nentropy = 0.742\nsamples = 214\nvalue = [0, 0, 0, 0, 0, 0, 0, 169, 45]"] ;
6 -> 10 ;
11 [label="entropy = 0.0\nsamples = 120\nvalue = [0, 0, 0, 0, 0, 0, 0, 120, 0]"] ;
10 -> 11 ;
12 [label="X[24] <= 0.5\nentropy = 0.999\nsamples = 94\nvalue = [0, 0, 0, 0, 0, 0, 0, 49, 45]"] ;
10 -> 12 ;
13 [label="entropy = 1.0\nsamples = 91\nvalue = [0, 0, 0, 0, 0, 0, 0, 46, 45]"] ;
12 -> 13 ;
14 [label="entropy = 0.0\nsamples = 3\nvalue = [0, 0, 0, 0, 0, 0, 0, 3, 0]"] ;
12 -> 14 ;
15 [label="X[15] <= 0.5\nentropy = 0.841\nsamples = 357\nvalue = [0, 0, 0, 0, 0, 0, 266, 1, 90]"] ;
5 -> 15 ;
16 [label="X[7] <= 0.5\nentropy = 0.874\nsamples = 121\nvalue = [0, 0, 0, 0, 0, 0, 30, 1, 90]"] ;
15 -> 16 ;
17 [label="entropy = 0.0\nsamples = 30\nvalue = [0, 0, 0, 0, 0, 0, 30, 0, 0]"] ;
16 -> 17 ;
18 [label="X[23] <= 0.5\nentropy = 0.087\nsamples = 91\nvalue = [0, 0, 0, 0, 0, 0, 0, 1, 90]"] ;
16 -> 18 ;
19 [label="entropy = 0.0\nsamples = 90\nvalue = [0, 0, 0, 0, 0, 0, 0, 0, 90]"] ;
18 -> 19 ;
20 [label="entropy = 0.0\nsamples = 1\nvalue = [0, 0, 0, 0, 0, 0, 0, 1, 0]"] ;
18 -> 20 ;
21 [label="entropy = 0.0\nsamples = 236\nvalue = [0, 0, 0, 0, 0, 0, 236, 0, 0]"] ;
15 -> 21 ;
22 [label="X[0] <= 0.5\nentropy = 1.4\nsamples = 605\nvalue = [0, 0, 0, 0, 0, 411, 66, 83, 45]"] ;
4 -> 22 ;
23 [label="X[20] <= 0.5\nentropy = 1.646\nsamples = 165\nvalue = [0, 0, 0, 0, 0, 57, 62, 2, 44]"] ;
22 -> 23 ;
24 [label="X[22] <= 0.5\nentropy = 1.134\nsamples = 86\nvalue = [0, 0, 0, 0, 0, 40, 0, 2, 44]"] ;
23 -> 24 ;
25 [label="X[4] <= 0.5\nentropy = 0.971\nsamples = 5\nvalue = [0, 0, 0, 0, 0, 3, 0, 2, 0]"] ;
24 -> 25 ;
26 [label="entropy = 0.0\nsamples = 2\nvalue = [0, 0, 0, 0, 0, 0, 0, 2, 0]"] ;
25 -> 26 ;
27 [label="entropy = 0.0\nsamples = 3\nvalue = [0, 0, 0, 0, 0, 3, 0, 0, 0]"] ;
25 -> 27 ;
28 [label="X[26] <= 0.5\nentropy = 0.995\nsamples = 81\nvalue = [0, 0, 0, 0, 0, 37, 0, 0, 44]"] ;
24 -> 28 ;
29 [label="entropy = 0.0\nsamples = 8\nvalue = [0, 0, 0, 0, 0, 8, 0, 0, 0]"] ;
28 -> 29 ;
30 [label="entropy = 0.969\nsamples = 73\nvalue = [0, 0, 0, 0, 0, 29, 0, 0, 44]"] ;
28 -> 30 ;
31 [label="X[6] <= 0.5\nentropy = 0.751\nsamples = 79\nvalue = [0, 0, 0, 0, 0, 17, 62, 0, 0]"] ;
23 -> 31 ;
32 [label="entropy = 0.0\nsamples = 60\nvalue = [0, 0, 0, 0, 0, 0, 60, 0, 0]"] ;
31 -> 32 ;
33 [label="entropy = 0.485\nsamples = 19\nvalue = [0, 0, 0, 0, 0, 17, 2, 0, 0]"] ;
31 -> 33 ;
34 [label="X[10] <= 0.5\nentropy = 0.783\nsamples = 440\nvalue = [0, 0, 0, 0, 0, 354, 4, 81, 1]"] ;
22 -> 34 ;
35 [label="X[21] <= 0.5\nentropy = 0.954\nsamples = 123\nvalue = [0, 0, 0, 0, 0, 46, 0, 77, 0]"] ;
34 -> 35 ;
36 [label="X[12] <= 0.5\nentropy = 0.17\nsamples = 79\nvalue = [0, 0, 0, 0, 0, 2, 0, 77, 0]"] ;
35 -> 36 ;
37 [label="entropy = 0.0\nsamples = 77\nvalue = [0, 0, 0, 0, 0, 0, 0, 77, 0]"] ;
36 -> 37 ;
38 [label="entropy = 0.0\nsamples = 2\nvalue = [0, 0, 0, 0, 0, 2, 0, 0, 0]"] ;
36 -> 38 ;
39 [label="entropy = 0.0\nsamples = 44\nvalue = [0, 0, 0, 0, 0, 44, 0, 0, 0]"] ;
35 -> 39 ;
40 [label="X[12] <= 0.5\nentropy = 0.226\nsamples = 317\nvalue = [0, 0, 0, 0, 0, 308, 4, 4, 1]"] ;
34 -> 40 ;
41 [label="X[20] <= 0.5\nentropy = 0.085\nsamples = 283\nvalue = [0, 0, 0, 0, 0, 280, 3, 0, 0]"] ;
40 -> 41 ;
42 [label="entropy = 0.0\nsamples = 186\nvalue = [0, 0, 0, 0, 0, 186, 0, 0, 0]"] ;
41 -> 42 ;
43 [label="X[6] <= 0.5\nentropy = 0.199\nsamples = 97\nvalue = [0, 0, 0, 0, 0, 94, 3, 0, 0]"] ;
41 -> 43 ;
44 [label="entropy = 1.0\nsamples = 6\nvalue = [0, 0, 0, 0, 0, 3, 3, 0, 0]"] ;
43 -> 44 ;
45 [label="entropy = 0.0\nsamples = 91\nvalue = [0, 0, 0, 0, 0, 91, 0, 0, 0]"] ;
43 -> 45 ;
46 [label="X[19] <= 0.5\nentropy = 0.893\nsamples = 34\nvalue = [0, 0, 0, 0, 0, 28, 1, 4, 1]"] ;
40 -> 46 ;
47 [label="X[22] <= 0.5\nentropy = 0.216\nsamples = 29\nvalue = [0, 0, 0, 0, 0, 28, 1, 0, 0]"] ;
46 -> 47 ;
48 [label="entropy = 0.0\nsamples = 28\nvalue = [0, 0, 0, 0, 0, 28, 0, 0, 0]"] ;
47 -> 48 ;
49 [label="entropy = 0.0\nsamples = 1\nvalue = [0, 0, 0, 0, 0, 0, 1, 0, 0]"] ;
47 -> 49 ;
50 [label="X[23] <= 0.5\nentropy = 0.722\nsamples = 5\nvalue = [0, 0, 0, 0, 0, 0, 0, 4, 1]"] ;
46 -> 50 ;
51 [label="entropy = 0.0\nsamples = 1\nvalue = [0, 0, 0, 0, 0, 0, 0, 0, 1]"] ;
50 -> 51 ;
52 [label="entropy = 0.0\nsamples = 4\nvalue = [0, 0, 0, 0, 0, 0, 0, 4, 0]"] ;
50 -> 52 ;
53 [label="X[23] <= 0.5\nentropy = 1.933\nsamples = 1173\nvalue = [26, 0, 0, 512, 0, 204, 41, 352, 38]"] ;
3 -> 53 ;
54 [label="X[17] <= 0.5\nentropy = 1.279\nsamples = 627\nvalue = [11, 0, 0, 395, 0, 194, 8, 0, 19]"] ;
53 -> 54 ;
55 [label="X[0] <= 0.5\nentropy = 0.778\nsamples = 245\nvalue = [11, 0, 0, 211, 0, 0, 5, 0, 18]"] ;
54 -> 55 ;
56 [label="X[26] <= 0.5\nentropy = 1.887\nsamples = 44\nvalue = [11, 0, 0, 11, 0, 0, 5, 0, 17]"] ;
55 -> 56 ;
57 [label="X[16] <= 0.5\nentropy = 1.506\nsamples = 27\nvalue = [11, 0, 0, 11, 0, 0, 5, 0, 0]"] ;
56 -> 57 ;
58 [label="entropy = 0.0\nsamples = 11\nvalue = [11, 0, 0, 0, 0, 0, 0, 0, 0]"] ;
57 -> 58 ;
59 [label="X[13] <= 0.5\nentropy = 0.896\nsamples = 16\nvalue = [0, 0, 0, 11, 0, 0, 5, 0, 0]"] ;
57 -> 59 ;
60 [label="X[18] <= 0.5\nentropy = 0.961\nsamples = 13\nvalue = [0, 0, 0, 8, 0, 0, 5, 0, 0]"] ;
59 -> 60 ;
61 [label="X[6] <= 0.5\nentropy = 0.994\nsamples = 11\nvalue = [0, 0, 0, 6, 0, 0, 5, 0, 0]"] ;
60 -> 61 ;
62 [label="entropy = 0.971\nsamples = 10\nvalue = [0, 0, 0, 6, 0, 0, 4, 0, 0]"] ;
61 -> 62 ;
63 [label="entropy = 0.0\nsamples = 1\nvalue = [0, 0, 0, 0, 0, 0, 1, 0, 0]"] ;
61 -> 63 ;
64 [label="entropy = 0.0\nsamples = 2\nvalue = [0, 0, 0, 2, 0, 0, 0, 0, 0]"] ;
60 -> 64 ;
65 [label="entropy = 0.0\nsamples = 3\nvalue = [0, 0, 0, 3, 0, 0, 0, 0, 0]"] ;
59 -> 65 ;
66 [label="entropy = 0.0\nsamples = 17\nvalue = [0, 0, 0, 0, 0, 0, 0, 0, 17]"] ;
56 -> 66 ;
67 [label="X[3] <= 0.5\nentropy = 0.045\nsamples = 201\nvalue = [0, 0, 0, 200, 0, 0, 0, 0, 1]"] ;
55 -> 67 ;
68 [label="entropy = 0.0\nsamples = 200\nvalue = [0, 0, 0, 200, 0, 0, 0, 0, 0]"] ;
67 -> 68 ;
69 [label="entropy = 0.0\nsamples = 1\nvalue = [0, 0, 0, 0, 0, 0, 0, 0, 1]"] ;
67 -> 69 ;
70 [label="X[13] <= 0.5\nentropy = 1.081\nsamples = 382\nvalue = [0, 0, 0, 184, 0, 194, 3, 0, 1]"] ;
54 -> 70 ;
71 [label="X[26] <= 0.5\nentropy = 1.0\nsamples = 375\nvalue = [0, 0, 0, 183, 0, 192, 0, 0, 0]"] ;
70 -> 71 ;
72 [label="entropy = 0.0\nsamples = 4\nvalue = [0, 0, 0, 0, 0, 4, 0, 0, 0]"] ;
71 -> 72 ;
73 [label="X[6] <= 0.5\nentropy = 1.0\nsamples = 371\nvalue = [0, 0, 0, 183, 0, 188, 0, 0, 0]"] ;
71 -> 73 ;
74 [label="X[18] <= 0.5\nentropy = 1.0\nsamples = 368\nvalue = [0, 0, 0, 180, 0, 188, 0, 0, 0]"] ;
73 -> 74 ;
75 [label="entropy = 0.997\nsamples = 192\nvalue = [0, 0, 0, 90, 0, 102, 0, 0, 0]"] ;
74 -> 75 ;
76 [label="entropy = 1.0\nsamples = 176\nvalue = [0, 0, 0, 90, 0, 86, 0, 0, 0]"] ;
74 -> 76 ;
77 [label="entropy = 0.0\nsamples = 3\nvalue = [0, 0, 0, 3, 0, 0, 0, 0, 0]"] ;
73 -> 77 ;
78 [label="X[19] <= 0.5\nentropy = 1.842\nsamples = 7\nvalue = [0, 0, 0, 1, 0, 2, 3, 0, 1]"] ;
70 -> 78 ;
79 [label="entropy = 0.0\nsamples = 3\nvalue = [0, 0, 0, 0, 0, 0, 3, 0, 0]"] ;
78 -> 79 ;
80 [label="X[25] <= 0.5\nentropy = 1.5\nsamples = 4\nvalue = [0, 0, 0, 1, 0, 2, 0, 0, 1]"] ;
78 -> 80 ;
81 [label="entropy = 0.0\nsamples = 1\nvalue = [0, 0, 0, 0, 0, 0, 0, 0, 1]"] ;
80 -> 81 ;
82 [label="entropy = 0.918\nsamples = 3\nvalue = [0, 0, 0, 1, 0, 2, 0, 0, 0]"] ;
80 -> 82 ;
83 [label="X[4] <= 0.5\nentropy = 1.546\nsamples = 546\nvalue = [15, 0, 0, 117, 0, 10, 33, 352, 19]"] ;
53 -> 83 ;
84 [label="X[0] <= 0.5\nentropy = 1.45\nsamples = 63\nvalue = [0, 0, 0, 0, 0, 0, 33, 11, 19]"] ;
83 -> 84 ;
85 [label="X[13] <= 0.5\nentropy = 0.948\nsamples = 30\nvalue = [0, 0, 0, 0, 0, 0, 0, 11, 19]"] ;
84 -> 85 ;
86 [label="entropy = 0.0\nsamples = 11\nvalue = [0, 0, 0, 0, 0, 0, 0, 11, 0]"] ;
85 -> 86 ;
87 [label="entropy = 0.0\nsamples = 19\nvalue = [0, 0, 0, 0, 0, 0, 0, 0, 19]"] ;
85 -> 87 ;
88 [label="entropy = 0.0\nsamples = 33\nvalue = [0, 0, 0, 0, 0, 0, 33, 0, 0]"] ;
84 -> 88 ;
89 [label="X[13] <= 0.5\nentropy = 1.121\nsamples = 483\nvalue = [15, 0, 0, 117, 0, 10, 0, 341, 0]"] ;
83 -> 89 ;
90 [label="X[2] <= 0.5\nentropy = 0.746\nsamples = 66\nvalue = [14, 0, 0, 52, 0, 0, 0, 0, 0]"] ;
89 -> 90 ;
91 [label="entropy = 0.0\nsamples = 52\nvalue = [0, 0, 0, 52, 0, 0, 0, 0, 0]"] ;
90 -> 91 ;
92 [label="entropy = 0.0\nsamples = 14\nvalue = [14, 0, 0, 0, 0, 0, 0, 0, 0]"] ;
90 -> 92 ;
93 [label="X[20] <= 0.5\nentropy = 0.805\nsamples = 417\nvalue = [1, 0, 0, 65, 0, 10, 0, 341, 0]"] ;
89 -> 93 ;
94 [label="entropy = 0.0\nsamples = 137\nvalue = [0, 0, 0, 0, 0, 0, 0, 137, 0]"] ;
93 -> 94 ;
95 [label="X[16] <= 0.5\nentropy = 1.023\nsamples = 280\nvalue = [1, 0, 0, 65, 0, 10, 0, 204, 0]"] ;
93 -> 95 ;
96 [label="X[2] <= 0.5\nentropy = 0.989\nsamples = 272\nvalue = [1, 0, 0, 57, 0, 10, 0, 204, 0]"] ;
95 -> 96 ;
97 [label="X[26] <= 0.5\nentropy = 0.982\nsamples = 259\nvalue = [0, 0, 0, 57, 0, 10, 0, 192, 0]"] ;
96 -> 97 ;
98 [label="entropy = 0.0\nsamples = 4\nvalue = [0, 0, 0, 4, 0, 0, 0, 0, 0]"] ;
97 -> 98 ;
99 [label="entropy = 0.963\nsamples = 255\nvalue = [0, 0, 0, 53, 0, 10, 0, 192, 0]"] ;
97 -> 99 ;
100 [label="X[17] <= 0.5\nentropy = 0.391\nsamples = 13\nvalue = [1, 0, 0, 0, 0, 0, 0, 12, 0]"] ;
96 -> 100 ;
101 [label="entropy = 0.439\nsamples = 11\nvalue = [1, 0, 0, 0, 0, 0, 0, 10, 0]"] ;
100 -> 101 ;
102 [label="entropy = 0.0\nsamples = 2\nvalue = [0, 0, 0, 0, 0, 0, 0, 2, 0]"] ;
100 -> 102 ;
103 [label="entropy = 0.0\nsamples = 8\nvalue = [0, 0, 0, 8, 0, 0, 0, 0, 0]"] ;
95 -> 103 ;
104 [label="X[0] <= 0.5\nentropy = 2.27\nsamples = 1336\nvalue = [36, 648, 0, 151, 0, 140, 162, 95, 104]"] ;
2 -> 104 ;
105 [label="X[6] <= 0.5\nentropy = 1.751\nsamples = 908\nvalue = [36, 548, 0, 147, 0, 2, 7, 64, 104]"] ;
104 -> 105 ;
106 [label="X[2] <= 0.5\nentropy = 0.381\nsamples = 480\nvalue = [27, 449, 0, 0, 0, 0, 4, 0, 0]"] ;
105 -> 106 ;
107 [label="X[12] <= 0.5\nentropy = 0.075\nsamples = 440\nvalue = [0, 436, 0, 0, 0, 0, 4, 0, 0]"] ;
106 -> 107 ;
108 [label="entropy = 0.722\nsamples = 5\nvalue = [0, 1, 0, 0, 0, 0, 4, 0, 0]"] ;
107 -> 108 ;
109 [label="entropy = 0.0\nsamples = 435\nvalue = [0, 435, 0, 0, 0, 0, 0, 0, 0]"] ;
107 -> 109 ;
110 [label="X[17] <= 0.5\nentropy = 0.91\nsamples = 40\nvalue = [27, 13, 0, 0, 0, 0, 0, 0, 0]"] ;
106 -> 110 ;
111 [label="entropy = 0.0\nsamples = 11\nvalue = [0, 11, 0, 0, 0, 0, 0, 0, 0]"] ;
110 -> 111 ;
112 [label="X[26] <= 0.5\nentropy = 0.362\nsamples = 29\nvalue = [27, 2, 0, 0, 0, 0, 0, 0, 0]"] ;
110 -> 112 ;
113 [label="entropy = 0.0\nsamples = 2\nvalue = [0, 2, 0, 0, 0, 0, 0, 0, 0]"] ;
112 -> 113 ;
114 [label="entropy = 0.0\nsamples = 27\nvalue = [27, 0, 0, 0, 0, 0, 0, 0, 0]"] ;
112 -> 114 ;
115 [label="X[9] <= 0.5\nentropy = 2.127\nsamples = 428\nvalue = [9, 99, 0, 147, 0, 2, 3, 64, 104]"] ;
105 -> 115 ;
116 [label="X[12] <= 0.5\nentropy = 1.381\nsamples = 213\nvalue = [9, 10, 0, 147, 0, 2, 3, 0, 42]"] ;
115 -> 116 ;
117 [label="X[2] <= 0.5\nentropy = 1.942\nsamples = 77\nvalue = [9, 10, 0, 11, 0, 2, 3, 0, 42]"] ;
116 -> 117 ;
118 [label="X[24] <= 0.5\nentropy = 0.868\nsamples = 48\nvalue = [0, 1, 0, 2, 0, 1, 3, 0, 41]"] ;
117 -> 118 ;
119 [label="entropy = 0.0\nsamples = 41\nvalue = [0, 0, 0, 0, 0, 0, 0, 0, 41]"] ;
118 -> 119 ;
120 [label="X[21] <= 0.5\nentropy = 1.842\nsamples = 7\nvalue = [0, 1, 0, 2, 0, 1, 3, 0, 0]"] ;
118 -> 120 ;
121 [label="X[16] <= 0.5\nentropy = 0.918\nsamples = 3\nvalue = [0, 1, 0, 2, 0, 0, 0, 0, 0]"] ;
120 -> 121 ;
122 [label="entropy = 0.0\nsamples = 1\nvalue = [0, 1, 0, 0, 0, 0, 0, 0, 0]"] ;
121 -> 122 ;
123 [label="entropy = 0.0\nsamples = 2\nvalue = [0, 0, 0, 2, 0, 0, 0, 0, 0]"] ;
121 -> 123 ;
124 [label="entropy = 0.811\nsamples = 4\nvalue = [0, 0, 0, 0, 0, 1, 3, 0, 0]"] ;
120 -> 124 ;
125 [label="entropy = 1.907\nsamples = 29\nvalue = [9, 9, 0, 9, 0, 1, 0, 0, 1]"] ;
117 -> 125 ;
126 [label="entropy = 0.0\nsamples = 136\nvalue = [0, 0, 0, 136, 0, 0, 0, 0, 0]"] ;
116 -> 126 ;
127 [label="X[24] <= 0.5\nentropy = 1.564\nsamples = 215\nvalue = [0, 89, 0, 0, 0, 0, 0, 64, 62]"] ;
115 -> 127 ;
128 [label="X[22] <= 0.5\nentropy = 1.583\nsamples = 182\nvalue = [0, 56, 0, 0, 0, 0, 0, 64, 62]"] ;
127 -> 128 ;
129 [label="X[20] <= 0.5\nentropy = 1.502\nsamples = 147\nvalue = [0, 56, 0, 0, 0, 0, 0, 64, 27]"] ;
128 -> 129 ;
130 [label="X[25] <= 0.5\nentropy = 0.997\nsamples = 120\nvalue = [0, 56, 0, 0, 0, 0, 0, 64, 0]"] ;
129 -> 130 ;
131 [label="entropy = 0.998\nsamples = 118\nvalue = [0, 56, 0, 0, 0, 0, 0, 62, 0]"] ;
130 -> 131 ;
132 [label="entropy = 0.0\nsamples = 2\nvalue = [0, 0, 0, 0, 0, 0, 0, 2, 0]"] ;
130 -> 132 ;
133 [label="entropy = 0.0\nsamples = 27\nvalue = [0, 0, 0, 0, 0, 0, 0, 0, 27]"] ;
129 -> 133 ;
134 [label="entropy = 0.0\nsamples = 35\nvalue = [0, 0, 0, 0, 0, 0, 0, 0, 35]"] ;
128 -> 134 ;
135 [label="entropy = 0.0\nsamples = 33\nvalue = [0, 33, 0, 0, 0, 0, 0, 0, 0]"] ;
127 -> 135 ;
136 [label="X[20] <= 0.5\nentropy = 1.885\nsamples = 428\nvalue = [0, 100, 0, 4, 0, 138, 155, 31, 0]"] ;
104 -> 136 ;
137 [label="X[15] <= 0.5\nentropy = 1.087\nsamples = 242\nvalue = [0, 100, 0, 0, 0, 138, 0, 4, 0]"] ;
136 -> 137 ;
138 [label="X[11] <= 0.5\nentropy = 0.062\nsamples = 139\nvalue = [0, 0, 0, 0, 0, 138, 0, 1, 0]"] ;
137 -> 138 ;
139 [label="entropy = 0.0\nsamples = 136\nvalue = [0, 0, 0, 0, 0, 136, 0, 0, 0]"] ;
138 -> 139 ;
140 [label="entropy = 0.918\nsamples = 3\nvalue = [0, 0, 0, 0, 0, 2, 0, 1, 0]"] ;
138 -> 140 ;
141 [label="X[23] <= 0.5\nentropy = 0.19\nsamples = 103\nvalue = [0, 100, 0, 0, 0, 0, 0, 3, 0]"] ;
137 -> 141 ;
142 [label="entropy = 0.0\nsamples = 99\nvalue = [0, 99, 0, 0, 0, 0, 0, 0, 0]"] ;
141 -> 142 ;
143 [label="X[19] <= 0.5\nentropy = 0.811\nsamples = 4\nvalue = [0, 1, 0, 0, 0, 0, 0, 3, 0]"] ;
141 -> 143 ;
144 [label="entropy = 1.0\nsamples = 2\nvalue = [0, 1, 0, 0, 0, 0, 0, 1, 0]"] ;
143 -> 144 ;
145 [label="entropy = 0.0\nsamples = 2\nvalue = [0, 0, 0, 0, 0, 0, 0, 2, 0]"] ;
143 -> 145 ;
146 [label="X[12] <= 0.5\nentropy = 0.742\nsamples = 186\nvalue = [0, 0, 0, 4, 0, 0, 155, 27, 0]"] ;
136 -> 146 ;
147 [label="entropy = 0.0\nsamples = 155\nvalue = [0, 0, 0, 0, 0, 0, 155, 0, 0]"] ;
146 -> 147 ;
148 [label="X[11] <= 0.5\nentropy = 0.555\nsamples = 31\nvalue = [0, 0, 0, 4, 0, 0, 0, 27, 0]"] ;
146 -> 148 ;
149 [label="entropy = 0.0\nsamples = 27\nvalue = [0, 0, 0, 0, 0, 0, 0, 27, 0]"] ;
148 -> 149 ;
150 [label="entropy = 0.0\nsamples = 4\nvalue = [0, 0, 0, 4, 0, 0, 0, 0, 0]"] ;
148 -> 150 ;
151 [label="X[2] <= 0.5\nentropy = 2.644\nsamples = 2356\nvalue = [361, 253, 842, 218, 0, 133, 304, 189, 56]"] ;
1 -> 151 ;
152 [label="X[4] <= 0.5\nentropy = 2.393\nsamples = 1919\nvalue = [0, 246, 805, 209, 0, 126, 299, 182, 52]"] ;
151 -> 152 ;
153 [label="X[1] <= 0.5\nentropy = 2.331\nsamples = 1516\nvalue = [0, 246, 611, 195, 0, 75, 288, 51, 50]"] ;
152 -> 153 ;
154 [label="X[10] <= 0.5\nentropy = 1.87\nsamples = 736\nvalue = [0, 114, 434, 24, 0, 44, 73, 45, 2]"] ;
153 -> 154 ;
155 [label="X[20] <= 0.5\nentropy = 1.494\nsamples = 599\nvalue = [0, 40, 421, 24, 0, 5, 73, 34, 2]"] ;
154 -> 155 ;
156 [label="X[26] <= 0.5\nentropy = 0.221\nsamples = 169\nvalue = [0, 6, 163, 0, 0, 0, 0, 0, 0]"] ;
155 -> 156 ;
157 [label="entropy = 0.0\nsamples = 6\nvalue = [0, 6, 0, 0, 0, 0, 0, 0, 0]"] ;
156 -> 157 ;
158 [label="entropy = 0.0\nsamples = 163\nvalue = [0, 0, 163, 0, 0, 0, 0, 0, 0]"] ;
156 -> 158 ;
159 [label="X[17] <= 0.5\nentropy = 1.799\nsamples = 430\nvalue = [0, 34, 258, 24, 0, 5, 73, 34, 2]"] ;
155 -> 159 ;
160 [label="entropy = 0.985\nsamples = 14\nvalue = [0, 0, 8, 6, 0, 0, 0, 0, 0]"] ;
159 -> 160 ;
161 [label="X[22] <= 0.5\nentropy = 1.782\nsamples = 416\nvalue = [0, 34, 250, 18, 0, 5, 73, 34, 2]"] ;
159 -> 161 ;
162 [label="X[26] <= 0.5\nentropy = 1.778\nsamples = 415\nvalue = [0, 33, 250, 18, 0, 5, 73, 34, 2]"] ;
161 -> 162 ;
163 [label="entropy = 0.918\nsamples = 6\nvalue = [0, 0, 4, 0, 0, 0, 2, 0, 0]"] ;
162 -> 163 ;
164 [label="entropy = 1.785\nsamples = 409\nvalue = [0, 33, 246, 18, 0, 5, 71, 34, 2]"] ;
162 -> 164 ;
165 [label="entropy = 0.0\nsamples = 1\nvalue = [0, 1, 0, 0, 0, 0, 0, 0, 0]"] ;
161 -> 165 ;
166 [label="X[18] <= 0.5\nentropy = 1.611\nsamples = 137\nvalue = [0, 74, 13, 0, 0, 39, 0, 11, 0]"] ;
154 -> 166 ;
167 [label="X[12] <= 0.5\nentropy = 1.38\nsamples = 59\nvalue = [0, 11, 13, 0, 0, 35, 0, 0, 0]"] ;
166 -> 167 ;
168 [label="X[17] <= 0.5\nentropy = 1.031\nsamples = 46\nvalue = [0, 6, 5, 0, 0, 35, 0, 0, 0]"] ;
167 -> 168 ;
169 [label="entropy = 0.0\nsamples = 4\nvalue = [0, 0, 4, 0, 0, 0, 0, 0, 0]"] ;
168 -> 169 ;
170 [label="X[26] <= 0.5\nentropy = 0.749\nsamples = 42\nvalue = [0, 6, 1, 0, 0, 35, 0, 0, 0]"] ;
168 -> 170 ;
171 [label="entropy = 0.0\nsamples = 1\nvalue = [0, 0, 0, 0, 0, 1, 0, 0, 0]"] ;
170 -> 171 ;
172 [label="entropy = 0.76\nsamples = 41\nvalue = [0, 6, 1, 0, 0, 34, 0, 0, 0]"] ;
170 -> 172 ;
173 [label="X[22] <= 0.5\nentropy = 0.961\nsamples = 13\nvalue = [0, 5, 8, 0, 0, 0, 0, 0, 0]"] ;
167 -> 173 ;
174 [label="entropy = 0.0\nsamples = 5\nvalue = [0, 5, 0, 0, 0, 0, 0, 0, 0]"] ;
173 -> 174 ;
175 [label="entropy = 0.0\nsamples = 8\nvalue = [0, 0, 8, 0, 0, 0, 0, 0, 0]"] ;
173 -> 175 ;
176 [label="X[17] <= 0.5\nentropy = 0.867\nsamples = 78\nvalue = [0, 63, 0, 0, 0, 4, 0, 11, 0]"] ;
166 -> 176 ;
177 [label="entropy = 0.0\nsamples = 3\nvalue = [0, 3, 0, 0, 0, 0, 0, 0, 0]"] ;
176 -> 177 ;
178 [label="X[25] <= 0.5\nentropy = 0.889\nsamples = 75\nvalue = [0, 60, 0, 0, 0, 4, 0, 11, 0]"] ;
176 -> 178 ;
179 [label="entropy = 0.905\nsamples = 73\nvalue = [0, 58, 0, 0, 0, 4, 0, 11, 0]"] ;
178 -> 179 ;
180 [label="entropy = 0.0\nsamples = 2\nvalue = [0, 2, 0, 0, 0, 0, 0, 0, 0]"] ;
178 -> 180 ;
181 [label="X[20] <= 0.5\nentropy = 2.398\nsamples = 780\nvalue = [0, 132, 177, 171, 0, 31, 215, 6, 48]"] ;
153 -> 181 ;
182 [label="X[11] <= 0.5\nentropy = 1.904\nsamples = 161\nvalue = [0, 4, 13, 87, 0, 18, 0, 6, 33]"] ;
181 -> 182 ;
183 [label="X[19] <= 0.5\nentropy = 2.055\nsamples = 45\nvalue = [0, 4, 13, 0, 0, 18, 0, 6, 4]"] ;
182 -> 183 ;
184 [label="X[22] <= 0.5\nentropy = 0.906\nsamples = 15\nvalue = [0, 1, 12, 0, 0, 0, 0, 0, 2]"] ;
183 -> 184 ;
185 [label="entropy = 0.918\nsamples = 3\nvalue = [0, 1, 0, 0, 0, 0, 0, 0, 2]"] ;
184 -> 185 ;
186 [label="entropy = 0.0\nsamples = 12\nvalue = [0, 0, 12, 0, 0, 0, 0, 0, 0]"] ;
184 -> 186 ;
187 [label="X[17] <= 0.5\nentropy = 1.663\nsamples = 30\nvalue = [0, 3, 1, 0, 0, 18, 0, 6, 2]"] ;
183 -> 187 ;
188 [label="X[22] <= 0.5\nentropy = 1.295\nsamples = 10\nvalue = [0, 3, 0, 0, 0, 0, 0, 6, 1]"] ;
187 -> 188 ;
189 [label="X[3] <= 0.5\nentropy = 0.592\nsamples = 7\nvalue = [0, 1, 0, 0, 0, 0, 0, 6, 0]"] ;
188 -> 189 ;
190 [label="entropy = 0.811\nsamples = 4\nvalue = [0, 1, 0, 0, 0, 0, 0, 3, 0]"] ;
189 -> 190 ;
191 [label="entropy = 0.0\nsamples = 3\nvalue = [0, 0, 0, 0, 0, 0, 0, 3, 0]"] ;
189 -> 191 ;
192 [label="X[3] <= 0.5\nentropy = 0.918\nsamples = 3\nvalue = [0, 2, 0, 0, 0, 0, 0, 0, 1]"] ;
188 -> 192 ;
193 [label="entropy = 0.0\nsamples = 2\nvalue = [0, 2, 0, 0, 0, 0, 0, 0, 0]"] ;
192 -> 193 ;
194 [label="entropy = 0.0\nsamples = 1\nvalue = [0, 0, 0, 0, 0, 0, 0, 0, 1]"] ;
192 -> 194 ;
195 [label="X[12] <= 0.5\nentropy = 0.569\nsamples = 20\nvalue = [0, 0, 1, 0, 0, 18, 0, 0, 1]"] ;
187 -> 195 ;
196 [label="X[26] <= 0.5\nentropy = 1.0\nsamples = 2\nvalue = [0, 0, 1, 0, 0, 0, 0, 0, 1]"] ;
195 -> 196 ;
197 [label="entropy = 0.0\nsamples = 1\nvalue = [0, 0, 1, 0, 0, 0, 0, 0, 0]"] ;
196 -> 197 ;
198 [label="entropy = 0.0\nsamples = 1\nvalue = [0, 0, 0, 0, 0, 0, 0, 0, 1]"] ;
196 -> 198 ;
199 [label="entropy = 0.0\nsamples = 18\nvalue = [0, 0, 0, 0, 0, 18, 0, 0, 0]"] ;
195 -> 199 ;
200 [label="X[13] <= 0.5\nentropy = 0.811\nsamples = 116\nvalue = [0, 0, 0, 87, 0, 0, 0, 0, 29]"] ;
182 -> 200 ;
201 [label="entropy = 0.0\nsamples = 84\nvalue = [0, 0, 0, 84, 0, 0, 0, 0, 0]"] ;
200 -> 201 ;
202 [label="X[16] <= 0.5\nentropy = 0.449\nsamples = 32\nvalue = [0, 0, 0, 3, 0, 0, 0, 0, 29]"] ;
200 -> 202 ;
203 [label="entropy = 0.0\nsamples = 29\nvalue = [0, 0, 0, 0, 0, 0, 0, 0, 29]"] ;
202 -> 203 ;
204 [label="entropy = 0.0\nsamples = 3\nvalue = [0, 0, 0, 3, 0, 0, 0, 0, 0]"] ;
202 -> 204 ;
205 [label="X[22] <= 0.5\nentropy = 2.146\nsamples = 619\nvalue = [0, 128, 164, 84, 0, 13, 215, 0, 15]"] ;
181 -> 205 ;
206 [label="X[12] <= 0.5\nentropy = 2.16\nsamples = 431\nvalue = [0, 128, 99, 39, 0, 12, 138, 0, 15]"] ;
205 -> 206 ;
207 [label="X[10] <= 0.5\nentropy = 0.906\nsamples = 15\nvalue = [0, 1, 0, 0, 0, 2, 0, 0, 12]"] ;
206 -> 207 ;
208 [label="X[17] <= 0.5\nentropy = 0.391\nsamples = 13\nvalue = [0, 1, 0, 0, 0, 0, 0, 0, 12]"] ;
207 -> 208 ;
209 [label="entropy = 0.811\nsamples = 4\nvalue = [0, 1, 0, 0, 0, 0, 0, 0, 3]"] ;
208 -> 209 ;
210 [label="entropy = 0.0\nsamples = 9\nvalue = [0, 0, 0, 0, 0, 0, 0, 0, 9]"] ;
208 -> 210 ;
211 [label="entropy = 0.0\nsamples = 2\nvalue = [0, 0, 0, 0, 0, 2, 0, 0, 0]"] ;
207 -> 211 ;
212 [label="X[10] <= 0.5\nentropy = 2.044\nsamples = 416\nvalue = [0, 127, 99, 39, 0, 10, 138, 0, 3]"] ;
206 -> 212 ;
213 [label="X[9] <= 0.5\nentropy = 2.074\nsamples = 379\nvalue = [0, 127, 99, 39, 0, 10, 101, 0, 3]"] ;
212 -> 213 ;
214 [label="X[16] <= 0.5\nentropy = 2.097\nsamples = 344\nvalue = [0, 115, 80, 39, 0, 10, 97, 0, 3]"] ;
213 -> 214 ;
215 [label="X[25] <= 0.5\nentropy = 2.102\nsamples = 337\nvalue = [0, 115, 80, 39, 0, 10, 90, 0, 3]"] ;
214 -> 215 ;
216 [label="entropy = 2.099\nsamples = 335\nvalue = [0, 115, 79, 38, 0, 10, 90, 0, 3]"] ;
215 -> 216 ;
217 [label="entropy = 1.0\nsamples = 2\nvalue = [0, 0, 1, 1, 0, 0, 0, 0, 0]"] ;
215 -> 217 ;
218 [label="entropy = 0.0\nsamples = 7\nvalue = [0, 0, 0, 0, 0, 0, 7, 0, 0]"] ;
214 -> 218 ;
219 [label="X[25] <= 0.5\nentropy = 1.366\nsamples = 35\nvalue = [0, 12, 19, 0, 0, 0, 4, 0, 0]"] ;
213 -> 219 ;
220 [label="entropy = 1.379\nsamples = 34\nvalue = [0, 12, 18, 0, 0, 0, 4, 0, 0]"] ;
219 -> 220 ;
221 [label="entropy = 0.0\nsamples = 1\nvalue = [0, 0, 1, 0, 0, 0, 0, 0, 0]"] ;
219 -> 221 ;
222 [label="entropy = 0.0\nsamples = 37\nvalue = [0, 0, 0, 0, 0, 0, 37, 0, 0]"] ;
212 -> 222 ;
223 [label="X[5] <= 0.5\nentropy = 1.591\nsamples = 188\nvalue = [0, 0, 65, 45, 0, 1, 77, 0, 0]"] ;
205 -> 223 ;
224 [label="X[17] <= 0.5\nentropy = 1.526\nsamples = 153\nvalue = [0, 0, 30, 45, 0, 1, 77, 0, 0]"] ;
223 -> 224 ;
225 [label="X[16] <= 0.5\nentropy = 0.999\nsamples = 58\nvalue = [0, 0, 28, 0, 0, 0, 30, 0, 0]"] ;
224 -> 225 ;
226 [label="entropy = 0.0\nsamples = 1\nvalue = [0, 0, 0, 0, 0, 0, 1, 0, 0]"] ;
225 -> 226 ;
227 [label="entropy = 1.0\nsamples = 57\nvalue = [0, 0, 28, 0, 0, 0, 29, 0, 0]"] ;
225 -> 227 ;
228 [label="entropy = 1.199\nsamples = 95\nvalue = [0, 0, 2, 45, 0, 1, 47, 0, 0]"] ;
224 -> 228 ;
229 [label="entropy = 0.0\nsamples = 35\nvalue = [0, 0, 35, 0, 0, 0, 0, 0, 0]"] ;
223 -> 229 ;
230 [label="X[19] <= 0.5\nentropy = 1.76\nsamples = 403\nvalue = [0, 0, 194, 14, 0, 51, 11, 131, 2]"] ;
152 -> 230 ;
231 [label="X[21] <= 0.5\nentropy = 1.911\nsamples = 245\nvalue = [0, 0, 52, 14, 0, 48, 11, 119, 1]"] ;
230 -> 231 ;
232 [label="X[1] <= 0.5\nentropy = 1.559\nsamples = 195\nvalue = [0, 0, 48, 13, 0, 3, 11, 119, 1]"] ;
231 -> 232 ;
233 [label="X[13] <= 0.5\nentropy = 1.148\nsamples = 145\nvalue = [0, 0, 3, 13, 0, 3, 11, 114, 1]"] ;
232 -> 233 ;
234 [label="X[10] <= 0.5\nentropy = 1.906\nsamples = 8\nvalue = [0, 0, 3, 2, 0, 0, 2, 0, 1]"] ;
233 -> 234 ;
235 [label="X[17] <= 0.5\nentropy = 1.0\nsamples = 4\nvalue = [0, 0, 0, 2, 0, 0, 2, 0, 0]"] ;
234 -> 235 ;
236 [label="entropy = 0.0\nsamples = 2\nvalue = [0, 0, 0, 0, 0, 0, 2, 0, 0]"] ;
235 -> 236 ;
237 [label="entropy = 0.0\nsamples = 2\nvalue = [0, 0, 0, 2, 0, 0, 0, 0, 0]"] ;
235 -> 237 ;
238 [label="X[17] <= 0.5\nentropy = 0.811\nsamples = 4\nvalue = [0, 0, 3, 0, 0, 0, 0, 0, 1]"] ;
234 -> 238 ;
239 [label="entropy = 0.0\nsamples = 1\nvalue = [0, 0, 0, 0, 0, 0, 0, 0, 1]"] ;
238 -> 239 ;
240 [label="entropy = 0.0\nsamples = 3\nvalue = [0, 0, 3, 0, 0, 0, 0, 0, 0]"] ;
238 -> 240 ;
241 [label="X[20] <= 0.5\nentropy = 0.892\nsamples = 137\nvalue = [0, 0, 0, 11, 0, 3, 9, 114, 0]"] ;
233 -> 241 ;
242 [label="X[17] <= 0.5\nentropy = 0.881\nsamples = 10\nvalue = [0, 0, 0, 0, 0, 3, 0, 7, 0]"] ;
241 -> 242 ;
243 [label="entropy = 0.0\nsamples = 1\nvalue = [0, 0, 0, 0, 0, 0, 0, 1, 0]"] ;
242 -> 243 ;
244 [label="entropy = 0.918\nsamples = 9\nvalue = [0, 0, 0, 0, 0, 3, 0, 6, 0]"] ;
242 -> 244 ;
245 [label="X[11] <= 0.5\nentropy = 0.785\nsamples = 127\nvalue = [0, 0, 0, 11, 0, 0, 9, 107, 0]"] ;
241 -> 245 ;
246 [label="entropy = 0.0\nsamples = 12\nvalue = [0, 0, 0, 0, 0, 0, 0, 12, 0]"] ;
245 -> 246 ;
247 [label="entropy = 0.839\nsamples = 115\nvalue = [0, 0, 0, 11, 0, 0, 9, 95, 0]"] ;
245 -> 247 ;
248 [label="X[15] <= 0.5\nentropy = 0.469\nsamples = 50\nvalue = [0, 0, 45, 0, 0, 0, 0, 5, 0]"] ;
232 -> 248 ;
249 [label="entropy = 0.0\nsamples = 41\nvalue = [0, 0, 41, 0, 0, 0, 0, 0, 0]"] ;
248 -> 249 ;
250 [label="X[11] <= 0.5\nentropy = 0.991\nsamples = 9\nvalue = [0, 0, 4, 0, 0, 0, 0, 5, 0]"] ;
248 -> 250 ;
251 [label="entropy = 0.0\nsamples = 3\nvalue = [0, 0, 0, 0, 0, 0, 0, 3, 0]"] ;
250 -> 251 ;
252 [label="entropy = 0.918\nsamples = 6\nvalue = [0, 0, 4, 0, 0, 0, 0, 2, 0]"] ;
250 -> 252 ;
253 [label="X[17] <= 0.5\nentropy = 0.541\nsamples = 50\nvalue = [0, 0, 4, 1, 0, 45, 0, 0, 0]"] ;
231 -> 253 ;
254 [label="X[10] <= 0.5\nentropy = 0.811\nsamples = 4\nvalue = [0, 0, 3, 1, 0, 0, 0, 0, 0]"] ;
253 -> 254 ;
255 [label="entropy = 0.0\nsamples = 1\nvalue = [0, 0, 0, 1, 0, 0, 0, 0, 0]"] ;
254 -> 255 ;
256 [label="entropy = 0.0\nsamples = 3\nvalue = [0, 0, 3, 0, 0, 0, 0, 0, 0]"] ;
254 -> 256 ;
257 [label="X[11] <= 0.5\nentropy = 0.151\nsamples = 46\nvalue = [0, 0, 1, 0, 0, 45, 0, 0, 0]"] ;
253 -> 257 ;
258 [label="entropy = 0.0\nsamples = 45\nvalue = [0, 0, 0, 0, 0, 45, 0, 0, 0]"] ;
257 -> 258 ;
259 [label="entropy = 0.0\nsamples = 1\nvalue = [0, 0, 1, 0, 0, 0, 0, 0, 0]"] ;
257 -> 259 ;
260 [label="X[25] <= 0.5\nentropy = 0.576\nsamples = 158\nvalue = [0, 0, 142, 0, 0, 3, 0, 12, 1]"] ;
230 -> 260 ;
261 [label="X[21] <= 0.5\nentropy = 0.381\nsamples = 152\nvalue = [0, 0, 142, 0, 0, 0, 0, 9, 1]"] ;
260 -> 261 ;
262 [label="X[0] <= 0.5\nentropy = 0.646\nsamples = 72\nvalue = [0, 0, 62, 0, 0, 0, 0, 9, 1]"] ;
261 -> 262 ;
263 [label="entropy = 0.0\nsamples = 60\nvalue = [0, 0, 60, 0, 0, 0, 0, 0, 0]"] ;
262 -> 263 ;
264 [label="X[12] <= 0.5\nentropy = 1.041\nsamples = 12\nvalue = [0, 0, 2, 0, 0, 0, 0, 9, 1]"] ;
262 -> 264 ;
265 [label="entropy = 0.684\nsamples = 11\nvalue = [0, 0, 2, 0, 0, 0, 0, 9, 0]"] ;
264 -> 265 ;
266 [label="entropy = 0.0\nsamples = 1\nvalue = [0, 0, 0, 0, 0, 0, 0, 0, 1]"] ;
264 -> 266 ;
267 [label="entropy = 0.0\nsamples = 80\nvalue = [0, 0, 80, 0, 0, 0, 0, 0, 0]"] ;
261 -> 267 ;
268 [label="X[17] <= 0.5\nentropy = 1.0\nsamples = 6\nvalue = [0, 0, 0, 0, 0, 3, 0, 3, 0]"] ;
260 -> 268 ;
269 [label="entropy = 0.0\nsamples = 3\nvalue = [0, 0, 0, 0, 0, 0, 0, 3, 0]"] ;
268 -> 269 ;
270 [label="entropy = 0.0\nsamples = 3\nvalue = [0, 0, 0, 0, 0, 3, 0, 0, 0]"] ;
268 -> 270 ;
271 [label="X[20] <= 0.5\nentropy = 1.067\nsamples = 437\nvalue = [361, 7, 37, 9, 0, 7, 5, 7, 4]"] ;
151 -> 271 ;
272 [label="X[13] <= 0.5\nentropy = 2.587\nsamples = 49\nvalue = [17, 5, 5, 7, 0, 7, 0, 5, 3]"] ;
271 -> 272 ;
273 [label="X[9] <= 0.5\nentropy = 1.888\nsamples = 23\nvalue = [12, 0, 2, 5, 0, 0, 0, 2, 2]"] ;
272 -> 273 ;
274 [label="X[22] <= 0.5\nentropy = 0.874\nsamples = 17\nvalue = [12, 0, 0, 5, 0, 0, 0, 0, 0]"] ;
273 -> 274 ;
275 [label="X[25] <= 0.5\nentropy = 0.592\nsamples = 14\nvalue = [12, 0, 0, 2, 0, 0, 0, 0, 0]"] ;
274 -> 275 ;
276 [label="entropy = 0.0\nsamples = 12\nvalue = [12, 0, 0, 0, 0, 0, 0, 0, 0]"] ;
275 -> 276 ;
277 [label="entropy = 0.0\nsamples = 2\nvalue = [0, 0, 0, 2, 0, 0, 0, 0, 0]"] ;
275 -> 277 ;
278 [label="entropy = 0.0\nsamples = 3\nvalue = [0, 0, 0, 3, 0, 0, 0, 0, 0]"] ;
274 -> 278 ;
279 [label="X[22] <= 0.5\nentropy = 1.585\nsamples = 6\nvalue = [0, 0, 2, 0, 0, 0, 0, 2, 2]"] ;
273 -> 279 ;
280 [label="X[4] <= 0.5\nentropy = 1.0\nsamples = 4\nvalue = [0, 0, 2, 0, 0, 0, 0, 2, 0]"] ;
279 -> 280 ;
281 [label="entropy = 0.0\nsamples = 2\nvalue = [0, 0, 0, 0, 0, 0, 0, 2, 0]"] ;
280 -> 281 ;
282 [label="entropy = 0.0\nsamples = 2\nvalue = [0, 0, 2, 0, 0, 0, 0, 0, 0]"] ;
280 -> 282 ;
283 [label="entropy = 0.0\nsamples = 2\nvalue = [0, 0, 0, 0, 0, 0, 0, 0, 2]"] ;
279 -> 283 ;
284 [label="X[11] <= 0.5\nentropy = 2.609\nsamples = 26\nvalue = [5, 5, 3, 2, 0, 7, 0, 3, 1]"] ;
272 -> 284 ;
285 [label="X[22] <= 0.5\nentropy = 1.53\nsamples = 9\nvalue = [3, 2, 0, 0, 0, 4, 0, 0, 0]"] ;
284 -> 285 ;
286 [label="X[17] <= 0.5\nentropy = 0.985\nsamples = 7\nvalue = [3, 0, 0, 0, 0, 4, 0, 0, 0]"] ;
285 -> 286 ;
287 [label="entropy = 0.0\nsamples = 2\nvalue = [2, 0, 0, 0, 0, 0, 0, 0, 0]"] ;
286 -> 287 ;
288 [label="X[23] <= 0.5\nentropy = 0.722\nsamples = 5\nvalue = [1, 0, 0, 0, 0, 4, 0, 0, 0]"] ;
286 -> 288 ;
289 [label="entropy = 0.918\nsamples = 3\nvalue = [1, 0, 0, 0, 0, 2, 0, 0, 0]"] ;
288 -> 289 ;
290 [label="entropy = 0.0\nsamples = 2\nvalue = [0, 0, 0, 0, 0, 2, 0, 0, 0]"] ;
288 -> 290 ;
291 [label="entropy = 0.0\nsamples = 2\nvalue = [0, 2, 0, 0, 0, 0, 0, 0, 0]"] ;
285 -> 291 ;
292 [label="entropy = 2.733\nsamples = 17\nvalue = [2, 3, 3, 2, 0, 3, 0, 3, 1]"] ;
284 -> 292 ;
293 [label="X[17] <= 0.5\nentropy = 0.671\nsamples = 388\nvalue = [344, 2, 32, 2, 0, 0, 5, 2, 1]"] ;
271 -> 293 ;
294 [label="X[26] <= 0.5\nentropy = 1.89\nsamples = 19\nvalue = [2, 1, 11, 0, 0, 0, 3, 1, 1]"] ;
293 -> 294 ;
295 [label="X[3] <= 0.5\nentropy = 1.585\nsamples = 3\nvalue = [0, 1, 1, 0, 0, 0, 0, 1, 0]"] ;
294 -> 295 ;
296 [label="X[4] <= 0.5\nentropy = 1.0\nsamples = 2\nvalue = [0, 1, 0, 0, 0, 0, 0, 1, 0]"] ;
295 -> 296 ;
297 [label="entropy = 0.0\nsamples = 1\nvalue = [0, 1, 0, 0, 0, 0, 0, 0, 0]"] ;
296 -> 297 ;
298 [label="entropy = 0.0\nsamples = 1\nvalue = [0, 0, 0, 0, 0, 0, 0, 1, 0]"] ;
296 -> 298 ;
299 [label="entropy = 0.0\nsamples = 1\nvalue = [0, 0, 1, 0, 0, 0, 0, 0, 0]"] ;
295 -> 299 ;
300 [label="entropy = 1.502\nsamples = 16\nvalue = [2, 0, 10, 0, 0, 0, 3, 0, 1]"] ;
294 -> 300 ;
301 [label="X[9] <= 0.5\nentropy = 0.465\nsamples = 369\nvalue = [342, 1, 21, 2, 0, 0, 2, 1, 0]"] ;
293 -> 301 ;
302 [label="X[21] <= 0.5\nentropy = 0.277\nsamples = 353\nvalue = [340, 1, 9, 2, 0, 0, 1, 0, 0]"] ;
301 -> 302 ;
303 [label="X[3] <= 0.5\nentropy = 0.155\nsamples = 346\nvalue = [339, 0, 6, 0, 0, 0, 1, 0, 0]"] ;
302 -> 303 ;
304 [label="X[26] <= 0.5\nentropy = 0.058\nsamples = 341\nvalue = [339, 0, 1, 0, 0, 0, 1, 0, 0]"] ;
303 -> 304 ;
305 [label="entropy = 1.0\nsamples = 2\nvalue = [0, 0, 1, 0, 0, 0, 1, 0, 0]"] ;
304 -> 305 ;
306 [label="entropy = 0.0\nsamples = 339\nvalue = [339, 0, 0, 0, 0, 0, 0, 0, 0]"] ;
304 -> 306 ;
307 [label="entropy = 0.0\nsamples = 5\nvalue = [0, 0, 5, 0, 0, 0, 0, 0, 0]"] ;
303 -> 307 ;
308 [label="entropy = 1.842\nsamples = 7\nvalue = [1, 1, 3, 2, 0, 0, 0, 0, 0]"] ;
302 -> 308 ;
309 [label="entropy = 1.186\nsamples = 16\nvalue = [2, 0, 12, 0, 0, 0, 1, 1, 0]"] ;
301 -> 309 ;
310 [label="X[2] <= 0.5\nentropy = 2.012\nsamples = 1978\nvalue = [573, 25, 111, 46, 1000, 68, 93, 45, 17]"] ;
0 -> 310 [labeldistance=2.5, labelangle=-45, headlabel="False"] ;
311 [label="X[8] <= 0.5\nentropy = 1.274\nsamples = 720\nvalue = [0, 19, 35, 23, 573, 20, 30, 14, 6]"] ;
310 -> 311 ;
312 [label="X[1] <= 0.5\nentropy = 2.097\nsamples = 149\nvalue = [0, 14, 0, 13, 82, 19, 7, 9, 5]"] ;
311 -> 312 ;
313 [label="X[25] <= 0.5\nentropy = 1.269\nsamples = 74\nvalue = [0, 0, 0, 0, 54, 7, 7, 6, 0]"] ;
312 -> 313 ;
314 [label="X[6] <= 0.5\nentropy = 0.139\nsamples = 51\nvalue = [0, 0, 0, 0, 50, 0, 1, 0, 0]"] ;
313 -> 314 ;
315 [label="entropy = 0.0\nsamples = 47\nvalue = [0, 0, 0, 0, 47, 0, 0, 0, 0]"] ;
314 -> 315 ;
316 [label="X[11] <= 0.5\nentropy = 0.811\nsamples = 4\nvalue = [0, 0, 0, 0, 3, 0, 1, 0, 0]"] ;
314 -> 316 ;
317 [label="entropy = 0.0\nsamples = 3\nvalue = [0, 0, 0, 0, 3, 0, 0, 0, 0]"] ;
316 -> 317 ;
318 [label="entropy = 0.0\nsamples = 1\nvalue = [0, 0, 0, 0, 0, 0, 1, 0, 0]"] ;
316 -> 318 ;
319 [label="X[11] <= 0.5\nentropy = 1.973\nsamples = 23\nvalue = [0, 0, 0, 0, 4, 7, 6, 6, 0]"] ;
313 -> 319 ;
320 [label="X[17] <= 0.5\nentropy = 1.281\nsamples = 12\nvalue = [0, 0, 0, 0, 4, 7, 0, 1, 0]"] ;
319 -> 320 ;
321 [label="X[23] <= 0.5\nentropy = 0.811\nsamples = 4\nvalue = [0, 0, 0, 0, 3, 0, 0, 1, 0]"] ;
320 -> 321 ;
322 [label="entropy = 0.0\nsamples = 3\nvalue = [0, 0, 0, 0, 3, 0, 0, 0, 0]"] ;
321 -> 322 ;
323 [label="entropy = 0.0\nsamples = 1\nvalue = [0, 0, 0, 0, 0, 0, 0, 1, 0]"] ;
321 -> 323 ;
324 [label="X[6] <= 0.5\nentropy = 0.544\nsamples = 8\nvalue = [0, 0, 0, 0, 1, 7, 0, 0, 0]"] ;
320 -> 324 ;
325 [label="entropy = 0.0\nsamples = 6\nvalue = [0, 0, 0, 0, 0, 6, 0, 0, 0]"] ;
324 -> 325 ;
326 [label="entropy = 1.0\nsamples = 2\nvalue = [0, 0, 0, 0, 1, 1, 0, 0, 0]"] ;
324 -> 326 ;
327 [label="X[4] <= 0.5\nentropy = 0.994\nsamples = 11\nvalue = [0, 0, 0, 0, 0, 0, 6, 5, 0]"] ;
319 -> 327 ;
328 [label="entropy = 0.0\nsamples = 6\nvalue = [0, 0, 0, 0, 0, 0, 6, 0, 0]"] ;
327 -> 328 ;
329 [label="entropy = 0.0\nsamples = 5\nvalue = [0, 0, 0, 0, 0, 0, 0, 5, 0]"] ;
327 -> 329 ;
330 [label="X[20] <= 0.5\nentropy = 2.29\nsamples = 75\nvalue = [0, 14, 0, 13, 28, 12, 0, 3, 5]"] ;
312 -> 330 ;
331 [label="X[16] <= 0.5\nentropy = 1.909\nsamples = 26\nvalue = [0, 7, 0, 9, 7, 0, 0, 3, 0]"] ;
330 -> 331 ;
332 [label="X[22] <= 0.5\nentropy = 1.459\nsamples = 18\nvalue = [0, 6, 0, 9, 3, 0, 0, 0, 0]"] ;
331 -> 332 ;
333 [label="X[6] <= 0.5\nentropy = 0.996\nsamples = 13\nvalue = [0, 6, 0, 7, 0, 0, 0, 0, 0]"] ;
332 -> 333 ;
334 [label="X[3] <= 0.5\nentropy = 0.592\nsamples = 7\nvalue = [0, 6, 0, 1, 0, 0, 0, 0, 0]"] ;
333 -> 334 ;
335 [label="entropy = 0.0\nsamples = 6\nvalue = [0, 6, 0, 0, 0, 0, 0, 0, 0]"] ;
334 -> 335 ;
336 [label="entropy = 0.0\nsamples = 1\nvalue = [0, 0, 0, 1, 0, 0, 0, 0, 0]"] ;
334 -> 336 ;
337 [label="entropy = 0.0\nsamples = 6\nvalue = [0, 0, 0, 6, 0, 0, 0, 0, 0]"] ;
333 -> 337 ;
338 [label="entropy = 0.971\nsamples = 5\nvalue = [0, 0, 0, 2, 3, 0, 0, 0, 0]"] ;
332 -> 338 ;
339 [label="X[22] <= 0.5\nentropy = 1.406\nsamples = 8\nvalue = [0, 1, 0, 0, 4, 0, 0, 3, 0]"] ;
331 -> 339 ;
340 [label="entropy = 1.459\nsamples = 6\nvalue = [0, 1, 0, 0, 2, 0, 0, 3, 0]"] ;
339 -> 340 ;
341 [label="entropy = 0.0\nsamples = 2\nvalue = [0, 0, 0, 0, 2, 0, 0, 0, 0]"] ;
339 -> 341 ;
342 [label="X[6] <= 0.5\nentropy = 2.053\nsamples = 49\nvalue = [0, 7, 0, 4, 21, 12, 0, 0, 5]"] ;
330 -> 342 ;
343 [label="entropy = 0.0\nsamples = 2\nvalue = [0, 2, 0, 0, 0, 0, 0, 0, 0]"] ;
342 -> 343 ;
344 [label="entropy = 2.013\nsamples = 47\nvalue = [0, 5, 0, 4, 21, 12, 0, 0, 5]"] ;
342 -> 344 ;
345 [label="X[15] <= 0.5\nentropy = 0.875\nsamples = 571\nvalue = [0, 5, 35, 10, 491, 1, 23, 5, 1]"] ;
311 -> 345 ;
346 [label="X[21] <= 0.5\nentropy = 0.651\nsamples = 537\nvalue = [0, 5, 12, 5, 487, 1, 22, 4, 1]"] ;
345 -> 346 ;
347 [label="X[26] <= 0.5\nentropy = 0.428\nsamples = 514\nvalue = [0, 4, 11, 2, 486, 0, 6, 4, 1]"] ;
346 -> 347 ;
348 [label="X[19] <= 0.5\nentropy = 2.022\nsamples = 17\nvalue = [0, 1, 6, 1, 4, 0, 5, 0, 0]"] ;
347 -> 348 ;
349 [label="X[11] <= 0.5\nentropy = 1.677\nsamples = 11\nvalue = [0, 1, 1, 0, 4, 0, 5, 0, 0]"] ;
348 -> 349 ;
350 [label="entropy = 0.0\nsamples = 1\nvalue = [0, 0, 0, 0, 1, 0, 0, 0, 0]"] ;
349 -> 350 ;
351 [label="X[24] <= 0.5\nentropy = 1.685\nsamples = 10\nvalue = [0, 1, 1, 0, 3, 0, 5, 0, 0]"] ;
349 -> 351 ;
352 [label="entropy = 0.0\nsamples = 1\nvalue = [0, 0, 0, 0, 0, 0, 1, 0, 0]"] ;
351 -> 352 ;
353 [label="entropy = 1.753\nsamples = 9\nvalue = [0, 1, 1, 0, 3, 0, 4, 0, 0]"] ;
351 -> 353 ;
354 [label="X[25] <= 0.5\nentropy = 0.65\nsamples = 6\nvalue = [0, 0, 5, 1, 0, 0, 0, 0, 0]"] ;
348 -> 354 ;
355 [label="entropy = 0.0\nsamples = 1\nvalue = [0, 0, 0, 1, 0, 0, 0, 0, 0]"] ;
354 -> 355 ;
356 [label="entropy = 0.0\nsamples = 5\nvalue = [0, 0, 5, 0, 0, 0, 0, 0, 0]"] ;
354 -> 356 ;
357 [label="X[11] <= 0.5\nentropy = 0.264\nsamples = 497\nvalue = [0, 3, 5, 1, 482, 0, 1, 4, 1]"] ;
347 -> 357 ;
358 [label="X[10] <= 0.5\nentropy = 1.224\nsamples = 18\nvalue = [0, 2, 4, 0, 12, 0, 0, 0, 0]"] ;
357 -> 358 ;
359 [label="entropy = 1.557\nsamples = 7\nvalue = [0, 2, 2, 0, 3, 0, 0, 0, 0]"] ;
358 -> 359 ;
360 [label="X[22] <= 0.5\nentropy = 0.684\nsamples = 11\nvalue = [0, 0, 2, 0, 9, 0, 0, 0, 0]"] ;
358 -> 360 ;
361 [label="entropy = 0.0\nsamples = 7\nvalue = [0, 0, 0, 0, 7, 0, 0, 0, 0]"] ;
360 -> 361 ;
362 [label="X[16] <= 0.5\nentropy = 1.0\nsamples = 4\nvalue = [0, 0, 2, 0, 2, 0, 0, 0, 0]"] ;
360 -> 362 ;
363 [label="entropy = 0.918\nsamples = 3\nvalue = [0, 0, 1, 0, 2, 0, 0, 0, 0]"] ;
362 -> 363 ;
364 [label="entropy = 0.0\nsamples = 1\nvalue = [0, 0, 1, 0, 0, 0, 0, 0, 0]"] ;
362 -> 364 ;
365 [label="X[17] <= 0.5\nentropy = 0.177\nsamples = 479\nvalue = [0, 1, 1, 1, 470, 0, 1, 4, 1]"] ;
357 -> 365 ;
366 [label="X[20] <= 0.5\nentropy = 1.585\nsamples = 3\nvalue = [0, 1, 1, 0, 0, 0, 1, 0, 0]"] ;
365 -> 366 ;
367 [label="entropy = 0.0\nsamples = 1\nvalue = [0, 1, 0, 0, 0, 0, 0, 0, 0]"] ;
366 -> 367 ;
368 [label="entropy = 1.0\nsamples = 2\nvalue = [0, 0, 1, 0, 0, 0, 1, 0, 0]"] ;
366 -> 368 ;
369 [label="X[18] <= 0.5\nentropy = 0.113\nsamples = 476\nvalue = [0, 0, 0, 1, 470, 0, 0, 4, 1]"] ;
365 -> 369 ;
370 [label="X[3] <= 0.5\nentropy = 0.024\nsamples = 431\nvalue = [0, 0, 0, 1, 430, 0, 0, 0, 0]"] ;
369 -> 370 ;
371 [label="entropy = 0.0\nsamples = 430\nvalue = [0, 0, 0, 0, 430, 0, 0, 0, 0]"] ;
370 -> 371 ;
372 [label="entropy = 0.0\nsamples = 1\nvalue = [0, 0, 0, 1, 0, 0, 0, 0, 0]"] ;
370 -> 372 ;
373 [label="X[23] <= 0.5\nentropy = 0.583\nsamples = 45\nvalue = [0, 0, 0, 0, 40, 0, 0, 4, 1]"] ;
369 -> 373 ;
374 [label="entropy = 0.0\nsamples = 1\nvalue = [0, 0, 0, 0, 1, 0, 0, 0, 0]"] ;
373 -> 374 ;
375 [label="entropy = 0.593\nsamples = 44\nvalue = [0, 0, 0, 0, 39, 0, 0, 4, 1]"] ;
373 -> 375 ;
376 [label="entropy = 1.534\nsamples = 23\nvalue = [0, 1, 1, 3, 1, 1, 16, 0, 0]"] ;
346 -> 376 ;
377 [label="X[19] <= 0.5\nentropy = 1.451\nsamples = 34\nvalue = [0, 0, 23, 5, 4, 0, 1, 1, 0]"] ;
345 -> 377 ;
378 [label="X[18] <= 0.5\nentropy = 1.407\nsamples = 33\nvalue = [0, 0, 23, 4, 4, 0, 1, 1, 0]"] ;
377 -> 378 ;
379 [label="entropy = 1.434\nsamples = 32\nvalue = [0, 0, 22, 4, 4, 0, 1, 1, 0]"] ;
378 -> 379 ;
380 [label="entropy = 0.0\nsamples = 1\nvalue = [0, 0, 1, 0, 0, 0, 0, 0, 0]"] ;
378 -> 380 ;
381 [label="entropy = 0.0\nsamples = 1\nvalue = [0, 0, 0, 1, 0, 0, 0, 0, 0]"] ;
377 -> 381 ;
382 [label="X[20] <= 0.5\nentropy = 2.02\nsamples = 1258\nvalue = [573, 6, 76, 23, 427, 48, 63, 31, 11]"] ;
310 -> 382 ;
383 [label="X[18] <= 0.5\nentropy = 0.944\nsamples = 64\nvalue = [46, 1, 0, 0, 17, 0, 0, 0, 0]"] ;
382 -> 383 ;
384 [label="X[23] <= 0.5\nentropy = 0.952\nsamples = 63\nvalue = [45, 1, 0, 0, 17, 0, 0, 0, 0]"] ;
383 -> 384 ;
385 [label="entropy = 0.0\nsamples = 1\nvalue = [1, 0, 0, 0, 0, 0, 0, 0, 0]"] ;
384 -> 385 ;
386 [label="entropy = 0.959\nsamples = 62\nvalue = [44, 1, 0, 0, 17, 0, 0, 0, 0]"] ;
384 -> 386 ;
387 [label="entropy = 0.0\nsamples = 1\nvalue = [1, 0, 0, 0, 0, 0, 0, 0, 0]"] ;
383 -> 387 ;
388 [label="X[7] <= 0.5\nentropy = 2.055\nsamples = 1194\nvalue = [527, 5, 76, 23, 410, 48, 63, 31, 11]"] ;
382 -> 388 ;
389 [label="X[17] <= 0.5\nentropy = 2.105\nsamples = 1118\nvalue = [480, 5, 76, 23, 381, 48, 63, 31, 11]"] ;
388 -> 389 ;
390 [label="entropy = 0.918\nsamples = 48\nvalue = [32, 0, 0, 0, 16, 0, 0, 0, 0]"] ;
389 -> 390 ;
391 [label="X[22] <= 0.5\nentropy = 2.139\nsamples = 1070\nvalue = [448, 5, 76, 23, 365, 48, 63, 31, 11]"] ;
389 -> 391 ;
392 [label="X[10] <= 0.5\nentropy = 2.16\nsamples = 1039\nvalue = [425, 5, 76, 23, 358, 48, 62, 31, 11]"] ;
391 -> 392 ;
393 [label="X[5] <= 0.5\nentropy = 2.176\nsamples = 1016\nvalue = [418, 5, 76, 23, 342, 48, 62, 31, 11]"] ;
392 -> 393 ;
394 [label="entropy = 0.0\nsamples = 5\nvalue = [0, 0, 0, 0, 5, 0, 0, 0, 0]"] ;
393 -> 394 ;
395 [label="X[26] <= 0.5\nentropy = 2.179\nsamples = 1011\nvalue = [418, 5, 76, 23, 337, 48, 62, 31, 11]"] ;
393 -> 395 ;
396 [label="entropy = 0.684\nsamples = 11\nvalue = [9, 0, 0, 0, 2, 0, 0, 0, 0]"] ;
395 -> 396 ;
397 [label="entropy = 2.188\nsamples = 1000\nvalue = [409, 5, 76, 23, 335, 48, 62, 31, 11]"] ;
395 -> 397 ;
398 [label="entropy = 0.887\nsamples = 23\nvalue = [7, 0, 0, 0, 16, 0, 0, 0, 0]"] ;
392 -> 398 ;
399 [label="entropy = 0.964\nsamples = 31\nvalue = [23, 0, 0, 0, 7, 0, 1, 0, 0]"] ;
391 -> 399 ;
400 [label="entropy = 0.959\nsamples = 76\nvalue = [47, 0, 0, 0, 29, 0, 0, 0, 0]"] ;
388 -> 400 ;
}