digraph Tree {
node [shape=box] ;
0 [label="X[2] <= 0.5\nentropy = 3.169\nsamples = 8704\nvalue = [994, 980, 939, 972, 1000, 921, 970, 970, 958]"] ;
1 [label="X[11] <= 0.5\nentropy = 2.935\nsamples = 6602\nvalue = [0, 949, 865, 859, 260, 902, 908, 944, 915]"] ;
0 -> 1 [labeldistance=2.5, labelangle=45, headlabel="True"] ;
2 [label="X[17] <= 0.5\nentropy = 2.546\nsamples = 3520\nvalue = [0, 543, 269, 0, 47, 755, 344, 683, 879]"] ;
1 -> 2 ;
3 [label="X[23] <= 0.5\nentropy = 2.145\nsamples = 1985\nvalue = [0, 408, 142, 0, 15, 0, 193, 472, 755]"] ;
2 -> 3 ;
4 [label="X[5] <= 0.5\nentropy = 1.613\nsamples = 1215\nvalue = [0, 207, 118, 0, 4, 0, 157, 0, 729]"] ;
3 -> 4 ;
5 [label="X[8] <= 0.5\nentropy = 1.15\nsamples = 997\nvalue = [0, 0, 118, 0, 3, 0, 157, 0, 719]"] ;
4 -> 5 ;
6 [label="X[20] <= 0.5\nentropy = 0.455\nsamples = 788\nvalue = [0, 0, 0, 0, 3, 0, 67, 0, 718]"] ;
5 -> 6 ;
7 [label="X[24] <= 0.5\nentropy = 0.04\nsamples = 702\nvalue = [0, 0, 0, 0, 3, 0, 0, 0, 699]"] ;
6 -> 7 ;
8 [label="entropy = 0.0\nsamples = 699\nvalue = [0, 0, 0, 0, 0, 0, 0, 0, 699]"] ;
7 -> 8 ;
9 [label="entropy = 0.0\nsamples = 3\nvalue = [0, 0, 0, 0, 3, 0, 0, 0, 0]"] ;
7 -> 9 ;
10 [label="X[16] <= 0.5\nentropy = 0.762\nsamples = 86\nvalue = [0, 0, 0, 0, 0, 0, 67, 0, 19]"] ;
6 -> 10 ;
11 [label="entropy = 0.0\nsamples = 56\nvalue = [0, 0, 0, 0, 0, 0, 56, 0, 0]"] ;
10 -> 11 ;
12 [label="X[13] <= 0.5\nentropy = 0.948\nsamples = 30\nvalue = [0, 0, 0, 0, 0, 0, 11, 0, 19]"] ;
10 -> 12 ;
13 [label="entropy = 0.0\nsamples = 19\nvalue = [0, 0, 0, 0, 0, 0, 0, 0, 19]"] ;
12 -> 13 ;
14 [label="entropy = 0.0\nsamples = 11\nvalue = [0, 0, 0, 0, 0, 0, 11, 0, 0]"] ;
12 -> 14 ;
15 [label="X[20] <= 0.5\nentropy = 1.026\nsamples = 209\nvalue = [0, 0, 118, 0, 0, 0, 90, 0, 1]"] ;
5 -> 15 ;
16 [label="X[4] <= 0.5\nentropy = 0.086\nsamples = 93\nvalue = [0, 0, 92, 0, 0, 0, 0, 0, 1]"] ;
15 -> 16 ;
17 [label="X[26] <= 0.5\nentropy = 1.0\nsamples = 2\nvalue = [0, 0, 1, 0, 0, 0, 0, 0, 1]"] ;
16 -> 17 ;
18 [label="entropy = 0.0\nsamples = 1\nvalue = [0, 0, 1, 0, 0, 0, 0, 0, 0]"] ;
17 -> 18 ;
19 [label="entropy = 0.0\nsamples = 1\nvalue = [0, 0, 0, 0, 0, 0, 0, 0, 1]"] ;
17 -> 19 ;
20 [label="entropy = 0.0\nsamples = 91\nvalue = [0, 0, 91, 0, 0, 0, 0, 0, 0]"] ;
16 -> 20 ;
21 [label="X[15] <= 0.5\nentropy = 0.768\nsamples = 116\nvalue = [0, 0, 26, 0, 0, 0, 90, 0, 0]"] ;
15 -> 21 ;
22 [label="X[21] <= 0.5\nentropy = 0.944\nsamples = 72\nvalue = [0, 0, 26, 0, 0, 0, 46, 0, 0]"] ;
21 -> 22 ;
23 [label="X[4] <= 0.5\nentropy = 0.936\nsamples = 71\nvalue = [0, 0, 25, 0, 0, 0, 46, 0, 0]"] ;
22 -> 23 ;
24 [label="X[26] <= 0.5\nentropy = 0.949\nsamples = 68\nvalue = [0, 0, 25, 0, 0, 0, 43, 0, 0]"] ;
23 -> 24 ;
25 [label="entropy = 0.0\nsamples = 1\nvalue = [0, 0, 1, 0, 0, 0, 0, 0, 0]"] ;
24 -> 25 ;
26 [label="entropy = 0.941\nsamples = 67\nvalue = [0, 0, 24, 0, 0, 0, 43, 0, 0]"] ;
24 -> 26 ;
27 [label="entropy = 0.0\nsamples = 3\nvalue = [0, 0, 0, 0, 0, 0, 3, 0, 0]"] ;
23 -> 27 ;
28 [label="entropy = 0.0\nsamples = 1\nvalue = [0, 0, 1, 0, 0, 0, 0, 0, 0]"] ;
22 -> 28 ;
29 [label="entropy = 0.0\nsamples = 44\nvalue = [0, 0, 0, 0, 0, 0, 44, 0, 0]"] ;
21 -> 29 ;
30 [label="X[13] <= 0.5\nentropy = 0.311\nsamples = 218\nvalue = [0, 207, 0, 0, 1, 0, 0, 0, 10]"] ;
4 -> 30 ;
31 [label="X[26] <= 0.5\nentropy = 1.159\nsamples = 15\nvalue = [0, 4, 0, 0, 1, 0, 0, 0, 10]"] ;
30 -> 31 ;
32 [label="X[18] <= 0.5\nentropy = 0.722\nsamples = 5\nvalue = [0, 4, 0, 0, 1, 0, 0, 0, 0]"] ;
31 -> 32 ;
33 [label="entropy = 0.0\nsamples = 3\nvalue = [0, 3, 0, 0, 0, 0, 0, 0, 0]"] ;
32 -> 33 ;
34 [label="entropy = 1.0\nsamples = 2\nvalue = [0, 1, 0, 0, 1, 0, 0, 0, 0]"] ;
32 -> 34 ;
35 [label="entropy = 0.0\nsamples = 10\nvalue = [0, 0, 0, 0, 0, 0, 0, 0, 10]"] ;
31 -> 35 ;
36 [label="entropy = 0.0\nsamples = 203\nvalue = [0, 203, 0, 0, 0, 0, 0, 0, 0]"] ;
30 -> 36 ;
37 [label="X[5] <= 0.5\nentropy = 1.554\nsamples = 770\nvalue = [0, 201, 24, 0, 11, 0, 36, 472, 26]"] ;
3 -> 37 ;
38 [label="X[20] <= 0.5\nentropy = 0.892\nsamples = 327\nvalue = [0, 0, 8, 0, 3, 0, 21, 276, 19]"] ;
37 -> 38 ;
39 [label="X[13] <= 0.5\nentropy = 0.481\nsamples = 297\nvalue = [0, 0, 2, 0, 3, 0, 0, 273, 19]"] ;
38 -> 39 ;
40 [label="X[19] <= 0.5\nentropy = 1.374\nsamples = 56\nvalue = [0, 0, 2, 0, 3, 0, 0, 33, 18]"] ;
39 -> 40 ;
41 [label="X[12] <= 0.5\nentropy = 1.557\nsamples = 7\nvalue = [0, 0, 2, 0, 3, 0, 0, 2, 0]"] ;
40 -> 41 ;
42 [label="X[7] <= 0.5\nentropy = 0.971\nsamples = 5\nvalue = [0, 0, 0, 0, 3, 0, 0, 2, 0]"] ;
41 -> 42 ;
43 [label="entropy = 0.0\nsamples = 3\nvalue = [0, 0, 0, 0, 3, 0, 0, 0, 0]"] ;
42 -> 43 ;
44 [label="entropy = 0.0\nsamples = 2\nvalue = [0, 0, 0, 0, 0, 0, 0, 2, 0]"] ;
42 -> 44 ;
45 [label="entropy = 0.0\nsamples = 2\nvalue = [0, 0, 2, 0, 0, 0, 0, 0, 0]"] ;
41 -> 45 ;
46 [label="X[8] <= 0.5\nentropy = 0.949\nsamples = 49\nvalue = [0, 0, 0, 0, 0, 0, 0, 31, 18]"] ;
40 -> 46 ;
47 [label="entropy = 0.989\nsamples = 41\nvalue = [0, 0, 0, 0, 0, 0, 0, 23, 18]"] ;
46 -> 47 ;
48 [label="entropy = 0.0\nsamples = 8\nvalue = [0, 0, 0, 0, 0, 0, 0, 8, 0]"] ;
46 -> 48 ;
49 [label="X[8] <= 0.5\nentropy = 0.039\nsamples = 241\nvalue = [0, 0, 0, 0, 0, 0, 0, 240, 1]"] ;
39 -> 49 ;
50 [label="entropy = 0.0\nsamples = 239\nvalue = [0, 0, 0, 0, 0, 0, 0, 239, 0]"] ;
49 -> 50 ;
51 [label="X[3] <= 0.5\nentropy = 1.0\nsamples = 2\nvalue = [0, 0, 0, 0, 0, 0, 0, 1, 1]"] ;
49 -> 51 ;
52 [label="entropy = 0.0\nsamples = 1\nvalue = [0, 0, 0, 0, 0, 0, 0, 1, 0]"] ;
51 -> 52 ;
53 [label="entropy = 0.0\nsamples = 1\nvalue = [0, 0, 0, 0, 0, 0, 0, 0, 1]"] ;
51 -> 53 ;
54 [label="X[8] <= 0.5\nentropy = 1.157\nsamples = 30\nvalue = [0, 0, 6, 0, 0, 0, 21, 3, 0]"] ;
38 -> 54 ;
55 [label="entropy = 0.0\nsamples = 21\nvalue = [0, 0, 0, 0, 0, 0, 21, 0, 0]"] ;
54 -> 55 ;
56 [label="X[0] <= 0.5\nentropy = 0.918\nsamples = 9\nvalue = [0, 0, 6, 0, 0, 0, 0, 3, 0]"] ;
54 -> 56 ;
57 [label="entropy = 0.592\nsamples = 7\nvalue = [0, 0, 6, 0, 0, 0, 0, 1, 0]"] ;
56 -> 57 ;
58 [label="entropy = 0.0\nsamples = 2\nvalue = [0, 0, 0, 0, 0, 0, 0, 2, 0]"] ;
56 -> 58 ;
59 [label="X[6] <= 0.5\nentropy = 1.575\nsamples = 443\nvalue = [0, 201, 16, 0, 8, 0, 15, 196, 7]"] ;
37 -> 59 ;
60 [label="X[15] <= 0.5\nentropy = 2.416\nsamples = 73\nvalue = [0, 22, 16, 0, 6, 0, 15, 7, 7]"] ;
59 -> 60 ;
61 [label="X[12] <= 0.5\nentropy = 1.773\nsamples = 35\nvalue = [0, 10, 16, 0, 6, 0, 0, 3, 0]"] ;
60 -> 61 ;
62 [label="X[20] <= 0.5\nentropy = 0.918\nsamples = 18\nvalue = [0, 0, 12, 0, 6, 0, 0, 0, 0]"] ;
61 -> 62 ;
63 [label="entropy = 0.0\nsamples = 12\nvalue = [0, 0, 12, 0, 0, 0, 0, 0, 0]"] ;
62 -> 63 ;
64 [label="entropy = 0.0\nsamples = 6\nvalue = [0, 0, 0, 0, 6, 0, 0, 0, 0]"] ;
62 -> 64 ;
65 [label="X[10] <= 0.5\nentropy = 1.383\nsamples = 17\nvalue = [0, 10, 4, 0, 0, 0, 0, 3, 0]"] ;
61 -> 65 ;
66 [label="X[19] <= 0.5\nentropy = 1.571\nsamples = 10\nvalue = [0, 3, 4, 0, 0, 0, 0, 3, 0]"] ;
65 -> 66 ;
67 [label="X[26] <= 0.5\nentropy = 1.379\nsamples = 7\nvalue = [0, 2, 4, 0, 0, 0, 0, 1, 0]"] ;
66 -> 67 ;
68 [label="entropy = 0.0\nsamples = 1\nvalue = [0, 0, 0, 0, 0, 0, 0, 1, 0]"] ;
67 -> 68 ;
69 [label="entropy = 0.918\nsamples = 6\nvalue = [0, 2, 4, 0, 0, 0, 0, 0, 0]"] ;
67 -> 69 ;
70 [label="entropy = 0.918\nsamples = 3\nvalue = [0, 1, 0, 0, 0, 0, 0, 2, 0]"] ;
66 -> 70 ;
71 [label="entropy = 0.0\nsamples = 7\nvalue = [0, 7, 0, 0, 0, 0, 0, 0, 0]"] ;
65 -> 71 ;
72 [label="X[20] <= 0.5\nentropy = 1.846\nsamples = 38\nvalue = [0, 12, 0, 0, 0, 0, 15, 4, 7]"] ;
60 -> 72 ;
73 [label="X[25] <= 0.5\nentropy = 0.811\nsamples = 16\nvalue = [0, 12, 0, 0, 0, 0, 0, 4, 0]"] ;
72 -> 73 ;
74 [label="entropy = 0.0\nsamples = 12\nvalue = [0, 12, 0, 0, 0, 0, 0, 0, 0]"] ;
73 -> 74 ;
75 [label="entropy = 0.0\nsamples = 4\nvalue = [0, 0, 0, 0, 0, 0, 0, 4, 0]"] ;
73 -> 75 ;
76 [label="X[10] <= 0.5\nentropy = 0.902\nsamples = 22\nvalue = [0, 0, 0, 0, 0, 0, 15, 0, 7]"] ;
72 -> 76 ;
77 [label="entropy = 0.0\nsamples = 7\nvalue = [0, 0, 0, 0, 0, 0, 0, 0, 7]"] ;
76 -> 77 ;
78 [label="entropy = 0.0\nsamples = 15\nvalue = [0, 0, 0, 0, 0, 0, 15, 0, 0]"] ;
76 -> 78 ;
79 [label="X[12] <= 0.5\nentropy = 1.043\nsamples = 370\nvalue = [0, 179, 0, 0, 2, 0, 0, 189, 0]"] ;
59 -> 79 ;
80 [label="entropy = 1.585\nsamples = 6\nvalue = [0, 2, 0, 0, 2, 0, 0, 2, 0]"] ;
79 -> 80 ;
81 [label="X[26] <= 0.5\nentropy = 0.999\nsamples = 364\nvalue = [0, 177, 0, 0, 0, 0, 0, 187, 0]"] ;
79 -> 81 ;
82 [label="entropy = 0.0\nsamples = 1\nvalue = [0, 0, 0, 0, 0, 0, 0, 1, 0]"] ;
81 -> 82 ;
83 [label="entropy = 1.0\nsamples = 363\nvalue = [0, 177, 0, 0, 0, 0, 0, 186, 0]"] ;
81 -> 83 ;
84 [label="X[0] <= 0.5\nentropy = 2.242\nsamples = 1535\nvalue = [0, 135, 127, 0, 32, 755, 151, 211, 124]"] ;
2 -> 84 ;
85 [label="X[20] <= 0.5\nentropy = 2.478\nsamples = 532\nvalue = [0, 74, 62, 0, 0, 86, 142, 44, 124]"] ;
84 -> 85 ;
86 [label="X[5] <= 0.5\nentropy = 2.251\nsamples = 320\nvalue = [0, 47, 54, 0, 0, 77, 0, 44, 98]"] ;
85 -> 86 ;
87 [label="X[22] <= 0.5\nentropy = 1.969\nsamples = 230\nvalue = [0, 0, 54, 0, 0, 77, 0, 44, 55]"] ;
86 -> 87 ;
88 [label="X[19] <= 0.5\nentropy = 1.079\nsamples = 87\nvalue = [0, 0, 42, 0, 0, 1, 0, 44, 0]"] ;
87 -> 88 ;
89 [label="X[12] <= 0.5\nentropy = 0.775\nsamples = 57\nvalue = [0, 0, 13, 0, 0, 0, 0, 44, 0]"] ;
88 -> 89 ;
90 [label="entropy = 0.843\nsamples = 48\nvalue = [0, 0, 13, 0, 0, 0, 0, 35, 0]"] ;
89 -> 90 ;
91 [label="entropy = 0.0\nsamples = 9\nvalue = [0, 0, 0, 0, 0, 0, 0, 9, 0]"] ;
89 -> 91 ;
92 [label="X[8] <= 0.5\nentropy = 0.211\nsamples = 30\nvalue = [0, 0, 29, 0, 0, 1, 0, 0, 0]"] ;
88 -> 92 ;
93 [label="entropy = 0.0\nsamples = 1\nvalue = [0, 0, 0, 0, 0, 1, 0, 0, 0]"] ;
92 -> 93 ;
94 [label="entropy = 0.0\nsamples = 29\nvalue = [0, 0, 29, 0, 0, 0, 0, 0, 0]"] ;
92 -> 94 ;
95 [label="X[7] <= 0.5\nentropy = 1.315\nsamples = 143\nvalue = [0, 0, 12, 0, 0, 76, 0, 0, 55]"] ;
87 -> 95 ;
96 [label="X[19] <= 0.5\nentropy = 0.999\nsamples = 23\nvalue = [0, 0, 12, 0, 0, 11, 0, 0, 0]"] ;
95 -> 96 ;
97 [label="entropy = 0.0\nsamples = 12\nvalue = [0, 0, 12, 0, 0, 0, 0, 0, 0]"] ;
96 -> 97 ;
98 [label="entropy = 0.0\nsamples = 11\nvalue = [0, 0, 0, 0, 0, 11, 0, 0, 0]"] ;
96 -> 98 ;
99 [label="X[26] <= 0.5\nentropy = 0.995\nsamples = 120\nvalue = [0, 0, 0, 0, 0, 65, 0, 0, 55]"] ;
95 -> 99 ;
100 [label="entropy = 0.0\nsamples = 11\nvalue = [0, 0, 0, 0, 0, 11, 0, 0, 0]"] ;
99 -> 100 ;
101 [label="entropy = 1.0\nsamples = 109\nvalue = [0, 0, 0, 0, 0, 54, 0, 0, 55]"] ;
99 -> 101 ;
102 [label="X[9] <= 0.5\nentropy = 0.999\nsamples = 90\nvalue = [0, 47, 0, 0, 0, 0, 0, 0, 43]"] ;
86 -> 102 ;
103 [label="entropy = 0.0\nsamples = 47\nvalue = [0, 47, 0, 0, 0, 0, 0, 0, 0]"] ;
102 -> 103 ;
104 [label="entropy = 0.0\nsamples = 43\nvalue = [0, 0, 0, 0, 0, 0, 0, 0, 43]"] ;
102 -> 104 ;
105 [label="X[12] <= 0.5\nentropy = 1.509\nsamples = 212\nvalue = [0, 27, 8, 0, 0, 9, 142, 0, 26]"] ;
85 -> 105 ;
106 [label="X[13] <= 0.5\nentropy = 2.082\nsamples = 78\nvalue = [0, 27, 6, 0, 0, 9, 10, 0, 26]"] ;
105 -> 106 ;
107 [label="X[8] <= 0.5\nentropy = 1.581\nsamples = 29\nvalue = [0, 16, 6, 0, 0, 6, 1, 0, 0]"] ;
106 -> 107 ;
108 [label="entropy = 0.0\nsamples = 2\nvalue = [0, 2, 0, 0, 0, 0, 0, 0, 0]"] ;
107 -> 108 ;
109 [label="entropy = 1.632\nsamples = 27\nvalue = [0, 14, 6, 0, 0, 6, 1, 0, 0]"] ;
107 -> 109 ;
110 [label="X[26] <= 0.5\nentropy = 1.665\nsamples = 49\nvalue = [0, 11, 0, 0, 0, 3, 9, 0, 26]"] ;
106 -> 110 ;
111 [label="X[5] <= 0.5\nentropy = 1.422\nsamples = 23\nvalue = [0, 11, 0, 0, 0, 3, 9, 0, 0]"] ;
110 -> 111 ;
112 [label="X[8] <= 0.5\nentropy = 0.811\nsamples = 12\nvalue = [0, 0, 0, 0, 0, 3, 9, 0, 0]"] ;
111 -> 112 ;
113 [label="entropy = 0.0\nsamples = 9\nvalue = [0, 0, 0, 0, 0, 0, 9, 0, 0]"] ;
112 -> 113 ;
114 [label="entropy = 0.0\nsamples = 3\nvalue = [0, 0, 0, 0, 0, 3, 0, 0, 0]"] ;
112 -> 114 ;
115 [label="entropy = 0.0\nsamples = 11\nvalue = [0, 11, 0, 0, 0, 0, 0, 0, 0]"] ;
111 -> 115 ;
116 [label="entropy = 0.0\nsamples = 26\nvalue = [0, 0, 0, 0, 0, 0, 0, 0, 26]"] ;
110 -> 116 ;
117 [label="X[10] <= 0.5\nentropy = 0.112\nsamples = 134\nvalue = [0, 0, 2, 0, 0, 0, 132, 0, 0]"] ;
105 -> 117 ;
118 [label="entropy = 0.0\nsamples = 2\nvalue = [0, 0, 2, 0, 0, 0, 0, 0, 0]"] ;
117 -> 118 ;
119 [label="entropy = 0.0\nsamples = 132\nvalue = [0, 0, 0, 0, 0, 0, 132, 0, 0]"] ;
117 -> 119 ;
120 [label="X[19] <= 0.5\nentropy = 1.541\nsamples = 1003\nvalue = [0, 61, 65, 0, 32, 669, 9, 167, 0]"] ;
84 -> 120 ;
121 [label="X[13] <= 0.5\nentropy = 0.84\nsamples = 677\nvalue = [0, 18, 9, 0, 30, 589, 9, 22, 0]"] ;
120 -> 121 ;
122 [label="X[7] <= 0.5\nentropy = 2.084\nsamples = 88\nvalue = [0, 0, 9, 0, 30, 30, 8, 11, 0]"] ;
121 -> 122 ;
123 [label="X[12] <= 0.5\nentropy = 1.423\nsamples = 39\nvalue = [0, 0, 9, 0, 22, 0, 8, 0, 0]"] ;
122 -> 123 ;
124 [label="X[4] <= 0.5\nentropy = 0.414\nsamples = 24\nvalue = [0, 0, 2, 0, 22, 0, 0, 0, 0]"] ;
123 -> 124 ;
125 [label="entropy = 0.0\nsamples = 2\nvalue = [0, 0, 2, 0, 0, 0, 0, 0, 0]"] ;
124 -> 125 ;
126 [label="entropy = 0.0\nsamples = 22\nvalue = [0, 0, 0, 0, 22, 0, 0, 0, 0]"] ;
124 -> 126 ;
127 [label="entropy = 0.997\nsamples = 15\nvalue = [0, 0, 7, 0, 0, 0, 8, 0, 0]"] ;
123 -> 127 ;
128 [label="X[25] <= 0.5\nentropy = 1.344\nsamples = 49\nvalue = [0, 0, 0, 0, 8, 30, 0, 11, 0]"] ;
122 -> 128 ;
129 [label="entropy = 0.0\nsamples = 8\nvalue = [0, 0, 0, 0, 8, 0, 0, 0, 0]"] ;
128 -> 129 ;
130 [label="X[5] <= 0.5\nentropy = 0.839\nsamples = 41\nvalue = [0, 0, 0, 0, 0, 30, 0, 11, 0]"] ;
128 -> 130 ;
131 [label="entropy = 0.0\nsamples = 24\nvalue = [0, 0, 0, 0, 0, 24, 0, 0, 0]"] ;
130 -> 131 ;
132 [label="X[18] <= 0.5\nentropy = 0.937\nsamples = 17\nvalue = [0, 0, 0, 0, 0, 6, 0, 11, 0]"] ;
130 -> 132 ;
133 [label="entropy = 0.0\nsamples = 11\nvalue = [0, 0, 0, 0, 0, 0, 0, 11, 0]"] ;
132 -> 133 ;
134 [label="entropy = 0.0\nsamples = 6\nvalue = [0, 0, 0, 0, 0, 6, 0, 0, 0]"] ;
132 -> 134 ;
135 [label="X[8] <= 0.5\nentropy = 0.348\nsamples = 589\nvalue = [0, 18, 0, 0, 0, 559, 1, 11, 0]"] ;
121 -> 135 ;
136 [label="X[18] <= 0.5\nentropy = 0.022\nsamples = 478\nvalue = [0, 0, 0, 0, 0, 477, 1, 0, 0]"] ;
135 -> 136 ;
137 [label="X[7] <= 0.5\nentropy = 0.276\nsamples = 21\nvalue = [0, 0, 0, 0, 0, 20, 1, 0, 0]"] ;
136 -> 137 ;
138 [label="entropy = 0.0\nsamples = 19\nvalue = [0, 0, 0, 0, 0, 19, 0, 0, 0]"] ;
137 -> 138 ;
139 [label="entropy = 1.0\nsamples = 2\nvalue = [0, 0, 0, 0, 0, 1, 1, 0, 0]"] ;
137 -> 139 ;
140 [label="entropy = 0.0\nsamples = 457\nvalue = [0, 0, 0, 0, 0, 457, 0, 0, 0]"] ;
136 -> 140 ;
141 [label="X[20] <= 0.5\nentropy = 1.079\nsamples = 111\nvalue = [0, 18, 0, 0, 0, 82, 0, 11, 0]"] ;
135 -> 141 ;
142 [label="X[5] <= 0.5\nentropy = 1.553\nsamples = 37\nvalue = [0, 16, 0, 0, 0, 10, 0, 11, 0]"] ;
141 -> 142 ;
143 [label="entropy = 0.964\nsamples = 18\nvalue = [0, 0, 0, 0, 0, 7, 0, 11, 0]"] ;
142 -> 143 ;
144 [label="X[22] <= 0.5\nentropy = 0.629\nsamples = 19\nvalue = [0, 16, 0, 0, 0, 3, 0, 0, 0]"] ;
142 -> 144 ;
145 [label="entropy = 0.75\nsamples = 14\nvalue = [0, 11, 0, 0, 0, 3, 0, 0, 0]"] ;
144 -> 145 ;
146 [label="entropy = 0.0\nsamples = 5\nvalue = [0, 5, 0, 0, 0, 0, 0, 0, 0]"] ;
144 -> 146 ;
147 [label="X[5] <= 0.5\nentropy = 0.179\nsamples = 74\nvalue = [0, 2, 0, 0, 0, 72, 0, 0, 0]"] ;
141 -> 147 ;
148 [label="entropy = 0.0\nsamples = 65\nvalue = [0, 0, 0, 0, 0, 65, 0, 0, 0]"] ;
147 -> 148 ;
149 [label="X[24] <= 0.5\nentropy = 0.764\nsamples = 9\nvalue = [0, 2, 0, 0, 0, 7, 0, 0, 0]"] ;
147 -> 149 ;
150 [label="entropy = 0.811\nsamples = 8\nvalue = [0, 2, 0, 0, 0, 6, 0, 0, 0]"] ;
149 -> 150 ;
151 [label="entropy = 0.0\nsamples = 1\nvalue = [0, 0, 0, 0, 0, 1, 0, 0, 0]"] ;
149 -> 151 ;
152 [label="X[23] <= 0.5\nentropy = 1.884\nsamples = 326\nvalue = [0, 43, 56, 0, 2, 80, 0, 145, 0]"] ;
120 -> 152 ;
153 [label="entropy = 0.0\nsamples = 80\nvalue = [0, 0, 0, 0, 0, 80, 0, 0, 0]"] ;
152 -> 153 ;
154 [label="X[5] <= 0.5\nentropy = 1.432\nsamples = 246\nvalue = [0, 43, 56, 0, 2, 0, 0, 145, 0]"] ;
152 -> 154 ;
155 [label="X[8] <= 0.5\nentropy = 0.321\nsamples = 154\nvalue = [0, 0, 9, 0, 0, 0, 0, 145, 0]"] ;
154 -> 155 ;
156 [label="entropy = 0.0\nsamples = 133\nvalue = [0, 0, 0, 0, 0, 0, 0, 133, 0]"] ;
155 -> 156 ;
157 [label="entropy = 0.985\nsamples = 21\nvalue = [0, 0, 9, 0, 0, 0, 0, 12, 0]"] ;
155 -> 157 ;
158 [label="X[10] <= 0.5\nentropy = 1.128\nsamples = 92\nvalue = [0, 43, 47, 0, 2, 0, 0, 0, 0]"] ;
154 -> 158 ;
159 [label="entropy = 0.0\nsamples = 47\nvalue = [0, 0, 47, 0, 0, 0, 0, 0, 0]"] ;
158 -> 159 ;
160 [label="X[12] <= 0.5\nentropy = 0.262\nsamples = 45\nvalue = [0, 43, 0, 0, 2, 0, 0, 0, 0]"] ;
158 -> 160 ;
161 [label="entropy = 0.0\nsamples = 2\nvalue = [0, 0, 0, 0, 2, 0, 0, 0, 0]"] ;
160 -> 161 ;
162 [label="entropy = 0.0\nsamples = 43\nvalue = [0, 43, 0, 0, 0, 0, 0, 0, 0]"] ;
160 -> 162 ;
163 [label="X[12] <= 0.5\nentropy = 2.658\nsamples = 3082\nvalue = [0, 406, 596, 859, 213, 147, 564, 261, 36]"] ;
1 -> 163 ;
164 [label="X[7] <= 0.5\nentropy = 2.519\nsamples = 1493\nvalue = [0, 40, 176, 259, 213, 21, 495, 254, 35]"] ;
163 -> 164 ;
165 [label="X[14] <= 0.5\nentropy = 2.556\nsamples = 1024\nvalue = [0, 38, 176, 258, 194, 21, 48, 254, 35]"] ;
164 -> 165 ;
166 [label="X[4] <= 0.5\nentropy = 2.15\nsamples = 757\nvalue = [0, 28, 165, 239, 0, 3, 36, 252, 34]"] ;
165 -> 166 ;
167 [label="X[0] <= 0.5\nentropy = 2.122\nsamples = 259\nvalue = [0, 28, 128, 41, 0, 1, 18, 9, 34]"] ;
166 -> 167 ;
168 [label="X[26] <= 0.5\nentropy = 0.709\nsamples = 34\nvalue = [0, 0, 1, 4, 0, 0, 0, 0, 29]"] ;
167 -> 168 ;
169 [label="X[18] <= 0.5\nentropy = 0.722\nsamples = 5\nvalue = [0, 0, 1, 4, 0, 0, 0, 0, 0]"] ;
168 -> 169 ;
170 [label="entropy = 1.0\nsamples = 2\nvalue = [0, 0, 1, 1, 0, 0, 0, 0, 0]"] ;
169 -> 170 ;
171 [label="entropy = 0.0\nsamples = 3\nvalue = [0, 0, 0, 3, 0, 0, 0, 0, 0]"] ;
169 -> 171 ;
172 [label="entropy = 0.0\nsamples = 29\nvalue = [0, 0, 0, 0, 0, 0, 0, 0, 29]"] ;
168 -> 172 ;
173 [label="X[20] <= 0.5\nentropy = 1.902\nsamples = 225\nvalue = [0, 28, 127, 37, 0, 1, 18, 9, 5]"] ;
167 -> 173 ;
174 [label="entropy = 0.0\nsamples = 26\nvalue = [0, 0, 26, 0, 0, 0, 0, 0, 0]"] ;
173 -> 174 ;
175 [label="X[16] <= 0.5\nentropy = 2.033\nsamples = 199\nvalue = [0, 28, 101, 37, 0, 1, 18, 9, 5]"] ;
173 -> 175 ;
176 [label="X[23] <= 0.5\nentropy = 2.121\nsamples = 168\nvalue = [0, 28, 81, 26, 0, 1, 18, 9, 5]"] ;
175 -> 176 ;
177 [label="entropy = 0.65\nsamples = 6\nvalue = [0, 1, 0, 0, 0, 0, 5, 0, 0]"] ;
176 -> 177 ;
178 [label="X[26] <= 0.5\nentropy = 2.078\nsamples = 162\nvalue = [0, 27, 81, 26, 0, 1, 13, 9, 5]"] ;
176 -> 178 ;
179 [label="entropy = 0.0\nsamples = 2\nvalue = [0, 0, 2, 0, 0, 0, 0, 0, 0]"] ;
178 -> 179 ;
180 [label="entropy = 2.092\nsamples = 160\nvalue = [0, 27, 79, 26, 0, 1, 13, 9, 5]"] ;
178 -> 180 ;
181 [label="entropy = 0.938\nsamples = 31\nvalue = [0, 0, 20, 11, 0, 0, 0, 0, 0]"] ;
175 -> 181 ;
182 [label="X[21] <= 0.5\nentropy = 1.518\nsamples = 498\nvalue = [0, 0, 37, 198, 0, 2, 18, 243, 0]"] ;
166 -> 182 ;
183 [label="X[8] <= 0.5\nentropy = 1.171\nsamples = 368\nvalue = [0, 0, 1, 105, 0, 1, 18, 243, 0]"] ;
182 -> 183 ;
184 [label="X[20] <= 0.5\nentropy = 1.027\nsamples = 142\nvalue = [0, 0, 0, 84, 0, 1, 0, 57, 0]"] ;
183 -> 184 ;
185 [label="entropy = 0.0\nsamples = 26\nvalue = [0, 0, 0, 0, 0, 0, 0, 26, 0]"] ;
184 -> 185 ;
186 [label="X[17] <= 0.5\nentropy = 0.905\nsamples = 116\nvalue = [0, 0, 0, 84, 0, 1, 0, 31, 0]"] ;
184 -> 186 ;
187 [label="entropy = 0.0\nsamples = 20\nvalue = [0, 0, 0, 20, 0, 0, 0, 0, 0]"] ;
186 -> 187 ;
188 [label="X[25] <= 0.5\nentropy = 0.985\nsamples = 96\nvalue = [0, 0, 0, 64, 0, 1, 0, 31, 0]"] ;
186 -> 188 ;
189 [label="entropy = 0.994\nsamples = 94\nvalue = [0, 0, 0, 62, 0, 1, 0, 31, 0]"] ;
188 -> 189 ;
190 [label="entropy = 0.0\nsamples = 2\nvalue = [0, 0, 0, 2, 0, 0, 0, 0, 0]"] ;
188 -> 190 ;
191 [label="X[19] <= 0.5\nentropy = 0.875\nsamples = 226\nvalue = [0, 0, 1, 21, 0, 0, 18, 186, 0]"] ;
183 -> 191 ;
192 [label="X[17] <= 0.5\nentropy = 0.838\nsamples = 225\nvalue = [0, 0, 0, 21, 0, 0, 18, 186, 0]"] ;
191 -> 192 ;
193 [label="entropy = 0.0\nsamples = 1\nvalue = [0, 0, 0, 0, 0, 0, 0, 1, 0]"] ;
192 -> 193 ;
194 [label="entropy = 0.84\nsamples = 224\nvalue = [0, 0, 0, 21, 0, 0, 18, 185, 0]"] ;
192 -> 194 ;
195 [label="entropy = 0.0\nsamples = 1\nvalue = [0, 0, 1, 0, 0, 0, 0, 0, 0]"] ;
191 -> 195 ;
196 [label="X[17] <= 0.5\nentropy = 0.913\nsamples = 130\nvalue = [0, 0, 36, 93, 0, 1, 0, 0, 0]"] ;
182 -> 196 ;
197 [label="entropy = 0.0\nsamples = 93\nvalue = [0, 0, 0, 93, 0, 0, 0, 0, 0]"] ;
196 -> 197 ;
198 [label="X[8] <= 0.5\nentropy = 0.179\nsamples = 37\nvalue = [0, 0, 36, 0, 0, 1, 0, 0, 0]"] ;
196 -> 198 ;
199 [label="entropy = 0.0\nsamples = 1\nvalue = [0, 0, 0, 0, 0, 1, 0, 0, 0]"] ;
198 -> 199 ;
200 [label="entropy = 0.0\nsamples = 36\nvalue = [0, 0, 36, 0, 0, 0, 0, 0, 0]"] ;
198 -> 200 ;
201 [label="X[26] <= 0.5\nentropy = 1.52\nsamples = 267\nvalue = [0, 10, 11, 19, 194, 18, 12, 2, 1]"] ;
165 -> 201 ;
202 [label="X[19] <= 0.5\nentropy = 2.439\nsamples = 40\nvalue = [0, 5, 7, 14, 3, 2, 8, 1, 0]"] ;
201 -> 202 ;
203 [label="X[0] <= 0.5\nentropy = 2.398\nsamples = 26\nvalue = [0, 5, 6, 2, 3, 2, 8, 0, 0]"] ;
202 -> 203 ;
204 [label="X[6] <= 0.5\nentropy = 2.394\nsamples = 18\nvalue = [0, 5, 5, 2, 3, 2, 1, 0, 0]"] ;
203 -> 204 ;
205 [label="entropy = 2.369\nsamples = 17\nvalue = [0, 5, 5, 2, 2, 2, 1, 0, 0]"] ;
204 -> 205 ;
206 [label="entropy = 0.0\nsamples = 1\nvalue = [0, 0, 0, 0, 1, 0, 0, 0, 0]"] ;
204 -> 206 ;
207 [label="X[4] <= 0.5\nentropy = 0.544\nsamples = 8\nvalue = [0, 0, 1, 0, 0, 0, 7, 0, 0]"] ;
203 -> 207 ;
208 [label="entropy = 1.0\nsamples = 2\nvalue = [0, 0, 1, 0, 0, 0, 1, 0, 0]"] ;
207 -> 208 ;
209 [label="entropy = 0.0\nsamples = 6\nvalue = [0, 0, 0, 0, 0, 0, 6, 0, 0]"] ;
207 -> 209 ;
210 [label="X[25] <= 0.5\nentropy = 0.735\nsamples = 14\nvalue = [0, 0, 1, 12, 0, 0, 0, 1, 0]"] ;
202 -> 210 ;
211 [label="entropy = 0.0\nsamples = 12\nvalue = [0, 0, 0, 12, 0, 0, 0, 0, 0]"] ;
210 -> 211 ;
212 [label="X[5] <= 0.5\nentropy = 1.0\nsamples = 2\nvalue = [0, 0, 1, 0, 0, 0, 0, 1, 0]"] ;
210 -> 212 ;
213 [label="entropy = 0.0\nsamples = 1\nvalue = [0, 0, 0, 0, 0, 0, 0, 1, 0]"] ;
212 -> 213 ;
214 [label="entropy = 0.0\nsamples = 1\nvalue = [0, 0, 1, 0, 0, 0, 0, 0, 0]"] ;
212 -> 214 ;
215 [label="X[8] <= 0.5\nentropy = 0.996\nsamples = 227\nvalue = [0, 5, 4, 5, 191, 16, 4, 1, 1]"] ;
201 -> 215 ;
216 [label="entropy = 1.379\nsamples = 37\nvalue = [0, 0, 0, 2, 20, 14, 0, 0, 1]"] ;
215 -> 216 ;
217 [label="X[21] <= 0.5\nentropy = 0.713\nsamples = 190\nvalue = [0, 5, 4, 3, 171, 2, 4, 1, 0]"] ;
215 -> 217 ;
218 [label="X[18] <= 0.5\nentropy = 0.539\nsamples = 184\nvalue = [0, 2, 4, 3, 171, 2, 1, 1, 0]"] ;
217 -> 218 ;
219 [label="X[15] <= 0.5\nentropy = 0.364\nsamples = 179\nvalue = [0, 1, 2, 2, 171, 2, 1, 0, 0]"] ;
218 -> 219 ;
220 [label="X[3] <= 0.5\nentropy = 0.191\nsamples = 175\nvalue = [0, 0, 0, 1, 171, 2, 1, 0, 0]"] ;
219 -> 220 ;
221 [label="X[17] <= 0.5\nentropy = 0.052\nsamples = 171\nvalue = [0, 0, 0, 0, 170, 0, 1, 0, 0]"] ;
220 -> 221 ;
222 [label="entropy = 0.918\nsamples = 3\nvalue = [0, 0, 0, 0, 2, 0, 1, 0, 0]"] ;
221 -> 222 ;
223 [label="entropy = 0.0\nsamples = 168\nvalue = [0, 0, 0, 0, 168, 0, 0, 0, 0]"] ;
221 -> 223 ;
224 [label="entropy = 1.5\nsamples = 4\nvalue = [0, 0, 0, 1, 1, 2, 0, 0, 0]"] ;
220 -> 224 ;
225 [label="X[3] <= 0.5\nentropy = 1.5\nsamples = 4\nvalue = [0, 1, 2, 1, 0, 0, 0, 0, 0]"] ;
219 -> 225 ;
226 [label="entropy = 0.918\nsamples = 3\nvalue = [0, 1, 2, 0, 0, 0, 0, 0, 0]"] ;
225 -> 226 ;
227 [label="entropy = 0.0\nsamples = 1\nvalue = [0, 0, 0, 1, 0, 0, 0, 0, 0]"] ;
225 -> 227 ;
228 [label="entropy = 1.922\nsamples = 5\nvalue = [0, 1, 2, 1, 0, 0, 0, 1, 0]"] ;
218 -> 228 ;
229 [label="entropy = 1.0\nsamples = 6\nvalue = [0, 3, 0, 0, 0, 0, 3, 0, 0]"] ;
217 -> 229 ;
230 [label="X[14] <= 0.5\nentropy = 0.306\nsamples = 469\nvalue = [0, 2, 0, 1, 19, 0, 447, 0, 0]"] ;
164 -> 230 ;
231 [label="entropy = 0.0\nsamples = 441\nvalue = [0, 0, 0, 0, 0, 0, 441, 0, 0]"] ;
230 -> 231 ;
232 [label="X[25] <= 0.5\nentropy = 1.299\nsamples = 28\nvalue = [0, 2, 0, 1, 19, 0, 6, 0, 0]"] ;
230 -> 232 ;
233 [label="X[26] <= 0.5\nentropy = 0.7\nsamples = 22\nvalue = [0, 2, 0, 1, 19, 0, 0, 0, 0]"] ;
232 -> 233 ;
234 [label="X[5] <= 0.5\nentropy = 1.5\nsamples = 4\nvalue = [0, 2, 0, 1, 1, 0, 0, 0, 0]"] ;
233 -> 234 ;
235 [label="X[18] <= 0.5\nentropy = 1.0\nsamples = 2\nvalue = [0, 0, 0, 1, 1, 0, 0, 0, 0]"] ;
234 -> 235 ;
236 [label="entropy = 0.0\nsamples = 1\nvalue = [0, 0, 0, 1, 0, 0, 0, 0, 0]"] ;
235 -> 236 ;
237 [label="entropy = 0.0\nsamples = 1\nvalue = [0, 0, 0, 0, 1, 0, 0, 0, 0]"] ;
235 -> 237 ;
238 [label="entropy = 0.0\nsamples = 2\nvalue = [0, 2, 0, 0, 0, 0, 0, 0, 0]"] ;
234 -> 238 ;
239 [label="entropy = 0.0\nsamples = 18\nvalue = [0, 0, 0, 0, 18, 0, 0, 0, 0]"] ;
233 -> 239 ;
240 [label="entropy = 0.0\nsamples = 6\nvalue = [0, 0, 0, 0, 0, 0, 6, 0, 0]"] ;
232 -> 240 ;
241 [label="X[19] <= 0.5\nentropy = 2.053\nsamples = 1589\nvalue = [0, 366, 420, 600, 0, 126, 69, 7, 1]"] ;
163 -> 241 ;
242 [label="X[3] <= 0.5\nentropy = 2.066\nsamples = 1107\nvalue = [0, 365, 420, 122, 0, 123, 69, 7, 1]"] ;
241 -> 242 ;
243 [label="X[8] <= 0.5\nentropy = 1.52\nsamples = 822\nvalue = [0, 365, 380, 12, 0, 31, 28, 6, 0]"] ;
242 -> 243 ;
244 [label="entropy = 0.0\nsamples = 142\nvalue = [0, 142, 0, 0, 0, 0, 0, 0, 0]"] ;
243 -> 244 ;
245 [label="X[26] <= 0.5\nentropy = 1.552\nsamples = 680\nvalue = [0, 223, 380, 12, 0, 31, 28, 6, 0]"] ;
243 -> 245 ;
246 [label="X[23] <= 0.5\nentropy = 0.971\nsamples = 10\nvalue = [0, 0, 0, 4, 0, 0, 6, 0, 0]"] ;
245 -> 246 ;
247 [label="entropy = 0.0\nsamples = 3\nvalue = [0, 0, 0, 3, 0, 0, 0, 0, 0]"] ;
246 -> 247 ;
248 [label="X[0] <= 0.5\nentropy = 0.592\nsamples = 7\nvalue = [0, 0, 0, 1, 0, 0, 6, 0, 0]"] ;
246 -> 248 ;
249 [label="entropy = 0.722\nsamples = 5\nvalue = [0, 0, 0, 1, 0, 0, 4, 0, 0]"] ;
248 -> 249 ;
250 [label="entropy = 0.0\nsamples = 2\nvalue = [0, 0, 0, 0, 0, 0, 2, 0, 0]"] ;
248 -> 250 ;
251 [label="X[5] <= 0.5\nentropy = 1.496\nsamples = 670\nvalue = [0, 223, 380, 8, 0, 31, 22, 6, 0]"] ;
245 -> 251 ;
252 [label="entropy = 0.0\nsamples = 31\nvalue = [0, 0, 31, 0, 0, 0, 0, 0, 0]"] ;
251 -> 252 ;
253 [label="X[23] <= 0.5\nentropy = 1.528\nsamples = 639\nvalue = [0, 223, 349, 8, 0, 31, 22, 6, 0]"] ;
251 -> 253 ;
254 [label="entropy = 0.0\nsamples = 10\nvalue = [0, 0, 10, 0, 0, 0, 0, 0, 0]"] ;
253 -> 254 ;
255 [label="X[16] <= 0.5\nentropy = 1.538\nsamples = 629\nvalue = [0, 223, 339, 8, 0, 31, 22, 6, 0]"] ;
253 -> 255 ;
256 [label="entropy = 1.533\nsamples = 628\nvalue = [0, 223, 339, 8, 0, 31, 21, 6, 0]"] ;
255 -> 256 ;
257 [label="entropy = 0.0\nsamples = 1\nvalue = [0, 0, 0, 0, 0, 0, 1, 0, 0]"] ;
255 -> 257 ;
258 [label="X[7] <= 0.5\nentropy = 1.914\nsamples = 285\nvalue = [0, 0, 40, 110, 0, 92, 41, 1, 1]"] ;
242 -> 258 ;
259 [label="X[25] <= 0.5\nentropy = 1.969\nsamples = 190\nvalue = [0, 0, 40, 65, 0, 44, 41, 0, 0]"] ;
258 -> 259 ;
260 [label="entropy = 1.96\nsamples = 185\nvalue = [0, 0, 40, 65, 0, 44, 36, 0, 0]"] ;
259 -> 260 ;
261 [label="entropy = 0.0\nsamples = 5\nvalue = [0, 0, 0, 0, 0, 0, 5, 0, 0]"] ;
259 -> 261 ;
262 [label="X[16] <= 0.5\nentropy = 1.147\nsamples = 95\nvalue = [0, 0, 0, 45, 0, 48, 0, 1, 1]"] ;
258 -> 262 ;
263 [label="X[25] <= 0.5\nentropy = 0.999\nsamples = 92\nvalue = [0, 0, 0, 44, 0, 48, 0, 0, 0]"] ;
262 -> 263 ;
264 [label="X[20] <= 0.5\nentropy = 1.0\nsamples = 88\nvalue = [0, 0, 0, 44, 0, 44, 0, 0, 0]"] ;
263 -> 264 ;
265 [label="entropy = 0.989\nsamples = 57\nvalue = [0, 0, 0, 25, 0, 32, 0, 0, 0]"] ;
264 -> 265 ;
266 [label="entropy = 0.963\nsamples = 31\nvalue = [0, 0, 0, 19, 0, 12, 0, 0, 0]"] ;
264 -> 266 ;
267 [label="entropy = 0.0\nsamples = 4\nvalue = [0, 0, 0, 0, 0, 4, 0, 0, 0]"] ;
263 -> 267 ;
268 [label="X[23] <= 0.5\nentropy = 1.585\nsamples = 3\nvalue = [0, 0, 0, 1, 0, 0, 0, 1, 1]"] ;
262 -> 268 ;
269 [label="X[24] <= 0.5\nentropy = 1.0\nsamples = 2\nvalue = [0, 0, 0, 1, 0, 0, 0, 0, 1]"] ;
268 -> 269 ;
270 [label="entropy = 0.0\nsamples = 1\nvalue = [0, 0, 0, 0, 0, 0, 0, 0, 1]"] ;
269 -> 270 ;
271 [label="entropy = 0.0\nsamples = 1\nvalue = [0, 0, 0, 1, 0, 0, 0, 0, 0]"] ;
269 -> 271 ;
272 [label="entropy = 0.0\nsamples = 1\nvalue = [0, 0, 0, 0, 0, 0, 0, 1, 0]"] ;
268 -> 272 ;
273 [label="X[1] <= 0.5\nentropy = 0.076\nsamples = 482\nvalue = [0, 1, 0, 478, 0, 3, 0, 0, 0]"] ;
241 -> 273 ;
274 [label="X[17] <= 0.5\nentropy = 0.811\nsamples = 4\nvalue = [0, 1, 0, 0, 0, 3, 0, 0, 0]"] ;
273 -> 274 ;
275 [label="entropy = 0.0\nsamples = 1\nvalue = [0, 1, 0, 0, 0, 0, 0, 0, 0]"] ;
274 -> 275 ;
276 [label="entropy = 0.0\nsamples = 3\nvalue = [0, 0, 0, 0, 0, 3, 0, 0, 0]"] ;
274 -> 276 ;
277 [label="entropy = 0.0\nsamples = 478\nvalue = [0, 0, 0, 478, 0, 0, 0, 0, 0]"] ;
273 -> 277 ;
278 [label="X[14] <= 0.5\nentropy = 1.932\nsamples = 2102\nvalue = [994, 31, 74, 113, 740, 19, 62, 26, 43]"] ;
0 -> 278 [labeldistance=2.5, labelangle=-45, headlabel="False"] ;
279 [label="X[26] <= 0.5\nentropy = 1.124\nsamples = 889\nvalue = [734, 24, 18, 10, 0, 15, 51, 19, 18]"] ;
278 -> 279 ;
280 [label="X[5] <= 0.5\nentropy = 2.713\nsamples = 107\nvalue = [19, 24, 15, 6, 0, 12, 13, 18, 0]"] ;
279 -> 280 ;
281 [label="X[22] <= 0.5\nentropy = 2.465\nsamples = 69\nvalue = [18, 0, 9, 6, 0, 8, 10, 18, 0]"] ;
280 -> 281 ;
282 [label="X[21] <= 0.5\nentropy = 2.069\nsamples = 52\nvalue = [18, 0, 5, 6, 0, 0, 5, 18, 0]"] ;
281 -> 282 ;
283 [label="X[9] <= 0.5\nentropy = 1.878\nsamples = 35\nvalue = [6, 0, 5, 1, 0, 0, 5, 18, 0]"] ;
282 -> 283 ;
284 [label="X[20] <= 0.5\nentropy = 1.091\nsamples = 22\nvalue = [6, 0, 0, 1, 0, 0, 0, 15, 0]"] ;
283 -> 284 ;
285 [label="entropy = 0.0\nsamples = 5\nvalue = [5, 0, 0, 0, 0, 0, 0, 0, 0]"] ;
284 -> 285 ;
286 [label="X[17] <= 0.5\nentropy = 0.64\nsamples = 17\nvalue = [1, 0, 0, 1, 0, 0, 0, 15, 0]"] ;
284 -> 286 ;
287 [label="entropy = 0.722\nsamples = 5\nvalue = [1, 0, 0, 0, 0, 0, 0, 4, 0]"] ;
286 -> 287 ;
288 [label="X[11] <= 0.5\nentropy = 0.414\nsamples = 12\nvalue = [0, 0, 0, 1, 0, 0, 0, 11, 0]"] ;
286 -> 288 ;
289 [label="entropy = 0.0\nsamples = 6\nvalue = [0, 0, 0, 0, 0, 0, 0, 6, 0]"] ;
288 -> 289 ;
290 [label="entropy = 0.65\nsamples = 6\nvalue = [0, 0, 0, 1, 0, 0, 0, 5, 0]"] ;
288 -> 290 ;
291 [label="X[20] <= 0.5\nentropy = 1.549\nsamples = 13\nvalue = [0, 0, 5, 0, 0, 0, 5, 3, 0]"] ;
283 -> 291 ;
292 [label="entropy = 0.0\nsamples = 3\nvalue = [0, 0, 0, 0, 0, 0, 0, 3, 0]"] ;
291 -> 292 ;
293 [label="entropy = 1.0\nsamples = 10\nvalue = [0, 0, 5, 0, 0, 0, 5, 0, 0]"] ;
291 -> 293 ;
294 [label="X[9] <= 0.5\nentropy = 0.874\nsamples = 17\nvalue = [12, 0, 0, 5, 0, 0, 0, 0, 0]"] ;
282 -> 294 ;
295 [label="X[16] <= 0.5\nentropy = 0.991\nsamples = 9\nvalue = [4, 0, 0, 5, 0, 0, 0, 0, 0]"] ;
294 -> 295 ;
296 [label="entropy = 0.0\nsamples = 4\nvalue = [4, 0, 0, 0, 0, 0, 0, 0, 0]"] ;
295 -> 296 ;
297 [label="entropy = 0.0\nsamples = 5\nvalue = [0, 0, 0, 5, 0, 0, 0, 0, 0]"] ;
295 -> 297 ;
298 [label="entropy = 0.0\nsamples = 8\nvalue = [8, 0, 0, 0, 0, 0, 0, 0, 0]"] ;
294 -> 298 ;
299 [label="X[17] <= 0.5\nentropy = 1.522\nsamples = 17\nvalue = [0, 0, 4, 0, 0, 8, 5, 0, 0]"] ;
281 -> 299 ;
300 [label="X[15] <= 0.5\nentropy = 0.991\nsamples = 9\nvalue = [0, 0, 4, 0, 0, 0, 5, 0, 0]"] ;
299 -> 300 ;
301 [label="entropy = 0.0\nsamples = 4\nvalue = [0, 0, 4, 0, 0, 0, 0, 0, 0]"] ;
300 -> 301 ;
302 [label="entropy = 0.0\nsamples = 5\nvalue = [0, 0, 0, 0, 0, 0, 5, 0, 0]"] ;
300 -> 302 ;
303 [label="entropy = 0.0\nsamples = 8\nvalue = [0, 0, 0, 0, 0, 8, 0, 0, 0]"] ;
299 -> 303 ;
304 [label="X[13] <= 0.5\nentropy = 1.608\nsamples = 38\nvalue = [1, 24, 6, 0, 0, 4, 3, 0, 0]"] ;
280 -> 304 ;
305 [label="X[10] <= 0.5\nentropy = 0.503\nsamples = 27\nvalue = [0, 24, 0, 0, 0, 0, 3, 0, 0]"] ;
304 -> 305 ;
306 [label="entropy = 0.0\nsamples = 11\nvalue = [0, 11, 0, 0, 0, 0, 0, 0, 0]"] ;
305 -> 306 ;
307 [label="X[18] <= 0.5\nentropy = 0.696\nsamples = 16\nvalue = [0, 13, 0, 0, 0, 0, 3, 0, 0]"] ;
305 -> 307 ;
308 [label="entropy = 0.779\nsamples = 13\nvalue = [0, 10, 0, 0, 0, 0, 3, 0, 0]"] ;
307 -> 308 ;
309 [label="entropy = 0.0\nsamples = 3\nvalue = [0, 3, 0, 0, 0, 0, 0, 0, 0]"] ;
307 -> 309 ;
310 [label="X[17] <= 0.5\nentropy = 1.322\nsamples = 11\nvalue = [1, 0, 6, 0, 0, 4, 0, 0, 0]"] ;
304 -> 310 ;
311 [label="entropy = 0.0\nsamples = 1\nvalue = [1, 0, 0, 0, 0, 0, 0, 0, 0]"] ;
310 -> 311 ;
312 [label="X[19] <= 0.5\nentropy = 0.971\nsamples = 10\nvalue = [0, 0, 6, 0, 0, 4, 0, 0, 0]"] ;
310 -> 312 ;
313 [label="entropy = 0.985\nsamples = 7\nvalue = [0, 0, 3, 0, 0, 4, 0, 0, 0]"] ;
312 -> 313 ;
314 [label="entropy = 0.0\nsamples = 3\nvalue = [0, 0, 3, 0, 0, 0, 0, 0, 0]"] ;
312 -> 314 ;
315 [label="X[9] <= 0.5\nentropy = 0.568\nsamples = 782\nvalue = [715, 0, 3, 4, 0, 3, 38, 1, 18]"] ;
279 -> 315 ;
316 [label="X[18] <= 0.5\nentropy = 0.144\nsamples = 705\nvalue = [694, 0, 0, 4, 0, 2, 0, 1, 4]"] ;
315 -> 316 ;
317 [label="X[6] <= 0.5\nentropy = 0.067\nsamples = 698\nvalue = [693, 0, 0, 1, 0, 0, 0, 0, 4]"] ;
316 -> 317 ;
318 [label="X[22] <= 0.5\nentropy = 0.032\nsamples = 680\nvalue = [678, 0, 0, 1, 0, 0, 0, 0, 1]"] ;
317 -> 318 ;
319 [label="X[15] <= 0.5\nentropy = 0.016\nsamples = 679\nvalue = [678, 0, 0, 0, 0, 0, 0, 0, 1]"] ;
318 -> 319 ;
320 [label="entropy = 0.0\nsamples = 678\nvalue = [678, 0, 0, 0, 0, 0, 0, 0, 0]"] ;
319 -> 320 ;
321 [label="entropy = 0.0\nsamples = 1\nvalue = [0, 0, 0, 0, 0, 0, 0, 0, 1]"] ;
319 -> 321 ;
322 [label="entropy = 0.0\nsamples = 1\nvalue = [0, 0, 0, 1, 0, 0, 0, 0, 0]"] ;
318 -> 322 ;
323 [label="entropy = 0.65\nsamples = 18\nvalue = [15, 0, 0, 0, 0, 0, 0, 0, 3]"] ;
317 -> 323 ;
324 [label="X[23] <= 0.5\nentropy = 1.842\nsamples = 7\nvalue = [1, 0, 0, 3, 0, 2, 0, 1, 0]"] ;
316 -> 324 ;
325 [label="entropy = 0.0\nsamples = 1\nvalue = [0, 0, 0, 0, 0, 1, 0, 0, 0]"] ;
324 -> 325 ;
326 [label="entropy = 1.792\nsamples = 6\nvalue = [1, 0, 0, 3, 0, 1, 0, 1, 0]"] ;
324 -> 326 ;
327 [label="X[19] <= 0.5\nentropy = 1.725\nsamples = 77\nvalue = [21, 0, 3, 0, 0, 1, 38, 0, 14]"] ;
315 -> 327 ;
328 [label="entropy = 1.715\nsamples = 76\nvalue = [21, 0, 3, 0, 0, 1, 38, 0, 13]"] ;
327 -> 328 ;
329 [label="entropy = 0.0\nsamples = 1\nvalue = [0, 0, 0, 0, 0, 0, 0, 0, 1]"] ;
327 -> 329 ;
330 [label="X[7] <= 0.5\nentropy = 1.708\nsamples = 1213\nvalue = [260, 7, 56, 103, 740, 4, 11, 7, 25]"] ;
278 -> 330 ;
331 [label="X[10] <= 0.5\nentropy = 1.704\nsamples = 1157\nvalue = [222, 7, 56, 103, 722, 4, 11, 7, 25]"] ;
330 -> 331 ;
332 [label="X[26] <= 0.5\nentropy = 1.759\nsamples = 1054\nvalue = [195, 7, 56, 103, 646, 4, 11, 7, 25]"] ;
331 -> 332 ;
333 [label="entropy = 1.078\nsamples = 25\nvalue = [17, 0, 1, 0, 7, 0, 0, 0, 0]"] ;
332 -> 333 ;
334 [label="X[23] <= 0.5\nentropy = 1.752\nsamples = 1029\nvalue = [178, 7, 55, 103, 639, 4, 11, 7, 25]"] ;
332 -> 334 ;
335 [label="entropy = 0.592\nsamples = 7\nvalue = [6, 0, 0, 0, 1, 0, 0, 0, 0]"] ;
334 -> 335 ;
336 [label="X[20] <= 0.5\nentropy = 1.749\nsamples = 1022\nvalue = [172, 7, 55, 103, 638, 4, 11, 7, 25]"] ;
334 -> 336 ;
337 [label="entropy = 0.994\nsamples = 11\nvalue = [5, 0, 0, 0, 6, 0, 0, 0, 0]"] ;
336 -> 337 ;
338 [label="X[5] <= 0.5\nentropy = 1.751\nsamples = 1011\nvalue = [167, 7, 55, 103, 632, 4, 11, 7, 25]"] ;
336 -> 338 ;
339 [label="entropy = 0.985\nsamples = 7\nvalue = [4, 0, 0, 0, 3, 0, 0, 0, 0]"] ;
338 -> 339 ;
340 [label="X[16] <= 0.5\nentropy = 1.751\nsamples = 1004\nvalue = [163, 7, 55, 103, 629, 4, 11, 7, 25]"] ;
338 -> 340 ;
341 [label="entropy = 1.749\nsamples = 1000\nvalue = [160, 7, 55, 103, 628, 4, 11, 7, 25]"] ;
340 -> 341 ;
342 [label="entropy = 0.811\nsamples = 4\nvalue = [3, 0, 0, 0, 1, 0, 0, 0, 0]"] ;
340 -> 342 ;
343 [label="entropy = 0.83\nsamples = 103\nvalue = [27, 0, 0, 0, 76, 0, 0, 0, 0]"] ;
331 -> 343 ;
344 [label="X[26] <= 0.5\nentropy = 0.906\nsamples = 56\nvalue = [38, 0, 0, 0, 18, 0, 0, 0, 0]"] ;
330 -> 344 ;
345 [label="entropy = 0.0\nsamples = 1\nvalue = [1, 0, 0, 0, 0, 0, 0, 0, 0]"] ;
344 -> 345 ;
346 [label="entropy = 0.912\nsamples = 55\nvalue = [37, 0, 0, 0, 18, 0, 0, 0, 0]"] ;
344 -> 346 ;
}