digraph Tree {
node [shape=box] ;
0 [label="X[14] <= 0.5\nentropy = 3.169\nsamples = 8601\nvalue = [997, 969, 965, 941, 1000, 957, 890, 911, 971]"] ;
1 [label="X[8] <= 0.5\nentropy = 2.936\nsamples = 6241\nvalue = [287, 914, 699, 893, 0, 939, 668, 881, 960]"] ;
0 -> 1 [labeldistance=2.5, labelangle=45, headlabel="True"] ;
2 [label="X[5] <= 0.5\nentropy = 2.68\nsamples = 4552\nvalue = [120, 768, 0, 712, 0, 822, 541, 752, 837]"] ;
1 -> 2 ;
3 [label="X[11] <= 0.5\nentropy = 2.411\nsamples = 2810\nvalue = [78, 0, 0, 497, 0, 610, 370, 554, 701]"] ;
2 -> 3 ;
4 [label="X[16] <= 0.5\nentropy = 1.961\nsamples = 1657\nvalue = [5, 0, 0, 0, 0, 407, 362, 272, 611]"] ;
3 -> 4 ;
5 [label="X[20] <= 0.5\nentropy = 1.895\nsamples = 1109\nvalue = [3, 0, 0, 0, 0, 407, 343, 241, 115]"] ;
4 -> 5 ;
6 [label="X[23] <= 0.5\nentropy = 1.555\nsamples = 546\nvalue = [2, 0, 0, 0, 0, 190, 0, 239, 115]"] ;
5 -> 6 ;
7 [label="X[19] <= 0.5\nentropy = 1.054\nsamples = 253\nvalue = [2, 0, 0, 0, 0, 136, 0, 0, 115]"] ;
6 -> 7 ;
8 [label="X[17] <= 0.5\nentropy = 1.009\nsamples = 178\nvalue = [2, 0, 0, 0, 0, 61, 0, 0, 115]"] ;
7 -> 8 ;
9 [label="X[26] <= 0.5\nentropy = 0.232\nsamples = 53\nvalue = [2, 0, 0, 0, 0, 0, 0, 0, 51]"] ;
8 -> 9 ;
10 [label="entropy = 0.0\nsamples = 2\nvalue = [2, 0, 0, 0, 0, 0, 0, 0, 0]"] ;
9 -> 10 ;
11 [label="entropy = 0.0\nsamples = 51\nvalue = [0, 0, 0, 0, 0, 0, 0, 0, 51]"] ;
9 -> 11 ;
12 [label="X[13] <= 0.5\nentropy = 1.0\nsamples = 125\nvalue = [0, 0, 0, 0, 0, 61, 0, 0, 64]"] ;
8 -> 12 ;
13 [label="entropy = 0.998\nsamples = 122\nvalue = [0, 0, 0, 0, 0, 58, 0, 0, 64]"] ;
12 -> 13 ;
14 [label="entropy = 0.0\nsamples = 3\nvalue = [0, 0, 0, 0, 0, 3, 0, 0, 0]"] ;
12 -> 14 ;
15 [label="entropy = 0.0\nsamples = 75\nvalue = [0, 0, 0, 0, 0, 75, 0, 0, 0]"] ;
7 -> 15 ;
16 [label="X[3] <= 0.5\nentropy = 0.689\nsamples = 293\nvalue = [0, 0, 0, 0, 0, 54, 0, 239, 0]"] ;
6 -> 16 ;
17 [label="X[13] <= 0.5\nentropy = 0.304\nsamples = 221\nvalue = [0, 0, 0, 0, 0, 12, 0, 209, 0]"] ;
16 -> 17 ;
18 [label="X[7] <= 0.5\nentropy = 0.414\nsamples = 12\nvalue = [0, 0, 0, 0, 0, 11, 0, 1, 0]"] ;
17 -> 18 ;
19 [label="X[1] <= 0.5\nentropy = 1.0\nsamples = 2\nvalue = [0, 0, 0, 0, 0, 1, 0, 1, 0]"] ;
18 -> 19 ;
20 [label="entropy = 0.0\nsamples = 1\nvalue = [0, 0, 0, 0, 0, 0, 0, 1, 0]"] ;
19 -> 20 ;
21 [label="entropy = 0.0\nsamples = 1\nvalue = [0, 0, 0, 0, 0, 1, 0, 0, 0]"] ;
19 -> 21 ;
22 [label="entropy = 0.0\nsamples = 10\nvalue = [0, 0, 0, 0, 0, 10, 0, 0, 0]"] ;
18 -> 22 ;
23 [label="X[10] <= 0.5\nentropy = 0.044\nsamples = 209\nvalue = [0, 0, 0, 0, 0, 1, 0, 208, 0]"] ;
17 -> 23 ;
24 [label="entropy = 0.0\nsamples = 122\nvalue = [0, 0, 0, 0, 0, 0, 0, 122, 0]"] ;
23 -> 24 ;
25 [label="X[17] <= 0.5\nentropy = 0.091\nsamples = 87\nvalue = [0, 0, 0, 0, 0, 1, 0, 86, 0]"] ;
23 -> 25 ;
26 [label="entropy = 0.0\nsamples = 84\nvalue = [0, 0, 0, 0, 0, 0, 0, 84, 0]"] ;
25 -> 26 ;
27 [label="X[24] <= 0.5\nentropy = 0.918\nsamples = 3\nvalue = [0, 0, 0, 0, 0, 1, 0, 2, 0]"] ;
25 -> 27 ;
28 [label="entropy = 1.0\nsamples = 2\nvalue = [0, 0, 0, 0, 0, 1, 0, 1, 0]"] ;
27 -> 28 ;
29 [label="entropy = 0.0\nsamples = 1\nvalue = [0, 0, 0, 0, 0, 0, 0, 1, 0]"] ;
27 -> 29 ;
30 [label="X[25] <= 0.5\nentropy = 0.98\nsamples = 72\nvalue = [0, 0, 0, 0, 0, 42, 0, 30, 0]"] ;
16 -> 30 ;
31 [label="entropy = 0.0\nsamples = 42\nvalue = [0, 0, 0, 0, 0, 42, 0, 0, 0]"] ;
30 -> 31 ;
32 [label="entropy = 0.0\nsamples = 30\nvalue = [0, 0, 0, 0, 0, 0, 0, 30, 0]"] ;
30 -> 32 ;
33 [label="X[17] <= 0.5\nentropy = 1.011\nsamples = 563\nvalue = [1, 0, 0, 0, 0, 217, 343, 2, 0]"] ;
5 -> 33 ;
34 [label="entropy = 0.0\nsamples = 244\nvalue = [0, 0, 0, 0, 0, 0, 244, 0, 0]"] ;
33 -> 34 ;
35 [label="X[6] <= 0.5\nentropy = 0.974\nsamples = 319\nvalue = [1, 0, 0, 0, 0, 217, 99, 2, 0]"] ;
33 -> 35 ;
36 [label="X[25] <= 0.5\nentropy = 0.793\nsamples = 118\nvalue = [1, 0, 0, 0, 0, 20, 96, 1, 0]"] ;
35 -> 36 ;
37 [label="X[21] <= 0.5\nentropy = 0.083\nsamples = 97\nvalue = [1, 0, 0, 0, 0, 0, 96, 0, 0]"] ;
36 -> 37 ;
38 [label="entropy = 0.0\nsamples = 95\nvalue = [0, 0, 0, 0, 0, 0, 95, 0, 0]"] ;
37 -> 38 ;
39 [label="entropy = 1.0\nsamples = 2\nvalue = [1, 0, 0, 0, 0, 0, 1, 0, 0]"] ;
37 -> 39 ;
40 [label="X[23] <= 0.5\nentropy = 0.276\nsamples = 21\nvalue = [0, 0, 0, 0, 0, 20, 0, 1, 0]"] ;
36 -> 40 ;
41 [label="entropy = 0.0\nsamples = 20\nvalue = [0, 0, 0, 0, 0, 20, 0, 0, 0]"] ;
40 -> 41 ;
42 [label="entropy = 0.0\nsamples = 1\nvalue = [0, 0, 0, 0, 0, 0, 0, 1, 0]"] ;
40 -> 42 ;
43 [label="X[22] <= 0.5\nentropy = 0.157\nsamples = 201\nvalue = [0, 0, 0, 0, 0, 197, 3, 1, 0]"] ;
35 -> 43 ;
44 [label="X[24] <= 0.5\nentropy = 0.126\nsamples = 200\nvalue = [0, 0, 0, 0, 0, 197, 2, 1, 0]"] ;
43 -> 44 ;
45 [label="entropy = 0.0\nsamples = 120\nvalue = [0, 0, 0, 0, 0, 120, 0, 0, 0]"] ;
44 -> 45 ;
46 [label="X[1] <= 0.5\nentropy = 0.265\nsamples = 80\nvalue = [0, 0, 0, 0, 0, 77, 2, 1, 0]"] ;
44 -> 46 ;
47 [label="entropy = 0.918\nsamples = 3\nvalue = [0, 0, 0, 0, 0, 2, 0, 1, 0]"] ;
46 -> 47 ;
48 [label="entropy = 0.174\nsamples = 77\nvalue = [0, 0, 0, 0, 0, 75, 2, 0, 0]"] ;
46 -> 48 ;
49 [label="entropy = 0.0\nsamples = 1\nvalue = [0, 0, 0, 0, 0, 0, 1, 0, 0]"] ;
43 -> 49 ;
50 [label="X[26] <= 0.5\nentropy = 0.562\nsamples = 548\nvalue = [2, 0, 0, 0, 0, 0, 19, 31, 496]"] ;
4 -> 50 ;
51 [label="X[19] <= 0.5\nentropy = 1.199\nsamples = 30\nvalue = [2, 0, 0, 0, 0, 0, 19, 9, 0]"] ;
50 -> 51 ;
52 [label="entropy = 0.0\nsamples = 19\nvalue = [0, 0, 0, 0, 0, 0, 19, 0, 0]"] ;
51 -> 52 ;
53 [label="X[3] <= 0.5\nentropy = 0.684\nsamples = 11\nvalue = [2, 0, 0, 0, 0, 0, 0, 9, 0]"] ;
51 -> 53 ;
54 [label="entropy = 0.0\nsamples = 2\nvalue = [2, 0, 0, 0, 0, 0, 0, 0, 0]"] ;
53 -> 54 ;
55 [label="entropy = 0.0\nsamples = 9\nvalue = [0, 0, 0, 0, 0, 0, 0, 9, 0]"] ;
53 -> 55 ;
56 [label="X[23] <= 0.5\nentropy = 0.254\nsamples = 518\nvalue = [0, 0, 0, 0, 0, 0, 0, 22, 496]"] ;
50 -> 56 ;
57 [label="entropy = 0.0\nsamples = 470\nvalue = [0, 0, 0, 0, 0, 0, 0, 0, 470]"] ;
56 -> 57 ;
58 [label="X[3] <= 0.5\nentropy = 0.995\nsamples = 48\nvalue = [0, 0, 0, 0, 0, 0, 0, 22, 26]"] ;
56 -> 58 ;
59 [label="X[12] <= 0.5\nentropy = 0.982\nsamples = 45\nvalue = [0, 0, 0, 0, 0, 0, 0, 19, 26]"] ;
58 -> 59 ;
60 [label="entropy = 0.0\nsamples = 3\nvalue = [0, 0, 0, 0, 0, 0, 0, 3, 0]"] ;
59 -> 60 ;
61 [label="entropy = 0.959\nsamples = 42\nvalue = [0, 0, 0, 0, 0, 0, 0, 16, 26]"] ;
59 -> 61 ;
62 [label="entropy = 0.0\nsamples = 3\nvalue = [0, 0, 0, 0, 0, 0, 0, 3, 0]"] ;
58 -> 62 ;
63 [label="X[23] <= 0.5\nentropy = 2.05\nsamples = 1153\nvalue = [73, 0, 0, 497, 0, 203, 8, 282, 90]"] ;
3 -> 63 ;
64 [label="X[17] <= 0.5\nentropy = 1.089\nsamples = 506\nvalue = [0, 0, 0, 316, 0, 179, 2, 0, 9]"] ;
63 -> 64 ;
65 [label="X[6] <= 0.5\nentropy = 0.27\nsamples = 195\nvalue = [0, 0, 0, 186, 0, 0, 0, 0, 9]"] ;
64 -> 65 ;
66 [label="entropy = 0.0\nsamples = 9\nvalue = [0, 0, 0, 0, 0, 0, 0, 0, 9]"] ;
65 -> 66 ;
67 [label="entropy = 0.0\nsamples = 186\nvalue = [0, 0, 0, 186, 0, 0, 0, 0, 0]"] ;
65 -> 67 ;
68 [label="X[25] <= 0.5\nentropy = 1.032\nsamples = 311\nvalue = [0, 0, 0, 130, 0, 179, 2, 0, 0]"] ;
64 -> 68 ;
69 [label="X[13] <= 0.5\nentropy = 1.058\nsamples = 253\nvalue = [0, 0, 0, 130, 0, 121, 2, 0, 0]"] ;
68 -> 69 ;
70 [label="X[7] <= 0.5\nentropy = 0.999\nsamples = 251\nvalue = [0, 0, 0, 130, 0, 121, 0, 0, 0]"] ;
69 -> 70 ;
71 [label="entropy = 0.0\nsamples = 2\nvalue = [0, 0, 0, 2, 0, 0, 0, 0, 0]"] ;
70 -> 71 ;
72 [label="X[18] <= 0.5\nentropy = 0.999\nsamples = 249\nvalue = [0, 0, 0, 128, 0, 121, 0, 0, 0]"] ;
70 -> 72 ;
73 [label="entropy = 1.0\nsamples = 233\nvalue = [0, 0, 0, 118, 0, 115, 0, 0, 0]"] ;
72 -> 73 ;
74 [label="entropy = 0.954\nsamples = 16\nvalue = [0, 0, 0, 10, 0, 6, 0, 0, 0]"] ;
72 -> 74 ;
75 [label="entropy = 0.0\nsamples = 2\nvalue = [0, 0, 0, 0, 0, 0, 2, 0, 0]"] ;
69 -> 75 ;
76 [label="entropy = 0.0\nsamples = 58\nvalue = [0, 0, 0, 0, 0, 58, 0, 0, 0]"] ;
68 -> 76 ;
77 [label="X[0] <= 0.5\nentropy = 2.006\nsamples = 647\nvalue = [73, 0, 0, 181, 0, 24, 6, 282, 81]"] ;
63 -> 77 ;
78 [label="X[12] <= 0.5\nentropy = 1.722\nsamples = 189\nvalue = [73, 0, 0, 9, 0, 0, 1, 29, 77]"] ;
77 -> 78 ;
79 [label="X[4] <= 0.5\nentropy = 0.375\nsamples = 82\nvalue = [0, 0, 0, 0, 0, 0, 1, 4, 77]"] ;
78 -> 79 ;
80 [label="entropy = 0.0\nsamples = 77\nvalue = [0, 0, 0, 0, 0, 0, 0, 0, 77]"] ;
79 -> 80 ;
81 [label="X[24] <= 0.5\nentropy = 0.722\nsamples = 5\nvalue = [0, 0, 0, 0, 0, 0, 1, 4, 0]"] ;
79 -> 81 ;
82 [label="entropy = 0.0\nsamples = 2\nvalue = [0, 0, 0, 0, 0, 0, 0, 2, 0]"] ;
81 -> 82 ;
83 [label="entropy = 0.918\nsamples = 3\nvalue = [0, 0, 0, 0, 0, 0, 1, 2, 0]"] ;
81 -> 83 ;
84 [label="X[2] <= 0.5\nentropy = 1.167\nsamples = 107\nvalue = [73, 0, 0, 9, 0, 0, 0, 25, 0]"] ;
78 -> 84 ;
85 [label="X[17] <= 0.5\nentropy = 0.799\nsamples = 33\nvalue = [0, 0, 0, 8, 0, 0, 0, 25, 0]"] ;
84 -> 85 ;
86 [label="entropy = 0.0\nsamples = 24\nvalue = [0, 0, 0, 0, 0, 0, 0, 24, 0]"] ;
85 -> 86 ;
87 [label="X[25] <= 0.5\nentropy = 0.503\nsamples = 9\nvalue = [0, 0, 0, 8, 0, 0, 0, 1, 0]"] ;
85 -> 87 ;
88 [label="entropy = 0.0\nsamples = 5\nvalue = [0, 0, 0, 5, 0, 0, 0, 0, 0]"] ;
87 -> 88 ;
89 [label="entropy = 0.811\nsamples = 4\nvalue = [0, 0, 0, 3, 0, 0, 0, 1, 0]"] ;
87 -> 89 ;
90 [label="X[25] <= 0.5\nentropy = 0.103\nsamples = 74\nvalue = [73, 0, 0, 1, 0, 0, 0, 0, 0]"] ;
84 -> 90 ;
91 [label="entropy = 0.0\nsamples = 73\nvalue = [73, 0, 0, 0, 0, 0, 0, 0, 0]"] ;
90 -> 91 ;
92 [label="entropy = 0.0\nsamples = 1\nvalue = [0, 0, 0, 1, 0, 0, 0, 0, 0]"] ;
90 -> 92 ;
93 [label="X[7] <= 0.5\nentropy = 1.357\nsamples = 458\nvalue = [0, 0, 0, 172, 0, 24, 5, 253, 4]"] ;
77 -> 93 ;
94 [label="X[19] <= 0.5\nentropy = 1.25\nsamples = 378\nvalue = [0, 0, 0, 95, 0, 24, 2, 253, 4]"] ;
93 -> 94 ;
95 [label="X[16] <= 0.5\nentropy = 1.287\nsamples = 358\nvalue = [0, 0, 0, 95, 0, 24, 2, 233, 4]"] ;
94 -> 95 ;
96 [label="entropy = 1.283\nsamples = 356\nvalue = [0, 0, 0, 93, 0, 24, 2, 233, 4]"] ;
95 -> 96 ;
97 [label="entropy = 0.0\nsamples = 2\nvalue = [0, 0, 0, 2, 0, 0, 0, 0, 0]"] ;
95 -> 97 ;
98 [label="entropy = 0.0\nsamples = 20\nvalue = [0, 0, 0, 0, 0, 0, 0, 20, 0]"] ;
94 -> 98 ;
99 [label="X[3] <= 0.5\nentropy = 0.231\nsamples = 80\nvalue = [0, 0, 0, 77, 0, 0, 3, 0, 0]"] ;
93 -> 99 ;
100 [label="entropy = 0.0\nsamples = 77\nvalue = [0, 0, 0, 77, 0, 0, 0, 0, 0]"] ;
99 -> 100 ;
101 [label="entropy = 0.0\nsamples = 3\nvalue = [0, 0, 0, 0, 0, 0, 3, 0, 0]"] ;
99 -> 101 ;
102 [label="X[0] <= 0.5\nentropy = 2.365\nsamples = 1742\nvalue = [42, 768, 0, 215, 0, 212, 171, 198, 136]"] ;
2 -> 102 ;
103 [label="X[7] <= 0.5\nentropy = 1.703\nsamples = 1152\nvalue = [42, 683, 0, 215, 0, 0, 1, 75, 136]"] ;
102 -> 103 ;
104 [label="X[11] <= 0.5\nentropy = 1.973\nsamples = 712\nvalue = [16, 270, 0, 215, 0, 0, 0, 75, 136]"] ;
103 -> 104 ;
105 [label="X[24] <= 0.5\nentropy = 1.31\nsamples = 261\nvalue = [0, 157, 0, 0, 0, 0, 0, 75, 29]"] ;
104 -> 105 ;
106 [label="X[13] <= 0.5\nentropy = 1.464\nsamples = 188\nvalue = [0, 84, 0, 0, 0, 0, 0, 75, 29]"] ;
105 -> 106 ;
107 [label="X[23] <= 0.5\nentropy = 1.263\nsamples = 169\nvalue = [0, 84, 0, 0, 0, 0, 0, 75, 10]"] ;
106 -> 107 ;
108 [label="entropy = 0.0\nsamples = 10\nvalue = [0, 0, 0, 0, 0, 0, 0, 0, 10]"] ;
107 -> 108 ;
109 [label="X[26] <= 0.5\nentropy = 0.998\nsamples = 159\nvalue = [0, 84, 0, 0, 0, 0, 0, 75, 0]"] ;
107 -> 109 ;
110 [label="entropy = 0.0\nsamples = 3\nvalue = [0, 0, 0, 0, 0, 0, 0, 3, 0]"] ;
109 -> 110 ;
111 [label="entropy = 0.996\nsamples = 156\nvalue = [0, 84, 0, 0, 0, 0, 0, 72, 0]"] ;
109 -> 111 ;
112 [label="entropy = 0.0\nsamples = 19\nvalue = [0, 0, 0, 0, 0, 0, 0, 0, 19]"] ;
106 -> 112 ;
113 [label="entropy = 0.0\nsamples = 73\nvalue = [0, 73, 0, 0, 0, 0, 0, 0, 0]"] ;
105 -> 113 ;
114 [label="X[19] <= 0.5\nentropy = 1.673\nsamples = 451\nvalue = [16, 113, 0, 215, 0, 0, 0, 0, 107]"] ;
104 -> 114 ;
115 [label="X[16] <= 0.5\nentropy = 1.745\nsamples = 291\nvalue = [16, 113, 0, 55, 0, 0, 0, 0, 107]"] ;
114 -> 115 ;
116 [label="X[2] <= 0.5\nentropy = 1.37\nsamples = 239\nvalue = [16, 113, 0, 3, 0, 0, 0, 0, 107]"] ;
115 -> 116 ;
117 [label="X[22] <= 0.5\nentropy = 0.912\nsamples = 156\nvalue = [0, 51, 0, 0, 0, 0, 0, 0, 105]"] ;
116 -> 117 ;
118 [label="entropy = 0.0\nsamples = 105\nvalue = [0, 0, 0, 0, 0, 0, 0, 0, 105]"] ;
117 -> 118 ;
119 [label="entropy = 0.0\nsamples = 51\nvalue = [0, 51, 0, 0, 0, 0, 0, 0, 0]"] ;
117 -> 119 ;
120 [label="entropy = 1.075\nsamples = 83\nvalue = [16, 62, 0, 3, 0, 0, 0, 0, 2]"] ;
116 -> 120 ;
121 [label="entropy = 0.0\nsamples = 52\nvalue = [0, 0, 0, 52, 0, 0, 0, 0, 0]"] ;
115 -> 121 ;
122 [label="entropy = 0.0\nsamples = 160\nvalue = [0, 0, 0, 160, 0, 0, 0, 0, 0]"] ;
114 -> 122 ;
123 [label="X[2] <= 0.5\nentropy = 0.347\nsamples = 440\nvalue = [26, 413, 0, 0, 0, 0, 1, 0, 0]"] ;
103 -> 123 ;
124 [label="X[13] <= 0.5\nentropy = 0.025\nsamples = 411\nvalue = [0, 410, 0, 0, 0, 0, 1, 0, 0]"] ;
123 -> 124 ;
125 [label="entropy = 0.0\nsamples = 410\nvalue = [0, 410, 0, 0, 0, 0, 0, 0, 0]"] ;
124 -> 125 ;
126 [label="entropy = 0.0\nsamples = 1\nvalue = [0, 0, 0, 0, 0, 0, 1, 0, 0]"] ;
124 -> 126 ;
127 [label="X[25] <= 0.5\nentropy = 0.48\nsamples = 29\nvalue = [26, 3, 0, 0, 0, 0, 0, 0, 0]"] ;
123 -> 127 ;
128 [label="entropy = 0.0\nsamples = 26\nvalue = [26, 0, 0, 0, 0, 0, 0, 0, 0]"] ;
127 -> 128 ;
129 [label="entropy = 0.0\nsamples = 3\nvalue = [0, 3, 0, 0, 0, 0, 0, 0, 0]"] ;
127 -> 129 ;
130 [label="X[20] <= 0.5\nentropy = 1.922\nsamples = 590\nvalue = [0, 85, 0, 0, 0, 212, 170, 123, 0]"] ;
102 -> 130 ;
131 [label="X[17] <= 0.5\nentropy = 1.466\nsamples = 401\nvalue = [0, 85, 0, 0, 0, 212, 0, 104, 0]"] ;
130 -> 131 ;
132 [label="X[23] <= 0.5\nentropy = 0.961\nsamples = 138\nvalue = [0, 85, 0, 0, 0, 0, 0, 53, 0]"] ;
131 -> 132 ;
133 [label="entropy = 0.0\nsamples = 85\nvalue = [0, 85, 0, 0, 0, 0, 0, 0, 0]"] ;
132 -> 133 ;
134 [label="entropy = 0.0\nsamples = 53\nvalue = [0, 0, 0, 0, 0, 0, 0, 53, 0]"] ;
132 -> 134 ;
135 [label="X[10] <= 0.5\nentropy = 0.71\nsamples = 263\nvalue = [0, 0, 0, 0, 0, 212, 0, 51, 0]"] ;
131 -> 135 ;
136 [label="entropy = 1.0\nsamples = 103\nvalue = [0, 0, 0, 0, 0, 52, 0, 51, 0]"] ;
135 -> 136 ;
137 [label="entropy = 0.0\nsamples = 160\nvalue = [0, 0, 0, 0, 0, 160, 0, 0, 0]"] ;
135 -> 137 ;
138 [label="X[12] <= 0.5\nentropy = 0.471\nsamples = 189\nvalue = [0, 0, 0, 0, 0, 0, 170, 19, 0]"] ;
130 -> 138 ;
139 [label="entropy = 0.0\nsamples = 170\nvalue = [0, 0, 0, 0, 0, 0, 170, 0, 0]"] ;
138 -> 139 ;
140 [label="entropy = 0.0\nsamples = 19\nvalue = [0, 0, 0, 0, 0, 0, 0, 19, 0]"] ;
138 -> 140 ;
141 [label="X[2] <= 0.5\nentropy = 2.614\nsamples = 1689\nvalue = [167, 146, 699, 181, 0, 117, 127, 129, 123]"] ;
1 -> 141 ;
142 [label="X[10] <= 0.5\nentropy = 2.393\nsamples = 1447\nvalue = [0, 134, 659, 174, 0, 113, 124, 125, 118]"] ;
141 -> 142 ;
143 [label="X[1] <= 0.5\nentropy = 2.125\nsamples = 1161\nvalue = [0, 59, 621, 174, 0, 43, 85, 64, 115]"] ;
142 -> 143 ;
144 [label="X[12] <= 0.5\nentropy = 1.596\nsamples = 578\nvalue = [0, 8, 404, 30, 0, 37, 55, 30, 14]"] ;
143 -> 144 ;
145 [label="X[4] <= 0.5\nentropy = 1.381\nsamples = 542\nvalue = [0, 4, 404, 30, 0, 8, 52, 30, 14]"] ;
144 -> 145 ;
146 [label="X[20] <= 0.5\nentropy = 1.238\nsamples = 505\nvalue = [0, 4, 392, 26, 0, 7, 52, 10, 14]"] ;
145 -> 146 ;
147 [label="entropy = 0.0\nsamples = 50\nvalue = [0, 0, 50, 0, 0, 0, 0, 0, 0]"] ;
146 -> 147 ;
148 [label="X[22] <= 0.5\nentropy = 1.331\nsamples = 455\nvalue = [0, 4, 342, 26, 0, 7, 52, 10, 14]"] ;
146 -> 148 ;
149 [label="X[16] <= 0.5\nentropy = 1.319\nsamples = 454\nvalue = [0, 3, 342, 26, 0, 7, 52, 10, 14]"] ;
148 -> 149 ;
150 [label="entropy = 1.317\nsamples = 451\nvalue = [0, 3, 340, 25, 0, 7, 52, 10, 14]"] ;
149 -> 150 ;
151 [label="entropy = 0.918\nsamples = 3\nvalue = [0, 0, 2, 1, 0, 0, 0, 0, 0]"] ;
149 -> 151 ;
152 [label="entropy = 0.0\nsamples = 1\nvalue = [0, 1, 0, 0, 0, 0, 0, 0, 0]"] ;
148 -> 152 ;
153 [label="X[21] <= 0.5\nentropy = 1.494\nsamples = 37\nvalue = [0, 0, 12, 4, 0, 1, 0, 20, 0]"] ;
145 -> 153 ;
154 [label="X[26] <= 0.5\nentropy = 0.276\nsamples = 21\nvalue = [0, 0, 0, 0, 0, 1, 0, 20, 0]"] ;
153 -> 154 ;
155 [label="X[20] <= 0.5\nentropy = 0.592\nsamples = 7\nvalue = [0, 0, 0, 0, 0, 1, 0, 6, 0]"] ;
154 -> 155 ;
156 [label="entropy = 0.0\nsamples = 1\nvalue = [0, 0, 0, 0, 0, 0, 0, 1, 0]"] ;
155 -> 156 ;
157 [label="entropy = 0.65\nsamples = 6\nvalue = [0, 0, 0, 0, 0, 1, 0, 5, 0]"] ;
155 -> 157 ;
158 [label="entropy = 0.0\nsamples = 14\nvalue = [0, 0, 0, 0, 0, 0, 0, 14, 0]"] ;
154 -> 158 ;
159 [label="X[20] <= 0.5\nentropy = 0.811\nsamples = 16\nvalue = [0, 0, 12, 4, 0, 0, 0, 0, 0]"] ;
153 -> 159 ;
160 [label="entropy = 0.0\nsamples = 12\nvalue = [0, 0, 12, 0, 0, 0, 0, 0, 0]"] ;
159 -> 160 ;
161 [label="entropy = 0.0\nsamples = 4\nvalue = [0, 0, 0, 4, 0, 0, 0, 0, 0]"] ;
159 -> 161 ;
162 [label="X[16] <= 0.5\nentropy = 0.902\nsamples = 36\nvalue = [0, 4, 0, 0, 0, 29, 3, 0, 0]"] ;
144 -> 162 ;
163 [label="entropy = 0.0\nsamples = 29\nvalue = [0, 0, 0, 0, 0, 29, 0, 0, 0]"] ;
162 -> 163 ;
164 [label="X[5] <= 0.5\nentropy = 0.985\nsamples = 7\nvalue = [0, 4, 0, 0, 0, 0, 3, 0, 0]"] ;
162 -> 164 ;
165 [label="entropy = 0.0\nsamples = 3\nvalue = [0, 0, 0, 0, 0, 0, 3, 0, 0]"] ;
164 -> 165 ;
166 [label="entropy = 0.0\nsamples = 4\nvalue = [0, 4, 0, 0, 0, 0, 0, 0, 0]"] ;
164 -> 166 ;
167 [label="X[11] <= 0.5\nentropy = 2.302\nsamples = 583\nvalue = [0, 51, 217, 144, 0, 6, 30, 34, 101]"] ;
143 -> 167 ;
168 [label="X[5] <= 0.5\nentropy = 1.887\nsamples = 232\nvalue = [0, 31, 122, 0, 0, 1, 7, 31, 40]"] ;
167 -> 168 ;
169 [label="X[3] <= 0.5\nentropy = 1.131\nsamples = 153\nvalue = [0, 0, 112, 0, 0, 0, 7, 4, 30]"] ;
168 -> 169 ;
170 [label="X[18] <= 0.5\nentropy = 0.3\nsamples = 75\nvalue = [0, 0, 71, 0, 0, 0, 0, 4, 0]"] ;
169 -> 170 ;
171 [label="entropy = 0.0\nsamples = 67\nvalue = [0, 0, 67, 0, 0, 0, 0, 0, 0]"] ;
170 -> 171 ;
172 [label="entropy = 1.0\nsamples = 8\nvalue = [0, 0, 4, 0, 0, 0, 0, 4, 0]"] ;
170 -> 172 ;
173 [label="X[26] <= 0.5\nentropy = 1.33\nsamples = 78\nvalue = [0, 0, 41, 0, 0, 0, 7, 0, 30]"] ;
169 -> 173 ;
174 [label="entropy = 0.0\nsamples = 37\nvalue = [0, 0, 37, 0, 0, 0, 0, 0, 0]"] ;
173 -> 174 ;
175 [label="X[19] <= 0.5\nentropy = 1.093\nsamples = 41\nvalue = [0, 0, 4, 0, 0, 0, 7, 0, 30]"] ;
173 -> 175 ;
176 [label="X[13] <= 0.5\nentropy = 1.549\nsamples = 17\nvalue = [0, 0, 4, 0, 0, 0, 7, 0, 6]"] ;
175 -> 176 ;
177 [label="entropy = 0.946\nsamples = 11\nvalue = [0, 0, 4, 0, 0, 0, 7, 0, 0]"] ;
176 -> 177 ;
178 [label="entropy = 0.0\nsamples = 6\nvalue = [0, 0, 0, 0, 0, 0, 0, 0, 6]"] ;
176 -> 178 ;
179 [label="entropy = 0.0\nsamples = 24\nvalue = [0, 0, 0, 0, 0, 0, 0, 0, 24]"] ;
175 -> 179 ;
180 [label="X[19] <= 0.5\nentropy = 1.894\nsamples = 79\nvalue = [0, 31, 10, 0, 0, 1, 0, 27, 10]"] ;
168 -> 180 ;
181 [label="X[13] <= 0.5\nentropy = 2.053\nsamples = 31\nvalue = [0, 6, 10, 0, 0, 1, 0, 4, 10]"] ;
180 -> 181 ;
182 [label="X[26] <= 0.5\nentropy = 1.638\nsamples = 19\nvalue = [0, 5, 10, 0, 0, 1, 0, 3, 0]"] ;
181 -> 182 ;
183 [label="X[23] <= 0.5\nentropy = 1.459\nsamples = 6\nvalue = [0, 0, 2, 0, 0, 1, 0, 3, 0]"] ;
182 -> 183 ;
184 [label="entropy = 1.0\nsamples = 2\nvalue = [0, 0, 1, 0, 0, 1, 0, 0, 0]"] ;
183 -> 184 ;
185 [label="entropy = 0.811\nsamples = 4\nvalue = [0, 0, 1, 0, 0, 0, 0, 3, 0]"] ;
183 -> 185 ;
186 [label="entropy = 0.961\nsamples = 13\nvalue = [0, 5, 8, 0, 0, 0, 0, 0, 0]"] ;
182 -> 186 ;
187 [label="X[18] <= 0.5\nentropy = 0.817\nsamples = 12\nvalue = [0, 1, 0, 0, 0, 0, 0, 1, 10]"] ;
181 -> 187 ;
188 [label="entropy = 0.0\nsamples = 2\nvalue = [0, 0, 0, 0, 0, 0, 0, 0, 2]"] ;
187 -> 188 ;
189 [label="entropy = 0.922\nsamples = 10\nvalue = [0, 1, 0, 0, 0, 0, 0, 1, 8]"] ;
187 -> 189 ;
190 [label="X[26] <= 0.5\nentropy = 0.999\nsamples = 48\nvalue = [0, 25, 0, 0, 0, 0, 0, 23, 0]"] ;
180 -> 190 ;
191 [label="entropy = 0.0\nsamples = 1\nvalue = [0, 1, 0, 0, 0, 0, 0, 0, 0]"] ;
190 -> 191 ;
192 [label="entropy = 1.0\nsamples = 47\nvalue = [0, 24, 0, 0, 0, 0, 0, 23, 0]"] ;
190 -> 192 ;
193 [label="X[20] <= 0.5\nentropy = 2.116\nsamples = 351\nvalue = [0, 20, 95, 144, 0, 5, 23, 3, 61]"] ;
167 -> 193 ;
194 [label="X[19] <= 0.5\nentropy = 1.096\nsamples = 182\nvalue = [0, 0, 3, 119, 0, 0, 0, 2, 58]"] ;
193 -> 194 ;
195 [label="X[26] <= 0.5\nentropy = 1.226\nsamples = 92\nvalue = [0, 0, 3, 29, 0, 0, 0, 2, 58]"] ;
194 -> 195 ;
196 [label="X[15] <= 0.5\nentropy = 0.745\nsamples = 34\nvalue = [0, 0, 3, 29, 0, 0, 0, 2, 0]"] ;
195 -> 196 ;
197 [label="X[24] <= 0.5\nentropy = 0.211\nsamples = 30\nvalue = [0, 0, 1, 29, 0, 0, 0, 0, 0]"] ;
196 -> 197 ;
198 [label="entropy = 0.0\nsamples = 1\nvalue = [0, 0, 1, 0, 0, 0, 0, 0, 0]"] ;
197 -> 198 ;
199 [label="entropy = 0.0\nsamples = 29\nvalue = [0, 0, 0, 29, 0, 0, 0, 0, 0]"] ;
197 -> 199 ;
200 [label="entropy = 1.0\nsamples = 4\nvalue = [0, 0, 2, 0, 0, 0, 0, 2, 0]"] ;
196 -> 200 ;
201 [label="entropy = 0.0\nsamples = 58\nvalue = [0, 0, 0, 0, 0, 0, 0, 0, 58]"] ;
195 -> 201 ;
202 [label="entropy = 0.0\nsamples = 90\nvalue = [0, 0, 0, 90, 0, 0, 0, 0, 0]"] ;
194 -> 202 ;
203 [label="X[3] <= 0.5\nentropy = 1.939\nsamples = 169\nvalue = [0, 20, 92, 25, 0, 5, 23, 1, 3]"] ;
193 -> 203 ;
204 [label="X[17] <= 0.5\nentropy = 1.624\nsamples = 146\nvalue = [0, 20, 91, 19, 0, 1, 14, 1, 0]"] ;
203 -> 204 ;
205 [label="entropy = 0.0\nsamples = 7\nvalue = [0, 0, 0, 0, 0, 0, 7, 0, 0]"] ;
204 -> 205 ;
206 [label="X[26] <= 0.5\nentropy = 1.515\nsamples = 139\nvalue = [0, 20, 91, 19, 0, 1, 7, 1, 0]"] ;
204 -> 206 ;
207 [label="entropy = 1.706\nsamples = 15\nvalue = [0, 6, 2, 6, 0, 0, 1, 0, 0]"] ;
206 -> 207 ;
208 [label="X[23] <= 0.5\nentropy = 1.363\nsamples = 124\nvalue = [0, 14, 89, 13, 0, 1, 6, 1, 0]"] ;
206 -> 208 ;
209 [label="entropy = 0.0\nsamples = 11\nvalue = [0, 0, 11, 0, 0, 0, 0, 0, 0]"] ;
208 -> 209 ;
210 [label="X[5] <= 0.5\nentropy = 1.447\nsamples = 113\nvalue = [0, 14, 78, 13, 0, 1, 6, 1, 0]"] ;
208 -> 210 ;
211 [label="entropy = 0.0\nsamples = 3\nvalue = [0, 0, 3, 0, 0, 0, 0, 0, 0]"] ;
210 -> 211 ;
212 [label="entropy = 1.472\nsamples = 110\nvalue = [0, 14, 75, 13, 0, 1, 6, 1, 0]"] ;
210 -> 212 ;
213 [label="X[12] <= 0.5\nentropy = 2.054\nsamples = 23\nvalue = [0, 0, 1, 6, 0, 4, 9, 0, 3]"] ;
203 -> 213 ;
214 [label="entropy = 0.0\nsamples = 3\nvalue = [0, 0, 0, 0, 0, 0, 0, 0, 3]"] ;
213 -> 214 ;
215 [label="X[26] <= 0.5\nentropy = 1.72\nsamples = 20\nvalue = [0, 0, 1, 6, 0, 4, 9, 0, 0]"] ;
213 -> 215 ;
216 [label="X[17] <= 0.5\nentropy = 0.65\nsamples = 6\nvalue = [0, 0, 0, 0, 0, 1, 5, 0, 0]"] ;
215 -> 216 ;
217 [label="entropy = 0.0\nsamples = 1\nvalue = [0, 0, 0, 0, 0, 0, 1, 0, 0]"] ;
216 -> 217 ;
218 [label="entropy = 0.722\nsamples = 5\nvalue = [0, 0, 0, 0, 0, 1, 4, 0, 0]"] ;
216 -> 218 ;
219 [label="entropy = 1.788\nsamples = 14\nvalue = [0, 0, 1, 6, 0, 3, 4, 0, 0]"] ;
215 -> 219 ;
220 [label="X[4] <= 0.5\nentropy = 2.327\nsamples = 286\nvalue = [0, 75, 38, 0, 0, 70, 39, 61, 3]"] ;
142 -> 220 ;
221 [label="X[0] <= 0.5\nentropy = 1.754\nsamples = 180\nvalue = [0, 75, 3, 0, 0, 64, 34, 2, 2]"] ;
220 -> 221 ;
222 [label="entropy = 0.0\nsamples = 34\nvalue = [0, 0, 0, 0, 0, 0, 34, 0, 0]"] ;
221 -> 222 ;
223 [label="X[17] <= 0.5\nentropy = 1.3\nsamples = 146\nvalue = [0, 75, 3, 0, 0, 64, 0, 2, 2]"] ;
221 -> 223 ;
224 [label="entropy = 0.0\nsamples = 27\nvalue = [0, 27, 0, 0, 0, 0, 0, 0, 0]"] ;
223 -> 224 ;
225 [label="X[20] <= 0.5\nentropy = 1.342\nsamples = 119\nvalue = [0, 48, 3, 0, 0, 64, 0, 2, 2]"] ;
223 -> 225 ;
226 [label="X[19] <= 0.5\nentropy = 1.125\nsamples = 96\nvalue = [0, 47, 0, 0, 0, 47, 0, 0, 2]"] ;
225 -> 226 ;
227 [label="entropy = 1.073\nsamples = 87\nvalue = [0, 39, 0, 0, 0, 47, 0, 0, 1]"] ;
226 -> 227 ;
228 [label="X[25] <= 0.5\nentropy = 0.503\nsamples = 9\nvalue = [0, 8, 0, 0, 0, 0, 0, 0, 1]"] ;
226 -> 228 ;
229 [label="entropy = 0.0\nsamples = 1\nvalue = [0, 0, 0, 0, 0, 0, 0, 0, 1]"] ;
228 -> 229 ;
230 [label="entropy = 0.0\nsamples = 8\nvalue = [0, 8, 0, 0, 0, 0, 0, 0, 0]"] ;
228 -> 230 ;
231 [label="X[24] <= 0.5\nentropy = 1.209\nsamples = 23\nvalue = [0, 1, 3, 0, 0, 17, 0, 2, 0]"] ;
225 -> 231 ;
232 [label="X[12] <= 0.5\nentropy = 0.978\nsamples = 17\nvalue = [0, 1, 3, 0, 0, 13, 0, 0, 0]"] ;
231 -> 232 ;
233 [label="entropy = 0.868\nsamples = 16\nvalue = [0, 1, 2, 0, 0, 13, 0, 0, 0]"] ;
232 -> 233 ;
234 [label="entropy = 0.0\nsamples = 1\nvalue = [0, 0, 1, 0, 0, 0, 0, 0, 0]"] ;
232 -> 234 ;
235 [label="entropy = 0.918\nsamples = 6\nvalue = [0, 0, 0, 0, 0, 4, 0, 2, 0]"] ;
231 -> 235 ;
236 [label="X[23] <= 0.5\nentropy = 1.504\nsamples = 106\nvalue = [0, 0, 35, 0, 0, 6, 5, 59, 1]"] ;
220 -> 236 ;
237 [label="X[20] <= 0.5\nentropy = 0.639\nsamples = 37\nvalue = [0, 0, 31, 0, 0, 6, 0, 0, 0]"] ;
236 -> 237 ;
238 [label="entropy = 0.0\nsamples = 31\nvalue = [0, 0, 31, 0, 0, 0, 0, 0, 0]"] ;
237 -> 238 ;
239 [label="entropy = 0.0\nsamples = 6\nvalue = [0, 0, 0, 0, 0, 6, 0, 0, 0]"] ;
237 -> 239 ;
240 [label="X[15] <= 0.5\nentropy = 0.794\nsamples = 69\nvalue = [0, 0, 4, 0, 0, 0, 5, 59, 1]"] ;
236 -> 240 ;
241 [label="X[20] <= 0.5\nentropy = 1.677\nsamples = 11\nvalue = [0, 0, 4, 0, 0, 0, 5, 1, 1]"] ;
240 -> 241 ;
242 [label="X[17] <= 0.5\nentropy = 1.371\nsamples = 5\nvalue = [0, 0, 3, 0, 0, 0, 0, 1, 1]"] ;
241 -> 242 ;
243 [label="entropy = 0.0\nsamples = 3\nvalue = [0, 0, 3, 0, 0, 0, 0, 0, 0]"] ;
242 -> 243 ;
244 [label="X[12] <= 0.5\nentropy = 1.0\nsamples = 2\nvalue = [0, 0, 0, 0, 0, 0, 0, 1, 1]"] ;
242 -> 244 ;
245 [label="entropy = 0.0\nsamples = 1\nvalue = [0, 0, 0, 0, 0, 0, 0, 1, 0]"] ;
244 -> 245 ;
246 [label="entropy = 0.0\nsamples = 1\nvalue = [0, 0, 0, 0, 0, 0, 0, 0, 1]"] ;
244 -> 246 ;
247 [label="entropy = 0.65\nsamples = 6\nvalue = [0, 0, 1, 0, 0, 0, 5, 0, 0]"] ;
241 -> 247 ;
248 [label="entropy = 0.0\nsamples = 58\nvalue = [0, 0, 0, 0, 0, 0, 0, 58, 0]"] ;
240 -> 248 ;
249 [label="X[9] <= 0.5\nentropy = 1.551\nsamples = 242\nvalue = [167, 12, 40, 7, 0, 4, 3, 4, 5]"] ;
141 -> 249 ;
250 [label="X[3] <= 0.5\nentropy = 1.188\nsamples = 208\nvalue = [163, 11, 21, 7, 0, 3, 1, 0, 2]"] ;
249 -> 250 ;
251 [label="X[20] <= 0.5\nentropy = 1.011\nsamples = 195\nvalue = [163, 11, 8, 7, 0, 3, 1, 0, 2]"] ;
250 -> 251 ;
252 [label="X[26] <= 0.5\nentropy = 1.674\nsamples = 73\nvalue = [48, 6, 7, 7, 0, 3, 0, 0, 2]"] ;
251 -> 252 ;
253 [label="X[17] <= 0.5\nentropy = 1.585\nsamples = 6\nvalue = [0, 2, 0, 2, 0, 2, 0, 0, 0]"] ;
252 -> 253 ;
254 [label="entropy = 0.0\nsamples = 2\nvalue = [0, 2, 0, 0, 0, 0, 0, 0, 0]"] ;
253 -> 254 ;
255 [label="X[11] <= 0.5\nentropy = 1.0\nsamples = 4\nvalue = [0, 0, 0, 2, 0, 2, 0, 0, 0]"] ;
253 -> 255 ;
256 [label="entropy = 0.0\nsamples = 2\nvalue = [0, 0, 0, 0, 0, 2, 0, 0, 0]"] ;
255 -> 256 ;
257 [label="entropy = 0.0\nsamples = 2\nvalue = [0, 0, 0, 2, 0, 0, 0, 0, 0]"] ;
255 -> 257 ;
258 [label="X[19] <= 0.5\nentropy = 1.449\nsamples = 67\nvalue = [48, 4, 7, 5, 0, 1, 0, 0, 2]"] ;
252 -> 258 ;
259 [label="entropy = 1.666\nsamples = 54\nvalue = [35, 4, 7, 5, 0, 1, 0, 0, 2]"] ;
258 -> 259 ;
260 [label="entropy = 0.0\nsamples = 13\nvalue = [13, 0, 0, 0, 0, 0, 0, 0, 0]"] ;
258 -> 260 ;
261 [label="X[26] <= 0.5\nentropy = 0.383\nsamples = 122\nvalue = [115, 5, 1, 0, 0, 0, 1, 0, 0]"] ;
251 -> 261 ;
262 [label="X[10] <= 0.5\nentropy = 1.371\nsamples = 5\nvalue = [1, 3, 1, 0, 0, 0, 0, 0, 0]"] ;
261 -> 262 ;
263 [label="entropy = 1.0\nsamples = 2\nvalue = [1, 0, 1, 0, 0, 0, 0, 0, 0]"] ;
262 -> 263 ;
264 [label="entropy = 0.0\nsamples = 3\nvalue = [0, 3, 0, 0, 0, 0, 0, 0, 0]"] ;
262 -> 264 ;
265 [label="X[15] <= 0.5\nentropy = 0.196\nsamples = 117\nvalue = [114, 2, 0, 0, 0, 0, 1, 0, 0]"] ;
261 -> 265 ;
266 [label="entropy = 0.0\nsamples = 114\nvalue = [114, 0, 0, 0, 0, 0, 0, 0, 0]"] ;
265 -> 266 ;
267 [label="entropy = 0.918\nsamples = 3\nvalue = [0, 2, 0, 0, 0, 0, 1, 0, 0]"] ;
265 -> 267 ;
268 [label="entropy = 0.0\nsamples = 13\nvalue = [0, 0, 13, 0, 0, 0, 0, 0, 0]"] ;
250 -> 268 ;
269 [label="X[26] <= 0.5\nentropy = 2.044\nsamples = 34\nvalue = [4, 1, 19, 0, 0, 1, 2, 4, 3]"] ;
249 -> 269 ;
270 [label="X[23] <= 0.5\nentropy = 0.985\nsamples = 7\nvalue = [0, 0, 3, 0, 0, 0, 0, 4, 0]"] ;
269 -> 270 ;
271 [label="entropy = 0.0\nsamples = 2\nvalue = [0, 0, 2, 0, 0, 0, 0, 0, 0]"] ;
270 -> 271 ;
272 [label="X[12] <= 0.5\nentropy = 0.722\nsamples = 5\nvalue = [0, 0, 1, 0, 0, 0, 0, 4, 0]"] ;
270 -> 272 ;
273 [label="entropy = 0.918\nsamples = 3\nvalue = [0, 0, 1, 0, 0, 0, 0, 2, 0]"] ;
272 -> 273 ;
274 [label="entropy = 0.0\nsamples = 2\nvalue = [0, 0, 0, 0, 0, 0, 0, 2, 0]"] ;
272 -> 274 ;
275 [label="entropy = 1.838\nsamples = 27\nvalue = [4, 1, 16, 0, 0, 1, 2, 0, 3]"] ;
269 -> 275 ;
276 [label="X[2] <= 0.5\nentropy = 2.132\nsamples = 2360\nvalue = [710, 55, 266, 48, 1000, 18, 222, 30, 11]"] ;
0 -> 276 [labeldistance=2.5, labelangle=-45, headlabel="False"] ;
277 [label="X[18] <= 0.5\nentropy = 1.313\nsamples = 921\nvalue = [0, 42, 52, 13, 710, 9, 70, 23, 2]"] ;
276 -> 277 ;
278 [label="X[6] <= 0.5\nentropy = 0.793\nsamples = 806\nvalue = [0, 14, 7, 11, 698, 1, 70, 4, 1]"] ;
277 -> 278 ;
279 [label="X[26] <= 0.5\nentropy = 0.44\nsamples = 661\nvalue = [0, 9, 7, 5, 622, 1, 17, 0, 0]"] ;
278 -> 279 ;
280 [label="X[0] <= 0.5\nentropy = 1.873\nsamples = 19\nvalue = [0, 3, 5, 3, 0, 0, 8, 0, 0]"] ;
279 -> 280 ;
281 [label="X[20] <= 0.5\nentropy = 1.571\nsamples = 10\nvalue = [0, 3, 4, 3, 0, 0, 0, 0, 0]"] ;
280 -> 281 ;
282 [label="entropy = 0.0\nsamples = 3\nvalue = [0, 0, 0, 3, 0, 0, 0, 0, 0]"] ;
281 -> 282 ;
283 [label="entropy = 0.985\nsamples = 7\nvalue = [0, 3, 4, 0, 0, 0, 0, 0, 0]"] ;
281 -> 283 ;
284 [label="X[19] <= 0.5\nentropy = 0.503\nsamples = 9\nvalue = [0, 0, 1, 0, 0, 0, 8, 0, 0]"] ;
280 -> 284 ;
285 [label="entropy = 0.0\nsamples = 8\nvalue = [0, 0, 0, 0, 0, 0, 8, 0, 0]"] ;
284 -> 285 ;
286 [label="entropy = 0.0\nsamples = 1\nvalue = [0, 0, 1, 0, 0, 0, 0, 0, 0]"] ;
284 -> 286 ;
287 [label="X[21] <= 0.5\nentropy = 0.26\nsamples = 642\nvalue = [0, 6, 2, 2, 622, 1, 9, 0, 0]"] ;
279 -> 287 ;
288 [label="X[15] <= 0.5\nentropy = 0.185\nsamples = 635\nvalue = [0, 6, 2, 1, 622, 1, 3, 0, 0]"] ;
287 -> 288 ;
289 [label="X[9] <= 0.5\nentropy = 0.129\nsamples = 629\nvalue = [0, 6, 0, 1, 620, 1, 1, 0, 0]"] ;
288 -> 289 ;
290 [label="X[3] <= 0.5\nentropy = 0.066\nsamples = 621\nvalue = [0, 2, 0, 1, 617, 1, 0, 0, 0]"] ;
289 -> 290 ;
291 [label="X[17] <= 0.5\nentropy = 0.031\nsamples = 617\nvalue = [0, 2, 0, 0, 615, 0, 0, 0, 0]"] ;
290 -> 291 ;
292 [label="X[19] <= 0.5\nentropy = 0.863\nsamples = 7\nvalue = [0, 2, 0, 0, 5, 0, 0, 0, 0]"] ;
291 -> 292 ;
293 [label="entropy = 0.0\nsamples = 3\nvalue = [0, 0, 0, 0, 3, 0, 0, 0, 0]"] ;
292 -> 293 ;
294 [label="entropy = 1.0\nsamples = 4\nvalue = [0, 2, 0, 0, 2, 0, 0, 0, 0]"] ;
292 -> 294 ;
295 [label="entropy = 0.0\nsamples = 610\nvalue = [0, 0, 0, 0, 610, 0, 0, 0, 0]"] ;
291 -> 295 ;
296 [label="X[16] <= 0.5\nentropy = 1.5\nsamples = 4\nvalue = [0, 0, 0, 1, 2, 1, 0, 0, 0]"] ;
290 -> 296 ;
297 [label="entropy = 1.0\nsamples = 2\nvalue = [0, 0, 0, 1, 0, 1, 0, 0, 0]"] ;
296 -> 297 ;
298 [label="entropy = 0.0\nsamples = 2\nvalue = [0, 0, 0, 0, 2, 0, 0, 0, 0]"] ;
296 -> 298 ;
299 [label="entropy = 1.406\nsamples = 8\nvalue = [0, 4, 0, 0, 3, 0, 1, 0, 0]"] ;
289 -> 299 ;
300 [label="entropy = 1.585\nsamples = 6\nvalue = [0, 0, 2, 0, 2, 0, 2, 0, 0]"] ;
288 -> 300 ;
301 [label="entropy = 0.592\nsamples = 7\nvalue = [0, 0, 0, 1, 0, 0, 6, 0, 0]"] ;
287 -> 301 ;
302 [label="X[26] <= 0.5\nentropy = 1.569\nsamples = 145\nvalue = [0, 5, 0, 6, 76, 0, 53, 4, 1]"] ;
278 -> 302 ;
303 [label="X[9] <= 0.5\nentropy = 1.788\nsamples = 14\nvalue = [0, 1, 0, 6, 3, 0, 0, 4, 0]"] ;
302 -> 303 ;
304 [label="X[1] <= 0.5\nentropy = 0.592\nsamples = 7\nvalue = [0, 0, 0, 6, 0, 0, 0, 1, 0]"] ;
303 -> 304 ;
305 [label="X[16] <= 0.5\nentropy = 1.0\nsamples = 2\nvalue = [0, 0, 0, 1, 0, 0, 0, 1, 0]"] ;
304 -> 305 ;
306 [label="entropy = 0.0\nsamples = 1\nvalue = [0, 0, 0, 0, 0, 0, 0, 1, 0]"] ;
305 -> 306 ;
307 [label="entropy = 0.0\nsamples = 1\nvalue = [0, 0, 0, 1, 0, 0, 0, 0, 0]"] ;
305 -> 307 ;
308 [label="entropy = 0.0\nsamples = 5\nvalue = [0, 0, 0, 5, 0, 0, 0, 0, 0]"] ;
304 -> 308 ;
309 [label="X[4] <= 0.5\nentropy = 1.449\nsamples = 7\nvalue = [0, 1, 0, 0, 3, 0, 0, 3, 0]"] ;
303 -> 309 ;
310 [label="entropy = 1.371\nsamples = 5\nvalue = [0, 1, 0, 0, 1, 0, 0, 3, 0]"] ;
309 -> 310 ;
311 [label="entropy = 0.0\nsamples = 2\nvalue = [0, 0, 0, 0, 2, 0, 0, 0, 0]"] ;
309 -> 311 ;
312 [label="entropy = 1.206\nsamples = 131\nvalue = [0, 4, 0, 0, 73, 0, 53, 0, 1]"] ;
302 -> 312 ;
313 [label="X[26] <= 0.5\nentropy = 2.224\nsamples = 115\nvalue = [0, 28, 45, 2, 12, 8, 0, 19, 1]"] ;
277 -> 313 ;
314 [label="X[4] <= 0.5\nentropy = 1.522\nsamples = 15\nvalue = [0, 3, 0, 0, 6, 6, 0, 0, 0]"] ;
313 -> 314 ;
315 [label="X[15] <= 0.5\nentropy = 1.435\nsamples = 11\nvalue = [0, 3, 0, 0, 2, 6, 0, 0, 0]"] ;
314 -> 315 ;
316 [label="X[1] <= 0.5\nentropy = 0.592\nsamples = 7\nvalue = [0, 1, 0, 0, 0, 6, 0, 0, 0]"] ;
315 -> 316 ;
317 [label="entropy = 0.0\nsamples = 5\nvalue = [0, 0, 0, 0, 0, 5, 0, 0, 0]"] ;
316 -> 317 ;
318 [label="X[5] <= 0.5\nentropy = 1.0\nsamples = 2\nvalue = [0, 1, 0, 0, 0, 1, 0, 0, 0]"] ;
316 -> 318 ;
319 [label="entropy = 0.0\nsamples = 1\nvalue = [0, 0, 0, 0, 0, 1, 0, 0, 0]"] ;
318 -> 319 ;
320 [label="entropy = 0.0\nsamples = 1\nvalue = [0, 1, 0, 0, 0, 0, 0, 0, 0]"] ;
318 -> 320 ;
321 [label="X[0] <= 0.5\nentropy = 1.0\nsamples = 4\nvalue = [0, 2, 0, 0, 2, 0, 0, 0, 0]"] ;
315 -> 321 ;
322 [label="entropy = 0.0\nsamples = 1\nvalue = [0, 0, 0, 0, 1, 0, 0, 0, 0]"] ;
321 -> 322 ;
323 [label="entropy = 0.918\nsamples = 3\nvalue = [0, 2, 0, 0, 1, 0, 0, 0, 0]"] ;
321 -> 323 ;
324 [label="entropy = 0.0\nsamples = 4\nvalue = [0, 0, 0, 0, 4, 0, 0, 0, 0]"] ;
314 -> 324 ;
325 [label="X[15] <= 0.5\nentropy = 2.009\nsamples = 100\nvalue = [0, 25, 45, 2, 6, 2, 0, 19, 1]"] ;
313 -> 325 ;
326 [label="entropy = 2.026\nsamples = 98\nvalue = [0, 25, 43, 2, 6, 2, 0, 19, 1]"] ;
325 -> 326 ;
327 [label="entropy = 0.0\nsamples = 2\nvalue = [0, 0, 2, 0, 0, 0, 0, 0, 0]"] ;
325 -> 327 ;
328 [label="X[7] <= 0.5\nentropy = 2.041\nsamples = 1439\nvalue = [710, 13, 214, 35, 290, 9, 152, 7, 9]"] ;
276 -> 328 ;
329 [label="X[20] <= 0.5\nentropy = 2.121\nsamples = 1225\nvalue = [579, 13, 214, 35, 207, 9, 152, 7, 9]"] ;
328 -> 329 ;
330 [label="entropy = 0.939\nsamples = 152\nvalue = [98, 0, 0, 0, 54, 0, 0, 0, 0]"] ;
329 -> 330 ;
331 [label="X[10] <= 0.5\nentropy = 2.184\nsamples = 1073\nvalue = [481, 13, 214, 35, 153, 9, 152, 7, 9]"] ;
329 -> 331 ;
332 [label="X[4] <= 0.5\nentropy = 2.173\nsamples = 1038\nvalue = [473, 13, 214, 35, 126, 9, 152, 7, 9]"] ;
331 -> 332 ;
333 [label="X[16] <= 0.5\nentropy = 2.165\nsamples = 1025\nvalue = [471, 13, 214, 35, 115, 9, 152, 7, 9]"] ;
332 -> 333 ;
334 [label="X[22] <= 0.5\nentropy = 2.168\nsamples = 1016\nvalue = [465, 13, 214, 35, 112, 9, 152, 7, 9]"] ;
333 -> 334 ;
335 [label="X[26] <= 0.5\nentropy = 2.175\nsamples = 1009\nvalue = [458, 13, 214, 35, 112, 9, 152, 7, 9]"] ;
334 -> 335 ;
336 [label="entropy = 0.764\nsamples = 9\nvalue = [7, 0, 0, 0, 2, 0, 0, 0, 0]"] ;
335 -> 336 ;
337 [label="entropy = 2.181\nsamples = 1000\nvalue = [451, 13, 214, 35, 110, 9, 152, 7, 9]"] ;
335 -> 337 ;
338 [label="entropy = 0.0\nsamples = 7\nvalue = [7, 0, 0, 0, 0, 0, 0, 0, 0]"] ;
334 -> 338 ;
339 [label="entropy = 0.918\nsamples = 9\nvalue = [6, 0, 0, 0, 3, 0, 0, 0, 0]"] ;
333 -> 339 ;
340 [label="entropy = 0.619\nsamples = 13\nvalue = [2, 0, 0, 0, 11, 0, 0, 0, 0]"] ;
332 -> 340 ;
341 [label="entropy = 0.776\nsamples = 35\nvalue = [8, 0, 0, 0, 27, 0, 0, 0, 0]"] ;
331 -> 341 ;
342 [label="entropy = 0.963\nsamples = 214\nvalue = [131, 0, 0, 0, 83, 0, 0, 0, 0]"] ;
328 -> 342 ;
}