digraph Tree {
node [shape=box] ;
0 [label="X[2] <= 0.5\nentropy = 3.169\nsamples = 8598\nvalue = [996, 951, 957, 937, 1000, 940, 919, 951, 947]"] ;
1 [label="X[5] <= 0.5\nentropy = 2.959\nsamples = 6414\nvalue = [0, 911, 893, 722, 363, 865, 860, 893, 907]"] ;
0 -> 1 [labeldistance=2.5, labelangle=45, headlabel="True"] ;
2 [label="X[23] <= 0.5\nentropy = 2.491\nsamples = 3008\nvalue = [0, 0, 268, 279, 31, 551, 301, 794, 784]"] ;
1 -> 2 ;
3 [label="X[17] <= 0.5\nentropy = 2.089\nsamples = 1768\nvalue = [0, 0, 201, 176, 6, 457, 187, 0, 741]"] ;
2 -> 3 ;
4 [label="X[20] <= 0.5\nentropy = 1.667\nsamples = 1054\nvalue = [0, 0, 193, 83, 3, 0, 183, 0, 592]"] ;
3 -> 4 ;
5 [label="X[8] <= 0.5\nentropy = 0.972\nsamples = 743\nvalue = [0, 0, 72, 80, 3, 0, 0, 0, 588]"] ;
4 -> 5 ;
6 [label="X[11] <= 0.5\nentropy = 0.568\nsamples = 671\nvalue = [0, 0, 0, 80, 3, 0, 0, 0, 588]"] ;
5 -> 6 ;
7 [label="X[14] <= 0.5\nentropy = 0.047\nsamples = 577\nvalue = [0, 0, 0, 0, 3, 0, 0, 0, 574]"] ;
6 -> 7 ;
8 [label="entropy = 0.0\nsamples = 574\nvalue = [0, 0, 0, 0, 0, 0, 0, 0, 574]"] ;
7 -> 8 ;
9 [label="entropy = 0.0\nsamples = 3\nvalue = [0, 0, 0, 0, 3, 0, 0, 0, 0]"] ;
7 -> 9 ;
10 [label="X[6] <= 0.5\nentropy = 0.607\nsamples = 94\nvalue = [0, 0, 0, 80, 0, 0, 0, 0, 14]"] ;
6 -> 10 ;
11 [label="X[26] <= 0.5\nentropy = 0.353\nsamples = 15\nvalue = [0, 0, 0, 1, 0, 0, 0, 0, 14]"] ;
10 -> 11 ;
12 [label="entropy = 0.0\nsamples = 1\nvalue = [0, 0, 0, 1, 0, 0, 0, 0, 0]"] ;
11 -> 12 ;
13 [label="entropy = 0.0\nsamples = 14\nvalue = [0, 0, 0, 0, 0, 0, 0, 0, 14]"] ;
11 -> 13 ;
14 [label="entropy = 0.0\nsamples = 79\nvalue = [0, 0, 0, 79, 0, 0, 0, 0, 0]"] ;
10 -> 14 ;
15 [label="entropy = 0.0\nsamples = 72\nvalue = [0, 0, 72, 0, 0, 0, 0, 0, 0]"] ;
5 -> 15 ;
16 [label="X[8] <= 0.5\nentropy = 1.125\nsamples = 311\nvalue = [0, 0, 121, 3, 0, 0, 183, 0, 4]"] ;
4 -> 16 ;
17 [label="X[12] <= 0.5\nentropy = 0.316\nsamples = 128\nvalue = [0, 0, 0, 2, 0, 0, 122, 0, 4]"] ;
16 -> 17 ;
18 [label="X[11] <= 0.5\nentropy = 0.121\nsamples = 122\nvalue = [0, 0, 0, 2, 0, 0, 120, 0, 0]"] ;
17 -> 18 ;
19 [label="entropy = 0.0\nsamples = 120\nvalue = [0, 0, 0, 0, 0, 0, 120, 0, 0]"] ;
18 -> 19 ;
20 [label="entropy = 0.0\nsamples = 2\nvalue = [0, 0, 0, 2, 0, 0, 0, 0, 0]"] ;
18 -> 20 ;
21 [label="X[15] <= 0.5\nentropy = 0.918\nsamples = 6\nvalue = [0, 0, 0, 0, 0, 0, 2, 0, 4]"] ;
17 -> 21 ;
22 [label="entropy = 0.0\nsamples = 4\nvalue = [0, 0, 0, 0, 0, 0, 0, 0, 4]"] ;
21 -> 22 ;
23 [label="entropy = 0.0\nsamples = 2\nvalue = [0, 0, 0, 0, 0, 0, 2, 0, 0]"] ;
21 -> 23 ;
24 [label="X[4] <= 0.5\nentropy = 0.964\nsamples = 183\nvalue = [0, 0, 121, 1, 0, 0, 61, 0, 0]"] ;
16 -> 24 ;
25 [label="X[26] <= 0.5\nentropy = 0.965\nsamples = 156\nvalue = [0, 0, 95, 0, 0, 0, 61, 0, 0]"] ;
24 -> 25 ;
26 [label="entropy = 0.0\nsamples = 21\nvalue = [0, 0, 21, 0, 0, 0, 0, 0, 0]"] ;
25 -> 26 ;
27 [label="X[9] <= 0.5\nentropy = 0.993\nsamples = 135\nvalue = [0, 0, 74, 0, 0, 0, 61, 0, 0]"] ;
25 -> 27 ;
28 [label="entropy = 0.0\nsamples = 1\nvalue = [0, 0, 0, 0, 0, 0, 1, 0, 0]"] ;
27 -> 28 ;
29 [label="entropy = 0.992\nsamples = 134\nvalue = [0, 0, 74, 0, 0, 0, 60, 0, 0]"] ;
27 -> 29 ;
30 [label="X[1] <= 0.5\nentropy = 0.229\nsamples = 27\nvalue = [0, 0, 26, 1, 0, 0, 0, 0, 0]"] ;
24 -> 30 ;
31 [label="entropy = 0.0\nsamples = 1\nvalue = [0, 0, 0, 1, 0, 0, 0, 0, 0]"] ;
30 -> 31 ;
32 [label="entropy = 0.0\nsamples = 26\nvalue = [0, 0, 26, 0, 0, 0, 0, 0, 0]"] ;
30 -> 32 ;
33 [label="X[11] <= 0.5\nentropy = 1.414\nsamples = 714\nvalue = [0, 0, 8, 93, 3, 457, 4, 0, 149]"] ;
3 -> 33 ;
34 [label="X[1] <= 0.5\nentropy = 0.979\nsamples = 543\nvalue = [0, 0, 6, 0, 2, 386, 1, 0, 148]"] ;
33 -> 34 ;
35 [label="X[14] <= 0.5\nentropy = 0.1\nsamples = 263\nvalue = [0, 0, 0, 0, 2, 260, 1, 0, 0]"] ;
34 -> 35 ;
36 [label="X[21] <= 0.5\nentropy = 0.036\nsamples = 261\nvalue = [0, 0, 0, 0, 0, 260, 1, 0, 0]"] ;
35 -> 36 ;
37 [label="X[7] <= 0.5\nentropy = 0.592\nsamples = 7\nvalue = [0, 0, 0, 0, 0, 6, 1, 0, 0]"] ;
36 -> 37 ;
38 [label="entropy = 0.0\nsamples = 1\nvalue = [0, 0, 0, 0, 0, 0, 1, 0, 0]"] ;
37 -> 38 ;
39 [label="entropy = 0.0\nsamples = 6\nvalue = [0, 0, 0, 0, 0, 6, 0, 0, 0]"] ;
37 -> 39 ;
40 [label="entropy = 0.0\nsamples = 254\nvalue = [0, 0, 0, 0, 0, 254, 0, 0, 0]"] ;
36 -> 40 ;
41 [label="entropy = 0.0\nsamples = 2\nvalue = [0, 0, 0, 0, 2, 0, 0, 0, 0]"] ;
35 -> 41 ;
42 [label="X[7] <= 0.5\nentropy = 1.123\nsamples = 280\nvalue = [0, 0, 6, 0, 0, 126, 0, 0, 148]"] ;
34 -> 42 ;
43 [label="entropy = 0.0\nsamples = 6\nvalue = [0, 0, 6, 0, 0, 0, 0, 0, 0]"] ;
42 -> 43 ;
44 [label="X[10] <= 0.5\nentropy = 0.995\nsamples = 274\nvalue = [0, 0, 0, 0, 0, 126, 0, 0, 148]"] ;
42 -> 44 ;
45 [label="entropy = 0.0\nsamples = 12\nvalue = [0, 0, 0, 0, 0, 12, 0, 0, 0]"] ;
44 -> 45 ;
46 [label="X[26] <= 0.5\nentropy = 0.988\nsamples = 262\nvalue = [0, 0, 0, 0, 0, 114, 0, 0, 148]"] ;
44 -> 46 ;
47 [label="entropy = 0.0\nsamples = 2\nvalue = [0, 0, 0, 0, 0, 2, 0, 0, 0]"] ;
46 -> 47 ;
48 [label="entropy = 0.986\nsamples = 260\nvalue = [0, 0, 0, 0, 0, 112, 0, 0, 148]"] ;
46 -> 48 ;
49 [label="X[20] <= 0.5\nentropy = 1.269\nsamples = 171\nvalue = [0, 0, 2, 93, 1, 71, 3, 0, 1]"] ;
33 -> 49 ;
50 [label="X[24] <= 0.5\nentropy = 1.048\nsamples = 148\nvalue = [0, 0, 0, 79, 1, 68, 0, 0, 0]"] ;
49 -> 50 ;
51 [label="X[26] <= 0.5\nentropy = 0.997\nsamples = 145\nvalue = [0, 0, 0, 77, 0, 68, 0, 0, 0]"] ;
50 -> 51 ;
52 [label="entropy = 0.0\nsamples = 3\nvalue = [0, 0, 0, 0, 0, 3, 0, 0, 0]"] ;
51 -> 52 ;
53 [label="X[19] <= 0.5\nentropy = 0.995\nsamples = 142\nvalue = [0, 0, 0, 77, 0, 65, 0, 0, 0]"] ;
51 -> 53 ;
54 [label="entropy = 0.996\nsamples = 140\nvalue = [0, 0, 0, 75, 0, 65, 0, 0, 0]"] ;
53 -> 54 ;
55 [label="entropy = 0.0\nsamples = 2\nvalue = [0, 0, 0, 2, 0, 0, 0, 0, 0]"] ;
53 -> 55 ;
56 [label="X[14] <= 0.5\nentropy = 0.918\nsamples = 3\nvalue = [0, 0, 0, 2, 1, 0, 0, 0, 0]"] ;
50 -> 56 ;
57 [label="entropy = 0.0\nsamples = 1\nvalue = [0, 0, 0, 1, 0, 0, 0, 0, 0]"] ;
56 -> 57 ;
58 [label="entropy = 1.0\nsamples = 2\nvalue = [0, 0, 0, 1, 1, 0, 0, 0, 0]"] ;
56 -> 58 ;
59 [label="X[0] <= 0.5\nentropy = 1.706\nsamples = 23\nvalue = [0, 0, 2, 14, 0, 3, 3, 0, 1]"] ;
49 -> 59 ;
60 [label="X[4] <= 0.5\nentropy = 1.319\nsamples = 20\nvalue = [0, 0, 2, 14, 0, 3, 0, 0, 1]"] ;
59 -> 60 ;
61 [label="X[7] <= 0.5\nentropy = 0.944\nsamples = 18\nvalue = [0, 0, 0, 14, 0, 3, 0, 0, 1]"] ;
60 -> 61 ;
62 [label="entropy = 0.817\nsamples = 12\nvalue = [0, 0, 0, 10, 0, 1, 0, 0, 1]"] ;
61 -> 62 ;
63 [label="entropy = 0.918\nsamples = 6\nvalue = [0, 0, 0, 4, 0, 2, 0, 0, 0]"] ;
61 -> 63 ;
64 [label="entropy = 0.0\nsamples = 2\nvalue = [0, 0, 2, 0, 0, 0, 0, 0, 0]"] ;
60 -> 64 ;
65 [label="entropy = 0.0\nsamples = 3\nvalue = [0, 0, 0, 0, 0, 0, 3, 0, 0]"] ;
59 -> 65 ;
66 [label="X[0] <= 0.5\nentropy = 1.818\nsamples = 1240\nvalue = [0, 0, 67, 103, 25, 94, 114, 794, 43]"] ;
2 -> 66 ;
67 [label="X[10] <= 0.5\nentropy = 2.441\nsamples = 327\nvalue = [0, 0, 64, 14, 7, 22, 87, 90, 43]"] ;
66 -> 67 ;
68 [label="X[8] <= 0.5\nentropy = 2.279\nsamples = 240\nvalue = [0, 0, 64, 14, 7, 10, 12, 90, 43]"] ;
67 -> 68 ;
69 [label="X[16] <= 0.5\nentropy = 1.963\nsamples = 115\nvalue = [0, 0, 0, 7, 2, 10, 10, 57, 29]"] ;
68 -> 69 ;
70 [label="X[19] <= 0.5\nentropy = 2.235\nsamples = 40\nvalue = [0, 0, 0, 7, 2, 10, 4, 2, 15]"] ;
69 -> 70 ;
71 [label="X[9] <= 0.5\nentropy = 1.125\nsamples = 21\nvalue = [0, 0, 0, 0, 0, 0, 4, 2, 15]"] ;
70 -> 71 ;
72 [label="X[18] <= 0.5\nentropy = 0.523\nsamples = 17\nvalue = [0, 0, 0, 0, 0, 0, 0, 2, 15]"] ;
71 -> 72 ;
73 [label="entropy = 0.0\nsamples = 13\nvalue = [0, 0, 0, 0, 0, 0, 0, 0, 13]"] ;
72 -> 73 ;
74 [label="entropy = 1.0\nsamples = 4\nvalue = [0, 0, 0, 0, 0, 0, 0, 2, 2]"] ;
72 -> 74 ;
75 [label="entropy = 0.0\nsamples = 4\nvalue = [0, 0, 0, 0, 0, 0, 4, 0, 0]"] ;
71 -> 75 ;
76 [label="X[11] <= 0.5\nentropy = 1.36\nsamples = 19\nvalue = [0, 0, 0, 7, 2, 10, 0, 0, 0]"] ;
70 -> 76 ;
77 [label="entropy = 0.0\nsamples = 10\nvalue = [0, 0, 0, 0, 0, 10, 0, 0, 0]"] ;
76 -> 77 ;
78 [label="X[14] <= 0.5\nentropy = 0.764\nsamples = 9\nvalue = [0, 0, 0, 7, 2, 0, 0, 0, 0]"] ;
76 -> 78 ;
79 [label="entropy = 0.0\nsamples = 5\nvalue = [0, 0, 0, 5, 0, 0, 0, 0, 0]"] ;
78 -> 79 ;
80 [label="entropy = 1.0\nsamples = 4\nvalue = [0, 0, 0, 2, 2, 0, 0, 0, 0]"] ;
78 -> 80 ;
81 [label="X[4] <= 0.5\nentropy = 1.072\nsamples = 75\nvalue = [0, 0, 0, 0, 0, 0, 6, 55, 14]"] ;
69 -> 81 ;
82 [label="entropy = 0.0\nsamples = 40\nvalue = [0, 0, 0, 0, 0, 0, 0, 40, 0]"] ;
81 -> 82 ;
83 [label="X[19] <= 0.5\nentropy = 1.489\nsamples = 35\nvalue = [0, 0, 0, 0, 0, 0, 6, 15, 14]"] ;
81 -> 83 ;
84 [label="entropy = 0.0\nsamples = 6\nvalue = [0, 0, 0, 0, 0, 0, 6, 0, 0]"] ;
83 -> 84 ;
85 [label="X[26] <= 0.5\nentropy = 0.999\nsamples = 29\nvalue = [0, 0, 0, 0, 0, 0, 0, 15, 14]"] ;
83 -> 85 ;
86 [label="entropy = 0.0\nsamples = 6\nvalue = [0, 0, 0, 0, 0, 0, 0, 6, 0]"] ;
85 -> 86 ;
87 [label="entropy = 0.966\nsamples = 23\nvalue = [0, 0, 0, 0, 0, 0, 0, 9, 14]"] ;
85 -> 87 ;
88 [label="X[3] <= 0.5\nentropy = 1.87\nsamples = 125\nvalue = [0, 0, 64, 7, 5, 0, 2, 33, 14]"] ;
68 -> 88 ;
89 [label="X[13] <= 0.5\nentropy = 0.948\nsamples = 90\nvalue = [0, 0, 57, 0, 0, 0, 0, 33, 0]"] ;
88 -> 89 ;
90 [label="entropy = 0.0\nsamples = 47\nvalue = [0, 0, 47, 0, 0, 0, 0, 0, 0]"] ;
89 -> 90 ;
91 [label="X[11] <= 0.5\nentropy = 0.782\nsamples = 43\nvalue = [0, 0, 10, 0, 0, 0, 0, 33, 0]"] ;
89 -> 91 ;
92 [label="X[17] <= 0.5\nentropy = 0.614\nsamples = 33\nvalue = [0, 0, 5, 0, 0, 0, 0, 28, 0]"] ;
91 -> 92 ;
93 [label="entropy = 0.706\nsamples = 26\nvalue = [0, 0, 5, 0, 0, 0, 0, 21, 0]"] ;
92 -> 93 ;
94 [label="entropy = 0.0\nsamples = 7\nvalue = [0, 0, 0, 0, 0, 0, 0, 7, 0]"] ;
92 -> 94 ;
95 [label="entropy = 1.0\nsamples = 10\nvalue = [0, 0, 5, 0, 0, 0, 0, 5, 0]"] ;
91 -> 95 ;
96 [label="X[26] <= 0.5\nentropy = 2.095\nsamples = 35\nvalue = [0, 0, 7, 7, 5, 0, 2, 0, 14]"] ;
88 -> 96 ;
97 [label="X[11] <= 0.5\nentropy = 0.996\nsamples = 13\nvalue = [0, 0, 7, 6, 0, 0, 0, 0, 0]"] ;
96 -> 97 ;
98 [label="entropy = 0.0\nsamples = 7\nvalue = [0, 0, 7, 0, 0, 0, 0, 0, 0]"] ;
97 -> 98 ;
99 [label="entropy = 0.0\nsamples = 6\nvalue = [0, 0, 0, 6, 0, 0, 0, 0, 0]"] ;
97 -> 99 ;
100 [label="X[13] <= 0.5\nentropy = 1.418\nsamples = 22\nvalue = [0, 0, 0, 1, 5, 0, 2, 0, 14]"] ;
96 -> 100 ;
101 [label="entropy = 1.299\nsamples = 8\nvalue = [0, 0, 0, 1, 5, 0, 2, 0, 0]"] ;
100 -> 101 ;
102 [label="entropy = 0.0\nsamples = 14\nvalue = [0, 0, 0, 0, 0, 0, 0, 0, 14]"] ;
100 -> 102 ;
103 [label="X[6] <= 0.5\nentropy = 0.579\nsamples = 87\nvalue = [0, 0, 0, 0, 0, 12, 75, 0, 0]"] ;
67 -> 103 ;
104 [label="entropy = 0.0\nsamples = 74\nvalue = [0, 0, 0, 0, 0, 0, 74, 0, 0]"] ;
103 -> 104 ;
105 [label="entropy = 0.391\nsamples = 13\nvalue = [0, 0, 0, 0, 0, 12, 1, 0, 0]"] ;
103 -> 105 ;
106 [label="X[19] <= 0.5\nentropy = 1.195\nsamples = 913\nvalue = [0, 0, 3, 89, 18, 72, 27, 704, 0]"] ;
66 -> 106 ;
107 [label="X[15] <= 0.5\nentropy = 1.883\nsamples = 392\nvalue = [0, 0, 3, 89, 11, 66, 27, 196, 0]"] ;
106 -> 107 ;
108 [label="X[11] <= 0.5\nentropy = 2.009\nsamples = 215\nvalue = [0, 0, 3, 89, 6, 66, 26, 25, 0]"] ;
107 -> 108 ;
109 [label="X[14] <= 0.5\nentropy = 1.626\nsamples = 84\nvalue = [0, 0, 3, 0, 6, 52, 16, 7, 0]"] ;
108 -> 109 ;
110 [label="X[18] <= 0.5\nentropy = 1.352\nsamples = 78\nvalue = [0, 0, 3, 0, 0, 52, 16, 7, 0]"] ;
109 -> 110 ;
111 [label="X[6] <= 0.5\nentropy = 1.754\nsamples = 43\nvalue = [0, 0, 3, 0, 0, 17, 16, 7, 0]"] ;
110 -> 111 ;
112 [label="X[12] <= 0.5\nentropy = 1.273\nsamples = 25\nvalue = [0, 0, 3, 0, 0, 6, 16, 0, 0]"] ;
111 -> 112 ;
113 [label="entropy = 0.954\nsamples = 16\nvalue = [0, 0, 0, 0, 0, 6, 10, 0, 0]"] ;
112 -> 113 ;
114 [label="entropy = 0.918\nsamples = 9\nvalue = [0, 0, 3, 0, 0, 0, 6, 0, 0]"] ;
112 -> 114 ;
115 [label="entropy = 0.964\nsamples = 18\nvalue = [0, 0, 0, 0, 0, 11, 0, 7, 0]"] ;
111 -> 115 ;
116 [label="entropy = 0.0\nsamples = 35\nvalue = [0, 0, 0, 0, 0, 35, 0, 0, 0]"] ;
110 -> 116 ;
117 [label="entropy = 0.0\nsamples = 6\nvalue = [0, 0, 0, 0, 6, 0, 0, 0, 0]"] ;
109 -> 117 ;
118 [label="X[8] <= 0.5\nentropy = 1.4\nsamples = 131\nvalue = [0, 0, 0, 89, 0, 14, 10, 18, 0]"] ;
108 -> 118 ;
119 [label="X[14] <= 0.5\nentropy = 1.187\nsamples = 116\nvalue = [0, 0, 0, 87, 0, 14, 9, 6, 0]"] ;
118 -> 119 ;
120 [label="X[4] <= 0.5\nentropy = 1.085\nsamples = 112\nvalue = [0, 0, 0, 87, 0, 14, 5, 6, 0]"] ;
119 -> 120 ;
121 [label="entropy = 0.0\nsamples = 3\nvalue = [0, 0, 0, 0, 0, 0, 3, 0, 0]"] ;
120 -> 121 ;
122 [label="X[26] <= 0.5\nentropy = 0.976\nsamples = 109\nvalue = [0, 0, 0, 87, 0, 14, 2, 6, 0]"] ;
120 -> 122 ;
123 [label="entropy = 0.0\nsamples = 17\nvalue = [0, 0, 0, 17, 0, 0, 0, 0, 0]"] ;
122 -> 123 ;
124 [label="X[17] <= 0.5\nentropy = 1.09\nsamples = 92\nvalue = [0, 0, 0, 70, 0, 14, 2, 6, 0]"] ;
122 -> 124 ;
125 [label="entropy = 0.0\nsamples = 8\nvalue = [0, 0, 0, 8, 0, 0, 0, 0, 0]"] ;
124 -> 125 ;
126 [label="entropy = 1.155\nsamples = 84\nvalue = [0, 0, 0, 62, 0, 14, 2, 6, 0]"] ;
124 -> 126 ;
127 [label="entropy = 0.0\nsamples = 4\nvalue = [0, 0, 0, 0, 0, 0, 4, 0, 0]"] ;
119 -> 127 ;
128 [label="X[26] <= 0.5\nentropy = 0.906\nsamples = 15\nvalue = [0, 0, 0, 2, 0, 0, 1, 12, 0]"] ;
118 -> 128 ;
129 [label="entropy = 0.0\nsamples = 1\nvalue = [0, 0, 0, 0, 0, 0, 1, 0, 0]"] ;
128 -> 129 ;
130 [label="entropy = 0.592\nsamples = 14\nvalue = [0, 0, 0, 2, 0, 0, 0, 12, 0]"] ;
128 -> 130 ;
131 [label="X[13] <= 0.5\nentropy = 0.236\nsamples = 177\nvalue = [0, 0, 0, 0, 5, 0, 1, 171, 0]"] ;
107 -> 131 ;
132 [label="entropy = 0.65\nsamples = 6\nvalue = [0, 0, 0, 0, 5, 0, 0, 1, 0]"] ;
131 -> 132 ;
133 [label="X[26] <= 0.5\nentropy = 0.052\nsamples = 171\nvalue = [0, 0, 0, 0, 0, 0, 1, 170, 0]"] ;
131 -> 133 ;
134 [label="X[18] <= 0.5\nentropy = 0.353\nsamples = 15\nvalue = [0, 0, 0, 0, 0, 0, 1, 14, 0]"] ;
133 -> 134 ;
135 [label="entropy = 0.0\nsamples = 1\nvalue = [0, 0, 0, 0, 0, 0, 1, 0, 0]"] ;
134 -> 135 ;
136 [label="entropy = 0.0\nsamples = 14\nvalue = [0, 0, 0, 0, 0, 0, 0, 14, 0]"] ;
134 -> 136 ;
137 [label="entropy = 0.0\nsamples = 156\nvalue = [0, 0, 0, 0, 0, 0, 0, 156, 0]"] ;
133 -> 137 ;
138 [label="X[6] <= 0.5\nentropy = 0.193\nsamples = 521\nvalue = [0, 0, 0, 0, 7, 6, 0, 508, 0]"] ;
106 -> 138 ;
139 [label="X[14] <= 0.5\nentropy = 1.581\nsamples = 20\nvalue = [0, 0, 0, 0, 7, 6, 0, 7, 0]"] ;
138 -> 139 ;
140 [label="X[11] <= 0.5\nentropy = 0.996\nsamples = 13\nvalue = [0, 0, 0, 0, 0, 6, 0, 7, 0]"] ;
139 -> 140 ;
141 [label="X[8] <= 0.5\nentropy = 0.544\nsamples = 8\nvalue = [0, 0, 0, 0, 0, 1, 0, 7, 0]"] ;
140 -> 141 ;
142 [label="entropy = 0.0\nsamples = 1\nvalue = [0, 0, 0, 0, 0, 1, 0, 0, 0]"] ;
141 -> 142 ;
143 [label="entropy = 0.0\nsamples = 7\nvalue = [0, 0, 0, 0, 0, 0, 0, 7, 0]"] ;
141 -> 143 ;
144 [label="entropy = 0.0\nsamples = 5\nvalue = [0, 0, 0, 0, 0, 5, 0, 0, 0]"] ;
140 -> 144 ;
145 [label="entropy = 0.0\nsamples = 7\nvalue = [0, 0, 0, 0, 7, 0, 0, 0, 0]"] ;
139 -> 145 ;
146 [label="entropy = 0.0\nsamples = 501\nvalue = [0, 0, 0, 0, 0, 0, 0, 501, 0]"] ;
138 -> 146 ;
147 [label="X[12] <= 0.5\nentropy = 2.734\nsamples = 3406\nvalue = [0, 911, 625, 443, 332, 314, 559, 99, 123]"] ;
1 -> 147 ;
148 [label="X[14] <= 0.5\nentropy = 2.645\nsamples = 1787\nvalue = [0, 162, 561, 139, 332, 303, 154, 21, 115]"] ;
147 -> 148 ;
149 [label="X[19] <= 0.5\nentropy = 2.27\nsamples = 1251\nvalue = [0, 139, 527, 96, 0, 282, 92, 7, 108]"] ;
148 -> 149 ;
150 [label="X[10] <= 0.5\nentropy = 2.491\nsamples = 824\nvalue = [0, 136, 103, 96, 0, 282, 92, 7, 108]"] ;
149 -> 150 ;
151 [label="X[1] <= 0.5\nentropy = 2.213\nsamples = 346\nvalue = [0, 23, 85, 96, 0, 3, 29, 3, 107]"] ;
150 -> 151 ;
152 [label="X[8] <= 0.5\nentropy = 1.676\nsamples = 215\nvalue = [0, 2, 84, 94, 0, 3, 29, 3, 0]"] ;
151 -> 152 ;
153 [label="entropy = 0.0\nsamples = 10\nvalue = [0, 0, 0, 0, 0, 0, 10, 0, 0]"] ;
152 -> 153 ;
154 [label="X[23] <= 0.5\nentropy = 1.605\nsamples = 205\nvalue = [0, 2, 84, 94, 0, 3, 19, 3, 0]"] ;
152 -> 154 ;
155 [label="entropy = 0.971\nsamples = 5\nvalue = [0, 2, 0, 0, 0, 0, 3, 0, 0]"] ;
154 -> 155 ;
156 [label="X[25] <= 0.5\nentropy = 1.511\nsamples = 200\nvalue = [0, 0, 84, 94, 0, 3, 16, 3, 0]"] ;
154 -> 156 ;
157 [label="X[17] <= 0.5\nentropy = 1.478\nsamples = 196\nvalue = [0, 0, 83, 94, 0, 3, 13, 3, 0]"] ;
156 -> 157 ;
158 [label="entropy = 0.932\nsamples = 23\nvalue = [0, 0, 8, 15, 0, 0, 0, 0, 0]"] ;
157 -> 158 ;
159 [label="entropy = 1.523\nsamples = 173\nvalue = [0, 0, 75, 79, 0, 3, 13, 3, 0]"] ;
157 -> 159 ;
160 [label="entropy = 0.811\nsamples = 4\nvalue = [0, 0, 1, 0, 0, 0, 3, 0, 0]"] ;
156 -> 160 ;
161 [label="X[26] <= 0.5\nentropy = 0.808\nsamples = 131\nvalue = [0, 21, 1, 2, 0, 0, 0, 0, 107]"] ;
151 -> 161 ;
162 [label="X[23] <= 0.5\nentropy = 0.426\nsamples = 23\nvalue = [0, 21, 0, 2, 0, 0, 0, 0, 0]"] ;
161 -> 162 ;
163 [label="entropy = 0.0\nsamples = 21\nvalue = [0, 21, 0, 0, 0, 0, 0, 0, 0]"] ;
162 -> 163 ;
164 [label="entropy = 0.0\nsamples = 2\nvalue = [0, 0, 0, 2, 0, 0, 0, 0, 0]"] ;
162 -> 164 ;
165 [label="X[15] <= 0.5\nentropy = 0.076\nsamples = 108\nvalue = [0, 0, 1, 0, 0, 0, 0, 0, 107]"] ;
161 -> 165 ;
166 [label="entropy = 0.0\nsamples = 68\nvalue = [0, 0, 0, 0, 0, 0, 0, 0, 68]"] ;
165 -> 166 ;
167 [label="X[9] <= 0.5\nentropy = 0.169\nsamples = 40\nvalue = [0, 0, 1, 0, 0, 0, 0, 0, 39]"] ;
165 -> 167 ;
168 [label="entropy = 0.0\nsamples = 13\nvalue = [0, 0, 0, 0, 0, 0, 0, 0, 13]"] ;
167 -> 168 ;
169 [label="entropy = 0.229\nsamples = 27\nvalue = [0, 0, 1, 0, 0, 0, 0, 0, 26]"] ;
167 -> 169 ;
170 [label="X[15] <= 0.5\nentropy = 1.585\nsamples = 478\nvalue = [0, 113, 18, 0, 0, 279, 63, 4, 1]"] ;
150 -> 170 ;
171 [label="X[20] <= 0.5\nentropy = 1.033\nsamples = 355\nvalue = [0, 49, 18, 0, 0, 279, 8, 0, 1]"] ;
170 -> 171 ;
172 [label="X[7] <= 0.5\nentropy = 0.97\nsamples = 46\nvalue = [0, 33, 0, 0, 0, 12, 0, 0, 1]"] ;
171 -> 172 ;
173 [label="X[0] <= 0.5\nentropy = 0.49\nsamples = 36\nvalue = [0, 33, 0, 0, 0, 2, 0, 0, 1]"] ;
172 -> 173 ;
174 [label="entropy = 0.0\nsamples = 1\nvalue = [0, 0, 0, 0, 0, 0, 0, 0, 1]"] ;
173 -> 174 ;
175 [label="X[22] <= 0.5\nentropy = 0.316\nsamples = 35\nvalue = [0, 33, 0, 0, 0, 2, 0, 0, 0]"] ;
173 -> 175 ;
176 [label="X[26] <= 0.5\nentropy = 0.402\nsamples = 25\nvalue = [0, 23, 0, 0, 0, 2, 0, 0, 0]"] ;
175 -> 176 ;
177 [label="entropy = 0.0\nsamples = 3\nvalue = [0, 3, 0, 0, 0, 0, 0, 0, 0]"] ;
176 -> 177 ;
178 [label="entropy = 0.439\nsamples = 22\nvalue = [0, 20, 0, 0, 0, 2, 0, 0, 0]"] ;
176 -> 178 ;
179 [label="entropy = 0.0\nsamples = 10\nvalue = [0, 10, 0, 0, 0, 0, 0, 0, 0]"] ;
175 -> 179 ;
180 [label="entropy = 0.0\nsamples = 10\nvalue = [0, 0, 0, 0, 0, 10, 0, 0, 0]"] ;
172 -> 180 ;
181 [label="X[1] <= 0.5\nentropy = 0.779\nsamples = 309\nvalue = [0, 16, 18, 0, 0, 267, 8, 0, 0]"] ;
171 -> 181 ;
182 [label="entropy = 0.626\nsamples = 298\nvalue = [0, 16, 18, 0, 0, 264, 0, 0, 0]"] ;
181 -> 182 ;
183 [label="entropy = 0.845\nsamples = 11\nvalue = [0, 0, 0, 0, 0, 3, 8, 0, 0]"] ;
181 -> 183 ;
184 [label="X[23] <= 0.5\nentropy = 1.17\nsamples = 123\nvalue = [0, 64, 0, 0, 0, 0, 55, 4, 0]"] ;
170 -> 184 ;
185 [label="entropy = 0.0\nsamples = 61\nvalue = [0, 61, 0, 0, 0, 0, 0, 0, 0]"] ;
184 -> 185 ;
186 [label="X[26] <= 0.5\nentropy = 0.62\nsamples = 62\nvalue = [0, 3, 0, 0, 0, 0, 55, 4, 0]"] ;
184 -> 186 ;
187 [label="X[20] <= 0.5\nentropy = 0.985\nsamples = 7\nvalue = [0, 3, 0, 0, 0, 0, 0, 4, 0]"] ;
186 -> 187 ;
188 [label="entropy = 0.918\nsamples = 6\nvalue = [0, 2, 0, 0, 0, 0, 0, 4, 0]"] ;
187 -> 188 ;
189 [label="entropy = 0.0\nsamples = 1\nvalue = [0, 1, 0, 0, 0, 0, 0, 0, 0]"] ;
187 -> 189 ;
190 [label="entropy = 0.0\nsamples = 55\nvalue = [0, 0, 0, 0, 0, 0, 55, 0, 0]"] ;
186 -> 190 ;
191 [label="X[24] <= 0.5\nentropy = 0.06\nsamples = 427\nvalue = [0, 3, 424, 0, 0, 0, 0, 0, 0]"] ;
149 -> 191 ;
192 [label="entropy = 0.0\nsamples = 424\nvalue = [0, 0, 424, 0, 0, 0, 0, 0, 0]"] ;
191 -> 192 ;
193 [label="entropy = 0.0\nsamples = 3\nvalue = [0, 3, 0, 0, 0, 0, 0, 0, 0]"] ;
191 -> 193 ;
194 [label="X[26] <= 0.5\nentropy = 1.93\nsamples = 536\nvalue = [0, 23, 34, 43, 332, 21, 62, 14, 7]"] ;
148 -> 194 ;
195 [label="X[1] <= 0.5\nentropy = 2.74\nsamples = 141\nvalue = [0, 17, 29, 25, 18, 17, 25, 10, 0]"] ;
194 -> 195 ;
196 [label="X[10] <= 0.5\nentropy = 1.91\nsamples = 59\nvalue = [0, 2, 13, 0, 3, 17, 24, 0, 0]"] ;
195 -> 196 ;
197 [label="X[17] <= 0.5\nentropy = 0.663\nsamples = 29\nvalue = [0, 0, 5, 0, 0, 0, 24, 0, 0]"] ;
196 -> 197 ;
198 [label="entropy = 0.0\nsamples = 4\nvalue = [0, 0, 4, 0, 0, 0, 0, 0, 0]"] ;
197 -> 198 ;
199 [label="X[19] <= 0.5\nentropy = 0.242\nsamples = 25\nvalue = [0, 0, 1, 0, 0, 0, 24, 0, 0]"] ;
197 -> 199 ;
200 [label="entropy = 0.0\nsamples = 24\nvalue = [0, 0, 0, 0, 0, 0, 24, 0, 0]"] ;
199 -> 200 ;
201 [label="entropy = 0.0\nsamples = 1\nvalue = [0, 0, 1, 0, 0, 0, 0, 0, 0]"] ;
199 -> 201 ;
202 [label="X[7] <= 0.5\nentropy = 1.565\nsamples = 30\nvalue = [0, 2, 8, 0, 3, 17, 0, 0, 0]"] ;
196 -> 202 ;
203 [label="entropy = 0.0\nsamples = 8\nvalue = [0, 0, 8, 0, 0, 0, 0, 0, 0]"] ;
202 -> 203 ;
204 [label="X[17] <= 0.5\nentropy = 0.994\nsamples = 22\nvalue = [0, 2, 0, 0, 3, 17, 0, 0, 0]"] ;
202 -> 204 ;
205 [label="entropy = 0.971\nsamples = 5\nvalue = [0, 2, 0, 0, 3, 0, 0, 0, 0]"] ;
204 -> 205 ;
206 [label="entropy = 0.0\nsamples = 17\nvalue = [0, 0, 0, 0, 0, 17, 0, 0, 0]"] ;
204 -> 206 ;
207 [label="X[19] <= 0.5\nentropy = 2.327\nsamples = 82\nvalue = [0, 15, 16, 25, 15, 0, 1, 10, 0]"] ;
195 -> 207 ;
208 [label="X[8] <= 0.5\nentropy = 2.018\nsamples = 34\nvalue = [0, 8, 16, 1, 3, 0, 1, 5, 0]"] ;
207 -> 208 ;
209 [label="entropy = 0.0\nsamples = 7\nvalue = [0, 7, 0, 0, 0, 0, 0, 0, 0]"] ;
208 -> 209 ;
210 [label="entropy = 1.778\nsamples = 27\nvalue = [0, 1, 16, 1, 3, 0, 1, 5, 0]"] ;
208 -> 210 ;
211 [label="X[11] <= 0.5\nentropy = 1.745\nsamples = 48\nvalue = [0, 7, 0, 24, 12, 0, 0, 5, 0]"] ;
207 -> 211 ;
212 [label="X[23] <= 0.5\nentropy = 1.49\nsamples = 24\nvalue = [0, 7, 0, 0, 12, 0, 0, 5, 0]"] ;
211 -> 212 ;
213 [label="entropy = 0.592\nsamples = 7\nvalue = [0, 1, 0, 0, 6, 0, 0, 0, 0]"] ;
212 -> 213 ;
214 [label="entropy = 1.58\nsamples = 17\nvalue = [0, 6, 0, 0, 6, 0, 0, 5, 0]"] ;
212 -> 214 ;
215 [label="entropy = 0.0\nsamples = 24\nvalue = [0, 0, 0, 24, 0, 0, 0, 0, 0]"] ;
211 -> 215 ;
216 [label="X[21] <= 0.5\nentropy = 1.195\nsamples = 395\nvalue = [0, 6, 5, 18, 314, 4, 37, 4, 7]"] ;
194 -> 216 ;
217 [label="X[15] <= 0.5\nentropy = 0.881\nsamples = 356\nvalue = [0, 6, 3, 17, 310, 3, 8, 4, 5]"] ;
216 -> 217 ;
218 [label="X[6] <= 0.5\nentropy = 0.503\nsamples = 316\nvalue = [0, 6, 1, 2, 296, 3, 3, 4, 1]"] ;
217 -> 218 ;
219 [label="X[20] <= 0.5\nentropy = 0.368\nsamples = 308\nvalue = [0, 6, 1, 1, 294, 2, 1, 3, 0]"] ;
218 -> 219 ;
220 [label="X[17] <= 0.5\nentropy = 0.776\nsamples = 64\nvalue = [0, 5, 0, 0, 55, 1, 0, 3, 0]"] ;
219 -> 220 ;
221 [label="X[23] <= 0.5\nentropy = 0.985\nsamples = 7\nvalue = [0, 4, 0, 0, 3, 0, 0, 0, 0]"] ;
220 -> 221 ;
222 [label="entropy = 0.0\nsamples = 1\nvalue = [0, 0, 0, 0, 1, 0, 0, 0, 0]"] ;
221 -> 222 ;
223 [label="entropy = 0.918\nsamples = 6\nvalue = [0, 4, 0, 0, 2, 0, 0, 0, 0]"] ;
221 -> 223 ;
224 [label="X[18] <= 0.5\nentropy = 0.549\nsamples = 57\nvalue = [0, 1, 0, 0, 52, 1, 0, 3, 0]"] ;
220 -> 224 ;
225 [label="entropy = 0.0\nsamples = 34\nvalue = [0, 0, 0, 0, 34, 0, 0, 0, 0]"] ;
224 -> 225 ;
226 [label="entropy = 1.053\nsamples = 23\nvalue = [0, 1, 0, 0, 18, 1, 0, 3, 0]"] ;
224 -> 226 ;
227 [label="X[22] <= 0.5\nentropy = 0.192\nsamples = 244\nvalue = [0, 1, 1, 1, 239, 1, 1, 0, 0]"] ;
219 -> 227 ;
228 [label="X[9] <= 0.5\nentropy = 0.117\nsamples = 240\nvalue = [0, 1, 1, 0, 237, 1, 0, 0, 0]"] ;
227 -> 228 ;
229 [label="entropy = 0.0\nsamples = 194\nvalue = [0, 0, 0, 0, 194, 0, 0, 0, 0]"] ;
228 -> 229 ;
230 [label="entropy = 0.451\nsamples = 46\nvalue = [0, 1, 1, 0, 43, 1, 0, 0, 0]"] ;
228 -> 230 ;
231 [label="X[16] <= 0.5\nentropy = 1.5\nsamples = 4\nvalue = [0, 0, 0, 1, 2, 0, 1, 0, 0]"] ;
227 -> 231 ;
232 [label="entropy = 0.918\nsamples = 3\nvalue = [0, 0, 0, 1, 2, 0, 0, 0, 0]"] ;
231 -> 232 ;
233 [label="entropy = 0.0\nsamples = 1\nvalue = [0, 0, 0, 0, 0, 0, 1, 0, 0]"] ;
231 -> 233 ;
234 [label="entropy = 2.5\nsamples = 8\nvalue = [0, 0, 0, 1, 2, 1, 2, 1, 1]"] ;
218 -> 234 ;
235 [label="entropy = 1.984\nsamples = 40\nvalue = [0, 0, 2, 15, 14, 0, 5, 0, 4]"] ;
217 -> 235 ;
236 [label="X[17] <= 0.5\nentropy = 1.365\nsamples = 39\nvalue = [0, 0, 2, 1, 4, 1, 29, 0, 2]"] ;
216 -> 236 ;
237 [label="entropy = 0.0\nsamples = 1\nvalue = [0, 0, 0, 1, 0, 0, 0, 0, 0]"] ;
236 -> 237 ;
238 [label="X[6] <= 0.5\nentropy = 1.225\nsamples = 38\nvalue = [0, 0, 2, 0, 4, 1, 29, 0, 2]"] ;
236 -> 238 ;
239 [label="entropy = 1.247\nsamples = 37\nvalue = [0, 0, 2, 0, 4, 1, 28, 0, 2]"] ;
238 -> 239 ;
240 [label="entropy = 0.0\nsamples = 1\nvalue = [0, 0, 0, 0, 0, 0, 1, 0, 0]"] ;
238 -> 240 ;
241 [label="X[8] <= 0.5\nentropy = 1.949\nsamples = 1619\nvalue = [0, 749, 64, 304, 0, 11, 405, 78, 8]"] ;
147 -> 241 ;
242 [label="X[18] <= 0.5\nentropy = 0.686\nsamples = 648\nvalue = [0, 571, 0, 20, 0, 2, 0, 49, 6]"] ;
241 -> 242 ;
243 [label="X[11] <= 0.5\nentropy = 1.369\nsamples = 224\nvalue = [0, 148, 0, 20, 0, 2, 0, 49, 5]"] ;
242 -> 243 ;
244 [label="X[25] <= 0.5\nentropy = 1.224\nsamples = 106\nvalue = [0, 54, 0, 0, 0, 0, 0, 47, 5]"] ;
243 -> 244 ;
245 [label="X[16] <= 0.5\nentropy = 1.195\nsamples = 88\nvalue = [0, 54, 0, 0, 0, 0, 0, 29, 5]"] ;
244 -> 245 ;
246 [label="entropy = 0.0\nsamples = 18\nvalue = [0, 18, 0, 0, 0, 0, 0, 0, 0]"] ;
245 -> 246 ;
247 [label="X[23] <= 0.5\nentropy = 1.292\nsamples = 70\nvalue = [0, 36, 0, 0, 0, 0, 0, 29, 5]"] ;
245 -> 247 ;
248 [label="X[26] <= 0.5\nentropy = 1.0\nsamples = 8\nvalue = [0, 4, 0, 0, 0, 0, 0, 0, 4]"] ;
247 -> 248 ;
249 [label="entropy = 0.0\nsamples = 4\nvalue = [0, 4, 0, 0, 0, 0, 0, 0, 0]"] ;
248 -> 249 ;
250 [label="entropy = 0.0\nsamples = 4\nvalue = [0, 0, 0, 0, 0, 0, 0, 0, 4]"] ;
248 -> 250 ;
251 [label="X[9] <= 0.5\nentropy = 1.101\nsamples = 62\nvalue = [0, 32, 0, 0, 0, 0, 0, 29, 1]"] ;
247 -> 251 ;
252 [label="entropy = 0.0\nsamples = 1\nvalue = [0, 0, 0, 0, 0, 0, 0, 0, 1]"] ;
251 -> 252 ;
253 [label="entropy = 0.998\nsamples = 61\nvalue = [0, 32, 0, 0, 0, 0, 0, 29, 0]"] ;
251 -> 253 ;
254 [label="entropy = 0.0\nsamples = 18\nvalue = [0, 0, 0, 0, 0, 0, 0, 18, 0]"] ;
244 -> 254 ;
255 [label="X[22] <= 0.5\nentropy = 0.895\nsamples = 118\nvalue = [0, 94, 0, 20, 0, 2, 0, 2, 0]"] ;
243 -> 255 ;
256 [label="X[20] <= 0.5\nentropy = 0.589\nsamples = 104\nvalue = [0, 94, 0, 6, 0, 2, 0, 2, 0]"] ;
255 -> 256 ;
257 [label="X[7] <= 0.5\nentropy = 1.371\nsamples = 10\nvalue = [0, 0, 0, 6, 0, 2, 0, 2, 0]"] ;
256 -> 257 ;
258 [label="entropy = 0.0\nsamples = 6\nvalue = [0, 0, 0, 6, 0, 0, 0, 0, 0]"] ;
257 -> 258 ;
259 [label="entropy = 1.0\nsamples = 4\nvalue = [0, 0, 0, 0, 0, 2, 0, 2, 0]"] ;
257 -> 259 ;
260 [label="entropy = 0.0\nsamples = 94\nvalue = [0, 94, 0, 0, 0, 0, 0, 0, 0]"] ;
256 -> 260 ;
261 [label="entropy = 0.0\nsamples = 14\nvalue = [0, 0, 0, 14, 0, 0, 0, 0, 0]"] ;
255 -> 261 ;
262 [label="X[1] <= 0.5\nentropy = 0.024\nsamples = 424\nvalue = [0, 423, 0, 0, 0, 0, 0, 0, 1]"] ;
242 -> 262 ;
263 [label="entropy = 0.0\nsamples = 1\nvalue = [0, 0, 0, 0, 0, 0, 0, 0, 1]"] ;
262 -> 263 ;
264 [label="entropy = 0.0\nsamples = 423\nvalue = [0, 423, 0, 0, 0, 0, 0, 0, 0]"] ;
262 -> 264 ;
265 [label="X[16] <= 0.5\nentropy = 1.984\nsamples = 971\nvalue = [0, 178, 64, 284, 0, 9, 405, 29, 2]"] ;
241 -> 265 ;
266 [label="X[10] <= 0.5\nentropy = 1.341\nsamples = 654\nvalue = [0, 15, 9, 284, 0, 9, 335, 1, 1]"] ;
265 -> 266 ;
267 [label="X[22] <= 0.5\nentropy = 1.293\nsamples = 434\nvalue = [0, 9, 8, 284, 0, 9, 122, 1, 1]"] ;
266 -> 267 ;
268 [label="X[19] <= 0.5\nentropy = 1.248\nsamples = 430\nvalue = [0, 9, 4, 284, 0, 9, 122, 1, 1]"] ;
267 -> 268 ;
269 [label="entropy = 1.293\nsamples = 401\nvalue = [0, 9, 4, 255, 0, 9, 122, 1, 1]"] ;
268 -> 269 ;
270 [label="entropy = 0.0\nsamples = 29\nvalue = [0, 0, 0, 29, 0, 0, 0, 0, 0]"] ;
268 -> 270 ;
271 [label="entropy = 0.0\nsamples = 4\nvalue = [0, 0, 4, 0, 0, 0, 0, 0, 0]"] ;
267 -> 271 ;
272 [label="X[1] <= 0.5\nentropy = 0.222\nsamples = 220\nvalue = [0, 6, 1, 0, 0, 0, 213, 0, 0]"] ;
266 -> 272 ;
273 [label="X[19] <= 0.5\nentropy = 0.592\nsamples = 7\nvalue = [0, 6, 1, 0, 0, 0, 0, 0, 0]"] ;
272 -> 273 ;
274 [label="entropy = 0.0\nsamples = 1\nvalue = [0, 0, 1, 0, 0, 0, 0, 0, 0]"] ;
273 -> 274 ;
275 [label="entropy = 0.0\nsamples = 6\nvalue = [0, 6, 0, 0, 0, 0, 0, 0, 0]"] ;
273 -> 275 ;
276 [label="entropy = 0.0\nsamples = 213\nvalue = [0, 0, 0, 0, 0, 0, 213, 0, 0]"] ;
272 -> 276 ;
277 [label="X[26] <= 0.5\nentropy = 1.748\nsamples = 317\nvalue = [0, 163, 55, 0, 0, 0, 70, 28, 1]"] ;
265 -> 277 ;
278 [label="entropy = 0.0\nsamples = 39\nvalue = [0, 39, 0, 0, 0, 0, 0, 0, 0]"] ;
277 -> 278 ;
279 [label="X[9] <= 0.5\nentropy = 1.846\nsamples = 278\nvalue = [0, 124, 55, 0, 0, 0, 70, 28, 1]"] ;
277 -> 279 ;
280 [label="entropy = 0.0\nsamples = 12\nvalue = [0, 0, 0, 0, 0, 0, 12, 0, 0]"] ;
279 -> 280 ;
281 [label="X[20] <= 0.5\nentropy = 1.835\nsamples = 266\nvalue = [0, 124, 55, 0, 0, 0, 58, 28, 1]"] ;
279 -> 281 ;
282 [label="entropy = 0.0\nsamples = 2\nvalue = [0, 0, 0, 0, 0, 0, 0, 2, 0]"] ;
281 -> 282 ;
283 [label="entropy = 1.824\nsamples = 264\nvalue = [0, 124, 55, 0, 0, 0, 58, 26, 1]"] ;
281 -> 283 ;
284 [label="X[14] <= 0.5\nentropy = 2.172\nsamples = 2184\nvalue = [996, 40, 64, 215, 637, 75, 59, 58, 40]"] ;
0 -> 284 [labeldistance=2.5, labelangle=-45, headlabel="False"] ;
285 [label="X[26] <= 0.5\nentropy = 1.038\nsamples = 754\nvalue = [633, 8, 44, 20, 0, 19, 15, 8, 7]"] ;
284 -> 285 ;
286 [label="X[23] <= 0.5\nentropy = 2.746\nsamples = 39\nvalue = [8, 5, 7, 6, 0, 3, 4, 6, 0]"] ;
285 -> 286 ;
287 [label="X[11] <= 0.5\nentropy = 2.156\nsamples = 15\nvalue = [6, 0, 2, 3, 0, 2, 2, 0, 0]"] ;
286 -> 287 ;
288 [label="X[25] <= 0.5\nentropy = 1.686\nsamples = 11\nvalue = [6, 0, 2, 0, 0, 1, 2, 0, 0]"] ;
287 -> 288 ;
289 [label="X[5] <= 0.5\nentropy = 1.522\nsamples = 5\nvalue = [2, 0, 2, 0, 0, 1, 0, 0, 0]"] ;
288 -> 289 ;
290 [label="entropy = 0.0\nsamples = 2\nvalue = [2, 0, 0, 0, 0, 0, 0, 0, 0]"] ;
289 -> 290 ;
291 [label="X[20] <= 0.5\nentropy = 0.918\nsamples = 3\nvalue = [0, 0, 2, 0, 0, 1, 0, 0, 0]"] ;
289 -> 291 ;
292 [label="entropy = 0.0\nsamples = 1\nvalue = [0, 0, 1, 0, 0, 0, 0, 0, 0]"] ;
291 -> 292 ;
293 [label="entropy = 1.0\nsamples = 2\nvalue = [0, 0, 1, 0, 0, 1, 0, 0, 0]"] ;
291 -> 293 ;
294 [label="X[13] <= 0.5\nentropy = 0.918\nsamples = 6\nvalue = [4, 0, 0, 0, 0, 0, 2, 0, 0]"] ;
288 -> 294 ;
295 [label="X[17] <= 0.5\nentropy = 0.918\nsamples = 3\nvalue = [1, 0, 0, 0, 0, 0, 2, 0, 0]"] ;
294 -> 295 ;
296 [label="entropy = 0.0\nsamples = 2\nvalue = [0, 0, 0, 0, 0, 0, 2, 0, 0]"] ;
295 -> 296 ;
297 [label="entropy = 0.0\nsamples = 1\nvalue = [1, 0, 0, 0, 0, 0, 0, 0, 0]"] ;
295 -> 297 ;
298 [label="entropy = 0.0\nsamples = 3\nvalue = [3, 0, 0, 0, 0, 0, 0, 0, 0]"] ;
294 -> 298 ;
299 [label="X[7] <= 0.5\nentropy = 0.811\nsamples = 4\nvalue = [0, 0, 0, 3, 0, 1, 0, 0, 0]"] ;
287 -> 299 ;
300 [label="entropy = 0.0\nsamples = 3\nvalue = [0, 0, 0, 3, 0, 0, 0, 0, 0]"] ;
299 -> 300 ;
301 [label="entropy = 0.0\nsamples = 1\nvalue = [0, 0, 0, 0, 0, 1, 0, 0, 0]"] ;
299 -> 301 ;
302 [label="X[24] <= 0.5\nentropy = 2.606\nsamples = 24\nvalue = [2, 5, 5, 3, 0, 1, 2, 6, 0]"] ;
286 -> 302 ;
303 [label="X[5] <= 0.5\nentropy = 2.038\nsamples = 13\nvalue = [2, 5, 1, 1, 0, 0, 0, 4, 0]"] ;
302 -> 303 ;
304 [label="X[8] <= 0.5\nentropy = 1.664\nsamples = 7\nvalue = [1, 0, 1, 1, 0, 0, 0, 4, 0]"] ;
303 -> 304 ;
305 [label="X[11] <= 0.5\nentropy = 0.722\nsamples = 5\nvalue = [0, 0, 0, 1, 0, 0, 0, 4, 0]"] ;
304 -> 305 ;
306 [label="entropy = 0.0\nsamples = 4\nvalue = [0, 0, 0, 0, 0, 0, 0, 4, 0]"] ;
305 -> 306 ;
307 [label="entropy = 0.0\nsamples = 1\nvalue = [0, 0, 0, 1, 0, 0, 0, 0, 0]"] ;
305 -> 307 ;
308 [label="X[11] <= 0.5\nentropy = 1.0\nsamples = 2\nvalue = [1, 0, 1, 0, 0, 0, 0, 0, 0]"] ;
304 -> 308 ;
309 [label="entropy = 0.0\nsamples = 1\nvalue = [1, 0, 0, 0, 0, 0, 0, 0, 0]"] ;
308 -> 309 ;
310 [label="entropy = 0.0\nsamples = 1\nvalue = [0, 0, 1, 0, 0, 0, 0, 0, 0]"] ;
308 -> 310 ;
311 [label="X[6] <= 0.5\nentropy = 0.65\nsamples = 6\nvalue = [1, 5, 0, 0, 0, 0, 0, 0, 0]"] ;
303 -> 311 ;
312 [label="entropy = 0.0\nsamples = 5\nvalue = [0, 5, 0, 0, 0, 0, 0, 0, 0]"] ;
311 -> 312 ;
313 [label="entropy = 0.0\nsamples = 1\nvalue = [1, 0, 0, 0, 0, 0, 0, 0, 0]"] ;
311 -> 313 ;
314 [label="X[3] <= 0.5\nentropy = 2.187\nsamples = 11\nvalue = [0, 0, 4, 2, 0, 1, 2, 2, 0]"] ;
302 -> 314 ;
315 [label="X[9] <= 0.5\nentropy = 1.837\nsamples = 9\nvalue = [0, 0, 4, 2, 0, 0, 1, 2, 0]"] ;
314 -> 315 ;
316 [label="X[8] <= 0.5\nentropy = 1.585\nsamples = 6\nvalue = [0, 0, 2, 2, 0, 0, 0, 2, 0]"] ;
315 -> 316 ;
317 [label="entropy = 1.0\nsamples = 2\nvalue = [0, 0, 0, 1, 0, 0, 0, 1, 0]"] ;
316 -> 317 ;
318 [label="entropy = 1.5\nsamples = 4\nvalue = [0, 0, 2, 1, 0, 0, 0, 1, 0]"] ;
316 -> 318 ;
319 [label="entropy = 0.918\nsamples = 3\nvalue = [0, 0, 2, 0, 0, 0, 1, 0, 0]"] ;
315 -> 319 ;
320 [label="X[18] <= 0.5\nentropy = 1.0\nsamples = 2\nvalue = [0, 0, 0, 0, 0, 1, 1, 0, 0]"] ;
314 -> 320 ;
321 [label="entropy = 0.0\nsamples = 1\nvalue = [0, 0, 0, 0, 0, 0, 1, 0, 0]"] ;
320 -> 321 ;
322 [label="entropy = 0.0\nsamples = 1\nvalue = [0, 0, 0, 0, 0, 1, 0, 0, 0]"] ;
320 -> 322 ;
323 [label="X[3] <= 0.5\nentropy = 0.839\nsamples = 715\nvalue = [625, 3, 37, 14, 0, 16, 11, 2, 7]"] ;
285 -> 323 ;
324 [label="X[23] <= 0.5\nentropy = 0.712\nsamples = 691\nvalue = [622, 3, 24, 9, 0, 16, 9, 2, 6]"] ;
323 -> 324 ;
325 [label="X[21] <= 0.5\nentropy = 2.359\nsamples = 31\nvalue = [11, 0, 7, 4, 0, 3, 2, 0, 4]"] ;
324 -> 325 ;
326 [label="X[19] <= 0.5\nentropy = 1.329\nsamples = 16\nvalue = [10, 0, 0, 3, 0, 0, 0, 0, 3]"] ;
325 -> 326 ;
327 [label="entropy = 0.0\nsamples = 10\nvalue = [10, 0, 0, 0, 0, 0, 0, 0, 0]"] ;
326 -> 327 ;
328 [label="X[9] <= 0.5\nentropy = 1.0\nsamples = 6\nvalue = [0, 0, 0, 3, 0, 0, 0, 0, 3]"] ;
326 -> 328 ;
329 [label="entropy = 0.0\nsamples = 3\nvalue = [0, 0, 0, 3, 0, 0, 0, 0, 0]"] ;
328 -> 329 ;
330 [label="entropy = 0.0\nsamples = 3\nvalue = [0, 0, 0, 0, 0, 0, 0, 0, 3]"] ;
328 -> 330 ;
331 [label="X[18] <= 0.5\nentropy = 2.146\nsamples = 15\nvalue = [1, 0, 7, 1, 0, 3, 2, 0, 1]"] ;
325 -> 331 ;
332 [label="entropy = 1.781\nsamples = 12\nvalue = [1, 0, 7, 1, 0, 0, 2, 0, 1]"] ;
331 -> 332 ;
333 [label="entropy = 0.0\nsamples = 3\nvalue = [0, 0, 0, 0, 0, 3, 0, 0, 0]"] ;
331 -> 333 ;
334 [label="X[9] <= 0.5\nentropy = 0.56\nsamples = 660\nvalue = [611, 3, 17, 5, 0, 13, 7, 2, 2]"] ;
324 -> 334 ;
335 [label="X[18] <= 0.5\nentropy = 0.32\nsamples = 511\nvalue = [492, 1, 3, 5, 0, 4, 4, 2, 0]"] ;
334 -> 335 ;
336 [label="X[15] <= 0.5\nentropy = 0.169\nsamples = 492\nvalue = [483, 1, 1, 2, 0, 0, 4, 1, 0]"] ;
335 -> 336 ;
337 [label="X[8] <= 0.5\nentropy = 0.044\nsamples = 475\nvalue = [473, 1, 0, 0, 0, 0, 0, 1, 0]"] ;
336 -> 337 ;
338 [label="X[16] <= 0.5\nentropy = 0.336\nsamples = 40\nvalue = [38, 1, 0, 0, 0, 0, 0, 1, 0]"] ;
337 -> 338 ;
339 [label="X[6] <= 0.5\nentropy = 0.172\nsamples = 39\nvalue = [38, 0, 0, 0, 0, 0, 0, 1, 0]"] ;
338 -> 339 ;
340 [label="entropy = 0.0\nsamples = 29\nvalue = [29, 0, 0, 0, 0, 0, 0, 0, 0]"] ;
339 -> 340 ;
341 [label="entropy = 0.469\nsamples = 10\nvalue = [9, 0, 0, 0, 0, 0, 0, 1, 0]"] ;
339 -> 341 ;
342 [label="entropy = 0.0\nsamples = 1\nvalue = [0, 1, 0, 0, 0, 0, 0, 0, 0]"] ;
338 -> 342 ;
343 [label="entropy = 0.0\nsamples = 435\nvalue = [435, 0, 0, 0, 0, 0, 0, 0, 0]"] ;
337 -> 343 ;
344 [label="X[5] <= 0.5\nentropy = 1.545\nsamples = 17\nvalue = [10, 0, 1, 2, 0, 0, 4, 0, 0]"] ;
336 -> 344 ;
345 [label="entropy = 0.0\nsamples = 1\nvalue = [1, 0, 0, 0, 0, 0, 0, 0, 0]"] ;
344 -> 345 ;
346 [label="entropy = 1.592\nsamples = 16\nvalue = [9, 0, 1, 2, 0, 0, 4, 0, 0]"] ;
344 -> 346 ;
347 [label="entropy = 1.97\nsamples = 19\nvalue = [9, 0, 2, 3, 0, 4, 0, 1, 0]"] ;
335 -> 347 ;
348 [label="entropy = 1.105\nsamples = 149\nvalue = [119, 2, 14, 0, 0, 9, 3, 0, 2]"] ;
334 -> 348 ;
349 [label="entropy = 1.815\nsamples = 24\nvalue = [3, 0, 13, 5, 0, 0, 2, 0, 1]"] ;
323 -> 349 ;
350 [label="X[11] <= 0.5\nentropy = 2.255\nsamples = 1430\nvalue = [363, 32, 20, 195, 637, 56, 44, 50, 33]"] ;
284 -> 350 ;
351 [label="entropy = 0.788\nsamples = 195\nvalue = [46, 0, 0, 0, 149, 0, 0, 0, 0]"] ;
350 -> 351 ;
352 [label="X[17] <= 0.5\nentropy = 2.387\nsamples = 1235\nvalue = [317, 32, 20, 195, 488, 56, 44, 50, 33]"] ;
350 -> 352 ;
353 [label="entropy = 0.863\nsamples = 56\nvalue = [40, 0, 0, 0, 16, 0, 0, 0, 0]"] ;
352 -> 353 ;
354 [label="X[22] <= 0.5\nentropy = 2.414\nsamples = 1179\nvalue = [277, 32, 20, 195, 472, 56, 44, 50, 33]"] ;
352 -> 354 ;
355 [label="X[25] <= 0.5\nentropy = 2.432\nsamples = 1129\nvalue = [240, 32, 20, 195, 460, 56, 43, 50, 33]"] ;
354 -> 355 ;
356 [label="X[20] <= 0.5\nentropy = 2.433\nsamples = 1095\nvalue = [212, 32, 18, 195, 456, 56, 43, 50, 33]"] ;
355 -> 356 ;
357 [label="X[23] <= 0.5\nentropy = 0.996\nsamples = 43\nvalue = [23, 0, 0, 0, 20, 0, 0, 0, 0]"] ;
356 -> 357 ;
358 [label="entropy = 0.0\nsamples = 1\nvalue = [0, 0, 0, 0, 1, 0, 0, 0, 0]"] ;
357 -> 358 ;
359 [label="entropy = 0.993\nsamples = 42\nvalue = [23, 0, 0, 0, 19, 0, 0, 0, 0]"] ;
357 -> 359 ;
360 [label="X[4] <= 0.5\nentropy = 2.455\nsamples = 1052\nvalue = [189, 32, 18, 195, 436, 56, 43, 50, 33]"] ;
356 -> 360 ;
361 [label="X[8] <= 0.5\nentropy = 2.483\nsamples = 1020\nvalue = [181, 32, 18, 195, 412, 56, 43, 50, 33]"] ;
360 -> 361 ;
362 [label="X[24] <= 0.5\nentropy = 1.219\nsamples = 20\nvalue = [8, 0, 0, 0, 11, 0, 1, 0, 0]"] ;
361 -> 362 ;
363 [label="entropy = 0.991\nsamples = 18\nvalue = [8, 0, 0, 0, 10, 0, 0, 0, 0]"] ;
362 -> 363 ;
364 [label="entropy = 1.0\nsamples = 2\nvalue = [0, 0, 0, 0, 1, 0, 1, 0, 0]"] ;
362 -> 364 ;
365 [label="entropy = 2.493\nsamples = 1000\nvalue = [173, 32, 18, 195, 401, 56, 42, 50, 33]"] ;
361 -> 365 ;
366 [label="entropy = 0.811\nsamples = 32\nvalue = [8, 0, 0, 0, 24, 0, 0, 0, 0]"] ;
360 -> 366 ;
367 [label="X[8] <= 0.5\nentropy = 0.834\nsamples = 34\nvalue = [28, 0, 2, 0, 4, 0, 0, 0, 0]"] ;
355 -> 367 ;
368 [label="entropy = 0.0\nsamples = 1\nvalue = [1, 0, 0, 0, 0, 0, 0, 0, 0]"] ;
367 -> 368 ;
369 [label="entropy = 0.851\nsamples = 33\nvalue = [27, 0, 2, 0, 4, 0, 0, 0, 0]"] ;
367 -> 369 ;
370 [label="entropy = 0.928\nsamples = 50\nvalue = [37, 0, 0, 0, 12, 0, 1, 0, 0]"] ;
354 -> 370 ;
}