digraph Tree {
node [shape=box] ;
0 [label="X[2] <= 0.5\nentropy = 3.156\nsamples = 8204\nvalue = [999, 959, 778, 950, 1000, 619, 969, 967, 963]"] ;
1 [label="X[14] <= 0.5\nentropy = 2.924\nsamples = 5398\nvalue = [0, 891, 732, 487, 387, 578, 440, 952, 931]"] ;
0 -> 1 [labeldistance=2.5, labelangle=45, headlabel="True"] ;
2 [label="X[5] <= 0.5\nentropy = 2.739\nsamples = 4680\nvalue = [0, 855, 548, 471, 0, 570, 402, 917, 917]"] ;
1 -> 2 ;
3 [label="X[23] <= 0.5\nentropy = 2.514\nsamples = 2536\nvalue = [0, 0, 421, 333, 0, 405, 290, 722, 365]"] ;
2 -> 3 ;
4 [label="X[17] <= 0.5\nentropy = 2.28\nsamples = 1196\nvalue = [0, 0, 176, 237, 0, 308, 175, 0, 300]"] ;
3 -> 4 ;
5 [label="X[11] <= 0.5\nentropy = 1.919\nsamples = 708\nvalue = [0, 0, 141, 135, 0, 0, 147, 0, 285]"] ;
4 -> 5 ;
6 [label="X[20] <= 0.5\nentropy = 1.515\nsamples = 558\nvalue = [0, 0, 141, 0, 0, 0, 147, 0, 270]"] ;
5 -> 6 ;
7 [label="X[8] <= 0.5\nentropy = 0.794\nsamples = 355\nvalue = [0, 0, 85, 0, 0, 0, 0, 0, 270]"] ;
6 -> 7 ;
8 [label="entropy = 0.0\nsamples = 265\nvalue = [0, 0, 0, 0, 0, 0, 0, 0, 265]"] ;
7 -> 8 ;
9 [label="X[13] <= 0.5\nentropy = 0.31\nsamples = 90\nvalue = [0, 0, 85, 0, 0, 0, 0, 0, 5]"] ;
7 -> 9 ;
10 [label="X[22] <= 0.5\nentropy = 0.954\nsamples = 8\nvalue = [0, 0, 3, 0, 0, 0, 0, 0, 5]"] ;
9 -> 10 ;
11 [label="entropy = 0.0\nsamples = 3\nvalue = [0, 0, 3, 0, 0, 0, 0, 0, 0]"] ;
10 -> 11 ;
12 [label="entropy = 0.0\nsamples = 5\nvalue = [0, 0, 0, 0, 0, 0, 0, 0, 5]"] ;
10 -> 12 ;
13 [label="entropy = 0.0\nsamples = 82\nvalue = [0, 0, 82, 0, 0, 0, 0, 0, 0]"] ;
9 -> 13 ;
14 [label="X[8] <= 0.5\nentropy = 0.85\nsamples = 203\nvalue = [0, 0, 56, 0, 0, 0, 147, 0, 0]"] ;
6 -> 14 ;
15 [label="entropy = 0.0\nsamples = 76\nvalue = [0, 0, 0, 0, 0, 0, 76, 0, 0]"] ;
14 -> 15 ;
16 [label="X[9] <= 0.5\nentropy = 0.99\nsamples = 127\nvalue = [0, 0, 56, 0, 0, 0, 71, 0, 0]"] ;
14 -> 16 ;
17 [label="entropy = 0.0\nsamples = 12\nvalue = [0, 0, 0, 0, 0, 0, 12, 0, 0]"] ;
16 -> 17 ;
18 [label="X[21] <= 0.5\nentropy = 1.0\nsamples = 115\nvalue = [0, 0, 56, 0, 0, 0, 59, 0, 0]"] ;
16 -> 18 ;
19 [label="entropy = 0.992\nsamples = 107\nvalue = [0, 0, 48, 0, 0, 0, 59, 0, 0]"] ;
18 -> 19 ;
20 [label="entropy = 0.0\nsamples = 8\nvalue = [0, 0, 8, 0, 0, 0, 0, 0, 0]"] ;
18 -> 20 ;
21 [label="X[13] <= 0.5\nentropy = 0.469\nsamples = 150\nvalue = [0, 0, 0, 135, 0, 0, 0, 0, 15]"] ;
5 -> 21 ;
22 [label="entropy = 0.0\nsamples = 15\nvalue = [0, 0, 0, 0, 0, 0, 0, 0, 15]"] ;
21 -> 22 ;
23 [label="entropy = 0.0\nsamples = 135\nvalue = [0, 0, 0, 135, 0, 0, 0, 0, 0]"] ;
21 -> 23 ;
24 [label="X[11] <= 0.5\nentropy = 1.555\nsamples = 488\nvalue = [0, 0, 35, 102, 0, 308, 28, 0, 15]"] ;
4 -> 24 ;
25 [label="X[13] <= 0.5\nentropy = 0.573\nsamples = 213\nvalue = [0, 0, 7, 0, 0, 191, 0, 0, 15]"] ;
24 -> 25 ;
26 [label="X[8] <= 0.5\nentropy = 1.173\nsamples = 71\nvalue = [0, 0, 7, 0, 0, 49, 0, 0, 15]"] ;
25 -> 26 ;
27 [label="X[26] <= 0.5\nentropy = 0.838\nsamples = 56\nvalue = [0, 0, 0, 0, 0, 41, 0, 0, 15]"] ;
26 -> 27 ;
28 [label="entropy = 0.0\nsamples = 26\nvalue = [0, 0, 0, 0, 0, 26, 0, 0, 0]"] ;
27 -> 28 ;
29 [label="X[10] <= 0.5\nentropy = 1.0\nsamples = 30\nvalue = [0, 0, 0, 0, 0, 15, 0, 0, 15]"] ;
27 -> 29 ;
30 [label="entropy = 0.0\nsamples = 4\nvalue = [0, 0, 0, 0, 0, 4, 0, 0, 0]"] ;
29 -> 30 ;
31 [label="X[0] <= 0.5\nentropy = 0.983\nsamples = 26\nvalue = [0, 0, 0, 0, 0, 11, 0, 0, 15]"] ;
29 -> 31 ;
32 [label="entropy = 0.99\nsamples = 25\nvalue = [0, 0, 0, 0, 0, 11, 0, 0, 14]"] ;
31 -> 32 ;
33 [label="entropy = 0.0\nsamples = 1\nvalue = [0, 0, 0, 0, 0, 0, 0, 0, 1]"] ;
31 -> 33 ;
34 [label="X[18] <= 0.5\nentropy = 0.997\nsamples = 15\nvalue = [0, 0, 7, 0, 0, 8, 0, 0, 0]"] ;
26 -> 34 ;
35 [label="X[3] <= 0.5\nentropy = 0.845\nsamples = 11\nvalue = [0, 0, 3, 0, 0, 8, 0, 0, 0]"] ;
34 -> 35 ;
36 [label="entropy = 0.0\nsamples = 3\nvalue = [0, 0, 3, 0, 0, 0, 0, 0, 0]"] ;
35 -> 36 ;
37 [label="entropy = 0.0\nsamples = 8\nvalue = [0, 0, 0, 0, 0, 8, 0, 0, 0]"] ;
35 -> 37 ;
38 [label="entropy = 0.0\nsamples = 4\nvalue = [0, 0, 4, 0, 0, 0, 0, 0, 0]"] ;
34 -> 38 ;
39 [label="entropy = 0.0\nsamples = 142\nvalue = [0, 0, 0, 0, 0, 142, 0, 0, 0]"] ;
25 -> 39 ;
40 [label="X[7] <= 0.5\nentropy = 1.726\nsamples = 275\nvalue = [0, 0, 28, 102, 0, 117, 28, 0, 0]"] ;
24 -> 40 ;
41 [label="X[3] <= 0.5\nentropy = 1.654\nsamples = 136\nvalue = [0, 0, 28, 76, 0, 12, 20, 0, 0]"] ;
40 -> 41 ;
42 [label="X[6] <= 0.5\nentropy = 0.605\nsamples = 27\nvalue = [0, 0, 23, 4, 0, 0, 0, 0, 0]"] ;
41 -> 42 ;
43 [label="entropy = 0.0\nsamples = 23\nvalue = [0, 0, 23, 0, 0, 0, 0, 0, 0]"] ;
42 -> 43 ;
44 [label="entropy = 0.0\nsamples = 4\nvalue = [0, 0, 0, 4, 0, 0, 0, 0, 0]"] ;
42 -> 44 ;
45 [label="X[19] <= 0.5\nentropy = 1.398\nsamples = 109\nvalue = [0, 0, 5, 72, 0, 12, 20, 0, 0]"] ;
41 -> 45 ;
46 [label="entropy = 1.436\nsamples = 104\nvalue = [0, 0, 5, 67, 0, 12, 20, 0, 0]"] ;
45 -> 46 ;
47 [label="entropy = 0.0\nsamples = 5\nvalue = [0, 0, 0, 5, 0, 0, 0, 0, 0]"] ;
45 -> 47 ;
48 [label="X[26] <= 0.5\nentropy = 0.995\nsamples = 139\nvalue = [0, 0, 0, 26, 0, 105, 8, 0, 0]"] ;
40 -> 48 ;
49 [label="entropy = 0.0\nsamples = 73\nvalue = [0, 0, 0, 0, 0, 73, 0, 0, 0]"] ;
48 -> 49 ;
50 [label="X[0] <= 0.5\nentropy = 1.405\nsamples = 66\nvalue = [0, 0, 0, 26, 0, 32, 8, 0, 0]"] ;
48 -> 50 ;
51 [label="X[20] <= 0.5\nentropy = 0.992\nsamples = 58\nvalue = [0, 0, 0, 26, 0, 32, 0, 0, 0]"] ;
50 -> 51 ;
52 [label="entropy = 0.994\nsamples = 57\nvalue = [0, 0, 0, 26, 0, 31, 0, 0, 0]"] ;
51 -> 52 ;
53 [label="entropy = 0.0\nsamples = 1\nvalue = [0, 0, 0, 0, 0, 1, 0, 0, 0]"] ;
51 -> 53 ;
54 [label="entropy = 0.0\nsamples = 8\nvalue = [0, 0, 0, 0, 0, 0, 8, 0, 0]"] ;
50 -> 54 ;
55 [label="X[1] <= 0.5\nentropy = 1.991\nsamples = 1340\nvalue = [0, 0, 245, 96, 0, 97, 115, 722, 65]"] ;
3 -> 55 ;
56 [label="X[20] <= 0.5\nentropy = 1.416\nsamples = 687\nvalue = [0, 0, 14, 40, 0, 85, 61, 485, 2]"] ;
55 -> 56 ;
57 [label="X[18] <= 0.5\nentropy = 0.815\nsamples = 420\nvalue = [0, 0, 6, 0, 0, 77, 0, 336, 1]"] ;
56 -> 57 ;
58 [label="X[8] <= 0.5\nentropy = 0.362\nsamples = 305\nvalue = [0, 0, 6, 0, 0, 9, 0, 289, 1]"] ;
57 -> 58 ;
59 [label="X[9] <= 0.5\nentropy = 0.14\nsamples = 285\nvalue = [0, 0, 0, 0, 0, 4, 0, 280, 1]"] ;
58 -> 59 ;
60 [label="entropy = 0.0\nsamples = 239\nvalue = [0, 0, 0, 0, 0, 0, 0, 239, 0]"] ;
59 -> 60 ;
61 [label="X[12] <= 0.5\nentropy = 0.574\nsamples = 46\nvalue = [0, 0, 0, 0, 0, 4, 0, 41, 1]"] ;
59 -> 61 ;
62 [label="entropy = 0.0\nsamples = 41\nvalue = [0, 0, 0, 0, 0, 0, 0, 41, 0]"] ;
61 -> 62 ;
63 [label="X[26] <= 0.5\nentropy = 0.722\nsamples = 5\nvalue = [0, 0, 0, 0, 0, 4, 0, 0, 1]"] ;
61 -> 63 ;
64 [label="entropy = 0.0\nsamples = 4\nvalue = [0, 0, 0, 0, 0, 4, 0, 0, 0]"] ;
63 -> 64 ;
65 [label="entropy = 0.0\nsamples = 1\nvalue = [0, 0, 0, 0, 0, 0, 0, 0, 1]"] ;
63 -> 65 ;
66 [label="X[11] <= 0.5\nentropy = 1.539\nsamples = 20\nvalue = [0, 0, 6, 0, 0, 5, 0, 9, 0]"] ;
58 -> 66 ;
67 [label="X[17] <= 0.5\nentropy = 0.971\nsamples = 15\nvalue = [0, 0, 6, 0, 0, 0, 0, 9, 0]"] ;
66 -> 67 ;
68 [label="entropy = 0.0\nsamples = 5\nvalue = [0, 0, 0, 0, 0, 0, 0, 5, 0]"] ;
67 -> 68 ;
69 [label="entropy = 0.971\nsamples = 10\nvalue = [0, 0, 6, 0, 0, 0, 0, 4, 0]"] ;
67 -> 69 ;
70 [label="entropy = 0.0\nsamples = 5\nvalue = [0, 0, 0, 0, 0, 5, 0, 0, 0]"] ;
66 -> 70 ;
71 [label="X[15] <= 0.5\nentropy = 0.976\nsamples = 115\nvalue = [0, 0, 0, 0, 0, 68, 0, 47, 0]"] ;
57 -> 71 ;
72 [label="X[7] <= 0.5\nentropy = 0.485\nsamples = 76\nvalue = [0, 0, 0, 0, 0, 68, 0, 8, 0]"] ;
71 -> 72 ;
73 [label="entropy = 0.985\nsamples = 14\nvalue = [0, 0, 0, 0, 0, 6, 0, 8, 0]"] ;
72 -> 73 ;
74 [label="entropy = 0.0\nsamples = 62\nvalue = [0, 0, 0, 0, 0, 62, 0, 0, 0]"] ;
72 -> 74 ;
75 [label="entropy = 0.0\nsamples = 39\nvalue = [0, 0, 0, 0, 0, 0, 0, 39, 0]"] ;
71 -> 75 ;
76 [label="X[8] <= 0.5\nentropy = 1.7\nsamples = 267\nvalue = [0, 0, 8, 40, 0, 8, 61, 149, 1]"] ;
56 -> 76 ;
77 [label="X[3] <= 0.5\nentropy = 1.703\nsamples = 81\nvalue = [0, 0, 0, 30, 0, 8, 37, 5, 1]"] ;
76 -> 77 ;
78 [label="X[10] <= 0.5\nentropy = 1.242\nsamples = 42\nvalue = [0, 0, 0, 30, 0, 6, 0, 5, 1]"] ;
77 -> 78 ;
79 [label="X[25] <= 0.5\nentropy = 0.523\nsamples = 33\nvalue = [0, 0, 0, 30, 0, 2, 0, 1, 0]"] ;
78 -> 79 ;
80 [label="X[17] <= 0.5\nentropy = 0.946\nsamples = 14\nvalue = [0, 0, 0, 11, 0, 2, 0, 1, 0]"] ;
79 -> 80 ;
81 [label="entropy = 0.0\nsamples = 7\nvalue = [0, 0, 0, 7, 0, 0, 0, 0, 0]"] ;
80 -> 81 ;
82 [label="entropy = 1.379\nsamples = 7\nvalue = [0, 0, 0, 4, 0, 2, 0, 1, 0]"] ;
80 -> 82 ;
83 [label="entropy = 0.0\nsamples = 19\nvalue = [0, 0, 0, 19, 0, 0, 0, 0, 0]"] ;
79 -> 83 ;
84 [label="X[6] <= 0.5\nentropy = 1.392\nsamples = 9\nvalue = [0, 0, 0, 0, 0, 4, 0, 4, 1]"] ;
78 -> 84 ;
85 [label="entropy = 0.0\nsamples = 1\nvalue = [0, 0, 0, 0, 0, 0, 0, 0, 1]"] ;
84 -> 85 ;
86 [label="entropy = 1.0\nsamples = 8\nvalue = [0, 0, 0, 0, 0, 4, 0, 4, 0]"] ;
84 -> 86 ;
87 [label="X[10] <= 0.5\nentropy = 0.292\nsamples = 39\nvalue = [0, 0, 0, 0, 0, 2, 37, 0, 0]"] ;
77 -> 87 ;
88 [label="entropy = 0.0\nsamples = 36\nvalue = [0, 0, 0, 0, 0, 0, 36, 0, 0]"] ;
87 -> 88 ;
89 [label="entropy = 0.918\nsamples = 3\nvalue = [0, 0, 0, 0, 0, 2, 1, 0, 0]"] ;
87 -> 89 ;
90 [label="X[26] <= 0.5\nentropy = 1.089\nsamples = 186\nvalue = [0, 0, 8, 10, 0, 0, 24, 144, 0]"] ;
76 -> 90 ;
91 [label="entropy = 0.991\nsamples = 18\nvalue = [0, 0, 8, 0, 0, 0, 10, 0, 0]"] ;
90 -> 91 ;
92 [label="X[17] <= 0.5\nentropy = 0.732\nsamples = 168\nvalue = [0, 0, 0, 10, 0, 0, 14, 144, 0]"] ;
90 -> 92 ;
93 [label="entropy = 0.0\nsamples = 40\nvalue = [0, 0, 0, 0, 0, 0, 0, 40, 0]"] ;
92 -> 93 ;
94 [label="entropy = 0.88\nsamples = 128\nvalue = [0, 0, 0, 10, 0, 0, 14, 104, 0]"] ;
92 -> 94 ;
95 [label="X[8] <= 0.5\nentropy = 2.094\nsamples = 653\nvalue = [0, 0, 231, 56, 0, 12, 54, 237, 63]"] ;
55 -> 95 ;
96 [label="X[11] <= 0.5\nentropy = 2.206\nsamples = 185\nvalue = [0, 0, 0, 37, 0, 12, 44, 52, 40]"] ;
95 -> 96 ;
97 [label="X[20] <= 0.5\nentropy = 1.831\nsamples = 131\nvalue = [0, 0, 0, 0, 0, 12, 44, 50, 25]"] ;
96 -> 97 ;
98 [label="X[24] <= 0.5\nentropy = 1.091\nsamples = 73\nvalue = [0, 0, 0, 0, 0, 2, 0, 46, 25]"] ;
97 -> 98 ;
99 [label="X[10] <= 0.5\nentropy = 1.183\nsamples = 56\nvalue = [0, 0, 0, 0, 0, 2, 0, 29, 25]"] ;
98 -> 99 ;
100 [label="X[16] <= 0.5\nentropy = 1.122\nsamples = 49\nvalue = [0, 0, 0, 0, 0, 1, 0, 23, 25]"] ;
99 -> 100 ;
101 [label="X[19] <= 0.5\nentropy = 1.5\nsamples = 4\nvalue = [0, 0, 0, 0, 0, 1, 0, 1, 2]"] ;
100 -> 101 ;
102 [label="X[4] <= 0.5\nentropy = 0.918\nsamples = 3\nvalue = [0, 0, 0, 0, 0, 0, 0, 1, 2]"] ;
101 -> 102 ;
103 [label="entropy = 0.0\nsamples = 1\nvalue = [0, 0, 0, 0, 0, 0, 0, 0, 1]"] ;
102 -> 103 ;
104 [label="entropy = 1.0\nsamples = 2\nvalue = [0, 0, 0, 0, 0, 0, 0, 1, 1]"] ;
102 -> 104 ;
105 [label="entropy = 0.0\nsamples = 1\nvalue = [0, 0, 0, 0, 0, 1, 0, 0, 0]"] ;
101 -> 105 ;
106 [label="entropy = 1.0\nsamples = 45\nvalue = [0, 0, 0, 0, 0, 0, 0, 22, 23]"] ;
100 -> 106 ;
107 [label="X[12] <= 0.5\nentropy = 0.592\nsamples = 7\nvalue = [0, 0, 0, 0, 0, 1, 0, 6, 0]"] ;
99 -> 107 ;
108 [label="entropy = 0.0\nsamples = 1\nvalue = [0, 0, 0, 0, 0, 1, 0, 0, 0]"] ;
107 -> 108 ;
109 [label="entropy = 0.0\nsamples = 6\nvalue = [0, 0, 0, 0, 0, 0, 0, 6, 0]"] ;
107 -> 109 ;
110 [label="entropy = 0.0\nsamples = 17\nvalue = [0, 0, 0, 0, 0, 0, 0, 17, 0]"] ;
98 -> 110 ;
111 [label="X[6] <= 0.5\nentropy = 1.006\nsamples = 58\nvalue = [0, 0, 0, 0, 0, 10, 44, 4, 0]"] ;
97 -> 111 ;
112 [label="X[16] <= 0.5\nentropy = 0.454\nsamples = 42\nvalue = [0, 0, 0, 0, 0, 0, 38, 4, 0]"] ;
111 -> 112 ;
113 [label="entropy = 0.0\nsamples = 38\nvalue = [0, 0, 0, 0, 0, 0, 38, 0, 0]"] ;
112 -> 113 ;
114 [label="entropy = 0.0\nsamples = 4\nvalue = [0, 0, 0, 0, 0, 0, 0, 4, 0]"] ;
112 -> 114 ;
115 [label="X[9] <= 0.5\nentropy = 0.954\nsamples = 16\nvalue = [0, 0, 0, 0, 0, 10, 6, 0, 0]"] ;
111 -> 115 ;
116 [label="entropy = 0.863\nsamples = 14\nvalue = [0, 0, 0, 0, 0, 10, 4, 0, 0]"] ;
115 -> 116 ;
117 [label="entropy = 0.0\nsamples = 2\nvalue = [0, 0, 0, 0, 0, 0, 2, 0, 0]"] ;
115 -> 117 ;
118 [label="X[19] <= 0.5\nentropy = 1.063\nsamples = 54\nvalue = [0, 0, 0, 37, 0, 0, 0, 2, 15]"] ;
96 -> 118 ;
119 [label="X[6] <= 0.5\nentropy = 0.803\nsamples = 18\nvalue = [0, 0, 0, 1, 0, 0, 0, 2, 15]"] ;
118 -> 119 ;
120 [label="entropy = 0.0\nsamples = 2\nvalue = [0, 0, 0, 0, 0, 0, 0, 2, 0]"] ;
119 -> 120 ;
121 [label="X[15] <= 0.5\nentropy = 0.337\nsamples = 16\nvalue = [0, 0, 0, 1, 0, 0, 0, 0, 15]"] ;
119 -> 121 ;
122 [label="entropy = 0.353\nsamples = 15\nvalue = [0, 0, 0, 1, 0, 0, 0, 0, 14]"] ;
121 -> 122 ;
123 [label="entropy = 0.0\nsamples = 1\nvalue = [0, 0, 0, 0, 0, 0, 0, 0, 1]"] ;
121 -> 123 ;
124 [label="entropy = 0.0\nsamples = 36\nvalue = [0, 0, 0, 36, 0, 0, 0, 0, 0]"] ;
118 -> 124 ;
125 [label="X[4] <= 0.5\nentropy = 1.552\nsamples = 468\nvalue = [0, 0, 231, 19, 0, 0, 10, 185, 23]"] ;
95 -> 125 ;
126 [label="X[19] <= 0.5\nentropy = 2.189\nsamples = 73\nvalue = [0, 0, 15, 19, 0, 0, 10, 6, 23]"] ;
125 -> 126 ;
127 [label="X[10] <= 0.5\nentropy = 1.33\nsamples = 38\nvalue = [0, 0, 0, 5, 0, 0, 10, 0, 23]"] ;
126 -> 127 ;
128 [label="X[26] <= 0.5\nentropy = 0.677\nsamples = 28\nvalue = [0, 0, 0, 5, 0, 0, 0, 0, 23]"] ;
127 -> 128 ;
129 [label="entropy = 0.0\nsamples = 5\nvalue = [0, 0, 0, 5, 0, 0, 0, 0, 0]"] ;
128 -> 129 ;
130 [label="entropy = 0.0\nsamples = 23\nvalue = [0, 0, 0, 0, 0, 0, 0, 0, 23]"] ;
128 -> 130 ;
131 [label="entropy = 0.0\nsamples = 10\nvalue = [0, 0, 0, 0, 0, 0, 10, 0, 0]"] ;
127 -> 131 ;
132 [label="X[13] <= 0.5\nentropy = 1.489\nsamples = 35\nvalue = [0, 0, 15, 14, 0, 0, 0, 6, 0]"] ;
126 -> 132 ;
133 [label="X[17] <= 0.5\nentropy = 0.881\nsamples = 20\nvalue = [0, 0, 0, 14, 0, 0, 0, 6, 0]"] ;
132 -> 133 ;
134 [label="entropy = 0.0\nsamples = 6\nvalue = [0, 0, 0, 0, 0, 0, 0, 6, 0]"] ;
133 -> 134 ;
135 [label="entropy = 0.0\nsamples = 14\nvalue = [0, 0, 0, 14, 0, 0, 0, 0, 0]"] ;
133 -> 135 ;
136 [label="entropy = 0.0\nsamples = 15\nvalue = [0, 0, 15, 0, 0, 0, 0, 0, 0]"] ;
132 -> 136 ;
137 [label="X[18] <= 0.5\nentropy = 0.994\nsamples = 395\nvalue = [0, 0, 216, 0, 0, 0, 0, 179, 0]"] ;
125 -> 137 ;
138 [label="entropy = 0.0\nsamples = 50\nvalue = [0, 0, 50, 0, 0, 0, 0, 0, 0]"] ;
137 -> 138 ;
139 [label="X[9] <= 0.5\nentropy = 0.999\nsamples = 345\nvalue = [0, 0, 166, 0, 0, 0, 0, 179, 0]"] ;
137 -> 139 ;
140 [label="entropy = 0.985\nsamples = 7\nvalue = [0, 0, 3, 0, 0, 0, 0, 4, 0]"] ;
139 -> 140 ;
141 [label="entropy = 0.999\nsamples = 338\nvalue = [0, 0, 163, 0, 0, 0, 0, 175, 0]"] ;
139 -> 141 ;
142 [label="X[18] <= 0.5\nentropy = 2.351\nsamples = 2144\nvalue = [0, 855, 127, 138, 0, 165, 112, 195, 552]"] ;
2 -> 142 ;
143 [label="X[8] <= 0.5\nentropy = 2.276\nsamples = 1285\nvalue = [0, 602, 126, 64, 0, 155, 112, 194, 32]"] ;
142 -> 143 ;
144 [label="X[25] <= 0.5\nentropy = 2.004\nsamples = 366\nvalue = [0, 58, 0, 3, 0, 74, 23, 177, 31]"] ;
143 -> 144 ;
145 [label="X[0] <= 0.5\nentropy = 1.866\nsamples = 125\nvalue = [0, 58, 0, 2, 0, 0, 23, 11, 31]"] ;
144 -> 145 ;
146 [label="X[13] <= 0.5\nentropy = 1.508\nsamples = 103\nvalue = [0, 58, 0, 2, 0, 0, 1, 11, 31]"] ;
145 -> 146 ;
147 [label="X[19] <= 0.5\nentropy = 0.977\nsamples = 51\nvalue = [0, 38, 0, 2, 0, 0, 0, 11, 0]"] ;
146 -> 147 ;
148 [label="entropy = 0.0\nsamples = 27\nvalue = [0, 27, 0, 0, 0, 0, 0, 0, 0]"] ;
147 -> 148 ;
149 [label="X[16] <= 0.5\nentropy = 1.33\nsamples = 24\nvalue = [0, 11, 0, 2, 0, 0, 0, 11, 0]"] ;
147 -> 149 ;
150 [label="entropy = 0.0\nsamples = 2\nvalue = [0, 0, 0, 2, 0, 0, 0, 0, 0]"] ;
149 -> 150 ;
151 [label="entropy = 1.0\nsamples = 22\nvalue = [0, 11, 0, 0, 0, 0, 0, 11, 0]"] ;
149 -> 151 ;
152 [label="X[24] <= 0.5\nentropy = 1.085\nsamples = 52\nvalue = [0, 20, 0, 0, 0, 0, 1, 0, 31]"] ;
146 -> 152 ;
153 [label="entropy = 0.0\nsamples = 31\nvalue = [0, 0, 0, 0, 0, 0, 0, 0, 31]"] ;
152 -> 153 ;
154 [label="X[21] <= 0.5\nentropy = 0.276\nsamples = 21\nvalue = [0, 20, 0, 0, 0, 0, 1, 0, 0]"] ;
152 -> 154 ;
155 [label="entropy = 0.0\nsamples = 20\nvalue = [0, 20, 0, 0, 0, 0, 0, 0, 0]"] ;
154 -> 155 ;
156 [label="entropy = 0.0\nsamples = 1\nvalue = [0, 0, 0, 0, 0, 0, 1, 0, 0]"] ;
154 -> 156 ;
157 [label="entropy = 0.0\nsamples = 22\nvalue = [0, 0, 0, 0, 0, 0, 22, 0, 0]"] ;
145 -> 157 ;
158 [label="X[10] <= 0.5\nentropy = 0.926\nsamples = 241\nvalue = [0, 0, 0, 1, 0, 74, 0, 166, 0]"] ;
144 -> 158 ;
159 [label="X[19] <= 0.5\nentropy = 1.052\nsamples = 148\nvalue = [0, 0, 0, 1, 0, 74, 0, 73, 0]"] ;
158 -> 159 ;
160 [label="entropy = 0.0\nsamples = 1\nvalue = [0, 0, 0, 1, 0, 0, 0, 0, 0]"] ;
159 -> 160 ;
161 [label="entropy = 1.0\nsamples = 147\nvalue = [0, 0, 0, 0, 0, 74, 0, 73, 0]"] ;
159 -> 161 ;
162 [label="entropy = 0.0\nsamples = 93\nvalue = [0, 0, 0, 0, 0, 0, 0, 93, 0]"] ;
158 -> 162 ;
163 [label="X[12] <= 0.5\nentropy = 1.853\nsamples = 919\nvalue = [0, 544, 126, 61, 0, 81, 89, 17, 1]"] ;
143 -> 163 ;
164 [label="X[19] <= 0.5\nentropy = 1.968\nsamples = 247\nvalue = [0, 35, 103, 14, 0, 76, 19, 0, 0]"] ;
163 -> 164 ;
165 [label="X[11] <= 0.5\nentropy = 2.053\nsamples = 170\nvalue = [0, 35, 26, 14, 0, 76, 19, 0, 0]"] ;
164 -> 165 ;
166 [label="X[17] <= 0.5\nentropy = 0.972\nsamples = 87\nvalue = [0, 11, 8, 0, 0, 68, 0, 0, 0]"] ;
165 -> 166 ;
167 [label="entropy = 0.0\nsamples = 8\nvalue = [0, 8, 0, 0, 0, 0, 0, 0, 0]"] ;
166 -> 167 ;
168 [label="entropy = 0.7\nsamples = 79\nvalue = [0, 3, 8, 0, 0, 68, 0, 0, 0]"] ;
166 -> 168 ;
169 [label="X[16] <= 0.5\nentropy = 2.241\nsamples = 83\nvalue = [0, 24, 18, 14, 0, 8, 19, 0, 0]"] ;
165 -> 169 ;
170 [label="X[26] <= 0.5\nentropy = 2.197\nsamples = 72\nvalue = [0, 24, 11, 10, 0, 8, 19, 0, 0]"] ;
169 -> 170 ;
171 [label="entropy = 0.65\nsamples = 6\nvalue = [0, 0, 5, 0, 0, 0, 1, 0, 0]"] ;
170 -> 171 ;
172 [label="X[23] <= 0.5\nentropy = 2.138\nsamples = 66\nvalue = [0, 24, 6, 10, 0, 8, 18, 0, 0]"] ;
170 -> 172 ;
173 [label="entropy = 1.0\nsamples = 6\nvalue = [0, 3, 0, 0, 0, 0, 3, 0, 0]"] ;
172 -> 173 ;
174 [label="entropy = 2.181\nsamples = 60\nvalue = [0, 21, 6, 10, 0, 8, 15, 0, 0]"] ;
172 -> 174 ;
175 [label="entropy = 0.946\nsamples = 11\nvalue = [0, 0, 7, 4, 0, 0, 0, 0, 0]"] ;
169 -> 175 ;
176 [label="entropy = 0.0\nsamples = 77\nvalue = [0, 0, 77, 0, 0, 0, 0, 0, 0]"] ;
164 -> 176 ;
177 [label="X[0] <= 0.5\nentropy = 1.279\nsamples = 672\nvalue = [0, 509, 23, 47, 0, 5, 70, 17, 1]"] ;
163 -> 177 ;
178 [label="X[9] <= 0.5\nentropy = 1.983\nsamples = 328\nvalue = [0, 165, 23, 47, 0, 5, 70, 17, 1]"] ;
177 -> 178 ;
179 [label="X[20] <= 0.5\nentropy = 1.807\nsamples = 250\nvalue = [0, 119, 2, 47, 0, 5, 70, 6, 1]"] ;
178 -> 179 ;
180 [label="entropy = 0.0\nsamples = 22\nvalue = [0, 0, 0, 22, 0, 0, 0, 0, 0]"] ;
179 -> 180 ;
181 [label="X[11] <= 0.5\nentropy = 1.716\nsamples = 228\nvalue = [0, 119, 2, 25, 0, 5, 70, 6, 1]"] ;
179 -> 181 ;
182 [label="entropy = 0.0\nsamples = 25\nvalue = [0, 0, 0, 0, 0, 0, 25, 0, 0]"] ;
181 -> 182 ;
183 [label="X[17] <= 0.5\nentropy = 1.691\nsamples = 203\nvalue = [0, 119, 2, 25, 0, 5, 45, 6, 1]"] ;
181 -> 183 ;
184 [label="entropy = 0.0\nsamples = 15\nvalue = [0, 0, 0, 0, 0, 0, 15, 0, 0]"] ;
183 -> 184 ;
185 [label="entropy = 1.635\nsamples = 188\nvalue = [0, 119, 2, 25, 0, 5, 30, 6, 1]"] ;
183 -> 185 ;
186 [label="X[19] <= 0.5\nentropy = 1.358\nsamples = 78\nvalue = [0, 46, 21, 0, 0, 0, 0, 11, 0]"] ;
178 -> 186 ;
187 [label="entropy = 1.333\nsamples = 68\nvalue = [0, 40, 20, 0, 0, 0, 0, 8, 0]"] ;
186 -> 187 ;
188 [label="X[26] <= 0.5\nentropy = 1.295\nsamples = 10\nvalue = [0, 6, 1, 0, 0, 0, 0, 3, 0]"] ;
186 -> 188 ;
189 [label="entropy = 1.0\nsamples = 2\nvalue = [0, 1, 1, 0, 0, 0, 0, 0, 0]"] ;
188 -> 189 ;
190 [label="entropy = 0.954\nsamples = 8\nvalue = [0, 5, 0, 0, 0, 0, 0, 3, 0]"] ;
188 -> 190 ;
191 [label="entropy = 0.0\nsamples = 344\nvalue = [0, 344, 0, 0, 0, 0, 0, 0, 0]"] ;
177 -> 191 ;
192 [label="X[26] <= 0.5\nentropy = 1.36\nsamples = 859\nvalue = [0, 253, 1, 74, 0, 10, 0, 1, 520]"] ;
142 -> 192 ;
193 [label="X[23] <= 0.5\nentropy = 0.989\nsamples = 226\nvalue = [0, 150, 1, 74, 0, 0, 0, 1, 0]"] ;
192 -> 193 ;
194 [label="X[12] <= 0.5\nentropy = 0.058\nsamples = 149\nvalue = [0, 148, 1, 0, 0, 0, 0, 0, 0]"] ;
193 -> 194 ;
195 [label="entropy = 0.0\nsamples = 148\nvalue = [0, 148, 0, 0, 0, 0, 0, 0, 0]"] ;
194 -> 195 ;
196 [label="entropy = 0.0\nsamples = 1\nvalue = [0, 0, 1, 0, 0, 0, 0, 0, 0]"] ;
194 -> 196 ;
197 [label="X[16] <= 0.5\nentropy = 0.273\nsamples = 77\nvalue = [0, 2, 0, 74, 0, 0, 0, 1, 0]"] ;
193 -> 197 ;
198 [label="X[8] <= 0.5\nentropy = 0.918\nsamples = 3\nvalue = [0, 2, 0, 0, 0, 0, 0, 1, 0]"] ;
197 -> 198 ;
199 [label="entropy = 0.0\nsamples = 1\nvalue = [0, 0, 0, 0, 0, 0, 0, 1, 0]"] ;
198 -> 199 ;
200 [label="entropy = 0.0\nsamples = 2\nvalue = [0, 2, 0, 0, 0, 0, 0, 0, 0]"] ;
198 -> 200 ;
201 [label="entropy = 0.0\nsamples = 74\nvalue = [0, 0, 0, 74, 0, 0, 0, 0, 0]"] ;
197 -> 201 ;
202 [label="X[7] <= 0.5\nentropy = 0.754\nsamples = 633\nvalue = [0, 103, 0, 0, 0, 10, 0, 0, 520]"] ;
192 -> 202 ;
203 [label="X[10] <= 0.5\nentropy = 0.292\nsamples = 543\nvalue = [0, 15, 0, 0, 0, 8, 0, 0, 520]"] ;
202 -> 203 ;
204 [label="entropy = 0.0\nsamples = 520\nvalue = [0, 0, 0, 0, 0, 0, 0, 0, 520]"] ;
203 -> 204 ;
205 [label="X[22] <= 0.5\nentropy = 0.932\nsamples = 23\nvalue = [0, 15, 0, 0, 0, 8, 0, 0, 0]"] ;
203 -> 205 ;
206 [label="entropy = 0.998\nsamples = 17\nvalue = [0, 9, 0, 0, 0, 8, 0, 0, 0]"] ;
205 -> 206 ;
207 [label="entropy = 0.0\nsamples = 6\nvalue = [0, 6, 0, 0, 0, 0, 0, 0, 0]"] ;
205 -> 207 ;
208 [label="X[12] <= 0.5\nentropy = 0.154\nsamples = 90\nvalue = [0, 88, 0, 0, 0, 2, 0, 0, 0]"] ;
202 -> 208 ;
209 [label="X[17] <= 0.5\nentropy = 0.619\nsamples = 13\nvalue = [0, 11, 0, 0, 0, 2, 0, 0, 0]"] ;
208 -> 209 ;
210 [label="entropy = 0.0\nsamples = 11\nvalue = [0, 11, 0, 0, 0, 0, 0, 0, 0]"] ;
209 -> 210 ;
211 [label="entropy = 0.0\nsamples = 2\nvalue = [0, 0, 0, 0, 0, 2, 0, 0, 0]"] ;
209 -> 211 ;
212 [label="entropy = 0.0\nsamples = 77\nvalue = [0, 77, 0, 0, 0, 0, 0, 0, 0]"] ;
208 -> 212 ;
213 [label="X[18] <= 0.5\nentropy = 1.943\nsamples = 718\nvalue = [0, 36, 184, 16, 387, 8, 38, 35, 14]"] ;
1 -> 213 ;
214 [label="X[26] <= 0.5\nentropy = 1.534\nsamples = 512\nvalue = [0, 26, 42, 10, 370, 4, 38, 9, 13]"] ;
213 -> 214 ;
215 [label="X[6] <= 0.5\nentropy = 2.589\nsamples = 98\nvalue = [0, 18, 23, 8, 24, 3, 13, 9, 0]"] ;
214 -> 215 ;
216 [label="X[1] <= 0.5\nentropy = 2.128\nsamples = 66\nvalue = [0, 18, 23, 7, 5, 0, 13, 0, 0]"] ;
215 -> 216 ;
217 [label="X[4] <= 0.5\nentropy = 0.75\nsamples = 28\nvalue = [0, 0, 22, 0, 0, 0, 6, 0, 0]"] ;
216 -> 217 ;
218 [label="X[7] <= 0.5\nentropy = 0.258\nsamples = 23\nvalue = [0, 0, 22, 0, 0, 0, 1, 0, 0]"] ;
217 -> 218 ;
219 [label="entropy = 0.0\nsamples = 22\nvalue = [0, 0, 22, 0, 0, 0, 0, 0, 0]"] ;
218 -> 219 ;
220 [label="entropy = 0.0\nsamples = 1\nvalue = [0, 0, 0, 0, 0, 0, 1, 0, 0]"] ;
218 -> 220 ;
221 [label="entropy = 0.0\nsamples = 5\nvalue = [0, 0, 0, 0, 0, 0, 5, 0, 0]"] ;
217 -> 221 ;
222 [label="X[8] <= 0.5\nentropy = 1.933\nsamples = 38\nvalue = [0, 18, 1, 7, 5, 0, 7, 0, 0]"] ;
216 -> 222 ;
223 [label="entropy = 0.0\nsamples = 14\nvalue = [0, 14, 0, 0, 0, 0, 0, 0, 0]"] ;
222 -> 223 ;
224 [label="X[3] <= 0.5\nentropy = 2.13\nsamples = 24\nvalue = [0, 4, 1, 7, 5, 0, 7, 0, 0]"] ;
222 -> 224 ;
225 [label="entropy = 2.076\nsamples = 19\nvalue = [0, 4, 1, 2, 5, 0, 7, 0, 0]"] ;
224 -> 225 ;
226 [label="entropy = 0.0\nsamples = 5\nvalue = [0, 0, 0, 5, 0, 0, 0, 0, 0]"] ;
224 -> 226 ;
227 [label="X[10] <= 0.5\nentropy = 1.438\nsamples = 32\nvalue = [0, 0, 0, 1, 19, 3, 0, 9, 0]"] ;
215 -> 227 ;
228 [label="X[23] <= 0.5\nentropy = 1.198\nsamples = 14\nvalue = [0, 0, 0, 1, 4, 0, 0, 9, 0]"] ;
227 -> 228 ;
229 [label="entropy = 0.0\nsamples = 4\nvalue = [0, 0, 0, 0, 4, 0, 0, 0, 0]"] ;
228 -> 229 ;
230 [label="X[0] <= 0.5\nentropy = 0.469\nsamples = 10\nvalue = [0, 0, 0, 1, 0, 0, 0, 9, 0]"] ;
228 -> 230 ;
231 [label="X[17] <= 0.5\nentropy = 1.0\nsamples = 2\nvalue = [0, 0, 0, 1, 0, 0, 0, 1, 0]"] ;
230 -> 231 ;
232 [label="entropy = 0.0\nsamples = 1\nvalue = [0, 0, 0, 0, 0, 0, 0, 1, 0]"] ;
231 -> 232 ;
233 [label="entropy = 0.0\nsamples = 1\nvalue = [0, 0, 0, 1, 0, 0, 0, 0, 0]"] ;
231 -> 233 ;
234 [label="entropy = 0.0\nsamples = 8\nvalue = [0, 0, 0, 0, 0, 0, 0, 8, 0]"] ;
230 -> 234 ;
235 [label="X[21] <= 0.5\nentropy = 0.65\nsamples = 18\nvalue = [0, 0, 0, 0, 15, 3, 0, 0, 0]"] ;
227 -> 235 ;
236 [label="entropy = 0.0\nsamples = 14\nvalue = [0, 0, 0, 0, 14, 0, 0, 0, 0]"] ;
235 -> 236 ;
237 [label="entropy = 0.811\nsamples = 4\nvalue = [0, 0, 0, 0, 1, 3, 0, 0, 0]"] ;
235 -> 237 ;
238 [label="X[1] <= 0.5\nentropy = 0.99\nsamples = 414\nvalue = [0, 8, 19, 2, 346, 1, 25, 0, 13]"] ;
214 -> 238 ;
239 [label="X[7] <= 0.5\nentropy = 0.145\nsamples = 221\nvalue = [0, 3, 0, 1, 217, 0, 0, 0, 0]"] ;
238 -> 239 ;
240 [label="X[23] <= 0.5\nentropy = 0.327\nsamples = 50\nvalue = [0, 3, 0, 0, 47, 0, 0, 0, 0]"] ;
239 -> 240 ;
241 [label="entropy = 0.0\nsamples = 29\nvalue = [0, 0, 0, 0, 29, 0, 0, 0, 0]"] ;
240 -> 241 ;
242 [label="X[5] <= 0.5\nentropy = 0.592\nsamples = 21\nvalue = [0, 3, 0, 0, 18, 0, 0, 0, 0]"] ;
240 -> 242 ;
243 [label="entropy = 0.0\nsamples = 7\nvalue = [0, 0, 0, 0, 7, 0, 0, 0, 0]"] ;
242 -> 243 ;
244 [label="X[11] <= 0.5\nentropy = 0.75\nsamples = 14\nvalue = [0, 3, 0, 0, 11, 0, 0, 0, 0]"] ;
242 -> 244 ;
245 [label="entropy = 0.684\nsamples = 11\nvalue = [0, 2, 0, 0, 9, 0, 0, 0, 0]"] ;
244 -> 245 ;
246 [label="entropy = 0.918\nsamples = 3\nvalue = [0, 1, 0, 0, 2, 0, 0, 0, 0]"] ;
244 -> 246 ;
247 [label="X[4] <= 0.5\nentropy = 0.052\nsamples = 171\nvalue = [0, 0, 0, 1, 170, 0, 0, 0, 0]"] ;
239 -> 247 ;
248 [label="entropy = 0.0\nsamples = 169\nvalue = [0, 0, 0, 0, 169, 0, 0, 0, 0]"] ;
247 -> 248 ;
249 [label="X[19] <= 0.5\nentropy = 1.0\nsamples = 2\nvalue = [0, 0, 0, 1, 1, 0, 0, 0, 0]"] ;
247 -> 249 ;
250 [label="entropy = 0.0\nsamples = 1\nvalue = [0, 0, 0, 1, 0, 0, 0, 0, 0]"] ;
249 -> 250 ;
251 [label="entropy = 0.0\nsamples = 1\nvalue = [0, 0, 0, 0, 1, 0, 0, 0, 0]"] ;
249 -> 251 ;
252 [label="X[8] <= 0.5\nentropy = 1.577\nsamples = 193\nvalue = [0, 5, 19, 1, 129, 1, 25, 0, 13]"] ;
238 -> 252 ;
253 [label="X[20] <= 0.5\nentropy = 0.866\nsamples = 11\nvalue = [0, 0, 0, 1, 0, 1, 9, 0, 0]"] ;
252 -> 253 ;
254 [label="entropy = 0.0\nsamples = 1\nvalue = [0, 0, 0, 1, 0, 0, 0, 0, 0]"] ;
253 -> 254 ;
255 [label="X[5] <= 0.5\nentropy = 0.469\nsamples = 10\nvalue = [0, 0, 0, 0, 0, 1, 9, 0, 0]"] ;
253 -> 255 ;
256 [label="entropy = 0.0\nsamples = 1\nvalue = [0, 0, 0, 0, 0, 0, 1, 0, 0]"] ;
255 -> 256 ;
257 [label="entropy = 0.503\nsamples = 9\nvalue = [0, 0, 0, 0, 0, 1, 8, 0, 0]"] ;
255 -> 257 ;
258 [label="X[15] <= 0.5\nentropy = 1.415\nsamples = 182\nvalue = [0, 5, 19, 0, 129, 0, 16, 0, 13]"] ;
252 -> 258 ;
259 [label="X[9] <= 0.5\nentropy = 1.291\nsamples = 164\nvalue = [0, 5, 10, 0, 123, 0, 13, 0, 13]"] ;
258 -> 259 ;
260 [label="X[21] <= 0.5\nentropy = 0.502\nsamples = 75\nvalue = [0, 0, 1, 0, 69, 0, 4, 0, 1]"] ;
259 -> 260 ;
261 [label="X[5] <= 0.5\nentropy = 0.316\nsamples = 72\nvalue = [0, 0, 1, 0, 69, 0, 1, 0, 1]"] ;
260 -> 261 ;
262 [label="entropy = 1.208\nsamples = 12\nvalue = [0, 0, 1, 0, 9, 0, 1, 0, 1]"] ;
261 -> 262 ;
263 [label="entropy = 0.0\nsamples = 60\nvalue = [0, 0, 0, 0, 60, 0, 0, 0, 0]"] ;
261 -> 263 ;
264 [label="entropy = 0.0\nsamples = 3\nvalue = [0, 0, 0, 0, 0, 0, 3, 0, 0]"] ;
260 -> 264 ;
265 [label="entropy = 1.729\nsamples = 89\nvalue = [0, 5, 9, 0, 54, 0, 9, 0, 12]"] ;
259 -> 265 ;
266 [label="entropy = 1.459\nsamples = 18\nvalue = [0, 0, 9, 0, 6, 0, 3, 0, 0]"] ;
258 -> 266 ;
267 [label="X[26] <= 0.5\nentropy = 1.552\nsamples = 206\nvalue = [0, 10, 142, 6, 17, 4, 0, 26, 1]"] ;
213 -> 267 ;
268 [label="X[5] <= 0.5\nentropy = 1.89\nsamples = 26\nvalue = [0, 9, 0, 4, 9, 4, 0, 0, 0]"] ;
267 -> 268 ;
269 [label="X[11] <= 0.5\nentropy = 1.42\nsamples = 16\nvalue = [0, 0, 0, 4, 9, 3, 0, 0, 0]"] ;
268 -> 269 ;
270 [label="entropy = 0.0\nsamples = 8\nvalue = [0, 0, 0, 0, 8, 0, 0, 0, 0]"] ;
269 -> 270 ;
271 [label="entropy = 1.406\nsamples = 8\nvalue = [0, 0, 0, 4, 1, 3, 0, 0, 0]"] ;
269 -> 271 ;
272 [label="X[25] <= 0.5\nentropy = 0.469\nsamples = 10\nvalue = [0, 9, 0, 0, 0, 1, 0, 0, 0]"] ;
268 -> 272 ;
273 [label="entropy = 0.0\nsamples = 8\nvalue = [0, 8, 0, 0, 0, 0, 0, 0, 0]"] ;
272 -> 273 ;
274 [label="X[23] <= 0.5\nentropy = 1.0\nsamples = 2\nvalue = [0, 1, 0, 0, 0, 1, 0, 0, 0]"] ;
272 -> 274 ;
275 [label="entropy = 0.0\nsamples = 1\nvalue = [0, 1, 0, 0, 0, 0, 0, 0, 0]"] ;
274 -> 275 ;
276 [label="entropy = 0.0\nsamples = 1\nvalue = [0, 0, 0, 0, 0, 1, 0, 0, 0]"] ;
274 -> 276 ;
277 [label="X[10] <= 0.5\nentropy = 1.028\nsamples = 180\nvalue = [0, 1, 142, 2, 8, 0, 0, 26, 1]"] ;
267 -> 277 ;
278 [label="X[4] <= 0.5\nentropy = 1.008\nsamples = 179\nvalue = [0, 1, 142, 2, 7, 0, 0, 26, 1]"] ;
277 -> 278 ;
279 [label="entropy = 1.02\nsamples = 176\nvalue = [0, 1, 139, 2, 7, 0, 0, 26, 1]"] ;
278 -> 279 ;
280 [label="entropy = 0.0\nsamples = 3\nvalue = [0, 0, 3, 0, 0, 0, 0, 0, 0]"] ;
278 -> 280 ;
281 [label="entropy = 0.0\nsamples = 1\nvalue = [0, 0, 0, 0, 1, 0, 0, 0, 0]"] ;
277 -> 281 ;
282 [label="X[19] <= 0.5\nentropy = 2.323\nsamples = 2806\nvalue = [999, 68, 46, 463, 613, 41, 529, 15, 32]"] ;
0 -> 282 [labeldistance=2.5, labelangle=-45, headlabel="False"] ;
283 [label="X[10] <= 0.5\nentropy = 2.435\nsamples = 2149\nvalue = [482, 68, 39, 456, 495, 41, 529, 9, 30]"] ;
282 -> 283 ;
284 [label="X[9] <= 0.5\nentropy = 2.423\nsamples = 1761\nvalue = [363, 61, 38, 456, 245, 32, 527, 9, 30]"] ;
283 -> 284 ;
285 [label="X[14] <= 0.5\nentropy = 2.452\nsamples = 1508\nvalue = [352, 53, 28, 456, 245, 32, 304, 9, 29]"] ;
284 -> 285 ;
286 [label="X[20] <= 0.5\nentropy = 1.565\nsamples = 388\nvalue = [230, 5, 14, 117, 0, 5, 9, 5, 3]"] ;
285 -> 286 ;
287 [label="X[26] <= 0.5\nentropy = 0.575\nsamples = 118\nvalue = [3, 0, 0, 108, 0, 4, 0, 1, 2]"] ;
286 -> 287 ;
288 [label="entropy = 0.0\nsamples = 1\nvalue = [1, 0, 0, 0, 0, 0, 0, 0, 0]"] ;
287 -> 288 ;
289 [label="entropy = 0.533\nsamples = 117\nvalue = [2, 0, 0, 108, 0, 4, 0, 1, 2]"] ;
287 -> 289 ;
290 [label="X[3] <= 0.5\nentropy = 1.015\nsamples = 270\nvalue = [227, 5, 14, 9, 0, 1, 9, 4, 1]"] ;
286 -> 290 ;
291 [label="X[26] <= 0.5\nentropy = 0.624\nsamples = 232\nvalue = [212, 5, 1, 3, 0, 0, 6, 4, 1]"] ;
290 -> 291 ;
292 [label="X[24] <= 0.5\nentropy = 2.2\nsamples = 13\nvalue = [0, 2, 1, 3, 0, 0, 4, 3, 0]"] ;
291 -> 292 ;
293 [label="X[22] <= 0.5\nentropy = 0.918\nsamples = 3\nvalue = [0, 2, 0, 1, 0, 0, 0, 0, 0]"] ;
292 -> 293 ;
294 [label="entropy = 0.0\nsamples = 2\nvalue = [0, 2, 0, 0, 0, 0, 0, 0, 0]"] ;
293 -> 294 ;
295 [label="entropy = 0.0\nsamples = 1\nvalue = [0, 0, 0, 1, 0, 0, 0, 0, 0]"] ;
293 -> 295 ;
296 [label="X[16] <= 0.5\nentropy = 1.846\nsamples = 10\nvalue = [0, 0, 1, 2, 0, 0, 4, 3, 0]"] ;
292 -> 296 ;
297 [label="X[4] <= 0.5\nentropy = 1.753\nsamples = 9\nvalue = [0, 0, 1, 1, 0, 0, 4, 3, 0]"] ;
296 -> 297 ;
298 [label="entropy = 1.792\nsamples = 6\nvalue = [0, 0, 1, 1, 0, 0, 3, 1, 0]"] ;
297 -> 298 ;
299 [label="X[23] <= 0.5\nentropy = 0.918\nsamples = 3\nvalue = [0, 0, 0, 0, 0, 0, 1, 2, 0]"] ;
297 -> 299 ;
300 [label="entropy = 0.0\nsamples = 1\nvalue = [0, 0, 0, 0, 0, 0, 1, 0, 0]"] ;
299 -> 300 ;
301 [label="entropy = 0.0\nsamples = 2\nvalue = [0, 0, 0, 0, 0, 0, 0, 2, 0]"] ;
299 -> 301 ;
302 [label="entropy = 0.0\nsamples = 1\nvalue = [0, 0, 0, 1, 0, 0, 0, 0, 0]"] ;
296 -> 302 ;
303 [label="X[6] <= 0.5\nentropy = 0.263\nsamples = 219\nvalue = [212, 3, 0, 0, 0, 0, 2, 1, 1]"] ;
291 -> 303 ;
304 [label="X[15] <= 0.5\nentropy = 0.119\nsamples = 214\nvalue = [211, 0, 0, 0, 0, 0, 2, 0, 1]"] ;
303 -> 304 ;
305 [label="X[21] <= 0.5\nentropy = 0.044\nsamples = 205\nvalue = [204, 0, 0, 0, 0, 0, 1, 0, 0]"] ;
304 -> 305 ;
306 [label="entropy = 0.0\nsamples = 204\nvalue = [204, 0, 0, 0, 0, 0, 0, 0, 0]"] ;
305 -> 306 ;
307 [label="entropy = 0.0\nsamples = 1\nvalue = [0, 0, 0, 0, 0, 0, 1, 0, 0]"] ;
305 -> 307 ;
308 [label="entropy = 0.986\nsamples = 9\nvalue = [7, 0, 0, 0, 0, 0, 1, 0, 1]"] ;
304 -> 308 ;
309 [label="entropy = 1.371\nsamples = 5\nvalue = [1, 3, 0, 0, 0, 0, 0, 1, 0]"] ;
303 -> 309 ;
310 [label="X[8] <= 0.5\nentropy = 1.907\nsamples = 38\nvalue = [15, 0, 13, 6, 0, 1, 3, 0, 0]"] ;
290 -> 310 ;
311 [label="entropy = 0.0\nsamples = 1\nvalue = [0, 0, 0, 0, 0, 1, 0, 0, 0]"] ;
310 -> 311 ;
312 [label="X[22] <= 0.5\nentropy = 1.778\nsamples = 37\nvalue = [15, 0, 13, 6, 0, 0, 3, 0, 0]"] ;
310 -> 312 ;
313 [label="entropy = 1.784\nsamples = 36\nvalue = [15, 0, 12, 6, 0, 0, 3, 0, 0]"] ;
312 -> 313 ;
314 [label="entropy = 0.0\nsamples = 1\nvalue = [0, 0, 1, 0, 0, 0, 0, 0, 0]"] ;
312 -> 314 ;
315 [label="X[4] <= 0.5\nentropy = 2.415\nsamples = 1120\nvalue = [122, 48, 14, 339, 245, 27, 295, 4, 26]"] ;
285 -> 315 ;
316 [label="X[17] <= 0.5\nentropy = 2.411\nsamples = 1072\nvalue = [110, 48, 14, 339, 209, 27, 295, 4, 26]"] ;
315 -> 316 ;
317 [label="entropy = 0.918\nsamples = 27\nvalue = [18, 0, 0, 0, 9, 0, 0, 0, 0]"] ;
316 -> 317 ;
318 [label="X[26] <= 0.5\nentropy = 2.394\nsamples = 1045\nvalue = [92, 48, 14, 339, 200, 27, 295, 4, 26]"] ;
316 -> 318 ;
319 [label="entropy = 1.0\nsamples = 26\nvalue = [19, 0, 0, 0, 6, 0, 1, 0, 0]"] ;
318 -> 319 ;
320 [label="X[8] <= 0.5\nentropy = 2.371\nsamples = 1019\nvalue = [73, 48, 14, 339, 194, 27, 294, 4, 26]"] ;
318 -> 320 ;
321 [label="X[18] <= 0.5\nentropy = 0.918\nsamples = 15\nvalue = [10, 0, 0, 0, 5, 0, 0, 0, 0]"] ;
320 -> 321 ;
322 [label="entropy = 0.94\nsamples = 14\nvalue = [9, 0, 0, 0, 5, 0, 0, 0, 0]"] ;
321 -> 322 ;
323 [label="entropy = 0.0\nsamples = 1\nvalue = [1, 0, 0, 0, 0, 0, 0, 0, 0]"] ;
321 -> 323 ;
324 [label="X[22] <= 0.5\nentropy = 2.356\nsamples = 1004\nvalue = [63, 48, 14, 339, 189, 27, 294, 4, 26]"] ;
320 -> 324 ;
325 [label="entropy = 2.351\nsamples = 1000\nvalue = [60, 48, 14, 339, 188, 27, 294, 4, 26]"] ;
324 -> 325 ;
326 [label="entropy = 0.811\nsamples = 4\nvalue = [3, 0, 0, 0, 1, 0, 0, 0, 0]"] ;
324 -> 326 ;
327 [label="entropy = 0.811\nsamples = 48\nvalue = [12, 0, 0, 0, 36, 0, 0, 0, 0]"] ;
315 -> 327 ;
328 [label="X[14] <= 0.5\nentropy = 0.731\nsamples = 253\nvalue = [11, 8, 10, 0, 0, 0, 223, 0, 1]"] ;
284 -> 328 ;
329 [label="X[5] <= 0.5\nentropy = 0.713\nsamples = 252\nvalue = [11, 7, 10, 0, 0, 0, 223, 0, 1]"] ;
328 -> 329 ;
330 [label="entropy = 0.0\nsamples = 2\nvalue = [0, 0, 0, 0, 0, 0, 2, 0, 0]"] ;
329 -> 330 ;
331 [label="X[26] <= 0.5\nentropy = 0.718\nsamples = 250\nvalue = [11, 7, 10, 0, 0, 0, 221, 0, 1]"] ;
329 -> 331 ;
332 [label="entropy = 0.0\nsamples = 1\nvalue = [0, 0, 0, 0, 0, 0, 1, 0, 0]"] ;
331 -> 332 ;
333 [label="entropy = 0.72\nsamples = 249\nvalue = [11, 7, 10, 0, 0, 0, 220, 0, 1]"] ;
331 -> 333 ;
334 [label="entropy = 0.0\nsamples = 1\nvalue = [0, 1, 0, 0, 0, 0, 0, 0, 0]"] ;
328 -> 334 ;
335 [label="X[14] <= 0.5\nentropy = 1.223\nsamples = 388\nvalue = [119, 7, 1, 0, 250, 9, 2, 0, 0]"] ;
283 -> 335 ;
336 [label="X[26] <= 0.5\nentropy = 1.473\nsamples = 48\nvalue = [30, 7, 0, 0, 0, 9, 2, 0, 0]"] ;
335 -> 336 ;
337 [label="X[17] <= 0.5\nentropy = 1.873\nsamples = 23\nvalue = [7, 7, 0, 0, 0, 7, 2, 0, 0]"] ;
336 -> 337 ;
338 [label="X[5] <= 0.5\nentropy = 1.296\nsamples = 13\nvalue = [7, 5, 0, 0, 0, 0, 1, 0, 0]"] ;
337 -> 338 ;
339 [label="X[20] <= 0.5\nentropy = 0.65\nsamples = 6\nvalue = [5, 0, 0, 0, 0, 0, 1, 0, 0]"] ;
338 -> 339 ;
340 [label="entropy = 0.0\nsamples = 5\nvalue = [5, 0, 0, 0, 0, 0, 0, 0, 0]"] ;
339 -> 340 ;
341 [label="entropy = 0.0\nsamples = 1\nvalue = [0, 0, 0, 0, 0, 0, 1, 0, 0]"] ;
339 -> 341 ;
342 [label="X[24] <= 0.5\nentropy = 0.863\nsamples = 7\nvalue = [2, 5, 0, 0, 0, 0, 0, 0, 0]"] ;
338 -> 342 ;
343 [label="entropy = 0.0\nsamples = 2\nvalue = [2, 0, 0, 0, 0, 0, 0, 0, 0]"] ;
342 -> 343 ;
344 [label="entropy = 0.0\nsamples = 5\nvalue = [0, 5, 0, 0, 0, 0, 0, 0, 0]"] ;
342 -> 344 ;
345 [label="X[12] <= 0.5\nentropy = 1.157\nsamples = 10\nvalue = [0, 2, 0, 0, 0, 7, 1, 0, 0]"] ;
337 -> 345 ;
346 [label="entropy = 0.0\nsamples = 6\nvalue = [0, 0, 0, 0, 0, 6, 0, 0, 0]"] ;
345 -> 346 ;
347 [label="X[3] <= 0.5\nentropy = 1.5\nsamples = 4\nvalue = [0, 2, 0, 0, 0, 1, 1, 0, 0]"] ;
345 -> 347 ;
348 [label="X[20] <= 0.5\nentropy = 0.918\nsamples = 3\nvalue = [0, 2, 0, 0, 0, 0, 1, 0, 0]"] ;
347 -> 348 ;
349 [label="entropy = 0.0\nsamples = 1\nvalue = [0, 1, 0, 0, 0, 0, 0, 0, 0]"] ;
348 -> 349 ;
350 [label="entropy = 1.0\nsamples = 2\nvalue = [0, 1, 0, 0, 0, 0, 1, 0, 0]"] ;
348 -> 350 ;
351 [label="entropy = 0.0\nsamples = 1\nvalue = [0, 0, 0, 0, 0, 1, 0, 0, 0]"] ;
347 -> 351 ;
352 [label="X[12] <= 0.5\nentropy = 0.402\nsamples = 25\nvalue = [23, 0, 0, 0, 0, 2, 0, 0, 0]"] ;
336 -> 352 ;
353 [label="entropy = 0.0\nsamples = 2\nvalue = [0, 0, 0, 0, 0, 2, 0, 0, 0]"] ;
352 -> 353 ;
354 [label="entropy = 0.0\nsamples = 23\nvalue = [23, 0, 0, 0, 0, 0, 0, 0, 0]"] ;
352 -> 354 ;
355 [label="X[5] <= 0.5\nentropy = 0.857\nsamples = 340\nvalue = [89, 0, 1, 0, 250, 0, 0, 0, 0]"] ;
335 -> 355 ;
356 [label="entropy = 0.0\nsamples = 1\nvalue = [0, 0, 0, 0, 1, 0, 0, 0, 0]"] ;
355 -> 356 ;
357 [label="entropy = 0.858\nsamples = 339\nvalue = [89, 0, 1, 0, 249, 0, 0, 0, 0]"] ;
355 -> 357 ;
358 [label="X[10] <= 0.5\nentropy = 0.944\nsamples = 657\nvalue = [517, 0, 7, 7, 118, 0, 0, 6, 2]"] ;
282 -> 358 ;
359 [label="X[14] <= 0.5\nentropy = 1.382\nsamples = 326\nvalue = [186, 0, 7, 7, 118, 0, 0, 6, 2]"] ;
358 -> 359 ;
360 [label="X[9] <= 0.5\nentropy = 2.184\nsamples = 31\nvalue = [10, 0, 6, 7, 0, 0, 0, 6, 2]"] ;
359 -> 360 ;
361 [label="X[25] <= 0.5\nentropy = 0.997\nsamples = 15\nvalue = [8, 0, 0, 7, 0, 0, 0, 0, 0]"] ;
360 -> 361 ;
362 [label="X[22] <= 0.5\nentropy = 0.722\nsamples = 10\nvalue = [8, 0, 0, 2, 0, 0, 0, 0, 0]"] ;
361 -> 362 ;
363 [label="entropy = 0.0\nsamples = 8\nvalue = [8, 0, 0, 0, 0, 0, 0, 0, 0]"] ;
362 -> 363 ;
364 [label="entropy = 0.0\nsamples = 2\nvalue = [0, 0, 0, 2, 0, 0, 0, 0, 0]"] ;
362 -> 364 ;
365 [label="entropy = 0.0\nsamples = 5\nvalue = [0, 0, 0, 5, 0, 0, 0, 0, 0]"] ;
361 -> 365 ;
366 [label="X[21] <= 0.5\nentropy = 1.811\nsamples = 16\nvalue = [2, 0, 6, 0, 0, 0, 0, 6, 2]"] ;
360 -> 366 ;
367 [label="X[22] <= 0.5\nentropy = 1.224\nsamples = 9\nvalue = [0, 0, 1, 0, 0, 0, 0, 6, 2]"] ;
366 -> 367 ;
368 [label="X[24] <= 0.5\nentropy = 0.592\nsamples = 7\nvalue = [0, 0, 1, 0, 0, 0, 0, 6, 0]"] ;
367 -> 368 ;
369 [label="entropy = 0.0\nsamples = 5\nvalue = [0, 0, 0, 0, 0, 0, 0, 5, 0]"] ;
368 -> 369 ;
370 [label="X[5] <= 0.5\nentropy = 1.0\nsamples = 2\nvalue = [0, 0, 1, 0, 0, 0, 0, 1, 0]"] ;
368 -> 370 ;
371 [label="entropy = 0.0\nsamples = 1\nvalue = [0, 0, 0, 0, 0, 0, 0, 1, 0]"] ;
370 -> 371 ;
372 [label="entropy = 0.0\nsamples = 1\nvalue = [0, 0, 1, 0, 0, 0, 0, 0, 0]"] ;
370 -> 372 ;
373 [label="entropy = 0.0\nsamples = 2\nvalue = [0, 0, 0, 0, 0, 0, 0, 0, 2]"] ;
367 -> 373 ;
374 [label="X[13] <= 0.5\nentropy = 0.863\nsamples = 7\nvalue = [2, 0, 5, 0, 0, 0, 0, 0, 0]"] ;
366 -> 374 ;
375 [label="entropy = 0.0\nsamples = 5\nvalue = [0, 0, 5, 0, 0, 0, 0, 0, 0]"] ;
374 -> 375 ;
376 [label="entropy = 0.0\nsamples = 2\nvalue = [2, 0, 0, 0, 0, 0, 0, 0, 0]"] ;
374 -> 376 ;
377 [label="X[26] <= 0.5\nentropy = 1.001\nsamples = 295\nvalue = [176, 0, 1, 0, 118, 0, 0, 0, 0]"] ;
359 -> 377 ;
378 [label="entropy = 0.0\nsamples = 1\nvalue = [0, 0, 0, 0, 1, 0, 0, 0, 0]"] ;
377 -> 378 ;
379 [label="entropy = 1.0\nsamples = 294\nvalue = [176, 0, 1, 0, 117, 0, 0, 0, 0]"] ;
377 -> 379 ;
380 [label="entropy = 0.0\nsamples = 331\nvalue = [331, 0, 0, 0, 0, 0, 0, 0, 0]"] ;
358 -> 380 ;
}