digraph Tree {
node [shape=box] ;
0 [label="X[2] <= 0.5\nentropy = 3.169\nsamples = 8534\nvalue = [1000, 922, 920, 961, 1000, 963, 935, 932, 901]"] ;
1 [label="X[11] <= 0.5\nentropy = 2.972\nsamples = 6524\nvalue = [0, 791, 856, 909, 440, 933, 797, 907, 891]"] ;
0 -> 1 [labeldistance=2.5, labelangle=45, headlabel="True"] ;
2 [label="X[17] <= 0.5\nentropy = 2.578\nsamples = 3665\nvalue = [0, 480, 549, 0, 19, 803, 401, 679, 734]"] ;
1 -> 2 ;
3 [label="X[23] <= 0.5\nentropy = 2.248\nsamples = 2062\nvalue = [0, 259, 330, 0, 8, 0, 281, 511, 673]"] ;
2 -> 3 ;
4 [label="X[8] <= 0.5\nentropy = 1.71\nsamples = 1156\nvalue = [0, 58, 290, 0, 4, 0, 230, 0, 574]"] ;
3 -> 4 ;
5 [label="X[20] <= 0.5\nentropy = 0.97\nsamples = 730\nvalue = [0, 33, 0, 0, 4, 0, 128, 0, 565]"] ;
4 -> 5 ;
6 [label="X[5] <= 0.5\nentropy = 0.364\nsamples = 602\nvalue = [0, 33, 0, 0, 4, 0, 0, 0, 565]"] ;
5 -> 6 ;
7 [label="X[24] <= 0.5\nentropy = 0.034\nsamples = 557\nvalue = [0, 0, 0, 0, 2, 0, 0, 0, 555]"] ;
6 -> 7 ;
8 [label="entropy = 0.0\nsamples = 555\nvalue = [0, 0, 0, 0, 0, 0, 0, 0, 555]"] ;
7 -> 8 ;
9 [label="entropy = 0.0\nsamples = 2\nvalue = [0, 0, 0, 0, 2, 0, 0, 0, 0]"] ;
7 -> 9 ;
10 [label="X[12] <= 0.5\nentropy = 1.01\nsamples = 45\nvalue = [0, 33, 0, 0, 2, 0, 0, 0, 10]"] ;
6 -> 10 ;
11 [label="X[14] <= 0.5\nentropy = 0.316\nsamples = 35\nvalue = [0, 33, 0, 0, 2, 0, 0, 0, 0]"] ;
10 -> 11 ;
12 [label="entropy = 0.0\nsamples = 32\nvalue = [0, 32, 0, 0, 0, 0, 0, 0, 0]"] ;
11 -> 12 ;
13 [label="entropy = 0.918\nsamples = 3\nvalue = [0, 1, 0, 0, 2, 0, 0, 0, 0]"] ;
11 -> 13 ;
14 [label="entropy = 0.0\nsamples = 10\nvalue = [0, 0, 0, 0, 0, 0, 0, 0, 10]"] ;
10 -> 14 ;
15 [label="entropy = 0.0\nsamples = 128\nvalue = [0, 0, 0, 0, 0, 0, 128, 0, 0]"] ;
5 -> 15 ;
16 [label="X[5] <= 0.5\nentropy = 1.229\nsamples = 426\nvalue = [0, 25, 290, 0, 0, 0, 102, 0, 9]"] ;
4 -> 16 ;
17 [label="X[20] <= 0.5\nentropy = 0.97\nsamples = 396\nvalue = [0, 0, 285, 0, 0, 0, 102, 0, 9]"] ;
16 -> 17 ;
18 [label="X[12] <= 0.5\nentropy = 0.292\nsamples = 175\nvalue = [0, 0, 166, 0, 0, 0, 0, 0, 9]"] ;
17 -> 18 ;
19 [label="entropy = 0.0\nsamples = 152\nvalue = [0, 0, 152, 0, 0, 0, 0, 0, 0]"] ;
18 -> 19 ;
20 [label="X[3] <= 0.5\nentropy = 0.966\nsamples = 23\nvalue = [0, 0, 14, 0, 0, 0, 0, 0, 9]"] ;
18 -> 20 ;
21 [label="entropy = 0.0\nsamples = 14\nvalue = [0, 0, 14, 0, 0, 0, 0, 0, 0]"] ;
20 -> 21 ;
22 [label="entropy = 0.0\nsamples = 9\nvalue = [0, 0, 0, 0, 0, 0, 0, 0, 9]"] ;
20 -> 22 ;
23 [label="X[21] <= 0.5\nentropy = 0.996\nsamples = 221\nvalue = [0, 0, 119, 0, 0, 0, 102, 0, 0]"] ;
17 -> 23 ;
24 [label="X[3] <= 0.5\nentropy = 0.999\nsamples = 212\nvalue = [0, 0, 110, 0, 0, 0, 102, 0, 0]"] ;
23 -> 24 ;
25 [label="entropy = 0.0\nsamples = 1\nvalue = [0, 0, 0, 0, 0, 0, 1, 0, 0]"] ;
24 -> 25 ;
26 [label="entropy = 0.999\nsamples = 211\nvalue = [0, 0, 110, 0, 0, 0, 101, 0, 0]"] ;
24 -> 26 ;
27 [label="entropy = 0.0\nsamples = 9\nvalue = [0, 0, 9, 0, 0, 0, 0, 0, 0]"] ;
23 -> 27 ;
28 [label="X[9] <= 0.5\nentropy = 0.65\nsamples = 30\nvalue = [0, 25, 5, 0, 0, 0, 0, 0, 0]"] ;
16 -> 28 ;
29 [label="entropy = 0.0\nsamples = 23\nvalue = [0, 23, 0, 0, 0, 0, 0, 0, 0]"] ;
28 -> 29 ;
30 [label="entropy = 0.863\nsamples = 7\nvalue = [0, 2, 5, 0, 0, 0, 0, 0, 0]"] ;
28 -> 30 ;
31 [label="X[5] <= 0.5\nentropy = 1.764\nsamples = 906\nvalue = [0, 201, 40, 0, 4, 0, 51, 511, 99]"] ;
3 -> 31 ;
32 [label="X[1] <= 0.5\nentropy = 0.82\nsamples = 582\nvalue = [0, 0, 0, 0, 2, 0, 11, 470, 99]"] ;
31 -> 32 ;
33 [label="X[14] <= 0.5\nentropy = 0.052\nsamples = 341\nvalue = [0, 0, 0, 0, 2, 0, 0, 339, 0]"] ;
32 -> 33 ;
34 [label="entropy = 0.0\nsamples = 338\nvalue = [0, 0, 0, 0, 0, 0, 0, 338, 0]"] ;
33 -> 34 ;
35 [label="X[7] <= 0.5\nentropy = 0.918\nsamples = 3\nvalue = [0, 0, 0, 0, 2, 0, 0, 1, 0]"] ;
33 -> 35 ;
36 [label="entropy = 0.0\nsamples = 1\nvalue = [0, 0, 0, 0, 1, 0, 0, 0, 0]"] ;
35 -> 36 ;
37 [label="entropy = 1.0\nsamples = 2\nvalue = [0, 0, 0, 0, 1, 0, 0, 1, 0]"] ;
35 -> 37 ;
38 [label="X[20] <= 0.5\nentropy = 1.209\nsamples = 241\nvalue = [0, 0, 0, 0, 0, 0, 11, 131, 99]"] ;
32 -> 38 ;
39 [label="X[3] <= 0.5\nentropy = 0.996\nsamples = 214\nvalue = [0, 0, 0, 0, 0, 0, 0, 115, 99]"] ;
38 -> 39 ;
40 [label="X[26] <= 0.5\nentropy = 0.998\nsamples = 210\nvalue = [0, 0, 0, 0, 0, 0, 0, 111, 99]"] ;
39 -> 40 ;
41 [label="entropy = 0.0\nsamples = 2\nvalue = [0, 0, 0, 0, 0, 0, 0, 2, 0]"] ;
40 -> 41 ;
42 [label="entropy = 0.998\nsamples = 208\nvalue = [0, 0, 0, 0, 0, 0, 0, 109, 99]"] ;
40 -> 42 ;
43 [label="entropy = 0.0\nsamples = 4\nvalue = [0, 0, 0, 0, 0, 0, 0, 4, 0]"] ;
39 -> 43 ;
44 [label="X[6] <= 0.5\nentropy = 0.975\nsamples = 27\nvalue = [0, 0, 0, 0, 0, 0, 11, 16, 0]"] ;
38 -> 44 ;
45 [label="X[15] <= 0.5\nentropy = 0.503\nsamples = 18\nvalue = [0, 0, 0, 0, 0, 0, 2, 16, 0]"] ;
44 -> 45 ;
46 [label="entropy = 0.0\nsamples = 16\nvalue = [0, 0, 0, 0, 0, 0, 0, 16, 0]"] ;
45 -> 46 ;
47 [label="entropy = 0.0\nsamples = 2\nvalue = [0, 0, 0, 0, 0, 0, 2, 0, 0]"] ;
45 -> 47 ;
48 [label="entropy = 0.0\nsamples = 9\nvalue = [0, 0, 0, 0, 0, 0, 9, 0, 0]"] ;
44 -> 48 ;
49 [label="X[13] <= 0.5\nentropy = 1.595\nsamples = 324\nvalue = [0, 201, 40, 0, 2, 0, 40, 41, 0]"] ;
31 -> 49 ;
50 [label="X[19] <= 0.5\nentropy = 1.312\nsamples = 282\nvalue = [0, 199, 32, 0, 2, 0, 8, 41, 0]"] ;
49 -> 50 ;
51 [label="X[9] <= 0.5\nentropy = 1.062\nsamples = 216\nvalue = [0, 167, 32, 0, 0, 0, 8, 9, 0]"] ;
50 -> 51 ;
52 [label="X[18] <= 0.5\nentropy = 1.0\nsamples = 6\nvalue = [0, 3, 0, 0, 0, 0, 3, 0, 0]"] ;
51 -> 52 ;
53 [label="entropy = 0.0\nsamples = 3\nvalue = [0, 0, 0, 0, 0, 0, 3, 0, 0]"] ;
52 -> 53 ;
54 [label="entropy = 0.0\nsamples = 3\nvalue = [0, 3, 0, 0, 0, 0, 0, 0, 0]"] ;
52 -> 54 ;
55 [label="X[7] <= 0.5\nentropy = 1.015\nsamples = 210\nvalue = [0, 164, 32, 0, 0, 0, 5, 9, 0]"] ;
51 -> 55 ;
56 [label="entropy = 1.031\nsamples = 205\nvalue = [0, 159, 32, 0, 0, 0, 5, 9, 0]"] ;
55 -> 56 ;
57 [label="entropy = 0.0\nsamples = 5\nvalue = [0, 5, 0, 0, 0, 0, 0, 0, 0]"] ;
55 -> 57 ;
58 [label="X[26] <= 0.5\nentropy = 1.166\nsamples = 66\nvalue = [0, 32, 0, 0, 2, 0, 0, 32, 0]"] ;
50 -> 58 ;
59 [label="X[12] <= 0.5\nentropy = 1.309\nsamples = 11\nvalue = [0, 2, 0, 0, 2, 0, 0, 7, 0]"] ;
58 -> 59 ;
60 [label="entropy = 1.557\nsamples = 7\nvalue = [0, 2, 0, 0, 2, 0, 0, 3, 0]"] ;
59 -> 60 ;
61 [label="entropy = 0.0\nsamples = 4\nvalue = [0, 0, 0, 0, 0, 0, 0, 4, 0]"] ;
59 -> 61 ;
62 [label="X[6] <= 0.5\nentropy = 0.994\nsamples = 55\nvalue = [0, 30, 0, 0, 0, 0, 0, 25, 0]"] ;
58 -> 62 ;
63 [label="entropy = 0.966\nsamples = 23\nvalue = [0, 9, 0, 0, 0, 0, 0, 14, 0]"] ;
62 -> 63 ;
64 [label="entropy = 0.928\nsamples = 32\nvalue = [0, 21, 0, 0, 0, 0, 0, 11, 0]"] ;
62 -> 64 ;
65 [label="X[20] <= 0.5\nentropy = 0.964\nsamples = 42\nvalue = [0, 2, 8, 0, 0, 0, 32, 0, 0]"] ;
49 -> 65 ;
66 [label="X[7] <= 0.5\nentropy = 0.722\nsamples = 10\nvalue = [0, 2, 8, 0, 0, 0, 0, 0, 0]"] ;
65 -> 66 ;
67 [label="entropy = 0.0\nsamples = 8\nvalue = [0, 0, 8, 0, 0, 0, 0, 0, 0]"] ;
66 -> 67 ;
68 [label="entropy = 0.0\nsamples = 2\nvalue = [0, 2, 0, 0, 0, 0, 0, 0, 0]"] ;
66 -> 68 ;
69 [label="entropy = 0.0\nsamples = 32\nvalue = [0, 0, 0, 0, 0, 0, 32, 0, 0]"] ;
65 -> 69 ;
70 [label="X[9] <= 0.5\nentropy = 2.136\nsamples = 1603\nvalue = [0, 221, 219, 0, 11, 803, 120, 168, 61]"] ;
2 -> 70 ;
71 [label="X[12] <= 0.5\nentropy = 1.813\nsamples = 1143\nvalue = [0, 188, 26, 0, 7, 687, 120, 64, 51]"] ;
70 -> 71 ;
72 [label="X[5] <= 0.5\nentropy = 1.181\nsamples = 813\nvalue = [0, 92, 25, 0, 7, 629, 10, 50, 0]"] ;
71 -> 72 ;
73 [label="X[4] <= 0.5\nentropy = 0.382\nsamples = 407\nvalue = [0, 0, 0, 0, 1, 384, 10, 12, 0]"] ;
72 -> 73 ;
74 [label="X[20] <= 0.5\nentropy = 0.225\nsamples = 276\nvalue = [0, 0, 0, 0, 0, 266, 10, 0, 0]"] ;
73 -> 74 ;
75 [label="entropy = 0.0\nsamples = 218\nvalue = [0, 0, 0, 0, 0, 218, 0, 0, 0]"] ;
74 -> 75 ;
76 [label="X[26] <= 0.5\nentropy = 0.663\nsamples = 58\nvalue = [0, 0, 0, 0, 0, 48, 10, 0, 0]"] ;
74 -> 76 ;
77 [label="X[6] <= 0.5\nentropy = 0.169\nsamples = 40\nvalue = [0, 0, 0, 0, 0, 39, 1, 0, 0]"] ;
76 -> 77 ;
78 [label="entropy = 0.0\nsamples = 1\nvalue = [0, 0, 0, 0, 0, 1, 0, 0, 0]"] ;
77 -> 78 ;
79 [label="entropy = 0.172\nsamples = 39\nvalue = [0, 0, 0, 0, 0, 38, 1, 0, 0]"] ;
77 -> 79 ;
80 [label="entropy = 1.0\nsamples = 18\nvalue = [0, 0, 0, 0, 0, 9, 9, 0, 0]"] ;
76 -> 80 ;
81 [label="X[21] <= 0.5\nentropy = 0.505\nsamples = 131\nvalue = [0, 0, 0, 0, 1, 118, 0, 12, 0]"] ;
73 -> 81 ;
82 [label="X[20] <= 0.5\nentropy = 1.133\nsamples = 32\nvalue = [0, 0, 0, 0, 1, 19, 0, 12, 0]"] ;
81 -> 82 ;
83 [label="X[6] <= 0.5\nentropy = 0.845\nsamples = 11\nvalue = [0, 0, 0, 0, 0, 3, 0, 8, 0]"] ;
82 -> 83 ;
84 [label="entropy = 0.863\nsamples = 7\nvalue = [0, 0, 0, 0, 0, 2, 0, 5, 0]"] ;
83 -> 84 ;
85 [label="entropy = 0.811\nsamples = 4\nvalue = [0, 0, 0, 0, 0, 1, 0, 3, 0]"] ;
83 -> 85 ;
86 [label="X[14] <= 0.5\nentropy = 0.964\nsamples = 21\nvalue = [0, 0, 0, 0, 1, 16, 0, 4, 0]"] ;
82 -> 86 ;
87 [label="entropy = 0.722\nsamples = 20\nvalue = [0, 0, 0, 0, 0, 16, 0, 4, 0]"] ;
86 -> 87 ;
88 [label="entropy = 0.0\nsamples = 1\nvalue = [0, 0, 0, 0, 1, 0, 0, 0, 0]"] ;
86 -> 88 ;
89 [label="entropy = 0.0\nsamples = 99\nvalue = [0, 0, 0, 0, 0, 99, 0, 0, 0]"] ;
81 -> 89 ;
90 [label="X[20] <= 0.5\nentropy = 1.582\nsamples = 406\nvalue = [0, 92, 25, 0, 6, 245, 0, 38, 0]"] ;
72 -> 90 ;
91 [label="X[8] <= 0.5\nentropy = 1.646\nsamples = 156\nvalue = [0, 74, 4, 0, 0, 40, 0, 38, 0]"] ;
90 -> 91 ;
92 [label="entropy = 0.0\nsamples = 17\nvalue = [0, 0, 0, 0, 0, 17, 0, 0, 0]"] ;
91 -> 92 ;
93 [label="X[23] <= 0.5\nentropy = 1.572\nsamples = 139\nvalue = [0, 74, 4, 0, 0, 23, 0, 38, 0]"] ;
91 -> 93 ;
94 [label="entropy = 0.0\nsamples = 4\nvalue = [0, 4, 0, 0, 0, 0, 0, 0, 0]"] ;
93 -> 94 ;
95 [label="entropy = 1.592\nsamples = 135\nvalue = [0, 70, 4, 0, 0, 23, 0, 38, 0]"] ;
93 -> 95 ;
96 [label="X[8] <= 0.5\nentropy = 0.937\nsamples = 250\nvalue = [0, 18, 21, 0, 6, 205, 0, 0, 0]"] ;
90 -> 96 ;
97 [label="entropy = 0.0\nsamples = 6\nvalue = [0, 0, 0, 0, 6, 0, 0, 0, 0]"] ;
96 -> 97 ;
98 [label="X[13] <= 0.5\nentropy = 0.793\nsamples = 244\nvalue = [0, 18, 21, 0, 0, 205, 0, 0, 0]"] ;
96 -> 98 ;
99 [label="entropy = 0.0\nsamples = 1\nvalue = [0, 0, 1, 0, 0, 0, 0, 0, 0]"] ;
98 -> 99 ;
100 [label="entropy = 0.782\nsamples = 243\nvalue = [0, 18, 20, 0, 0, 205, 0, 0, 0]"] ;
98 -> 100 ;
101 [label="X[23] <= 0.5\nentropy = 2.122\nsamples = 330\nvalue = [0, 96, 1, 0, 0, 58, 110, 14, 51]"] ;
71 -> 101 ;
102 [label="X[8] <= 0.5\nentropy = 1.063\nsamples = 110\nvalue = [0, 0, 1, 0, 0, 58, 0, 0, 51]"] ;
101 -> 102 ;
103 [label="X[0] <= 0.5\nentropy = 0.997\nsamples = 109\nvalue = [0, 0, 0, 0, 0, 58, 0, 0, 51]"] ;
102 -> 103 ;
104 [label="entropy = 1.0\nsamples = 102\nvalue = [0, 0, 0, 0, 0, 51, 0, 0, 51]"] ;
103 -> 104 ;
105 [label="entropy = 0.0\nsamples = 7\nvalue = [0, 0, 0, 0, 0, 7, 0, 0, 0]"] ;
103 -> 105 ;
106 [label="entropy = 0.0\nsamples = 1\nvalue = [0, 0, 1, 0, 0, 0, 0, 0, 0]"] ;
102 -> 106 ;
107 [label="X[20] <= 0.5\nentropy = 1.275\nsamples = 220\nvalue = [0, 96, 0, 0, 0, 0, 110, 14, 0]"] ;
101 -> 107 ;
108 [label="X[5] <= 0.5\nentropy = 0.358\nsamples = 103\nvalue = [0, 96, 0, 0, 0, 0, 0, 7, 0]"] ;
107 -> 108 ;
109 [label="entropy = 0.0\nsamples = 7\nvalue = [0, 0, 0, 0, 0, 0, 0, 7, 0]"] ;
108 -> 109 ;
110 [label="entropy = 0.0\nsamples = 96\nvalue = [0, 96, 0, 0, 0, 0, 0, 0, 0]"] ;
108 -> 110 ;
111 [label="X[26] <= 0.5\nentropy = 0.327\nsamples = 117\nvalue = [0, 0, 0, 0, 0, 0, 110, 7, 0]"] ;
107 -> 111 ;
112 [label="X[6] <= 0.5\nentropy = 0.544\nsamples = 8\nvalue = [0, 0, 0, 0, 0, 0, 1, 7, 0]"] ;
111 -> 112 ;
113 [label="entropy = 0.0\nsamples = 7\nvalue = [0, 0, 0, 0, 0, 0, 0, 7, 0]"] ;
112 -> 113 ;
114 [label="entropy = 0.0\nsamples = 1\nvalue = [0, 0, 0, 0, 0, 0, 1, 0, 0]"] ;
112 -> 114 ;
115 [label="entropy = 0.0\nsamples = 109\nvalue = [0, 0, 0, 0, 0, 0, 109, 0, 0]"] ;
111 -> 115 ;
116 [label="X[8] <= 0.5\nentropy = 1.964\nsamples = 460\nvalue = [0, 33, 193, 0, 4, 116, 0, 104, 10]"] ;
70 -> 116 ;
117 [label="X[5] <= 0.5\nentropy = 1.626\nsamples = 210\nvalue = [0, 32, 0, 0, 0, 68, 0, 102, 8]"] ;
116 -> 117 ;
118 [label="X[23] <= 0.5\nentropy = 1.017\nsamples = 171\nvalue = [0, 0, 0, 0, 0, 68, 0, 102, 1]"] ;
117 -> 118 ;
119 [label="entropy = 0.0\nsamples = 58\nvalue = [0, 0, 0, 0, 0, 58, 0, 0, 0]"] ;
118 -> 119 ;
120 [label="X[13] <= 0.5\nentropy = 0.503\nsamples = 113\nvalue = [0, 0, 0, 0, 0, 10, 0, 102, 1]"] ;
118 -> 120 ;
121 [label="entropy = 0.0\nsamples = 10\nvalue = [0, 0, 0, 0, 0, 10, 0, 0, 0]"] ;
120 -> 121 ;
122 [label="X[6] <= 0.5\nentropy = 0.079\nsamples = 103\nvalue = [0, 0, 0, 0, 0, 0, 0, 102, 1]"] ;
120 -> 122 ;
123 [label="entropy = 0.0\nsamples = 1\nvalue = [0, 0, 0, 0, 0, 0, 0, 0, 1]"] ;
122 -> 123 ;
124 [label="entropy = 0.0\nsamples = 102\nvalue = [0, 0, 0, 0, 0, 0, 0, 102, 0]"] ;
122 -> 124 ;
125 [label="X[13] <= 0.5\nentropy = 0.679\nsamples = 39\nvalue = [0, 32, 0, 0, 0, 0, 0, 0, 7]"] ;
117 -> 125 ;
126 [label="entropy = 0.0\nsamples = 25\nvalue = [0, 25, 0, 0, 0, 0, 0, 0, 0]"] ;
125 -> 126 ;
127 [label="X[24] <= 0.5\nentropy = 1.0\nsamples = 14\nvalue = [0, 7, 0, 0, 0, 0, 0, 0, 7]"] ;
125 -> 127 ;
128 [label="entropy = 0.0\nsamples = 7\nvalue = [0, 0, 0, 0, 0, 0, 0, 0, 7]"] ;
127 -> 128 ;
129 [label="entropy = 0.0\nsamples = 7\nvalue = [0, 7, 0, 0, 0, 0, 0, 0, 0]"] ;
127 -> 129 ;
130 [label="X[22] <= 0.5\nentropy = 0.984\nsamples = 250\nvalue = [0, 1, 193, 0, 4, 48, 0, 2, 2]"] ;
116 -> 130 ;
131 [label="X[14] <= 0.5\nentropy = 0.345\nsamples = 202\nvalue = [0, 1, 193, 0, 4, 0, 0, 2, 2]"] ;
130 -> 131 ;
132 [label="X[18] <= 0.5\nentropy = 0.208\nsamples = 198\nvalue = [0, 1, 193, 0, 0, 0, 0, 2, 2]"] ;
131 -> 132 ;
133 [label="X[13] <= 0.5\nentropy = 0.093\nsamples = 194\nvalue = [0, 1, 192, 0, 0, 0, 0, 1, 0]"] ;
132 -> 133 ;
134 [label="X[4] <= 0.5\nentropy = 0.086\nsamples = 93\nvalue = [0, 1, 92, 0, 0, 0, 0, 0, 0]"] ;
133 -> 134 ;
135 [label="entropy = 0.0\nsamples = 1\nvalue = [0, 1, 0, 0, 0, 0, 0, 0, 0]"] ;
134 -> 135 ;
136 [label="entropy = 0.0\nsamples = 92\nvalue = [0, 0, 92, 0, 0, 0, 0, 0, 0]"] ;
134 -> 136 ;
137 [label="X[5] <= 0.5\nentropy = 0.08\nsamples = 101\nvalue = [0, 0, 100, 0, 0, 0, 0, 1, 0]"] ;
133 -> 137 ;
138 [label="entropy = 0.592\nsamples = 7\nvalue = [0, 0, 6, 0, 0, 0, 0, 1, 0]"] ;
137 -> 138 ;
139 [label="entropy = 0.0\nsamples = 94\nvalue = [0, 0, 94, 0, 0, 0, 0, 0, 0]"] ;
137 -> 139 ;
140 [label="X[26] <= 0.5\nentropy = 1.5\nsamples = 4\nvalue = [0, 0, 1, 0, 0, 0, 0, 1, 2]"] ;
132 -> 140 ;
141 [label="entropy = 1.0\nsamples = 2\nvalue = [0, 0, 1, 0, 0, 0, 0, 1, 0]"] ;
140 -> 141 ;
142 [label="entropy = 0.0\nsamples = 2\nvalue = [0, 0, 0, 0, 0, 0, 0, 0, 2]"] ;
140 -> 142 ;
143 [label="entropy = 0.0\nsamples = 4\nvalue = [0, 0, 0, 0, 4, 0, 0, 0, 0]"] ;
131 -> 143 ;
144 [label="entropy = 0.0\nsamples = 48\nvalue = [0, 0, 0, 0, 0, 48, 0, 0, 0]"] ;
130 -> 144 ;
145 [label="X[14] <= 0.5\nentropy = 2.745\nsamples = 2859\nvalue = [0, 311, 307, 909, 421, 130, 396, 228, 157]"] ;
1 -> 145 ;
146 [label="X[4] <= 0.5\nentropy = 2.492\nsamples = 2317\nvalue = [0, 285, 293, 894, 0, 129, 366, 202, 148]"] ;
145 -> 146 ;
147 [label="X[1] <= 0.5\nentropy = 2.353\nsamples = 1636\nvalue = [0, 285, 132, 610, 0, 84, 357, 20, 148]"] ;
146 -> 147 ;
148 [label="X[19] <= 0.5\nentropy = 2.073\nsamples = 575\nvalue = [0, 91, 119, 67, 0, 22, 263, 13, 0]"] ;
147 -> 148 ;
149 [label="X[8] <= 0.5\nentropy = 1.724\nsamples = 454\nvalue = [0, 89, 9, 67, 0, 18, 263, 8, 0]"] ;
148 -> 149 ;
150 [label="entropy = 0.0\nsamples = 154\nvalue = [0, 0, 0, 0, 0, 0, 154, 0, 0]"] ;
149 -> 150 ;
151 [label="X[16] <= 0.5\nentropy = 2.069\nsamples = 300\nvalue = [0, 89, 9, 67, 0, 18, 109, 8, 0]"] ;
149 -> 151 ;
152 [label="X[22] <= 0.5\nentropy = 2.036\nsamples = 293\nvalue = [0, 89, 6, 64, 0, 18, 108, 8, 0]"] ;
151 -> 152 ;
153 [label="entropy = 2.051\nsamples = 283\nvalue = [0, 83, 6, 64, 0, 18, 104, 8, 0]"] ;
152 -> 153 ;
154 [label="entropy = 0.971\nsamples = 10\nvalue = [0, 6, 0, 0, 0, 0, 4, 0, 0]"] ;
152 -> 154 ;
155 [label="X[22] <= 0.5\nentropy = 1.449\nsamples = 7\nvalue = [0, 0, 3, 3, 0, 0, 1, 0, 0]"] ;
151 -> 155 ;
156 [label="entropy = 0.971\nsamples = 5\nvalue = [0, 0, 2, 3, 0, 0, 0, 0, 0]"] ;
155 -> 156 ;
157 [label="entropy = 1.0\nsamples = 2\nvalue = [0, 0, 1, 0, 0, 0, 1, 0, 0]"] ;
155 -> 157 ;
158 [label="X[12] <= 0.5\nentropy = 0.575\nsamples = 121\nvalue = [0, 2, 110, 0, 0, 4, 0, 5, 0]"] ;
148 -> 158 ;
159 [label="entropy = 0.0\nsamples = 110\nvalue = [0, 0, 110, 0, 0, 0, 0, 0, 0]"] ;
158 -> 159 ;
160 [label="X[16] <= 0.5\nentropy = 1.495\nsamples = 11\nvalue = [0, 2, 0, 0, 0, 4, 0, 5, 0]"] ;
158 -> 160 ;
161 [label="entropy = 0.991\nsamples = 9\nvalue = [0, 0, 0, 0, 0, 4, 0, 5, 0]"] ;
160 -> 161 ;
162 [label="entropy = 0.0\nsamples = 2\nvalue = [0, 2, 0, 0, 0, 0, 0, 0, 0]"] ;
160 -> 162 ;
163 [label="X[13] <= 0.5\nentropy = 2.014\nsamples = 1061\nvalue = [0, 194, 13, 543, 0, 62, 94, 7, 148]"] ;
147 -> 163 ;
164 [label="X[7] <= 0.5\nentropy = 1.823\nsamples = 877\nvalue = [0, 188, 12, 494, 0, 62, 94, 7, 20]"] ;
163 -> 164 ;
165 [label="X[20] <= 0.5\nentropy = 1.284\nsamples = 628\nvalue = [0, 67, 12, 448, 0, 0, 94, 7, 0]"] ;
164 -> 165 ;
166 [label="entropy = 0.0\nsamples = 157\nvalue = [0, 0, 0, 157, 0, 0, 0, 0, 0]"] ;
165 -> 166 ;
167 [label="X[23] <= 0.5\nentropy = 1.519\nsamples = 471\nvalue = [0, 67, 12, 291, 0, 0, 94, 7, 0]"] ;
165 -> 167 ;
168 [label="X[3] <= 0.5\nentropy = 1.279\nsamples = 80\nvalue = [0, 0, 12, 52, 0, 0, 16, 0, 0]"] ;
167 -> 168 ;
169 [label="entropy = 0.0\nsamples = 10\nvalue = [0, 0, 10, 0, 0, 0, 0, 0, 0]"] ;
168 -> 169 ;
170 [label="entropy = 0.952\nsamples = 70\nvalue = [0, 0, 2, 52, 0, 0, 16, 0, 0]"] ;
168 -> 170 ;
171 [label="X[16] <= 0.5\nentropy = 1.438\nsamples = 391\nvalue = [0, 67, 0, 239, 0, 0, 78, 7, 0]"] ;
167 -> 171 ;
172 [label="entropy = 1.381\nsamples = 371\nvalue = [0, 67, 0, 239, 0, 0, 58, 7, 0]"] ;
171 -> 172 ;
173 [label="entropy = 0.0\nsamples = 20\nvalue = [0, 0, 0, 0, 0, 0, 20, 0, 0]"] ;
171 -> 173 ;
174 [label="X[5] <= 0.5\nentropy = 1.748\nsamples = 249\nvalue = [0, 121, 0, 46, 0, 62, 0, 0, 20]"] ;
164 -> 174 ;
175 [label="X[16] <= 0.5\nentropy = 1.456\nsamples = 128\nvalue = [0, 0, 0, 46, 0, 62, 0, 0, 20]"] ;
174 -> 175 ;
176 [label="X[18] <= 0.5\nentropy = 0.982\nsamples = 107\nvalue = [0, 0, 0, 45, 0, 62, 0, 0, 0]"] ;
175 -> 176 ;
177 [label="entropy = 0.0\nsamples = 1\nvalue = [0, 0, 0, 0, 0, 1, 0, 0, 0]"] ;
176 -> 177 ;
178 [label="entropy = 0.984\nsamples = 106\nvalue = [0, 0, 0, 45, 0, 61, 0, 0, 0]"] ;
176 -> 178 ;
179 [label="X[20] <= 0.5\nentropy = 0.276\nsamples = 21\nvalue = [0, 0, 0, 1, 0, 0, 0, 0, 20]"] ;
175 -> 179 ;
180 [label="entropy = 0.0\nsamples = 20\nvalue = [0, 0, 0, 0, 0, 0, 0, 0, 20]"] ;
179 -> 180 ;
181 [label="entropy = 0.0\nsamples = 1\nvalue = [0, 0, 0, 1, 0, 0, 0, 0, 0]"] ;
179 -> 181 ;
182 [label="entropy = 0.0\nsamples = 121\nvalue = [0, 121, 0, 0, 0, 0, 0, 0, 0]"] ;
174 -> 182 ;
183 [label="X[24] <= 0.5\nentropy = 1.074\nsamples = 184\nvalue = [0, 6, 1, 49, 0, 0, 0, 0, 128]"] ;
163 -> 183 ;
184 [label="entropy = 0.0\nsamples = 128\nvalue = [0, 0, 0, 0, 0, 0, 0, 0, 128]"] ;
183 -> 184 ;
185 [label="X[16] <= 0.5\nentropy = 0.618\nsamples = 56\nvalue = [0, 6, 1, 49, 0, 0, 0, 0, 0]"] ;
183 -> 185 ;
186 [label="X[8] <= 0.5\nentropy = 0.592\nsamples = 7\nvalue = [0, 6, 1, 0, 0, 0, 0, 0, 0]"] ;
185 -> 186 ;
187 [label="entropy = 0.0\nsamples = 6\nvalue = [0, 6, 0, 0, 0, 0, 0, 0, 0]"] ;
186 -> 187 ;
188 [label="entropy = 0.0\nsamples = 1\nvalue = [0, 0, 1, 0, 0, 0, 0, 0, 0]"] ;
186 -> 188 ;
189 [label="entropy = 0.0\nsamples = 49\nvalue = [0, 0, 0, 49, 0, 0, 0, 0, 0]"] ;
185 -> 189 ;
190 [label="X[8] <= 0.5\nentropy = 1.868\nsamples = 681\nvalue = [0, 0, 161, 284, 0, 45, 9, 182, 0]"] ;
146 -> 190 ;
191 [label="X[13] <= 0.5\nentropy = 1.024\nsamples = 396\nvalue = [0, 0, 0, 276, 0, 5, 4, 111, 0]"] ;
190 -> 191 ;
192 [label="X[23] <= 0.5\nentropy = 0.259\nsamples = 190\nvalue = [0, 0, 0, 183, 0, 5, 2, 0, 0]"] ;
191 -> 192 ;
193 [label="X[1] <= 0.5\nentropy = 1.46\nsamples = 13\nvalue = [0, 0, 0, 6, 0, 5, 2, 0, 0]"] ;
192 -> 193 ;
194 [label="X[17] <= 0.5\nentropy = 0.863\nsamples = 7\nvalue = [0, 0, 0, 0, 0, 5, 2, 0, 0]"] ;
193 -> 194 ;
195 [label="entropy = 0.0\nsamples = 2\nvalue = [0, 0, 0, 0, 0, 0, 2, 0, 0]"] ;
194 -> 195 ;
196 [label="entropy = 0.0\nsamples = 5\nvalue = [0, 0, 0, 0, 0, 5, 0, 0, 0]"] ;
194 -> 196 ;
197 [label="entropy = 0.0\nsamples = 6\nvalue = [0, 0, 0, 6, 0, 0, 0, 0, 0]"] ;
193 -> 197 ;
198 [label="entropy = 0.0\nsamples = 177\nvalue = [0, 0, 0, 177, 0, 0, 0, 0, 0]"] ;
192 -> 198 ;
199 [label="X[23] <= 0.5\nentropy = 1.064\nsamples = 206\nvalue = [0, 0, 0, 93, 0, 0, 2, 111, 0]"] ;
191 -> 199 ;
200 [label="X[7] <= 0.5\nentropy = 0.162\nsamples = 84\nvalue = [0, 0, 0, 82, 0, 0, 2, 0, 0]"] ;
199 -> 200 ;
201 [label="entropy = 0.0\nsamples = 82\nvalue = [0, 0, 0, 82, 0, 0, 0, 0, 0]"] ;
200 -> 201 ;
202 [label="entropy = 0.0\nsamples = 2\nvalue = [0, 0, 0, 0, 0, 0, 2, 0, 0]"] ;
200 -> 202 ;
203 [label="X[19] <= 0.5\nentropy = 0.437\nsamples = 122\nvalue = [0, 0, 0, 11, 0, 0, 0, 111, 0]"] ;
199 -> 203 ;
204 [label="X[16] <= 0.5\nentropy = 0.414\nsamples = 12\nvalue = [0, 0, 0, 11, 0, 0, 0, 1, 0]"] ;
203 -> 204 ;
205 [label="entropy = 0.503\nsamples = 9\nvalue = [0, 0, 0, 8, 0, 0, 0, 1, 0]"] ;
204 -> 205 ;
206 [label="entropy = 0.0\nsamples = 3\nvalue = [0, 0, 0, 3, 0, 0, 0, 0, 0]"] ;
204 -> 206 ;
207 [label="entropy = 0.0\nsamples = 110\nvalue = [0, 0, 0, 0, 0, 0, 0, 110, 0]"] ;
203 -> 207 ;
208 [label="X[1] <= 0.5\nentropy = 1.61\nsamples = 285\nvalue = [0, 0, 161, 8, 0, 40, 5, 71, 0]"] ;
190 -> 208 ;
209 [label="X[20] <= 0.5\nentropy = 1.784\nsamples = 139\nvalue = [0, 0, 16, 8, 0, 40, 5, 70, 0]"] ;
208 -> 209 ;
210 [label="X[12] <= 0.5\nentropy = 0.863\nsamples = 56\nvalue = [0, 0, 16, 0, 0, 40, 0, 0, 0]"] ;
209 -> 210 ;
211 [label="entropy = 0.0\nsamples = 16\nvalue = [0, 0, 16, 0, 0, 0, 0, 0, 0]"] ;
210 -> 211 ;
212 [label="entropy = 0.0\nsamples = 40\nvalue = [0, 0, 0, 0, 0, 40, 0, 0, 0]"] ;
210 -> 212 ;
213 [label="X[26] <= 0.5\nentropy = 0.777\nsamples = 83\nvalue = [0, 0, 0, 8, 0, 0, 5, 70, 0]"] ;
209 -> 213 ;
214 [label="entropy = 0.0\nsamples = 1\nvalue = [0, 0, 0, 1, 0, 0, 0, 0, 0]"] ;
213 -> 214 ;
215 [label="entropy = 0.744\nsamples = 82\nvalue = [0, 0, 0, 7, 0, 0, 5, 70, 0]"] ;
213 -> 215 ;
216 [label="X[15] <= 0.5\nentropy = 0.059\nsamples = 146\nvalue = [0, 0, 145, 0, 0, 0, 0, 1, 0]"] ;
208 -> 216 ;
217 [label="entropy = 0.0\nsamples = 144\nvalue = [0, 0, 144, 0, 0, 0, 0, 0, 0]"] ;
216 -> 217 ;
218 [label="entropy = 1.0\nsamples = 2\nvalue = [0, 0, 1, 0, 0, 0, 0, 1, 0]"] ;
216 -> 218 ;
219 [label="X[18] <= 0.5\nentropy = 1.329\nsamples = 542\nvalue = [0, 26, 14, 15, 421, 1, 30, 26, 9]"] ;
145 -> 219 ;
220 [label="X[6] <= 0.5\nentropy = 0.971\nsamples = 460\nvalue = [0, 4, 9, 15, 389, 1, 30, 3, 9]"] ;
219 -> 220 ;
221 [label="X[17] <= 0.5\nentropy = 0.695\nsamples = 435\nvalue = [0, 4, 9, 2, 388, 0, 27, 3, 2]"] ;
220 -> 221 ;
222 [label="X[8] <= 0.5\nentropy = 2.055\nsamples = 33\nvalue = [0, 3, 9, 1, 15, 0, 0, 3, 2]"] ;
221 -> 222 ;
223 [label="X[0] <= 0.5\nentropy = 1.189\nsamples = 12\nvalue = [0, 3, 0, 1, 8, 0, 0, 0, 0]"] ;
222 -> 223 ;
224 [label="X[3] <= 0.5\nentropy = 1.371\nsamples = 5\nvalue = [0, 3, 0, 1, 1, 0, 0, 0, 0]"] ;
223 -> 224 ;
225 [label="entropy = 0.0\nsamples = 3\nvalue = [0, 3, 0, 0, 0, 0, 0, 0, 0]"] ;
224 -> 225 ;
226 [label="entropy = 1.0\nsamples = 2\nvalue = [0, 0, 0, 1, 1, 0, 0, 0, 0]"] ;
224 -> 226 ;
227 [label="entropy = 0.0\nsamples = 7\nvalue = [0, 0, 0, 0, 7, 0, 0, 0, 0]"] ;
223 -> 227 ;
228 [label="X[26] <= 0.5\nentropy = 1.776\nsamples = 21\nvalue = [0, 0, 9, 0, 7, 0, 0, 3, 2]"] ;
222 -> 228 ;
229 [label="entropy = 0.0\nsamples = 2\nvalue = [0, 0, 2, 0, 0, 0, 0, 0, 0]"] ;
228 -> 229 ;
230 [label="X[22] <= 0.5\nentropy = 1.824\nsamples = 19\nvalue = [0, 0, 7, 0, 7, 0, 0, 3, 2]"] ;
228 -> 230 ;
231 [label="entropy = 1.883\nsamples = 16\nvalue = [0, 0, 6, 0, 5, 0, 0, 3, 2]"] ;
230 -> 231 ;
232 [label="entropy = 0.918\nsamples = 3\nvalue = [0, 0, 1, 0, 2, 0, 0, 0, 0]"] ;
230 -> 232 ;
233 [label="X[3] <= 0.5\nentropy = 0.405\nsamples = 402\nvalue = [0, 1, 0, 1, 373, 0, 27, 0, 0]"] ;
221 -> 233 ;
234 [label="X[26] <= 0.5\nentropy = 0.246\nsamples = 371\nvalue = [0, 1, 0, 1, 358, 0, 11, 0, 0]"] ;
233 -> 234 ;
235 [label="entropy = 0.0\nsamples = 7\nvalue = [0, 0, 0, 0, 0, 0, 7, 0, 0]"] ;
234 -> 235 ;
236 [label="X[21] <= 0.5\nentropy = 0.142\nsamples = 364\nvalue = [0, 1, 0, 1, 358, 0, 4, 0, 0]"] ;
234 -> 236 ;
237 [label="X[1] <= 0.5\nentropy = 0.028\nsamples = 356\nvalue = [0, 0, 0, 1, 355, 0, 0, 0, 0]"] ;
236 -> 237 ;
238 [label="entropy = 0.0\nsamples = 72\nvalue = [0, 0, 0, 0, 72, 0, 0, 0, 0]"] ;
237 -> 238 ;
239 [label="entropy = 0.034\nsamples = 284\nvalue = [0, 0, 0, 1, 283, 0, 0, 0, 0]"] ;
237 -> 239 ;
240 [label="entropy = 1.406\nsamples = 8\nvalue = [0, 1, 0, 0, 3, 0, 4, 0, 0]"] ;
236 -> 240 ;
241 [label="entropy = 0.999\nsamples = 31\nvalue = [0, 0, 0, 0, 15, 0, 16, 0, 0]"] ;
233 -> 241 ;
242 [label="X[0] <= 0.5\nentropy = 1.743\nsamples = 25\nvalue = [0, 0, 0, 13, 1, 1, 3, 0, 7]"] ;
220 -> 242 ;
243 [label="X[24] <= 0.5\nentropy = 1.38\nsamples = 22\nvalue = [0, 0, 0, 13, 0, 1, 1, 0, 7]"] ;
242 -> 243 ;
244 [label="entropy = 1.563\nsamples = 15\nvalue = [0, 0, 0, 6, 0, 1, 1, 0, 7]"] ;
243 -> 244 ;
245 [label="entropy = 0.0\nsamples = 7\nvalue = [0, 0, 0, 7, 0, 0, 0, 0, 0]"] ;
243 -> 245 ;
246 [label="X[22] <= 0.5\nentropy = 0.918\nsamples = 3\nvalue = [0, 0, 0, 0, 1, 0, 2, 0, 0]"] ;
242 -> 246 ;
247 [label="entropy = 0.0\nsamples = 2\nvalue = [0, 0, 0, 0, 0, 0, 2, 0, 0]"] ;
246 -> 247 ;
248 [label="entropy = 0.0\nsamples = 1\nvalue = [0, 0, 0, 0, 1, 0, 0, 0, 0]"] ;
246 -> 248 ;
249 [label="entropy = 1.8\nsamples = 82\nvalue = [0, 22, 5, 0, 32, 0, 0, 23, 0]"] ;
219 -> 249 ;
250 [label="X[14] <= 0.5\nentropy = 2.039\nsamples = 2010\nvalue = [1000, 131, 64, 52, 560, 30, 138, 25, 10]"] ;
0 -> 250 [labeldistance=2.5, labelangle=-45, headlabel="False"] ;
251 [label="X[20] <= 0.5\nentropy = 1.054\nsamples = 667\nvalue = [560, 12, 37, 15, 0, 11, 10, 13, 9]"] ;
250 -> 251 ;
252 [label="X[22] <= 0.5\nentropy = 2.181\nsamples = 109\nvalue = [56, 4, 4, 15, 0, 10, 0, 12, 8]"] ;
251 -> 252 ;
253 [label="X[10] <= 0.5\nentropy = 1.755\nsamples = 86\nvalue = [54, 2, 4, 3, 0, 10, 0, 12, 1]"] ;
252 -> 253 ;
254 [label="X[26] <= 0.5\nentropy = 1.698\nsamples = 62\nvalue = [39, 2, 4, 3, 0, 1, 0, 12, 1]"] ;
253 -> 254 ;
255 [label="X[9] <= 0.5\nentropy = 1.585\nsamples = 6\nvalue = [0, 0, 2, 2, 0, 0, 0, 2, 0]"] ;
254 -> 255 ;
256 [label="entropy = 0.0\nsamples = 2\nvalue = [0, 0, 0, 2, 0, 0, 0, 0, 0]"] ;
255 -> 256 ;
257 [label="X[5] <= 0.5\nentropy = 1.0\nsamples = 4\nvalue = [0, 0, 2, 0, 0, 0, 0, 2, 0]"] ;
255 -> 257 ;
258 [label="entropy = 0.0\nsamples = 2\nvalue = [0, 0, 2, 0, 0, 0, 0, 0, 0]"] ;
257 -> 258 ;
259 [label="entropy = 0.0\nsamples = 2\nvalue = [0, 0, 0, 0, 0, 0, 0, 2, 0]"] ;
257 -> 259 ;
260 [label="X[12] <= 0.5\nentropy = 1.462\nsamples = 56\nvalue = [39, 2, 2, 1, 0, 1, 0, 10, 1]"] ;
254 -> 260 ;
261 [label="X[4] <= 0.5\nentropy = 1.401\nsamples = 47\nvalue = [32, 1, 2, 0, 0, 1, 0, 10, 1]"] ;
260 -> 261 ;
262 [label="entropy = 1.419\nsamples = 46\nvalue = [31, 1, 2, 0, 0, 1, 0, 10, 1]"] ;
261 -> 262 ;
263 [label="entropy = 0.0\nsamples = 1\nvalue = [1, 0, 0, 0, 0, 0, 0, 0, 0]"] ;
261 -> 263 ;
264 [label="X[7] <= 0.5\nentropy = 0.986\nsamples = 9\nvalue = [7, 1, 0, 1, 0, 0, 0, 0, 0]"] ;
260 -> 264 ;
265 [label="X[17] <= 0.5\nentropy = 1.252\nsamples = 6\nvalue = [4, 1, 0, 1, 0, 0, 0, 0, 0]"] ;
264 -> 265 ;
266 [label="entropy = 0.0\nsamples = 2\nvalue = [2, 0, 0, 0, 0, 0, 0, 0, 0]"] ;
265 -> 266 ;
267 [label="X[5] <= 0.5\nentropy = 1.5\nsamples = 4\nvalue = [2, 1, 0, 1, 0, 0, 0, 0, 0]"] ;
265 -> 267 ;
268 [label="entropy = 0.0\nsamples = 2\nvalue = [2, 0, 0, 0, 0, 0, 0, 0, 0]"] ;
267 -> 268 ;
269 [label="entropy = 1.0\nsamples = 2\nvalue = [0, 1, 0, 1, 0, 0, 0, 0, 0]"] ;
267 -> 269 ;
270 [label="entropy = 0.0\nsamples = 3\nvalue = [3, 0, 0, 0, 0, 0, 0, 0, 0]"] ;
264 -> 270 ;
271 [label="X[15] <= 0.5\nentropy = 0.954\nsamples = 24\nvalue = [15, 0, 0, 0, 0, 9, 0, 0, 0]"] ;
253 -> 271 ;
272 [label="X[18] <= 0.5\nentropy = 0.998\nsamples = 17\nvalue = [8, 0, 0, 0, 0, 9, 0, 0, 0]"] ;
271 -> 272 ;
273 [label="entropy = 0.0\nsamples = 2\nvalue = [2, 0, 0, 0, 0, 0, 0, 0, 0]"] ;
272 -> 273 ;
274 [label="X[26] <= 0.5\nentropy = 0.971\nsamples = 15\nvalue = [6, 0, 0, 0, 0, 9, 0, 0, 0]"] ;
272 -> 274 ;
275 [label="entropy = 0.0\nsamples = 2\nvalue = [0, 0, 0, 0, 0, 2, 0, 0, 0]"] ;
274 -> 275 ;
276 [label="X[21] <= 0.5\nentropy = 0.996\nsamples = 13\nvalue = [6, 0, 0, 0, 0, 7, 0, 0, 0]"] ;
274 -> 276 ;
277 [label="entropy = 0.0\nsamples = 1\nvalue = [1, 0, 0, 0, 0, 0, 0, 0, 0]"] ;
276 -> 277 ;
278 [label="entropy = 0.98\nsamples = 12\nvalue = [5, 0, 0, 0, 0, 7, 0, 0, 0]"] ;
276 -> 278 ;
279 [label="entropy = 0.0\nsamples = 7\nvalue = [7, 0, 0, 0, 0, 0, 0, 0, 0]"] ;
271 -> 279 ;
280 [label="X[11] <= 0.5\nentropy = 1.625\nsamples = 23\nvalue = [2, 2, 0, 12, 0, 0, 0, 0, 7]"] ;
252 -> 280 ;
281 [label="X[13] <= 0.5\nentropy = 1.309\nsamples = 11\nvalue = [2, 2, 0, 0, 0, 0, 0, 0, 7]"] ;
280 -> 281 ;
282 [label="entropy = 0.0\nsamples = 7\nvalue = [0, 0, 0, 0, 0, 0, 0, 0, 7]"] ;
281 -> 282 ;
283 [label="X[3] <= 0.5\nentropy = 1.0\nsamples = 4\nvalue = [2, 2, 0, 0, 0, 0, 0, 0, 0]"] ;
281 -> 283 ;
284 [label="entropy = 0.0\nsamples = 2\nvalue = [0, 2, 0, 0, 0, 0, 0, 0, 0]"] ;
283 -> 284 ;
285 [label="entropy = 0.0\nsamples = 2\nvalue = [2, 0, 0, 0, 0, 0, 0, 0, 0]"] ;
283 -> 285 ;
286 [label="entropy = 0.0\nsamples = 12\nvalue = [0, 0, 0, 12, 0, 0, 0, 0, 0]"] ;
280 -> 286 ;
287 [label="X[3] <= 0.5\nentropy = 0.615\nsamples = 558\nvalue = [504, 8, 33, 0, 0, 1, 10, 1, 1]"] ;
251 -> 287 ;
288 [label="X[6] <= 0.5\nentropy = 0.327\nsamples = 469\nvalue = [449, 8, 1, 0, 0, 1, 9, 1, 0]"] ;
287 -> 288 ;
289 [label="X[16] <= 0.5\nentropy = 0.173\nsamples = 455\nvalue = [445, 1, 1, 0, 0, 0, 8, 0, 0]"] ;
288 -> 289 ;
290 [label="X[21] <= 0.5\nentropy = 0.15\nsamples = 454\nvalue = [445, 0, 1, 0, 0, 0, 8, 0, 0]"] ;
289 -> 290 ;
291 [label="X[9] <= 0.5\nentropy = 0.125\nsamples = 450\nvalue = [443, 0, 1, 0, 0, 0, 6, 0, 0]"] ;
290 -> 291 ;
292 [label="X[26] <= 0.5\nentropy = 0.078\nsamples = 417\nvalue = [413, 0, 0, 0, 0, 0, 4, 0, 0]"] ;
291 -> 292 ;
293 [label="entropy = 0.0\nsamples = 1\nvalue = [0, 0, 0, 0, 0, 0, 1, 0, 0]"] ;
292 -> 293 ;
294 [label="X[15] <= 0.5\nentropy = 0.062\nsamples = 416\nvalue = [413, 0, 0, 0, 0, 0, 3, 0, 0]"] ;
292 -> 294 ;
295 [label="X[7] <= 0.5\nentropy = 0.044\nsamples = 413\nvalue = [411, 0, 0, 0, 0, 0, 2, 0, 0]"] ;
294 -> 295 ;
296 [label="entropy = 0.048\nsamples = 373\nvalue = [371, 0, 0, 0, 0, 0, 2, 0, 0]"] ;
295 -> 296 ;
297 [label="entropy = 0.0\nsamples = 40\nvalue = [40, 0, 0, 0, 0, 0, 0, 0, 0]"] ;
295 -> 297 ;
298 [label="entropy = 0.918\nsamples = 3\nvalue = [2, 0, 0, 0, 0, 0, 1, 0, 0]"] ;
294 -> 298 ;
299 [label="entropy = 0.523\nsamples = 33\nvalue = [30, 0, 1, 0, 0, 0, 2, 0, 0]"] ;
291 -> 299 ;
300 [label="entropy = 1.0\nsamples = 4\nvalue = [2, 0, 0, 0, 0, 0, 2, 0, 0]"] ;
290 -> 300 ;
301 [label="entropy = 0.0\nsamples = 1\nvalue = [0, 1, 0, 0, 0, 0, 0, 0, 0]"] ;
289 -> 301 ;
302 [label="X[5] <= 0.5\nentropy = 1.832\nsamples = 14\nvalue = [4, 7, 0, 0, 0, 1, 1, 1, 0]"] ;
288 -> 302 ;
303 [label="X[26] <= 0.5\nentropy = 1.0\nsamples = 2\nvalue = [1, 0, 0, 0, 0, 0, 0, 1, 0]"] ;
302 -> 303 ;
304 [label="entropy = 0.0\nsamples = 1\nvalue = [1, 0, 0, 0, 0, 0, 0, 0, 0]"] ;
303 -> 304 ;
305 [label="entropy = 0.0\nsamples = 1\nvalue = [0, 0, 0, 0, 0, 0, 0, 1, 0]"] ;
303 -> 305 ;
306 [label="entropy = 1.551\nsamples = 12\nvalue = [3, 7, 0, 0, 0, 1, 1, 0, 0]"] ;
302 -> 306 ;
307 [label="X[22] <= 0.5\nentropy = 1.105\nsamples = 89\nvalue = [55, 0, 32, 0, 0, 0, 1, 0, 1]"] ;
287 -> 307 ;
308 [label="entropy = 1.028\nsamples = 88\nvalue = [55, 0, 32, 0, 0, 0, 1, 0, 0]"] ;
307 -> 308 ;
309 [label="entropy = 0.0\nsamples = 1\nvalue = [0, 0, 0, 0, 0, 0, 0, 0, 1]"] ;
307 -> 309 ;
310 [label="X[19] <= 0.5\nentropy = 2.098\nsamples = 1343\nvalue = [440, 119, 27, 37, 560, 19, 128, 12, 1]"] ;
250 -> 310 ;
311 [label="X[5] <= 0.5\nentropy = 2.158\nsamples = 1215\nvalue = [358, 119, 27, 37, 514, 19, 128, 12, 1]"] ;
310 -> 311 ;
312 [label="entropy = 0.828\nsamples = 119\nvalue = [31, 0, 0, 0, 88, 0, 0, 0, 0]"] ;
311 -> 312 ;
313 [label="X[11] <= 0.5\nentropy = 2.239\nsamples = 1096\nvalue = [327, 119, 27, 37, 426, 19, 128, 12, 1]"] ;
311 -> 313 ;
314 [label="entropy = 0.494\nsamples = 37\nvalue = [4, 0, 0, 0, 33, 0, 0, 0, 0]"] ;
313 -> 314 ;
315 [label="X[16] <= 0.5\nentropy = 2.267\nsamples = 1059\nvalue = [323, 119, 27, 37, 393, 19, 128, 12, 1]"] ;
313 -> 315 ;
316 [label="X[7] <= 0.5\nentropy = 2.277\nsamples = 1040\nvalue = [307, 119, 27, 37, 390, 19, 128, 12, 1]"] ;
315 -> 316 ;
317 [label="X[23] <= 0.5\nentropy = 2.295\nsamples = 1013\nvalue = [292, 119, 27, 37, 378, 19, 128, 12, 1]"] ;
316 -> 317 ;
318 [label="entropy = 0.918\nsamples = 12\nvalue = [8, 0, 0, 0, 4, 0, 0, 0, 0]"] ;
317 -> 318 ;
319 [label="X[25] <= 0.5\nentropy = 2.302\nsamples = 1001\nvalue = [284, 119, 27, 37, 374, 19, 128, 12, 1]"] ;
317 -> 319 ;
320 [label="entropy = 2.303\nsamples = 1000\nvalue = [284, 119, 27, 37, 373, 19, 128, 12, 1]"] ;
319 -> 320 ;
321 [label="entropy = 0.0\nsamples = 1\nvalue = [0, 0, 0, 0, 1, 0, 0, 0, 0]"] ;
319 -> 321 ;
322 [label="entropy = 0.991\nsamples = 27\nvalue = [15, 0, 0, 0, 12, 0, 0, 0, 0]"] ;
316 -> 322 ;
323 [label="entropy = 0.629\nsamples = 19\nvalue = [16, 0, 0, 0, 3, 0, 0, 0, 0]"] ;
315 -> 323 ;
324 [label="entropy = 0.942\nsamples = 128\nvalue = [82, 0, 0, 0, 46, 0, 0, 0, 0]"] ;
310 -> 324 ;
}